-0,698552753635939 0,680334664732374 0,909321773755048 -0,193541227757251 0,373813963203604 -0,889852452040581 -0,381739745559981 1,61063878889272 0,589653283166538 1,13582680258286 
0,127634646257681 0,391269638850945 0,514617940184948 -1,11352850752162 -0,52127588052362 0,130954079563708 0,430439488111269 0,445855280764799 0,0855654119912375 1,15013004974096 
0,538283682213297 0,240588728623273 -0,664997388452756 -0,241953715329037 -1,22122866425814 -0,239934925567328 2,33998583912942 0,56422200871828 -0,44205496434218 -0,217951814279869 
-1,39877103351512 -2,31417487098657 1,68693829237387 -0,434188339595771 -0,640072364830911 -0,609306646967449 0,927770989913387 -0,558494532275244 -0,193986147559707 0,638826910876588 
-0,590795493839679 -0,0279498449656879 0,874775644040562 -0,642837561500649 -0,434512838165049 0,462838630873169 1,67824156491516 -2,08918414070792 0,942338378487312 0,058981357928357 
-0,71418796186996 -1,22501599769854 0,826079703493546 -1,55258186623621 1,51437089680013 1,04748372799646 -0,022369273775895 1,62600031588087 -1,23936446737981 -0,350915596518161 
-0,69542562854263 -0,836925298538024 -0,0266663272193011 -2,20076433939057 -1,33019205075744 0,0558095172442541 0,39733134647707 -0,0511937202192814 -0,859456142690711 0,39503076644383 
-1,87581691034968 -0,0900659796134879 -0,360158571675494 -0,167261498885351 0,661925543580635 0,259233527178985 -0,327186915417289 1,67084017304789 0,499559122836012 0,00893270486869502 
0,467823509517509 0,65716997983734 0,00788363023096861 -0,887036322270537 0,189236147590092 2,21224496418342 0,631745425519881 0,853520158610083 0,437440763604101 -0,687556092827374 
