0,235863056609343 -0,16958113814219 0,542854670222315 -0,624841032082141 0,615148034698864 0,477658726031733 1,03251893324941 -0,217195401827896 0,458431202666103 -0,18063378045784 
-0,921423775107331 -0,200263849725604 -0,307473359307029 -0,114766120205525 0,203482037039233 0,0103548453237652 0,497202167984658 -0,603378509917938 -0,055129410551921 0,70427637224797 
-1,67110047118836 0,638685530814662 -0,427894049057688 -1,39600162010966 0,785346177013752 0,182402468837054 1,12846911302743 -1,29481930083866 0,436830546151768 0,119035221518965 
1,42962415507092 1,09385691371972 -0,100568815354057 0,337390299577913 -0,618437548628746 -0,98633431549479 0,135065036423069 0,443179264112459 -0,760836543403955 1,19841470363057 
-0,329358980678655 -0,0734407301402841 0,992146437984028 -0,177632764530197 0,252870836878601 -0,6598033856879 -0,626052729318409 -0,940484497668447 -0,828132664704757 -0,171773896805371 
0,469290886465596 -0,90786421201558 0,492452019589232 0,512594550621041 -0,556076450066677 1,29017752579468 -0,741687089084502 0,938856290331975 0,975812790904107 -0,567254434138189 
-0,264810386995697 -0,751661765911924 0,345974052020336 1,33939598114714 -1,30325793552876 -0,322280688827057 1,59330496562845 -0,337863658884942 -0,496328571576778 0,189816352534022 
0,875289808900696 0,440022903872199 -0,842541966513983 -0,946544114182491 -1,35236464707338 0,095340258951923 0,646539092830633 0,749738715472509 0,0441275430117396 -0,247850437298347 
-0,309992420804218 -0,194621166770636 0,575454468348275 1,34374636864045 0,695296981868472 -1,51448742108675 -0,298058679931824 0,719458273481325 -0,912685470614901 -0,846545067251448 
