0,454749307979713 -0,313572656974929 0,463439311582334 -1,45008085939152 1,68210551890224 0,281786525925988 0,893587810576236 -1,23418296110126 0,033407672496702 
0,769165811952746 -1,38921660453091 -0,722570440602754 1,58323412013903 0,173063827293489 0,731338825590135 0,55503013866303 1,03324169544701 -1,19206486901411 
0,15017920943032 0,501227760455212 1,05100722863432 0,242048153593693 -0,281488570981421 -1,57394360562085 -1,35980445134025 -0,137434794804284 0,27417967248437 
-0,498095667687289 -0,787612722794811 0,0408806939003431 0,141932984121578 -0,376548349274112 0,143163995418308 0,0855146483916391 0,423250772721717 0,553960538261552 
0,0253309277004241 0,971901115016966 -1,56038203925424 -0,58915895827122 0,621628063554702 -0,85885071468486 0,309267359171187 0,976783190843083 -1,37021514109392 
-0,0901647963184701 -0,393829895832497 -0,859483977714313 -0,862889237638046 1,127016598125 -0,673759240212272 0,388527331589035 1,32327415314236 -0,217856282296989 
0,256210601835144 0,51970115438602 0,967915914006492 -0,348617082796813 0,909723591948731 -0,566459686293481 0,314606853441618 -0,301316521736475 0,553429761693547 
-0,393473021403641 -0,372767172168832 -0,7056682552568 0,134265563978937 -0,195280528252609 0,749813054571773 0,484378287328583 0,836699210962606 0,36834058043004 
-0,631682829759867 1,04633816770154 0,879599696900509 0,909857943319184 0,318780794422506 -0,258271761824503 0,796271535473071 -0,883639655021783 -0,0506048989717871 
