-0,698552753635939 -0,0126653352676259 1,60232177375505 -1,57954122775725 0,373813963203604 -1,58285245204058 -1,07473974555998 0,917638788892719 1,28265328316654 0,442826802582865 
0,820634646257681 0,391269638850945 -0,178382059815052 -1,80652850752162 0,86472411947638 0,130954079563708 -0,262560511888731 -0,247144719235201 0,0855654119912375 1,15013004974096 
-0,154716317786703 0,933588728623273 0,0280026115472439 -0,934953715329037 -0,528228664258136 -0,239934925567328 2,33998583912942 1,95022200871828 0,25094503565782 -0,910951814279869 
-0,705771033515116 -0,92817487098657 0,99393829237387 -0,434188339595771 -0,640072364830911 0,77669335303255 0,234770989913387 0,134505467724756 -0,193986147559707 0,638826910876588 
0,795204506160321 -0,0279498449656879 1,56777564404056 -0,642837561500649 0,258487161834951 -0,230161369126831 2,37124156491516 -1,39618414070792 0,249338378487312 1,44498135792836 
-1,40718796186996 -1,22501599769854 0,133079703493546 -1,55258186623621 1,51437089680013 1,04748372799646 -1,40836927377589 0,93300031588087 0,146635532620193 0,342084403481839 
-1,38842562854263 0,549074701461976 -0,0266663272193011 -1,50776433939057 -0,637192050757442 -0,637190482755746 -0,98866865352293 0,641806279780719 -0,166456142690711 1,08803076644383 
-1,18281691034968 -0,0900659796134879 -1,05315857167549 -0,167261498885351 -0,724074456419365 0,259233527178985 -0,327186915417289 1,67084017304789 -0,886440877163988 0,701932704868695 
1,16082350951751 1,35016997983734 -0,685116369769031 -0,194036322270537 0,189236147590092 1,51924496418342 -0,754254574480119 0,853520158610083 0,437440763604101 0,698443907172626 
