-0,69855275363594 -0,0126653352676259 0,909321773755048 -1,57954122775725 0,373813963203604 -0,889852452040581 -0,381739745559981 0,224638788892719 0,589653283166538 -0,943173197417135 
0,4253604487364 -0,66634055211504 -0,974238796147629 0,0198743689762769 -0,065130429199958 -0,880361194666643 -0,444586122149874 2,34616472483061 -1,49288965103398 0,143729551296555 
0,093752089172952 -0,971566791978463 -1,10301457879786 1,39287385985436 -0,987118313721436 1,42578966254219 -0,229490259010573 0,555575808941655 0,72855944918867 0,559436637703067 
-0,647093104965562 0,63450169732538 0,0691503064893889 -0,125648430141457 -0,808495527682591 -0,276747091043623 1,06474773157702 0,0380436056470701 0,815049850934208 1,22764545101609 
-0,777454126229721 -0,090647947258152 -1,07175739549229 -0,982050695448206 0,690380092566079 0,763437407912424 1,73003132337333 -1,46216816540489 0,05922542253054 -0,377573514705791 
-0,895010818385524 0,899064562874876 -0,450663622212905 -0,675373873229313 -0,73364350128716 -0,190834123902877 0,610034753386879 0,49916227790488 -0,063775627144974 0,00183164252565793 
-0,217962566398998 -0,877314927637724 0,648805233193471 -0,995412254118087 -0,821577965837241 -0,008221964182901 0,29342090334856 0,960151819493692 1,55613463089202 1,54455038994343 
0,356546093410135 1,35366309421354 -1,17866201119016 -0,598354086092838 1,62203834671203 -0,894599963568896 1,17919060351382 0,265036116650345 -0,990506232711722 -0,0575557216338607 
-0,61124166083114 0,925677906394321 -0,503649613588885 0,106132963894463 -0,931552543911409 -0,546157667840439 0,0851653195382867 -0,334475820281299 -0,471004928854297 1,07533859622029 
