-1,39155275363594 -0,0126653352676259 1,60232177375505 -0,193541227757251 -0,319186036796396 -0,889852452040581 -0,381739745559981 1,61063878889272 0,589653283166538 -0,250173197417135 
1,51363464625768 0,391269638850945 1,20761794018495 -1,11352850752162 0,17172411947638 0,130954079563708 -0,262560511888731 0,445855280764799 0,0855654119912375 0,457130049740956 
0,538283682213297 0,933588728623273 0,0280026115472439 -0,934953715329037 -1,22122866425814 -0,932934925567328 0,95398583912942 1,95022200871828 -1,13505496434218 -0,217951814279869 
-0,705771033515116 -0,92817487098657 1,68693829237387 -1,12718833959577 0,0529276351690889 0,0836933530325505 0,927770989913387 -0,558494532275244 -0,193986147559707 1,33182691087659 
0,102204506160321 -0,0279498449656879 1,56777564404056 -0,642837561500649 -0,434512838165049 0,462838630873169 1,67824156491516 -2,08918414070792 -0,443661621512688 0,751981357928357 
-0,71418796186996 -1,22501599769854 0,133079703493546 -2,24558186623621 1,51437089680013 0,354483727996463 -0,715369273775895 2,31900031588087 0,146635532620193 -0,350915596518161 
-1,38842562854263 -0,143925298538024 -0,719666327219301 -0,81476433939057 -0,637192050757442 0,0558095172442541 -0,29566865352293 0,641806279780719 -0,166456142690711 1,08803076644383 
-0,48981691034968 -0,0900659796134879 -0,360158571675494 -0,860261498885351 -0,724074456419365 0,259233527178985 -0,327186915417289 1,67084017304789 -0,193440877163988 0,00893270486869502 
0,467823509517509 1,35016997983734 0,00788363023096861 -0,194036322270537 0,882236147590092 1,51924496418342 -0,0612545744801194 1,54652015861008 -0,255559236395899 -0,687556092827374 
