-0,0055527536359391 -0,0126653352676259 0,216321773755048 -0,193541227757251 0,373813963203604 -0,889852452040581 -1,07473974555998 0,224638788892719 1,28265328316654 0,442826802582865 
0,127634646257681 0,391269638850945 0,514617940184948 -0,42052850752162 0,17172411947638 0,130954079563708 -0,262560511888731 -0,247144719235201 0,0855654119912375 0,457130049740956 
0,538283682213297 0,933588728623273 0,0280026115472439 -0,241953715329037 -0,528228664258136 0,453065074432672 2,33998583912942 1,95022200871828 -1,13505496434218 -0,217951814279869 
-1,39877103351512 -1,62117487098657 2,37993829237387 -1,12718833959577 -0,640072364830911 -0,609306646967449 0,234770989913387 -0,558494532275244 0,499013852440293 0,638826910876588 
0,795204506160321 0,665050155034312 0,181775644040562 0,050162438499351 0,951487161834951 -0,230161369126831 1,67824156491516 -2,08918414070792 -0,443661621512688 0,751981357928357 
-1,40718796186996 -1,22501599769854 -0,559920296506454 -1,55258186623621 1,51437089680013 0,354483727996463 -0,715369273775895 1,62600031588087 -1,23936446737981 -1,04391559651816 
-2,08142562854263 -0,836925298538024 -1,4126663272193 -0,81476433939057 -0,637192050757442 0,0558095172442541 0,39733134647707 -0,0511937202192814 -0,859456142690711 0,39503076644383 
-1,87581691034968 -0,0900659796134879 0,332841428324506 -1,55326149888535 -0,0310744564193648 0,259233527178985 -0,327186915417289 0,97784017304789 0,499559122836012 0,701932704868695 
0,467823509517509 0,65716997983734 -0,685116369769031 -0,194036322270537 -0,503763852409908 0,82624496418342 0,631745425519881 0,160520158610083 0,437440763604101 0,00544390717262611 
