-0,234669104793421 0,853198440677113 1,0259511486613 0,749719638260882 -0,432401946481504 1,2626945523702 0,179950005924306 -0,058151407952957 -0,522050845214189 -0,0794995394905561 
-0,767932644937156 -0,382006934556182 0,237594456988198 0,577845454019422 -1,60293892769792 0,150418545362269 0,691310253488976 -1,28695869616138 0,509033404062052 0,897895167534191 
0,259777709204134 -1,10140673605372 0,348419942296771 0,900279683945831 -0,654779607269345 0,51279476076029 -0,274917008948939 -0,497098996069794 -0,527101303868974 0,938951460616175 
0,968326188316255 0,458964011379966 0,69987455555232 -0,104575821712881 -0,843125086843094 0,725144955201608 -0,642250319483341 0,0744650654706479 0,365904971369032 -0,56490248299013 
-1,58394140375542 0,471443375326434 0,168440645811819 -0,859246885045547 -0,14582052228312 0,447903952942651 1,19589098336496 1,28364884092223 0,589627858991561 0,701201644294058 
-0,0851882785024067 0,752707347158672 -0,066172480441245 0,474725929775613 0,262640989042186 -0,826262368739705 0,197778498380342 0,432671464715466 0,404499245530227 -0,638196707241794 
0,537611561319144 -0,3229509980059 0,775949895916018 0,231997694169636 -0,0478257278068109 -0,919896656317123 -0,0818814901085019 -1,35082972129892 -0,272029459137483 -1,32808388289953 
1,09966886484561 -1,07615481198167 1,42613633246959 0,0739358870521819 0,0958365712896161 -0,597665666122299 -0,190847381865535 0,821666827342318 0,0461002062289511 -0,102683560211995 
-0,99009622260467 0,134434150128828 -0,0867268550613555 -0,842302948163032 0,0241397391185816 0,522618841157583 0,218136491821211 -0,774851374223293 1,32578318924493 0,36913728189661 
