-0,0055527536359391 -0,0126653352676259 0,909321773755048 -1,57954122775725 -0,319186036796396 -0,196852452040581 0,311260254440019 1,61063878889272 0,589653283166538 -0,250173197417135 
-1,6536395512636 0,02665944788496 -0,974238796147629 -0,673125631023723 -1,45113042919996 -0,187361194666643 -0,444586122149874 0,960164724830615 -1,49288965103398 0,143729551296555 
-0,147275464505086 0,919613972268819 0,604758300634454 -1,69251912462689 -0,119767934605371 1,46729931600313 -0,2370133669423 -0,275426557881491 -0,24130812502108 0,744547416337089 
-1,34009310496556 2,02050169732538 -0,623849693510611 -0,818648430141457 -0,115495527682591 0,416252908956377 0,371747731577022 -0,65495639435293 0,122049850934208 1,92064545101609 
0,608545873770279 0,602352052741848 -0,378757395492288 -0,982050695448206 0,690380092566079 1,45643740791242 1,03703132337333 -0,769168165404894 0,75222542253054 -1,07057351470579 
-0,202010818385524 0,899064562874876 -0,450663622212905 0,710626126770687 -0,73364350128716 1,19516587609712 0,610034753386879 -0,19383772209512 0,629224372855026 0,00183164252565793 
-0,217962566398998 -0,877314927637724 1,34180523319347 -0,995412254118087 -0,128577965837241 -1,3942219641829 1,67942090334856 1,65315181949369 1,55613463089202 0,851550389943435 
0,356546093410135 1,35366309421354 -1,17866201119016 -0,598354086092838 0,92903834671203 -0,201599963568896 -0,206809396486175 0,265036116650345 -0,990506232711722 -0,0575557216338607 
-1,99724166083114 0,232677906394321 -0,503649613588885 -1,27986703610554 -0,931552543911409 0,146842332159561 0,0851653195382867 0,358524179718701 0,221995071145703 -0,310661403779714 
