-0,457136943390657 -0,16958113814219 0,542854670222315 0,0681589679178591 -0,0778519653011359 0,477658726031733 -0,353481066750586 -0,910195401827896 -0,234568797333897 -0,87363378045784 
-0,228423775107331 -0,200263849725604 -1,00047335930703 1,27123387979448 0,896482037039233 -0,682645154676235 -0,195797832015342 -0,603378509917938 -0,055129410551921 0,70427637224797 
-0,978100471188361 0,638685530814662 -1,12089404905769 -1,39600162010966 -0,600653822986248 0,182402468837054 1,12846911302743 -0,601819300838662 -0,949169453848232 0,119035221518965 
0,0436241550709231 1,09385691371972 1,28543118464594 0,337390299577913 0,0745624513712537 -1,67933431549479 0,135065036423069 0,443179264112459 -0,0678365434039551 1,19841470363057 
-0,329358980678655 -0,0734407301402841 0,992146437984028 -0,177632764530197 0,252870836878601 -0,6598033856879 -0,626052729318409 -0,247484497668447 -1,52113266470476 0,521226103194629 
0,469290886465596 -0,90786421201558 0,492452019589232 0,512594550621041 -0,556076450066677 0,597177525794682 -1,4346870890845 0,938856290331975 1,66881279090411 -0,567254434138189 
-0,957810386995697 0,634338234088075 0,345974052020336 0,646395981147138 -0,610257935528764 0,370719311172943 0,900304965628453 0,355136341115058 -1,18932857157678 0,189816352534022 
1,5682898089007 -0,945977096127801 -0,149541966513983 -0,253544114182491 -1,35236464707338 0,788340258951923 0,646539092830633 0,749738715472509 0,0441275430117396 -0,940850437298347 
0,383007579195782 0,498378833229364 0,575454468348275 -0,04225363135955 0,00229698186847238 -0,821487421086751 -0,298058679931824 0,026458273481325 -1,6056854706149 -0,153545067251448 
