0,458330895206579 0,160198440677113 0,332951148661296 0,749719638260882 -0,432401946481504 -0,123305447629795 0,179950005924306 -0,751151407952957 0,170949154785811 -0,0794995394905561 
-0,767932644937156 -1,07500693455618 0,930594456988198 -0,115154545980578 -0,216938927697921 -0,542581454637731 -0,00168974651102427 -1,28695869616138 1,20203340406205 0,897895167534191 
0,801450632420113 -0,609297032286086 -0,347267524966629 -0,0956826128376099 0,650900179357687 0,0202101613489027 -0,723064014559176 -0,790455979197498 -0,26764734148404 -0,185079640036486 
0,919187675830996 0,548111381730117 0,793363246970513 0,484145212678306 -1,51205679675707 0,0268899083127689 -0,224940917386646 0,891887044483743 -0,740172824701375 0,301154247159676 
-0,22675471373636 0,668415425190896 0,153263436236076 1,59133366307352 -0,84424879953463 0,306163057361805 -0,330760476799105 1,25710397941438 0,649655111609332 -0,370861580302409 
0,309040413847678 -1,60782212483642 0,153818421310195 0,0337907052756243 0,8409444686081 0,435960682484769 0,0190610949173851 0,874053291917803 0,756739754754929 -0,95980450881636 
0,4092415121427 -0,155523743087204 0,0969513880405349 0,0886292583721826 -1,33314305157594 -0,86716337123288 -0,731185723902278 -0,785067565639069 1,30129098504423 -1,10394532302159 
-1,18733955899176 -0,189146663908915 -0,603276812286711 -1,6587011329968 0,695324353438953 -0,866964792770783 0,237439531477839 -0,245601188040153 -0,25143381330298 -1,34826287800412 
-1,34202936185199 -0,287167993973553 -0,44011109080683 -0,896785761181631 -0,801120053884164 -0,551990199332587 0,0872929604199217 -0,933427458305111 0,0292007440702059 0,437982520758166 
