-0,0572962104609684 -0,402005392779599 0,352435258554032 -0,391497750483219 0,713558380065746 -0,589979500318868 -0,603847939975023 0,087758154476415 0,420558866774924 
-0,330416635936786 -0,767488019432634 0,486770810320401 -0,250573882191243 0,477058781998725 0,156738062289422 -0,918686282783135 -0,287993971219749 -0,580971211638288 
0,562033164110981 -0,254164823276533 -0,140122954333258 0,466111707890924 -0,290479251784496 1,51194813003901 -0,135629466970744 0,986562172876001 0,938874635816959 
0,803530366068487 0,111268789093601 1,32090570204514 -0,492615343473673 1,33014711228765 0,868177608525463 -0,252920461177789 0,066245364814645 -0,361699338412238 
-0,813152422748577 -0,308208835627515 0,752757411042115 -0,201979767159549 1,22049126475653 -0,21087182928383 -0,651932957420094 -0,184636567632499 0,488475217245741 
0,455322753091493 -0,14492888551854 1,3304273894529 -1,56980429866389 -0,491052984661447 -0,871553070197605 0,82657069332272 -1,55200043567177 0,249917354085444 
-0,170559250070508 0,555592081648108 1,5814738590049 -0,159512871484977 0,744131716487525 0,0339962071897444 0,164145863864173 0,28562169395649 0,362489365382814 
1,75914966478066 0,856671156002055 1,47319262560652 -0,40619324492579 -1,40628326487601 1,95726698809269 0,24227823374899 0,623659825708559 -0,180991382249627 
0,564534712725568 0,671470937804538 -0,0589712785696479 -1,03527968971863 -0,889304118524913 -0,157547597381076 -1,20737225728965 1,555210347253 -0,253891412114208 
