0,635703789539032 -0,402005392779599 -0,340564741445968 0,301502249516781 0,713558380065746 -1,28297950031887 0,0891520600249767 0,780758154476415 0,420558866774924 
0,362583364063214 -0,767488019432634 0,486770810320401 0,442426117808757 1,17005878199872 0,156738062289422 -0,225686282783135 -1,67399397121975 0,805028788361712 
-0,130966835889019 -0,254164823276533 0,552877045666742 -0,226888292109076 -0,290479251784496 0,818948130039008 1,25037053302926 0,986562172876001 1,63187463581696 
0,803530366068487 0,111268789093601 0,627905702045144 0,200384656526327 -0,0558528877123505 1,56117760852546 0,440079538822211 0,759245364814645 -0,361699338412238 
-0,120152422748577 0,384791164372485 0,0597574110421153 -0,201979767159549 1,22049126475653 -0,90387182928383 -0,651932957420094 -0,877636567632499 1,18147521724574 
-0,237677246908507 -0,14492888551854 0,637427389452899 -0,876804298663886 0,894947015338553 0,514446929802395 0,826570693322723 0,526999564328231 0,249917354085444 
0,522440749929492 -1,52340791835189 0,888473859004897 0,533487128515023 -0,641868283512475 0,726996207189744 -0,528854136135827 -0,40737830604351 -1,02351063461719 
-0,940087663913186 0,522163330354804 0,897387121463375 -0,784498783659422 0,810328863472831 -0,157940509629874 0,0141993542267937 0,772121808092632 -0,838891730275886 
-0,19314049489989 0,56928735177046 1,42106249796369 -0,810064562507935 -0,66974847375869 -0,472160716933739 -1,47435488451522 0,597548183504747 0,359654579013425 
