-0,0055527536359391 0,680334664732374 0,909321773755048 -0,886541227757251 1,0668139632036 -0,889852452040581 0,311260254440019 0,917638788892719 1,28265328316654 0,442826802582865 
-1,6536395512636 -0,66634055211504 -0,281238796147629 -0,673125631023723 -0,758130429199958 -0,880361194666643 -0,444586122149874 0,267164724830615 -0,799889651033976 0,143729551296555 
-0,147275464505086 0,919613972268819 0,604758300634454 -0,999519124626889 0,573232065394629 0,774299316003127 -1,6230133669423 -0,275426557881491 0,45169187497892 0,744547416337089 
0,0459068950344379 0,63450169732538 -1,31684969351061 -0,818648430141457 -0,808495527682591 0,416252908956377 1,06474773157702 0,0380436056470701 0,122049850934208 1,92064545101609 
0,608545873770279 0,602352052741848 -1,07175739549229 -0,982050695448206 0,690380092566079 0,070437407912424 1,73003132337333 -0,769168165404894 0,05922542253054 0,315426485294209 
-1,58801081838552 1,59206456287488 0,242336377787095 -0,675373873229313 0,65235649871284 0,502165876097123 0,610034753386879 1,19216227790488 0,629224372855026 -0,691168357474342 
-0,217962566398998 -0,877314927637724 0,648805233193471 -0,302412254118087 -1,51457796583724 -0,701221964182901 1,67942090334856 0,960151819493692 2,24913463089202 0,851550389943435 
0,356546093410135 0,660663094213541 -0,48566201119016 -1,29135408609284 1,62203834671203 -0,201599963568896 0,486190603513825 -0,427963883349655 -0,297506232711722 -0,750555721633861 
-1,99724166083114 -0,460322093605679 -1,19664961358888 -0,586867036105537 -0,931552543911409 -0,546157667840439 -0,607834680461713 0,358524179718701 -0,471004928854297 -0,310661403779714 
