0,587690367809818 -0,453632180963006 0,858511332063708 1,325020519875 -0,158668748642629 0,925519768113978 0,841215354316502 0,396178494564806 0,599021753109536 
-0,938618720480529 -0,838936092257004 -1,04145145668297 -0,399340554792127 0,976412390986184 -1,58417112471311 -0,472860877156658 -0,629614263307589 -0,297077226125205 
-1,33145444267544 0,348093399474441 -1,38626043580345 -0,650383067792926 0,112292979723445 1,64968639706293 0,252524867012876 -1,57651162517607 -0,689686040249507 
-0,0441280415622181 0,0124776653868509 -0,225162950621994 0,513878254631943 0,463271838362921 0,362539941148152 -0,812632522165604 -0,669977409611446 0,0475752998229929 
0,440892290063618 -0,0025112816940579 0,962437333521637 0,193051262382907 0,6684044681808 -0,158880625459776 0,822494957220506 0,64654432872615 -1,48617452655787 
0,186903769703072 -0,0199303234223881 0,544983064543914 0,102673517760669 -0,706473483274446 0,0251174111171241 -0,746719798886552 0,893577285992716 -0,817410064776153 
-1,06148111421265 0,159073435602744 0,434074839313549 -0,484175064999226 0,0724956528621239 -0,275157123466561 0,615205808363485 0,578343395878721 -0,616299170822044 
-0,17581529626847 0,933503024887528 0,390792069380075 -0,403991397831119 0,720291967373477 -0,0466101994023705 1,4472535754639 0,779246832779724 1,06589701838647 
0,0613171702401329 -0,33966183229846 0,879599696900509 0,909857943319184 -0,374219205577494 0,434728238175497 0,796271535473071 -0,883639655021783 -0,743604898971787 
