-1,52154613840047 0,284114023337194 0,084525350693392 1,16137540132384 -1,03655672418305 0,384565975868872 -0,645647548612509 0,635636302179953 -0,599428589269253 0,87973581248882 
-0,274039950815048 -0,887199483759328 -1,38144002936428 -0,943720406826455 -0,491795239733437 1,56351705264976 0,159942682148396 1,47439905528231 0,839832733949103 -0,0433985316396684 
0,245949931091606 -0,798788124308823 -0,798465455788404 1,37948900170181 0,289943656846389 0,652954228992087 -0,0413862052566307 -0,146767992128976 -1,61605064290904 -0,248383191995501 
-0,8037058176355 0,44453581926205 1,56940813825485 0,200200344063435 -0,876303081343092 0,575537874165707 0,241337527167675 -0,52370977938348 -0,964654897961605 -0,0307906591476829 
-0,447360857132525 0,021186250099068 0,928931219177289 -0,160024810191255 0,140841489896105 -0,672921500947756 -0,730053350203695 -1,53976503848599 1,66377753952275 -0,57379701154949 
0,056319826136027 -0,289218396548749 -1,64340550080613 -0,150050135226478 0,112885814678336 0,970241985908357 0,0825794791255983 -0,294963651008421 0,485431744477447 0,00348904682485807 
0,039952181125503 -0,805879556483533 0,558686945088993 0,648954602726248 -0,70255836987568 1,6674242299229 -0,763607622014176 -0,581640373427719 0,239582674516636 -0,067333113899144 
-0,370820474517914 0,990652461531876 0,0530539532439103 -0,129376606903214 -0,596037674507144 1,22476368099254 -0,0347193434861109 1,05455935440285 0,931647511805709 1,34886515779414 
-0,884544801844538 0,375953610695877 -1,4666866361339 0,915604442957139 0,0357443350533695 1,3374883670865 1,60140489413049 -0,227163365975098 0,58646674964459 1,17038492557657 
