-0,0572962104609684 -0,402005392779599 -0,340564741445968 -1,08449775048322 0,0205583800657458 -0,589979500318868 -0,603847939975023 0,780758154476415 0,420558866774924 
-0,330416635936786 -0,767488019432634 -0,206229189679599 0,442426117808757 -0,215941218001275 0,156738062289422 -1,61168628278313 -0,980993971219749 0,112028788361712 
0,562033164110981 -0,947164823276533 -0,140122954333258 -0,226888292109076 -0,290479251784496 0,125948130039008 1,25037053302926 0,986562172876001 0,938874635816959 
0,803530366068487 0,111268789093601 1,32090570204514 -0,492615343473673 0,637147112287649 0,868177608525463 -0,252920461177789 0,066245364814645 -0,361699338412238 
-0,120152422748577 -0,308208835627515 0,752757411042115 -0,201979767159549 0,527491264756532 -0,21087182928383 -0,651932957420094 0,508363432367501 -0,204524782754259 
-0,237677246908507 -0,83792888551854 2,0234273894529 -1,56980429866389 0,201947015338553 -0,178553070197605 2,21257069332272 -0,859000435671769 0,249917354085444 
-0,170559250070508 0,555592081648108 0,888473859004897 -0,159512871484977 0,051131716487525 0,0339962071897444 0,164145863864173 0,97862169395649 0,362489365382814 
1,06614966478066 0,856671156002055 0,0871926256065221 -0,40619324492579 -0,71328326487601 1,26426698809269 -0,45072176625101 0,623659825708559 -0,873991382249627 
-0,128465287274432 -0,0215290621954617 0,634028721430352 -0,342279689718634 -0,196304118524913 -0,157547597381076 -0,51437225728965 0,169210347252996 -0,253891412114208 
