1,36756173043445 -0,0349283074191438 -0,875553849095271 0,661609355202694 1,0002998539113 -0,364448263945267 0,195342814175106 1,54221981852931 0,811776141548425 
0,10433590620539 -0,159049349152506 -0,569791042684014 0,0745799608740859 -0,698462880714546 0,993481107691527 -0,444797190579026 0,441971022375846 -0,0517860696095911 
-0,166591230098899 0,422915955736728 -0,780144499512457 0,58903345446523 -0,260309740556548 0,672266628147693 0,54530724768774 1,19708647558842 -1,36787377192586 
-0,794640430153646 -0,441184108523738 0,891198073463141 0,583904125241052 0,859694325299791 -0,620433240952172 -0,376694299628816 -0,324549272980331 0,261210653586877 
-0,326076898410021 0,795759987629373 0,870596060469093 -0,648569626570013 0,367856657769464 0,503379930510828 -1,28139169591125 -0,526812566862354 -0,192391949329708 
-1,1364069373847 0,902772483370627 -0,469285494400787 -0,0787544534908395 -0,13970945921713 -0,577177327860695 -0,765539150575893 0,861128349430919 0,332214307660337 
0,066669398191231 -0,725120683711078 -0,311525158901943 0,947963052405027 -0,0100405286112989 -0,133963910166623 -0,011849219743558 -0,140348102497099 1,32586287786107 
1,63766562194036 -0,30821162214466 0,660775316721189 0,599991594254967 0,349822552279021 1,32950262990804 -0,973288997702435 -0,519198460918944 0,132879015292916 
0,27450662043202 -0,79048544531245 0,171982299789312 -0,0102799588997291 -1,47673749171558 -0,507819341266444 0,889427233142977 0,806551333133854 -0,641164254230058 
