-0,238250692020287 -0,313572656974929 -0,229560688417666 -0,757080859391522 1,68210551890224 -0,411213474074012 0,893587810576236 0,151817038898737 0,033407672496702 
0,0761658119527461 -0,0032166045309121 -0,722570440602754 1,58323412013903 -0,519936172706511 0,731338825590135 -0,83096986133697 -0,352758304552994 0,193935130985889 
-1,23582079056968 0,501227760455212 0,358007228634324 0,935048153593693 -0,974488570981421 -0,880943605620853 -0,666804451340253 0,555565205195716 0,27417967248437 
-0,498095667687289 -0,0946127227948107 1,42688069390034 -0,551067015878422 0,316451650725888 0,143163995418308 -0,607485351608361 1,11625077272172 1,24696053826155 
0,0253309277004241 0,278901115016966 -0,867382039254244 -0,58915895827122 1,3146280635547 -0,85885071468486 0,309267359171187 0,976783190843083 -0,677215141093924 
-0,0901647963184701 0,299170104167503 -0,859483977714313 -0,862889237638046 0,434016598124996 0,0192407597877275 -0,304472668410965 -0,0627258468576359 -0,910856282296989 
0,949210601835144 0,51970115438602 0,967915914006492 -0,348617082796813 0,909723591948731 -1,25945968629348 0,314606853441618 0,391683478263525 1,24642976169355 
-1,08647302140364 0,320232827831168 -0,7056682552568 0,134265563978937 0,497719471747391 1,44281305457177 1,17737828732858 0,836699210962606 -0,32465941956996 
0,433485440353158 -0,524505705058345 0,679688931293641 0,465620189656327 0,913121974986569 -0,841251349002706 0,749860923620807 1,0656210973098 0,82941869824632 
