-0,750296210460968 -0,402005392779599 0,352435258554032 -0,391497750483219 0,0205583800657458 0,103020499681132 -0,603847939975023 0,087758154476415 0,420558866774924 
0,362583364063214 -1,46048801943263 -0,206229189679599 -0,250573882191243 -0,215941218001275 0,156738062289422 -0,918686282783135 -2,36699397121975 0,112028788361712 
1,25503316411098 -1,64016482327653 0,552877045666742 0,466111707890924 0,402520748215504 0,818948130039008 -0,828629466970744 0,293562172876001 2,32487463581696 
0,803530366068487 -0,581731210906399 0,627905702045144 0,893384656526327 -0,0558528877123505 0,868177608525463 -0,252920461177789 0,066245364814645 0,331300661587762 
-0,813152422748577 0,384791164372485 0,0597574110421153 0,491020232840451 -0,165508735243468 -0,21087182928383 -0,651932957420094 -0,184636567632499 1,18147521724574 
-0,930677246908507 -0,83792888551854 0,637427389452899 -0,183804298663886 0,201947015338553 0,514446929802395 1,51957069332272 0,526999564328231 0,942917354085444 
-0,170559250070508 -0,830407918351892 1,5814738590049 -0,852512871484977 0,0511317164875249 0,726996207189744 -0,528854136135827 0,28562169395649 -0,330510634617186 
1,48565316472978 -0,837801292463113 -0,404635131720284 0,618593201794938 -1,69065342101345 0,71781341718408 0,211437400701659 0,894466139965442 -0,365785135592234 
-0,947728622680404 -0,235987068729469 0,218343911966935 -0,929251125049429 -0,574955334688982 -1,105842684152 -1,36252708720673 -0,897952220062237 0,131491058394542 
