-0,0572962104609684 -0,402005392779599 -0,340564741445968 -0,391497750483219 0,0205583800657458 -0,589979500318868 0,0891520600249767 0,780758154476415 0,420558866774924 
0,362583364063214 -0,767488019432634 0,486770810320401 0,442426117808757 0,477058781998725 0,849738062289422 -0,918686282783135 -0,980993971219749 0,112028788361712 
0,562033164110981 -0,947164823276533 -0,140122954333258 -0,226888292109076 -0,290479251784496 0,818948130039008 0,557370533029256 0,986562172876001 0,938874635816959 
0,803530366068487 0,111268789093601 0,627905702045144 0,200384656526327 -0,0558528877123505 0,868177608525463 0,440079538822211 0,759245364814645 0,331300661587762 
-0,120152422748577 0,384791164372485 0,0597574110421153 -0,201979767159549 0,527491264756532 -0,21087182928383 -0,651932957420094 -0,877636567632499 0,488475217245741 
-0,237677246908507 -0,83792888551854 0,637427389452899 -0,876804298663886 0,201947015338553 0,514446929802395 0,826570693322723 -0,166000435671769 0,249917354085444 
0,522440749929492 -0,830407918351892 0,888473859004897 -0,159512871484977 0,0511317164875249 0,0339962071897444 -0,528854136135827 0,28562169395649 -0,330510634617186 
0,79265316472978 -0,837801292463113 0,288364868279716 0,618593201794938 -0,997653421013455 0,71781341718408 -0,481562599298341 0,201466139965442 -0,365785135592234 
-0,947728622680404 -0,235987068729469 -0,474656088033065 -0,929251125049429 -0,574955334688982 -0,412842684151997 -0,669527087206732 -0,204952220062237 0,824491058394542 
