0,928863056609343 -0,16958113814219 -0,150145329777685 -0,624841032082141 -0,0778519653011359 -0,215341273968267 1,03251893324941 -0,910195401827896 -0,234568797333897 -0,87363378045784 
-0,921423775107331 -0,200263849725604 -0,307473359307029 1,27123387979448 -0,489517962960767 -0,682645154676235 -0,195797832015342 0,089621490082062 -0,055129410551921 0,0112763722479698 
-0,285100471188361 -0,054314469185338 -0,427894049057688 -0,703001620109659 0,785346177013752 0,875402468837054 1,12846911302743 -1,29481930083866 0,436830546151768 1,50503522151896 
1,42962415507092 -0,292143086280275 -0,100568815354057 0,337390299577913 0,0745624513712537 -1,67933431549479 0,135065036423069 -0,249820735887541 -1,45383654340396 -0,18758529636943 
-1,02235898067865 -0,0734407301402841 0,992146437984028 0,515367235469803 0,945870836878601 -0,6598033856879 -0,626052729318409 -0,940484497668447 -0,828132664704757 -0,171773896805371 
-0,916709113534404 -0,90786421201558 0,492452019589232 0,512594550621041 -0,556076450066677 -0,095822474205318 -0,048687089084502 0,245856290331975 1,66881279090411 -0,567254434138189 
-0,957810386995697 -0,0586617659119245 0,345974052020336 0,646395981147138 -0,610257935528764 -0,322280688827057 0,900304965628453 0,355136341115058 -1,18932857157678 0,882816352534022 
0,875289808900696 0,440022903872199 -0,842541966513983 0,439455885817509 0,0336353529266249 0,095340258951923 0,646539092830633 0,0567387154725091 0,73712754301174 -0,247850437298347 
1,07600757919578 -0,194621166770636 -0,117545531651725 0,65074636864045 0,00229698186847238 -0,821487421086751 -0,298058679931824 0,026458273481325 -0,912685470614901 -0,153545067251448 
