-0,828546138400466 -0,408885976662806 -0,608474649306608 0,468375401323836 -1,03655672418305 -0,308434024131128 0,0473524513874912 -0,0573636978200468 0,0935714107307469 0,87973581248882 
-0,274039950815048 -0,194199483759328 -0,688440029364284 -0,943720406826455 -0,491795239733437 0,870517052649761 -0,533057317851604 0,0883990552823061 -0,546167266050897 0,649601468360332 
0,938949931091606 -0,105788124308823 -0,798465455788404 1,37948900170181 0,289943656846389 1,34595422899209 -0,0413862052566307 -0,146767992128976 -0,92305064290904 -0,248383191995501 
-0,1107058176355 0,44453581926205 0,876408138254847 0,200200344063435 -0,876303081343092 0,575537874165707 0,241337527167675 -0,52370977938348 -0,271654897961605 -0,723790659147683 
-0,447360857132525 0,021186250099068 -0,457068780822711 0,532975189808745 -0,552158510103895 -0,672921500947756 -0,730053350203695 -0,153765038485995 1,66377753952275 -0,57379701154949 
0,749319826136027 -0,289218396548749 -1,64340550080613 -0,150050135226478 0,112885814678336 0,277241985908357 0,775579479125598 -0,987963651008421 -0,207568255522553 0,00348904682485807 
0,039952181125503 -0,805879556483533 -0,134313054911007 0,648954602726248 -0,00955836987567993 1,6674242299229 -1,45660762201418 0,804359626572281 1,62558267451664 0,625666886100856 
-0,370820474517914 0,990652461531876 -0,63994604675609 -0,822376606903214 -0,596037674507144 -0,161236319007462 -0,0347193434861109 0,361559354402851 -0,454352488194291 0,655865157794145 
-0,191544801844538 0,375953610695877 -0,773686636133905 0,915604442957139 0,0357443350533695 0,644488367086504 0,215404894130493 -0,920163365975098 -0,79953325035541 0,477384925576572 
