0,595750128662097 0,0398429329692587 0,951998336218297 -0,339896132862147 0,820644318973946 -0,00268085254481099 -0,627988532650745 -0,808321230662671 1,5288636954035 
-1,41730749690361 0,520469642020981 0,286558353302795 0,973128252650205 0,00495335692770471 0,287921655884442 0,154724640671035 -0,150360997077711 -0,547897319098887 
-0,439055071882464 1,53983895755878 0,107099971611099 0,320870812373176 0,658368091871202 -1,68896471618673 0,670144395749152 -0,045391770859431 -0,297831632801253 
-0,648741732187915 -0,521699888116075 0,993437909518107 -0,442975585089519 -0,449122778814809 -0,579950995254773 1,05821609284227 0,543959478635322 0,0447476526795639 
0,916755747649705 -0,08396174221065 -0,504259980984153 0,888659387775073 -0,952433416597747 0,688274551969149 0,315540400014976 -0,749067018623029 0,234944019110382 
-0,671563675181271 0,0382633968434591 -0,603736828535207 0,520839405954275 1,32144544166161 -0,0747210583997523 -0,0581236197883839 0,073218495153458 1,46653007149581 
0,275411494670162 -0,914471724030781 -0,774618566862596 -0,547820477242964 -1,57669789248505 1,49621337832288 -0,689574492019403 -0,848915453636979 -0,322080293354616 
1,51133823203032 0,854311491294909 -0,709926570337697 -0,296840047429241 -0,67663613196818 0,450577640650132 0,641733455011963 -0,361552938228731 0,832932764586496 
0,759473911374562 0,637749382126028 -0,317650627665525 -0,468419051481606 -0,0335069455497461 -1,20424272193352 1,43732260903731 0,216870922869011 -1,22717692125504 
