-0,0184382695655519 0,658071692580856 -0,875553849095271 -0,0313906447973059 1,0002998539113 0,328551736054733 0,888342814175106 0,84921981852931 0,118776141548425 
-0,58866409379461 1,22695065084749 -0,569791042684014 -1,31142003912591 -0,00546288071454637 0,300481107691527 -1,13779719057903 0,441971022375846 -0,744786069609591 
0,526408769901101 0,422915955736728 -0,780144499512457 1,28203345446523 -0,260309740556548 0,672266628147693 0,54530724768774 0,504086475588422 -0,674873771925864 
-0,101640430153646 0,251815891476262 0,891198073463141 -0,109095874758948 0,166694325299791 0,0725667590478279 0,316305700371184 1,06145072701967 -0,431789346413123 
-0,326076898410021 0,795759987629373 1,56359606046909 -1,34156962657001 0,367856657769464 1,19637993051083 -1,28139169591125 0,166187433137646 0,500608050670292 
-1,1364069373847 0,902772483370627 -1,16228549440079 0,61424554650916 -0,13970945921713 -0,577177327860695 -0,072539150575893 0,168128349430919 -0,360785692339663 
-0,626330601808769 -0,0321206837110783 0,381474841098057 1,64096305240503 0,682959471388701 -0,133963910166623 -1,39784921974356 -0,140348102497099 -0,060137122138933 
1,63766562194036 0,38478837785534 0,660775316721189 0,599991594254967 -1,03617744772098 1,32950262990804 -0,280288997702435 0,173801539081056 -0,560120984707084 
-0,41849337956798 -1,48348544531245 0,171982299789312 -0,0102799588997291 -1,47673749171558 -0,507819341266444 0,196427233142977 0,806551333133854 -0,641164254230058 
