0,228055804608416 0,0611237109127101 0,124562372684275 -0,657977688605421 0,818222224627725 0,080258968789251 -0,985822991461411 -0,179321564351824 0,86460093029989 
-0,608218082044375 -0,807841111816392 -0,707446017804763 -1,24088523518847 -0,465682290245631 -0,200255809617814 -0,845155639208926 0,831651844937192 1,41057047237715 
-1,38640286762146 -0,808975617312349 -1,15101680696104 0,373249995230348 -1,57729895783043 -0,169940941287643 1,0819226184175 -0,397584640140452 -0,0758922573667451 
-0,747914982549341 -0,920456090904985 0,553158984311465 -0,261392494612556 0,29830695161098 -1,6687868703342 0,135845283575284 0,221179342173123 1,06662197012343 
-0,730791533240486 0,20059273820398 0,186007118697747 -0,804098952470393 0,660782882785789 -0,858863542429108 -0,144317970212697 0,209719642921686 -0,280304015278958 
-0,104617563590695 0,493599959413335 -0,258498877872945 0,137578941480061 -0,868209414761145 0,601816097089004 -0,594199734258093 -0,967169197260947 -1,09966217515555 
-0,88552062580619 0,854805809378068 0,638422668743144 0,601503313971918 1,33909969297708 0,215806864768177 0,542151226155996 0,0690919910879302 0,434134526553161 
-0,688558054011575 -1,34682558743182 1,27985193657263 0,654340852529435 0,316269481236241 -1,68686163241875 -0,880877779741249 -0,42136410596844 0,324059106733212 
0,838563353679405 -0,889303915151071 -1,16275850009814 0,707846735468063 -0,482432034556955 -0,0940186007521201 -0,889636926008685 -0,506459817991806 0,801815400446213 
