-0,146096937599171 0,01092614373701 -0,200932106562393 0,475665925464903 -0,36626663588279 0,55372076740196 1,36516199434929 -0,545967716219354 0,697198809914849 
0,884237387802097 -0,0137794770499601 -0,457917566797192 0,396488045061234 -0,0783569513388711 0,186304519505382 0,883226698848524 0,83686438445368 -0,0600563152972869 
-1,28224106396234 -0,475886691756028 -0,446292892479009 -0,56539664956061 -0,197142105814136 -1,1844023510606 0,884179449586281 -0,984732875300447 -1,09427932438686 
0,275835303545387 -0,47178530668457 -0,0557135261719639 -0,023925942552707 -0,604166598513334 0,01958121686223 1,9721591815884 -0,920416441708997 -0,134894834721412 
-0,888895109244108 -2,09624388527043 1,1330841796026 1,2274715842672 -0,81794918971972 -0,636228329971073 -1,58864817580192 -2,1109813888804 -0,710047466545388 
0,672631266081534 0,34861254568613 0,389648218993399 0,349201965774038 1,5301680927636 -2,36712039453402 -0,047075420467218 -0,862726809100121 0,292284506681973 
-0,945119526850115 0,112299711961439 -0,177931750448855 -1,40252975550179 -0,101513524121378 0,232466239417654 -0,737999908211175 1,3963266908039 0,311817590465219 
1,48565316472978 -0,837801292463113 0,288364868279716 0,618593201794938 -1,69065342101345 0,71781341718408 -0,481562599298341 0,894466139965442 -0,365785135592234 
-0,947728622680404 -0,235987068729469 -0,474656088033065 -0,236251125049429 -1,26795533468898 -0,412842684151997 0,0234729127932679 0,488047779937763 1,51749105839454 
