-0,798309632190182 0,239367819036994 0,165511332063708 0,632020519875 -0,158668748642629 0,232519768113978 0,841215354316502 -0,989821505435194 1,29202175310954 
-0,938618720480529 -0,145936092257004 -0,348451456682967 0,293659445207873 0,283412390986184 -0,198171124713109 -1,16586087715666 0,756385736692411 0,395922773874795 
-0,638454442675437 1,04109339947444 -0,000260435803449033 -0,650383067792926 0,805292979723445 0,263686397062934 0,252524867012876 -1,57651162517607 -0,689686040249507 
-1,43012804156222 -1,37352233461315 1,16083704937801 -0,179121745368057 1,15627183836292 -0,330460058851848 0,573367477834396 -1,36297740961145 -1,33842470017701 
0,440892290063618 0,690488718305942 1,65543733352164 0,193051262382907 1,3614044681808 -0,158880625459776 0,129494957220506 0,64654432872615 -0,793174526557873 
0,186903769703072 -0,0199303234223881 1,23798306454391 -1,28332648223933 0,679526516725554 1,41111741111712 -0,0537197988865521 0,200577285992716 -0,817410064776153 
0,324518885787352 0,852073435602744 0,434074839313549 0,208824935000774 0,0724956528621239 -0,275157123466561 0,615205808363485 -0,114656604121279 -0,616299170822044 
-0,86881529626847 -0,452496975112472 0,390792069380075 0,289008602168881 0,720291967373477 -0,0466101994023705 1,4472535754639 -0,606753167220276 0,372897018386469 
0,0613171702401329 0,35333816770154 1,57259969690051 -0,476142056680816 -0,374219205577494 -0,258271761824503 0,103271535473071 -1,57663965502178 -0,743604898971787 
