0,209072456619736 -0,380366662228651 -0,308953399448168 0,618406868362057 -0,283850522085489 -0,048439789413214 -1,27270328981974 0,531278708438519 -0,0327161536704359 -0,342963084272557 
-0,9606395512636 -1,35934055211504 -1,66723879614763 -0,673125631023723 -0,758130429199958 -0,880361194666643 -1,13758612214987 0,960164724830615 -0,799889651033976 0,143729551296555 
-0,840275464505086 0,919613972268819 1,29775830063445 -0,999519124626889 -0,119767934605371 0,774299316003127 -1,6230133669423 -0,275426557881491 1,14469187497892 0,744547416337089 
0,301316543156894 0,203014215721755 -0,743916063450238 0,902505148795203 -0,137301382499887 -0,0877129707758839 -0,239832408372235 0,679194392487032 -0,211615255666718 0,178217320320298 
0,000332947354918733 -0,915292209906174 -0,871839865982458 0,0756105981187944 -0,530894308770958 -1,39244458347719 -0,280489826532774 -0,562861437705747 -0,0235256588331081 0,951110069617215 
0,869630787460893 -0,373007408982612 -1,56263743617276 0,651318228641207 0,664766522899627 -1,31116672590476 -0,924423635902081 0,215840898381938 0,23322670684812 1,29251464720048 
-0,266839085098281 1,58668681232151 -0,534053086086201 1,53810586682945 -1,55148974057403 0,529346233014644 -1,6154244886648 -0,183743944942832 -1,53582424852383 0,329582541575927 
0,359471213705592 -0,816780514636906 0,171779980497332 0,0218930286457264 -1,54960339605836 -0,924983254598912 0,791453838251277 -0,47085229748434 0,531375184144068 -0,420323351128177 
1,4407891425359 -0,060151929236553 0,134099100951617 0,500581805361706 1,5679166288762 -0,325676047860494 -0,620348348105489 -1,08823429209144 1,23773862589558 1,48086534340487 
