0,209072456619736 -0,380366662228651 1,07704660055183 -0,0745931316379429 1,10214947791451 -0,741439789413214 -1,27270328981974 1,22427870843852 0,660283846329564 -1,03596308427256 
-0,2676395512636 0,02665944788496 -1,66723879614763 -0,673125631023723 -1,45113042919996 -0,880361194666643 -0,444586122149874 1,65316472483061 -1,49288965103398 0,143729551296555 
-0,840275464505086 1,61261397226882 0,604758300634454 -0,999519124626889 -0,119767934605371 0,774299316003127 -0,2370133669423 -0,275426557881491 0,45169187497892 1,43754741633709 
0,301316543156894 -0,489985784278245 -0,050916063450238 0,209505148795203 -0,137301382499887 -0,0877129707758839 -0,239832408372235 0,679194392487032 -0,211615255666718 0,871217320320298 
0,693332947354919 -0,915292209906174 -0,178839865982458 0,0756105981187944 0,855105691229042 -0,699444583477194 -0,973489826532774 0,130138562294253 -0,716525658833108 1,64411006961722 
1,56263078746089 -1,06600740898261 -0,869637436172756 1,34431822864121 -0,0282334771003729 -0,618166725904758 -0,924423635902081 0,908840898381938 0,23322670684812 0,599514647200478 
-0,959839085098281 0,20068681232151 -0,534053086086201 0,845105866829448 -0,165489740574029 -0,163653766985356 -0,922424488664802 -0,183743944942832 -0,149824248523835 -0,363417458424073 
0,359471213705592 0,569219485363094 0,171779980497332 0,0218930286457264 -1,54960339605836 -0,924983254598912 0,791453838251277 0,22214770251566 -0,161624815855932 -1,11332335112818 
0,0547891425359011 -0,060151929236553 -0,558900899048383 1,19358180536171 1,5679166288762 -1,01867604786049 -0,620348348105489 -0,395234292091445 0,544738625895576 0,787865343404871 
