0,458330895206579 1,54619844067711 1,0259511486613 0,749719638260882 -0,432401946481504 0,569694552370205 -0,513049994075694 -0,751151407952957 -0,522050845214189 -0,0794995394905561 
-0,767932644937156 -0,382006934556182 0,237594456988198 0,577845454019422 -0,216938927697921 -0,542581454637731 -0,00168974651102427 -0,593958696161378 0,509033404062052 0,897895167534191 
0,108450632420113 -0,609297032286086 -0,347267524966629 0,59731738716239 -0,042099820642313 0,0202101613489027 -0,723064014559176 -0,790455979197498 -0,26764734148404 0,507920359963514 
0,226187675830996 1,24111138173012 1,48636324697051 1,17714521267831 -0,819056796757065 -0,666110091687231 -0,224940917386646 1,58488704448374 -0,740172824701375 0,994154247159676 
-0,91975471373636 -0,0245845748091039 -0,539736563763924 0,205333663073524 -0,15124879953463 0,306163057361805 -0,330760476799105 1,25710397941438 -0,0433448883906682 -0,370861580302409 
0,309040413847678 -0,914822124836418 -0,539181578689805 -0,659209294724376 0,8409444686081 -0,257039317515231 0,712061094917385 0,874053291917803 0,0637397547549288 -0,26680450881636 
-0,2837584878573 -0,155523743087204 -1,28904861195947 0,781629258372183 -0,640143051575936 -0,17416337123288 -0,038185723902278 -1,47806756563907 0,608290985044228 0,282054676978409 
0,198660441008238 -0,882146663908915 0,0897231877132889 -0,2727011329968 0,695324353438953 -0,173964792770783 0,237439531477839 -0,245601188040153 0,44156618669702 -0,655262878004118 
-0,649029361851993 -0,287167993973553 0,94588890919317 -1,58978576118163 -1,49412005388416 0,141009800667413 -0,605707039580078 -0,240427458305111 -0,663799255929794 1,13098252075817 
