-0,483927543380264 -0,380366662228651 1,07704660055183 1,31140686836206 0,409149477914511 -1,43443978941321 -0,579703289819743 1,22427870843852 1,35328384632956 -0,342963084272557 
-0,9606395512636 -1,35934055211504 -0,281238796147629 -1,36612563102372 -1,45113042919996 -0,880361194666643 -1,13758612214987 0,267164724830615 -0,106889651033976 0,836729551296555 
-0,147275464505086 0,919613972268819 1,29775830063445 -1,69251912462689 -0,119767934605371 0,774299316003127 -0,9300133669423 -0,968426557881491 1,14469187497892 0,744547416337089 
0,301316543156894 -1,18298578427824 -1,43691606345024 0,209505148795203 -0,830301382499887 0,605287029224116 -0,932832408372235 1,37219439248703 -0,211615255666718 -0,514782679679702 
0,000332947354918733 -0,915292209906174 -0,178839865982458 -0,617389401881206 0,855105691229042 -0,699444583477194 -0,973489826532774 -1,25586143770575 -0,716525658833108 1,64411006961722 
0,869630787460893 -1,06600740898261 -0,176637436172756 -0,0416817713587929 0,664766522899627 -0,618166725904758 -0,924423635902081 1,60184089838194 0,23322670684812 0,599514647200478 
-0,959839085098281 1,58668681232151 0,158946913913799 0,845105866829448 -0,858489740574029 0,529346233014644 -0,229424488664802 -0,183743944942832 -0,842824248523835 -1,05641745842407 
0,359471213705592 -0,816780514636906 -0,521220019502668 0,0218930286457264 -0,856603396058364 -0,231983254598912 1,48445383825128 -1,16385229748434 -0,854624815855932 -0,420323351128177 
0,747789142535901 1,32584807076345 -1,25190089904838 1,19358180536171 0,181916628876196 -1,01867604786049 -1,31334834810549 -0,395234292091445 -0,148261374104424 0,0948653434048711 
