1,36756173043445 0,658071692580856 -0,875553849095271 0,661609355202694 0,307299853911297 -0,364448263945267 0,195342814175106 1,54221981852931 0,118776141548425 
0,10433590620539 1,22695065084749 -0,569791042684014 -1,31142003912591 -0,698462880714546 0,300481107691527 -1,13779719057903 0,441971022375846 -0,744786069609591 
0,526408769901101 1,11591595573673 -0,780144499512457 -0,10396654553477 0,432690259443452 -0,0207333718523073 -0,14769275231226 1,19708647558842 -0,674873771925864 
-0,794640430153646 -0,441184108523738 0,891198073463141 0,583904125241052 1,55269432529979 -1,31343324095217 1,00930570037118 0,368450727019669 -0,431789346413123 
0,366923101589979 0,795759987629373 0,870596060469093 -0,648569626570013 0,367856657769464 0,503379930510828 -0,588391695911247 0,859187433137646 -0,192391949329708 
-0,443406937384702 0,209772483370627 -0,469285494400787 -0,771754453490839 0,55329054078287 -1,27017732786069 -0,072539150575893 -0,524871650569081 -0,360785692339663 
-0,626330601808769 -0,725120683711078 0,381474841098057 0,254963052405027 -0,0100405286112989 -0,133963910166623 -0,011849219743558 -0,140348102497099 0,632862877861067 
1,63766562194036 0,38478837785534 0,660775316721189 0,599991594254967 0,349822552279021 0,636502629908036 -0,973288997702435 0,173801539081056 -0,560120984707084 
-0,41849337956798 -1,48348544531245 -0,521017700210688 -0,703279958899729 -0,783737491715577 -1,20081934126644 0,196427233142977 0,806551333133854 0,051835745769942 
