0,826663650198683 -0,635206430049244 -0,221629320919807 0,407639934112616 -0,632594347467457 0,686177497583524 0,747020277715298 0,136304046556495 -1,0964503816643 1,27904462425506 
-0,012051989502763 -1,63082247693176 0,699077647039237 0,096234188287162 -0,0770554147088227 -0,412280476378408 -0,990259619425172 0,349550363011914 1,02845311416288 0,775569639702593 
0,259777709204134 0,284593263946284 -0,344580057703229 0,207279683945831 -1,34777960726935 0,51279476076029 -0,274917008948939 0,195901003930206 -0,527101303868974 1,63195146061617 
0,275326188316255 -0,234035988620034 0,00687455555232008 -0,797575821712881 0,542874913156906 0,725144955201608 0,0507496805166592 -0,618534934529352 0,365904971369032 -0,56490248299013 
-0,890941403755425 0,471443375326434 -0,524559354188181 0,526753114954453 -0,83882052228312 -0,938096047057349 0,50289098336496 0,590648840922233 1,28262785899156 0,00820164429405779 
0,607811721497593 0,0597073471586721 -0,759172480441245 1,16772592977561 -0,430359010957814 -0,826262368739705 -0,495221501619658 0,432671464715466 1,09749924553023 0,0548032927582056 
0,537611561319144 -0,3229509980059 0,0829498959160178 -1,15400230583036 0,645174272193189 -0,226896656317123 -0,0818814901085019 -1,35082972129892 -0,272029459137483 -1,32808388289953 
0,40666886484561 -1,07615481198167 0,73313633246959 0,0739358870521819 0,788836571289616 -0,597665666122299 -1,57684738186554 0,821666827342318 0,0461002062289511 0,590316439788005 
-0,99009622260467 -0,558565849871172 0,606273144938644 -1,53530294816303 -0,668860260881418 0,522618841157583 0,218136491821211 -0,774851374223293 1,32578318924493 0,36913728189661 
