0,635703789539032 0,290994607220401 -0,340564741445968 -1,08449775048322 0,0205583800657458 0,103020499681132 0,782152060024977 0,087758154476415 1,11355886677492 
1,05558336406321 -0,767488019432634 0,486770810320401 -0,250573882191243 0,477058781998725 0,156738062289422 -1,61168628278313 -0,287993971219749 0,112028788361712 
1,25503316411098 -1,64016482327653 0,552877045666742 -0,226888292109076 -0,290479251784496 0,125948130039008 1,25037053302926 1,679562172876 0,938874635816959 
1,49653036606849 -0,581731210906399 2,01390570204514 0,200384656526327 0,637147112287649 1,56117760852546 -0,252920461177789 0,066245364814645 -0,361699338412238 
-1,50615242274858 -0,308208835627515 0,0597574110421153 0,491020232840451 -0,165508735243468 1,17512817071617 0,0410670425799059 0,508363432367501 0,488475217245741 
-0,237677246908507 0,54807111448146 2,0234273894529 -0,87680429866389 -0,491052984661447 0,514446929802395 1,51957069332272 -1,55200043567177 0,249917354085444 
-0,170559250070508 -0,137407918351892 0,195473859004897 -0,852512871484977 0,744131716487525 0,0339962071897444 -1,22185413613583 0,28562169395649 -0,330510634617186 
1,06614966478066 0,163671156002055 0,780192625606522 -0,40619324492579 -2,09928326487601 1,95726698809269 0,93527823374899 0,623659825708559 -0,873991382249627 
-0,128465287274432 -0,0215290621954617 0,634028721430352 0,350720310281366 -0,889304118524913 -0,850547597381076 -0,51437225728965 1,555210347253 -0,253891412114208 
