0,587690367809818 0,239367819036994 0,858511332063708 0,632020519875 -0,158668748642629 0,925519768113978 0,148215354316502 -0,989821505435194 -0,093978246890464 
-0,938618720480529 -0,838936092257004 -0,348451456682967 -0,399340554792127 -0,409587609013816 -1,58417112471311 -0,472860877156658 0,0633857366924109 -0,990077226125205 
0,0545455573245629 0,348093399474441 -0,000260435803449033 0,735616932207074 0,112292979723445 0,263686397062934 -0,440475132987124 -1,57651162517607 0,00331395975049298 
-0,0441280415622181 -0,680522334613149 -0,225162950621994 -0,179121745368057 0,463271838362921 -0,330460058851848 -0,119632522165604 -0,669977409611446 -0,645424700177007 
-0,252107709936382 -0,0025112816940579 1,65543733352164 0,193051262382907 0,6684044681808 -0,158880625459776 -0,563505042779494 -0,04645567127385 -0,793174526557873 
0,879903769703072 -0,712930323422388 0,544983064543914 -0,590326482239331 0,679526516725554 0,718117411117124 -0,746719798886552 0,200577285992716 -0,124410064776153 
0,324518885787352 0,852073435602744 1,12707483931355 0,901824935000774 0,765495652862124 -0,968157123466561 0,615205808363485 0,578343395878721 -1,30929917082204 
-0,86881529626847 0,240503024887528 -0,302207930619925 0,289008602168881 0,0272919673734771 -0,0466101994023705 1,4472535754639 0,0862468327797237 0,372897018386469 
0,0613171702401329 1,04633816770154 0,879599696900509 0,216857943319184 1,01178079442251 0,434728238175497 1,48927153547307 -1,57663965502178 -0,0506048989717871 
