-2,08455275363594 0,680334664732374 0,216321773755048 -0,88654122775725 1,0668139632036 -0,196852452040581 -0,381739745559981 -0,468361211107281 1,28265328316654 -0,250173197417135 
-0,2676395512636 0,02665944788496 -0,974238796147629 -0,673125631023723 -0,065130429199958 -0,187361194666643 -0,444586122149874 2,34616472483061 -1,49288965103398 0,143729551296555 
-0,599247910827048 0,414433208021537 -1,10301457879786 2,08587385985436 0,398881686278564 0,73278966254219 -0,229490259010573 -0,830424191058345 0,72855944918867 -0,133563362296933 
0,301316543156894 0,203014215721755 -1,43691606345024 0,209505148795203 -0,830301382499887 0,605287029224116 -0,239832408372235 -0,013805607512968 0,481384744333282 -0,514782679679702 
0,693332947354919 -0,915292209906174 -0,871839865982458 0,0756105981187944 0,855105691229042 -0,00644458347719401 -0,280489826532774 -1,25586143770575 -0,716525658833108 1,64411006961722 
1,56263078746089 -1,06600740898261 -0,869637436172756 0,651318228641207 -0,0282334771003729 -0,618166725904758 -0,231423635902081 0,908840898381938 0,23322670684812 -0,093485352799522 
-1,65283908509828 0,89368681232151 -1,2270530860862 0,845105866829448 -0,858489740574029 -0,163653766985356 -1,6154244886648 -0,183743944942832 -0,149824248523835 -0,363417458424073 
1,05247121370559 -0,123780514636906 0,864779980497332 0,0218930286457264 -0,856603396058364 -0,231983254598912 1,48445383825128 -0,47085229748434 0,531375184144068 -1,11332335112818 
0,0547891425359011 1,32584807076345 -0,558900899048383 1,19358180536171 1,5679166288762 -0,325676047860494 -1,31334834810549 -1,08823429209144 0,544738625895576 0,0948653434048711 
