-0,0572962104609684 -0,402005392779599 0,352435258554032 -0,391497750483219 0,0205583800657458 -0,589979500318868 0,0891520600249767 0,780758154476415 1,11355886677492 
0,362583364063214 -0,0744880194326341 1,1797708103204 -0,250573882191243 0,477058781998725 0,849738062289422 -0,918686282783135 -0,980993971219749 0,112028788361712 
-0,130966835889019 -0,947164823276533 -0,140122954333258 0,466111707890924 -0,290479251784496 0,125948130039008 1,25037053302926 0,986562172876001 1,63187463581696 
1,49653036606849 0,111268789093601 1,32090570204514 0,200384656526327 -0,055852887712351 0,175177608525463 1,13307953882221 0,066245364814645 -1,05469933841224 
-0,813152422748577 -0,308208835627515 0,0597574110421153 -0,201979767159549 1,22049126475653 0,48212817071617 0,0410670425799059 -0,184636567632499 -0,204524782754259 
-0,237677246908507 -0,14492888551854 1,3304273894529 -0,87680429866389 -0,491052984661447 -0,178553070197605 1,51957069332272 -0,859000435671769 0,249917354085444 
-0,170559250070508 -0,137407918351892 0,888473859004897 0,533487128515023 0,051131716487525 0,726996207189744 0,164145863864173 0,97862169395649 -1,02351063461719 
0,37314966478066 0,163671156002055 0,780192625606522 0,28680675507421 -0,71328326487601 1,26426698809269 0,93527823374899 -0,0693401742914409 -0,873991382249627 
-0,821465287274432 0,671470937804538 0,634028721430352 0,350720310281366 -0,196304118524913 -0,850547597381076 -0,51437225728965 0,169210347252996 -0,253891412114208 
