1,2887501286621 0,0398429329692587 0,951998336218297 0,353103867137853 1,51364431897395 -0,695680852544811 0,758011467349255 -0,115321230662671 0,835863695403497 
-0,031307496903607 0,520469642020981 1,6725583533028 0,973128252650205 0,00495335692770471 0,980921655884442 1,54072464067103 -0,150360997077711 -1,24089731909889 
-1,13205507188246 1,53983895755878 0,800099971611099 -0,372129187626824 0,658368091871202 -0,302964716186731 1,36314439574915 -0,045391770859431 -0,297831632801253 
0,044258267812085 0,171300111883925 0,993437909518107 0,250024414910481 -0,449122778814809 0,806049004745227 0,365216092842266 0,543959478635322 -0,648252347320436 
0,916755747649705 0,60903825778935 -1,19725998098415 0,888659387775073 -0,952433416597747 0,688274551969149 0,315540400014976 -0,0560670186230291 0,234944019110382 
0,0214363248187286 -0,654736603156541 -0,603736828535207 1,21383940595427 0,62844544166161 -0,0747210583997523 -0,751123619788384 0,073218495153458 0,080530071495813 
0,275411494670162 -0,914471724030781 -0,0816185668625961 -0,547820477242964 -0,883697892485046 1,49621337832288 0,00342550798059693 -0,155915453636979 -0,322080293354616 
1,51133823203032 0,854311491294909 -0,0169265703376972 -0,989840047429241 -0,67663613196818 -0,242422359349868 -0,744266544988037 1,02444706177127 0,832932764586496 
0,759473911374562 0,637749382126028 -0,317650627665525 -0,468419051481606 -1,41950694554975 -1,20424272193352 0,744322609037311 -0,476129077130989 -0,534176921255038 
