-0,146096937599171 -0,68207385626299 -0,200932106562393 0,475665925464903 -1,05926663588279 1,24672076740196 1,36516199434929 -0,545967716219354 -0,688801190085151 
0,884237387802097 -0,70677947704996 0,235082433202808 0,396488045061234 -0,771356951338871 0,879304519505382 0,883226698848524 1,52986438445368 0,632943684702713 
-0,589241063962337 0,217113308243972 -0,446292892479009 -1,25839664956061 -0,890142105814136 -0,491402351060604 0,191179449586281 -0,291732875300447 -1,09427932438686 
1,66183530354539 -1,16478530668457 0,637286473828036 -0,023925942552707 0,088833401486666 1,40558121686223 1,2791591815884 -1,613416441709 -0,134894834721412 
-0,195895109244108 -1,40324388527043 0,440084179602602 -0,158528415732797 -0,12494918971972 -0,636228329971073 -0,895648175801918 -2,1109813888804 -0,017047466545388 
0,672631266081534 1,73461254568613 1,0826482189934 -0,343798034225962 1,5301680927636 -1,67412039453402 -0,740075420467218 -0,862726809100121 -0,400715493318027 
-1,63811952685011 -0,580700288038561 -0,870931750448855 -2,09552975550179 -0,101513524121378 0,925466239417654 -0,737999908211175 0,7033266908039 0,311817590465219 
0,79265316472978 -0,837801292463113 0,288364868279716 -0,0744067982050619 -0,304653421013455 0,71781341718408 -1,17456259929834 0,201466139965442 -0,365785135592234 
-0,254728622680404 -0,235987068729469 0,218343911966935 -0,929251125049429 -0,574955334688982 -0,412842684151997 -0,669527087206732 -0,897952220062237 1,51749105839454 
