-1,39155275363594 -0,0126653352676259 0,909321773755048 -0,886541227757251 0,373813963203604 -1,58285245204058 -1,07473974555998 0,917638788892719 1,28265328316654 0,442826802582865 
1,51363464625768 0,391269638850945 0,514617940184948 -0,42052850752162 0,17172411947638 0,130954079563708 -0,262560511888731 0,445855280764799 -0,607434588008762 -0,235869950259044 
0,538283682213297 0,240588728623273 0,0280026115472439 -0,934953715329037 -0,528228664258136 -0,239934925567328 2,33998583912942 1,25722200871828 -0,44205496434218 -0,910951814279869 
-0,705771033515116 -2,31417487098657 0,99393829237387 -1,12718833959577 -1,33307236483091 0,0836933530325505 0,234770989913387 0,134505467724756 -0,193986147559707 0,638826910876588 
0,102204506160321 -0,720949844965688 0,874775644040562 -1,33583756150065 -0,434512838165049 0,462838630873169 1,67824156491516 -1,39618414070792 0,942338378487312 1,44498135792836 
-1,40718796186996 -1,22501599769854 -0,559920296506454 -1,55258186623621 0,82137089680013 1,04748372799646 -1,40836927377589 1,62600031588087 -0,546364467379807 0,342084403481839 
-1,38842562854263 -0,836925298538024 -0,719666327219301 -1,50776433939057 0,0558079492425579 0,0558095172442541 0,39733134647707 -0,744193720219281 -0,166456142690711 1,08803076644383 
-0,48981691034968 0,602934020386512 0,332841428324506 -0,860261498885351 -0,0310744564193648 -0,433766472821015 -0,327186915417289 1,67084017304789 -0,886440877163988 -0,684067295131305 
0,467823509517509 1,35016997983734 0,00788363023096861 0,498963677729463 -0,503763852409908 2,21224496418342 0,631745425519881 0,160520158610083 1,1304407636041 -0,687556092827374 
