0,635703789539032 -0,402005392779599 -0,340564741445968 -0,391497750483219 -0,672441619934254 -0,589979500318868 0,0891520600249767 0,780758154476415 1,11355886677492 
0,362583364063214 -0,767488019432634 0,486770810320401 -0,250573882191243 0,477058781998725 1,54273806228942 -0,918686282783135 -0,980993971219749 0,805028788361712 
1,25503316411098 -0,947164823276533 -0,833122954333258 -0,226888292109076 0,402520748215504 0,818948130039008 0,557370533029256 0,986562172876001 1,63187463581696 
1,49653036606849 0,804268789093601 1,32090570204514 0,200384656526327 -0,0558528877123505 0,868177608525463 -0,252920461177789 1,45224536481464 -0,361699338412238 
-0,120152422748577 1,07779116437248 0,752757411042115 0,491020232840451 -0,165508735243468 -0,90387182928383 -0,651932957420094 -0,184636567632499 0,488475217245741 
-0,930677246908507 -1,53092888551854 1,3304273894529 -1,56980429866389 -0,491052984661447 0,514446929802395 0,826570693322723 0,526999564328231 -0,443082645914556 
0,522440749929492 -0,830407918351892 1,5814738590049 0,533487128515023 0,744131716487525 0,0339962071897444 -0,528854136135827 0,28562169395649 -0,330510634617186 
0,79265316472978 -0,144801292463113 0,981364868279716 0,618593201794938 -1,69065342101345 0,02481341718408 0,211437400701659 0,201466139965442 0,327214864407766 
-0,947728622680404 -0,235987068729469 -0,474656088033065 -0,236251125049429 -0,574955334688982 0,280157315848003 0,0234729127932679 -0,204952220062237 0,824491058394542 
