0,587690367809818 0,932367819036994 0,858511332063708 0,632020519875 -0,851668748642629 0,925519768113978 0,841215354316502 -0,989821505435194 1,29202175310954 
-0,245618720480529 -0,838936092257004 -0,348451456682967 -1,09234055479213 0,976412390986184 -0,891171124713109 -0,472860877156658 0,0633857366924109 -0,297077226125205 
-0,638454442675437 0,348093399474441 -0,000260435803449033 0,735616932207074 1,49829297972345 0,956686397062934 -0,440475132987124 -1,57651162517607 -1,38268604024951 
-0,0441280415622181 -0,680522334613149 1,16083704937801 -0,179121745368057 0,463271838362921 0,362539941148152 -0,119632522165604 0,0230225903885539 0,0475752998229929 
0,440892290063618 0,690488718305942 1,65543733352164 0,193051262382907 0,6684044681808 -0,158880625459776 0,129494957220506 1,33954432872615 -0,100174526557873 
-0,506096230296928 -1,40593032342239 0,544983064543914 -0,590326482239331 0,679526516725554 0,718117411117124 -0,746719798886552 0,893577285992716 -1,51041006477615 
-0,368481114212648 0,159073435602744 1,12707483931355 0,208824935000774 0,765495652862124 -0,275157123466561 -0,0777941916365149 -0,114656604121279 -0,616299170822044 
-0,17581529626847 0,240503024887528 0,390792069380075 -0,403991397831119 0,720291967373477 -0,0466101994023705 0,754253575463897 0,779246832779724 -0,320102981613531 
-0,631682829759867 1,04633816770154 1,57259969690051 0,216857943319184 -0,374219205577494 -0,951271761824503 0,103271535473071 -0,190639655021783 0,642395101028213 
