0,454749307979713 -0,313572656974929 1,15643931158233 -0,757080859391522 1,68210551890224 -1,10421347407401 0,893587810576236 -0,541182961101263 0,033407672496702 
1,46216581195275 -0,0032166045309121 -1,41557044060275 1,58323412013903 0,866063827293489 0,731338825590135 -0,83096986133697 -0,352758304552994 -1,19206486901411 
-0,54282079056968 0,501227760455212 1,05100722863432 1,62804815359369 -0,281488570981421 -0,880943605620853 -0,666804451340253 0,555565205195716 0,96717967248437 
-0,498095667687289 0,598387277205189 0,733880693900343 -0,551067015878422 0,316451650725888 0,836163995418308 0,778514648391639 0,423250772721717 1,24696053826155 
0,718330927700424 1,66490111501697 -0,867382039254244 -0,58915895827122 1,3146280635547 -1,55185071468486 0,309267359171187 1,66978319084308 -0,677215141093924 
-1,47616479631847 -1,0868298958325 -1,55248397771431 -0,862889237638046 1,127016598125 0,712240759787728 0,388527331589035 0,630274153142364 -0,910856282296989 
0,949210601835144 -0,17329884561398 0,967915914006492 1,03738291720319 0,909723591948731 -1,25945968629348 -0,378393146558382 -0,994316521736475 0,553429761693547 
-0,393473021403641 -0,372767172168832 -0,0126682552568002 0,134265563978937 -0,888280528252609 0,749813054571773 1,17737828732858 0,836699210962606 0,36834058043004 
0,433485440353158 0,168494294941655 0,679688931293641 -0,227379810343673 1,60612197498657 -1,53425134900271 0,749860923620807 0,372621097309804 0,82941869824632 
