-0,146096937599171 0,01092614373701 -0,200932106562393 -0,217334074535097 -1,75226663588279 -0,13927923259804 0,672161994349287 0,147032283780646 0,004198809914849 
1,5772373878021 -0,70677947704996 0,928082433202808 0,396488045061234 -0,0783569513388711 -0,506695480494618 0,883226698848524 0,83686438445368 -0,0600563152972869 
-0,589241063962337 0,910113308243972 -1,13929289247901 -0,56539664956061 -0,890142105814136 0,201597648939396 0,191179449586281 -0,984732875300447 0,291720675613135 
0,968835303545387 -1,16478530668457 -0,0557135261719639 0,669074057447293 -0,604166598513334 0,71258121686223 1,2791591815884 -0,920416441708997 -0,827894834721412 
-0,888895109244108 -1,40324388527043 0,440084179602602 0,534471584267203 -0,81794918971972 -1,32922832997107 -0,895648175801918 -0,7249813888804 0,675952533454612 
-0,0203687339184661 1,04161254568613 -0,303351781006601 1,04220196577404 1,5301680927636 -1,67412039453402 -1,43307542046722 -0,862726809100121 -1,09371549331803 
-0,252119526850115 -0,580700288038561 -0,177931750448855 -2,09552975550179 0,591486475878622 0,925466239417654 0,648000091788825 1,3963266908039 -0,381182409534781 
1,48565316472978 -0,144801292463113 -0,404635131720284 0,618593201794938 -0,304653421013455 0,02481341718408 0,211437400701659 -0,491533860034558 -0,365785135592234 
-0,254728622680404 0,457012931270531 -0,474656088033065 -0,929251125049429 -0,574955334688982 -0,412842684151997 -0,669527087206732 0,488047779937763 0,824491058394542 
