-0,146096937599171 -1,37507385626299 -0,200932106562393 -0,217334074535097 -0,36626663588279 -0,13927923259804 1,36516199434929 0,147032283780646 -0,688801190085151 
1,5772373878021 -0,70677947704996 0,235082433202808 0,396488045061234 -1,46435695133887 0,186304519505382 -0,502773301151476 1,52986438445368 0,632943684702713 
-1,28224106396234 -0,475886691756028 -1,13929289247901 0,12760335043939 0,495857894185864 -1,1844023510606 0,191179449586281 -1,67773287530045 0,291720675613135 
0,968835303545387 -1,85778530668457 1,33028647382804 -0,023925942552707 -0,604166598513334 1,40558121686223 1,9721591815884 -0,227416441708997 -0,827894834721412 
0,497104890755892 -0,71024388527043 1,1330841796026 0,534471584267203 -0,81794918971972 -0,636228329971073 -0,202648175801918 -1,4179813888804 -0,017047466545388 
-0,713368733918466 1,04161254568613 -0,303351781006601 0,349201965774038 0,8371680927636 -2,36712039453402 -0,740075420467218 -0,169726809100121 -0,400715493318027 
-0,945119526850115 -0,580700288038561 0,515068249551145 -1,40252975550179 0,591486475878622 1,61846623941765 -0,0449999082111753 0,0103266908039 0,311817590465219 
0,09965316472978 -0,837801292463113 0,981364868279716 1,31159320179494 -1,69065342101345 1,41081341718408 -0,481562599298341 -0,491533860034558 0,327214864407766 
-0,947728622680404 0,457012931270531 -0,474656088033065 -0,929251125049429 -0,574955334688982 -0,412842684151997 -0,669527087206732 -0,204952220062237 1,51749105839454 
