-0,750296210460968 0,290994607220401 0,352435258554032 -0,391497750483219 -0,672441619934254 -0,589979500318868 0,089152060024977 0,780758154476415 0,420558866774924 
0,362583364063214 -1,46048801943263 -0,206229189679599 0,442426117808757 -0,215941218001275 0,849738062289422 -0,918686282783135 -0,98099397121975 -0,580971211638288 
1,25503316411098 -1,64016482327653 0,552877045666742 0,466111707890924 1,0955207482155 0,818948130039008 -0,828629466970744 -0,399437827123999 2,32487463581696 
0,803530366068487 0,111268789093601 -0,065094297954856 -0,492615343473673 -0,0558528877123505 0,868177608525463 0,440079538822211 0,066245364814645 0,331300661587762 
-0,120152422748577 0,384791164372485 0,0597574110421153 -0,201979767159549 0,527491264756532 0,48212817071617 -0,651932957420094 -0,877636567632499 0,488475217245741 
-0,930677246908507 -0,14492888551854 0,637427389452899 -1,56980429866389 0,894947015338553 -0,178553070197605 0,826570693322723 -0,859000435671769 0,249917354085444 
1,21544074992949 -1,52340791835189 0,888473859004897 0,533487128515023 -0,641868283512475 0,0339962071897444 -0,528854136135827 0,97862169395649 -1,02351063461719 
0,79265316472978 -1,53080129246311 0,288364868279716 0,618593201794938 -0,997653421013455 0,71781341718408 -0,481562599298341 0,201466139965442 0,327214864407766 
-0,947728622680404 -0,928987068729469 -1,16765608803306 -1,62225112504943 0,118044665311018 -1,105842684152 -0,669527087206732 -0,204952220062237 0,824491058394542 
