-1,52154613840047 -0,408885976662806 -0,608474649306608 0,468375401323836 -0,343556724183055 -0,308434024131128 0,0473524513874912 -0,750363697820047 -0,599428589269253 1,57273581248882 
-0,967039950815048 -0,194199483759328 -0,688440029364284 -1,63672040682645 -0,491795239733437 0,870517052649761 0,159942682148396 1,47439905528231 0,146832733949103 -0,736398531639668 
-0,447050068908394 0,587211875691177 -0,798465455788404 -0,00651099829818591 0,982943656846389 0,652954228992087 -0,0413862052566307 -0,839767992128976 -0,23005064290904 -0,248383191995501 
0,5822941823645 -0,94146418073795 0,876408138254847 -0,492799655936565 -0,876303081343092 0,575537874165707 0,934337527167675 -1,21670977938348 -0,964654897961605 0,662209340852317 
-0,447360857132525 0,714186250099068 0,235931219177289 -0,160024810191255 -0,552158510103895 -0,672921500947756 -0,730053350203695 -0,153765038485995 0,970777539522749 -1,26679701154949 
0,749319826136027 -0,289218396548749 -1,64340550080613 -1,53605013522648 0,112885814678336 0,277241985908357 -0,610420520874402 -0,294963651008421 0,485431744477447 0,00348904682485807 
1,4259521811255 -1,49887955648353 -0,134313054911007 1,34195460272625 -0,00955836987567993 1,6674242299229 -0,763607622014176 -0,581640373427719 0,932582674516636 -0,067333113899144 
-0,370820474517914 0,990652461531876 0,0530539532439103 -0,129376606903214 -0,596037674507144 1,22476368099254 -0,0347193434861109 0,361559354402851 -0,454352488194291 1,34886515779414 
-0,884544801844538 1,06895361069588 -0,080686636133905 -0,470395557042861 0,728744335053369 1,3374883670865 1,60140489413049 -0,920163365975098 -0,10653325035541 1,17038492557657 
