0,674561730434448 -0,0349283074191438 -0,875553849095271 0,661609355202694 0,307299853911297 0,328551736054733 0,195342814175106 0,15621981852931 0,811776141548425 
0,10433590620539 0,533950650847494 0,123208957315986 -0,618420039125914 -0,00546288071454637 -0,392518892308473 -1,13779719057903 0,441971022375846 -0,0517860696095911 
0,526408769901101 -0,270084044263272 -0,0871444995124571 0,58903345446523 -0,260309740556548 -0,713733371852307 1,23830724768774 -0,188913524411578 -0,674873771925864 
-1,48764043015365 -0,441184108523738 0,198198073463141 -0,109095874758948 0,166694325299791 -0,620433240952172 0,316305700371184 0,368450727019669 0,261210653586877 
-1,01907689841002 0,795759987629373 1,56359606046909 -0,648569626570013 0,367856657769464 0,503379930510828 -1,28139169591125 0,166187433137646 -0,192391949329708 
-1,1364069373847 0,902772483370627 0,223714505599213 -0,0787544534908395 -0,13970945921713 0,115822672139305 -1,45853915057589 0,168128349430919 -0,360785692339663 
0,066669398191231 0,660879316288922 1,07447484109806 0,947963052405027 -0,0100405286112989 1,25203608983338 -0,011849219743558 -0,140348102497099 -0,060137122138933 
0,944665621940356 -0,30821162214466 0,660775316721189 0,599991594254967 0,349822552279021 -0,056497370091964 0,412711002297565 0,866801539081056 -0,560120984707084 
0,27450662043202 -0,0974854453124501 -0,521017700210688 -0,703279958899729 -0,783737491715577 0,185180658733556 -0,496572766857023 0,113551333133854 -0,641164254230058 
