-0,69855275363594 -0,0126653352676259 0,909321773755048 -1,57954122775725 0,373813963203604 -0,196852452040581 -0,381739745559981 0,917638788892719 -0,103346716833462 -0,250173197417135 
-0,2676395512636 0,02665944788496 -0,974238796147629 0,0198743689762769 -0,758130429199958 -1,57336119466664 0,248413877850126 2,34616472483061 -1,49288965103398 -0,549270448703445 
-1,29224791082705 0,414433208021537 -1,10301457879786 1,39287385985436 -0,294118313721436 1,42578966254219 0,463509740989427 -0,137424191058345 1,42155944918867 0,559436637703067 
-0,391683456843106 0,203014215721755 -1,43691606345024 0,209505148795203 -0,137301382499887 0,605287029224116 -0,239832408372235 1,37219439248703 -0,904615255666718 0,178217320320298 
0,000332947354918733 -0,915292209906174 -0,871839865982458 0,768610598118794 0,162105691229042 -1,39244458347719 -1,66648982653277 -1,25586143770575 -0,716525658833108 0,951110069617215 
1,56263078746089 -0,373007408982612 -0,869637436172756 -0,0416817713587929 0,664766522899627 -1,31116672590476 -0,231423635902081 0,908840898381938 0,23322670684812 0,599514647200478 
-0,266839085098281 1,58668681232151 -0,534053086086201 1,53810586682945 -0,165489740574029 0,529346233014644 -0,922424488664802 -0,183743944942832 -0,149824248523835 -0,363417458424073 
0,359471213705592 -0,816780514636906 0,171779980497332 0,0218930286457264 -0,856603396058364 -0,924983254598912 0,791453838251277 0,22214770251566 -0,854624815855932 -1,11332335112818 
1,4407891425359 -0,060151929236553 -0,558900899048383 0,500581805361706 1,5679166288762 -0,325676047860494 -0,620348348105489 -0,395234292091445 1,23773862589558 0,787865343404871 
