0,826663650198683 -1,32820643004924 -0,221629320919807 -0,978360065887384 0,0604056525325429 1,37917749758352 0,0540202777152976 0,136304046556495 -0,403450381664303 1,27904462425506 
1,37394801049724 -0,937822476931765 0,699077647039237 0,789234188287162 -0,0770554147088227 0,280719523621592 -0,990259619425172 -0,343449636988086 1,02845311416288 0,775569639702593 
0,259777709204134 -1,10140673605372 -0,344580057703229 0,900279683945831 0,0382203927306549 0,51279476076029 -0,274917008948939 -1,19009899606979 0,165898696131026 0,245951460616175 
-0,417673811683745 0,458964011379966 0,69987455555232 0,588424178287119 -0,150125086843094 0,0321449552016081 0,743749680516659 -1,31153493452935 -0,327095028630968 0,12809751700987 
-0,890941403755425 1,16444337532643 0,168440645811819 -0,166246885045547 -0,14582052228312 -0,245096047057349 -0,19010901663504 0,590648840922233 0,589627858991561 -0,684798355705942 
-0,0851882785024067 0,752707347158672 -0,759172480441245 0,474725929775613 0,262640989042186 -0,826262368739705 0,197778498380342 1,12567146471547 1,09749924553023 -0,638196707241794 
-0,155388438680856 0,3700490019941 0,0829498959160178 -0,461002305830364 0,645174272193189 0,466103343682877 -0,774881490108502 0,0351702787010789 -0,965029459137483 -1,32808388289953 
1,09966886484561 0,309845188018328 0,73313633246959 -1,31206411294782 1,48183657128962 -0,597665666122299 -0,883847381865535 1,51466682734232 0,739100206228951 0,590316439788005 
-0,99009622260467 -0,558565849871172 0,606273144938644 -0,149302948163032 0,0241397391185816 0,522618841157583 0,911136491821211 -0,774851374223293 0,632783189244933 -0,32386271810339 
