-0,839096937599171 -1,37507385626299 0,492067893437607 -0,217334074535097 -1,75226663588279 0,55372076740196 0,672161994349287 0,147032283780646 0,004198809914849 
0,884237387802097 -0,70677947704996 0,928082433202808 0,396488045061234 -0,771356951338871 0,186304519505382 -0,502773301151476 0,14386438445368 1,32594368470271 
-0,589241063962337 -0,475886691756028 0,246707107520991 -0,56539664956061 0,495857894185864 -0,491402351060604 0,191179449586281 -0,291732875300447 0,291720675613135 
1,66183530354539 -1,16478530668457 0,637286473828036 -0,023925942552707 0,088833401486666 0,71258121686223 1,9721591815884 -0,227416441708997 -0,827894834721412 
-0,195895109244108 -0,71024388527043 -0,252915820397398 0,534471584267203 -1,51094918971972 -1,32922832997107 -1,58864817580192 -0,7249813888804 -0,710047466545388 
0,672631266081534 1,04161254568613 1,0826482189934 -0,343798034225962 1,5301680927636 -1,67412039453402 -0,047075420467218 0,523273190899879 0,292284506681973 
-0,945119526850115 0,112299711961439 -0,177931750448855 -0,70952975550179 0,591486475878622 0,925466239417654 0,648000091788825 0,7033266908039 0,311817590465219 
0,79265316472978 -0,837801292463113 0,981364868279716 -0,0744067982050619 -0,997653421013455 0,71781341718408 0,211437400701659 0,201466139965442 -0,365785135592234 
-1,6407286226804 -0,235987068729469 -0,474656088033065 -0,929251125049429 -1,26795533468898 0,280157315848003 -0,669527087206732 0,488047779937763 1,51749105839454 
