-1,39155275363594 1,37333466473237 0,909321773755048 -1,57954122775725 0,373813963203604 -0,196852452040581 0,311260254440019 0,917638788892719 1,28265328316654 -0,943173197417135 
-0,9606395512636 0,02665944788496 -0,281238796147629 -1,36612563102372 -0,758130429199958 -1,57336119466664 -0,444586122149874 1,65316472483061 -0,799889651033976 -0,549270448703445 
-0,599247910827048 -0,278566791978463 -0,410014578797861 2,08587385985436 -0,294118313721436 1,42578966254219 -0,229490259010573 0,555575808941655 1,42155944918867 0,559436637703067 
0,994316543156894 -1,18298578427824 -0,743916063450238 -0,483494851204797 -1,52330138249989 0,605287029224116 -0,932832408372235 0,679194392487032 0,481384744333282 0,178217320320298 
0,693332947354919 -0,915292209906174 -0,178839865982458 0,768610598118794 0,162105691229042 -0,699444583477194 -0,973489826532774 0,130138562294253 -0,0235256588331081 0,258110069617215 
0,869630787460893 -0,373007408982612 -0,176637436172756 0,651318228641207 0,664766522899627 -0,618166725904758 -0,924423635902081 1,60184089838194 0,23322670684812 -0,093485352799522 
-1,65283908509828 0,89368681232151 -0,534053086086201 1,53810586682945 -0,858489740574029 0,529346233014644 -0,922424488664802 -0,183743944942832 -0,842824248523835 -0,363417458424073 
1,05247121370559 0,569219485363094 -0,521220019502668 0,0218930286457264 -0,856603396058364 -0,924983254598912 0,0984538382512771 -1,16385229748434 0,531375184144068 0,272676648871823 
0,0547891425359011 0,632848070763447 -1,25190089904838 0,500581805361706 0,874916628876196 0,367323952139506 -1,31334834810549 -1,08823429209144 0,544738625895576 0,787865343404871 
