0,674561730434448 -0,727928307419144 -1,56855384909527 -0,0313906447973059 0,307299853911297 -1,05744826394527 0,888342814175106 0,84921981852931 1,50477614154843 
0,10433590620539 1,22695065084749 0,123208957315986 0,0745799608740859 -0,698462880714546 -0,392518892308473 0,248202809420974 1,13497102237585 -0,0517860696095911 
0,526408769901101 -0,270084044263272 -0,780144499512457 0,58903345446523 -0,260309740556548 -0,0207333718523073 0,54530724768774 0,504086475588422 0,018126228074136 
-0,794640430153646 -0,441184108523738 0,891198073463141 -0,109095874758948 0,166694325299791 -0,620433240952172 0,316305700371184 1,06145072701967 0,261210653586877 
-1,01907689841002 0,102759987629373 1,56359606046909 -0,648569626570013 0,367856657769464 0,503379930510828 -0,588391695911247 0,859187433137646 -0,192391949329708 
0,249593062615298 0,902772483370627 0,223714505599213 -0,771754453490839 -0,13970945921713 -1,27017732786069 -0,765539150575893 0,861128349430919 1,02521430766034 
-0,626330601808769 -0,725120683711078 0,381474841098057 1,64096305240503 -0,0100405286112989 0,559036089833377 -0,704849219743558 -0,140348102497099 0,632862877861067 
0,944665621940356 0,38478837785534 1,35377531672119 0,599991594254967 0,349822552279021 1,32950262990804 0,412711002297565 0,173801539081056 0,132879015292916 
-1,11149337956798 -0,79048544531245 -1,21401770021069 -0,703279958899729 -0,783737491715577 -0,507819341266444 0,196427233142977 0,113551333133854 -0,641164254230058 
