-0,105309632190182 0,239367819036994 0,165511332063708 0,632020519875 -0,158668748642629 0,925519768113978 0,841215354316502 -0,296821505435194 0,599021753109536 
-0,938618720480529 -0,838936092257004 -0,348451456682967 -0,399340554792127 0,283412390986184 -0,891171124713109 -0,472860877156658 0,0633857366924109 -0,297077226125205 
-0,638454442675437 0,348093399474441 -0,693260435803449 0,0426169322070744 0,805292979723445 0,956686397062934 -0,440475132987124 -0,883511625176068 -0,689686040249507 
-0,737128041562218 -0,680522334613149 0,467837049378006 -0,179121745368057 0,463271838362921 0,362539941148152 -0,119632522165604 -0,669977409611446 -0,645424700177007 
0,440892290063618 0,690488718305942 0,962437333521637 0,193051262382907 0,6684044681808 -0,158880625459776 0,129494957220506 0,64654432872615 -0,793174526557873 
0,186903769703072 -0,712930323422388 0,544983064543914 -0,590326482239331 -0,0134734832744456 0,718117411117124 -0,746719798886552 0,893577285992716 -0,817410064776153 
-0,368481114212648 0,852073435602744 0,434074839313549 0,208824935000774 0,0724956528621239 -0,275157123466561 0,615205808363485 0,578343395878721 -0,616299170822044 
-0,86881529626847 0,240503024887528 -0,302207930619925 0,289008602168881 0,720291967373477 -0,0466101994023705 0,754253575463897 0,0862468327797237 0,372897018386469 
-0,259514559646842 0,168494294941655 0,679688931293641 0,465620189656327 0,913121974986569 -0,841251349002706 0,749860923620807 0,372621097309804 0,82941869824632 
