-0,750296210460968 -0,402005392779599 -1,03356474144597 0,301502249516781 0,0205583800657458 -0,589979500318868 0,089152060024977 0,780758154476415 0,420558866774924 
1,05558336406321 -1,46048801943263 -0,899229189679599 -0,250573882191243 -0,908941218001275 0,849738062289422 -0,918686282783135 -2,36699397121975 0,112028788361712 
1,25503316411098 -0,947164823276533 0,552877045666742 -0,226888292109076 0,402520748215504 0,818948130039008 -0,135629466970744 0,986562172876001 1,63187463581696 
1,49653036606849 0,804268789093601 -0,065094297954856 0,893384656526327 -0,0558528877123505 0,868177608525463 1,13307953882221 0,759245364814645 1,02430066158776 
-0,813152422748577 -0,308208835627515 -0,633242588957885 -0,201979767159549 -0,165508735243468 -0,21087182928383 -0,651932957420094 -0,877636567632499 1,18147521724574 
0,455322753091493 -0,14492888551854 1,3304273894529 -0,876804298663886 0,201947015338553 -0,178553070197605 1,51957069332272 -0,166000435671769 -0,443082645914556 
-0,170559250070508 -0,830407918351892 1,5814738590049 -0,159512871484977 -0,641868283512475 -0,659003792810256 -0,528854136135827 0,28562169395649 -0,330510634617186 
1,48565316472978 -0,837801292463113 0,288364868279716 0,618593201794938 -1,69065342101345 1,41081341718408 -0,481562599298341 0,201466139965442 -0,365785135592234 
-0,254728622680404 -0,235987068729469 -1,16765608803306 -0,236251125049429 -0,574955334688982 -0,412842684151997 -0,669527087206732 -0,204952220062237 0,824491058394542 
