-1,39155275363594 1,37333466473237 1,60232177375505 -0,88654122775725 0,373813963203604 -0,196852452040581 -0,381739745559981 0,224638788892719 0,589653283166538 -0,943173197417135 
-0,2676395512636 -0,66634055211504 -0,281238796147629 -0,673125631023723 -0,065130429199958 -0,880361194666643 -0,444586122149874 1,65316472483061 -0,106889651033976 0,143729551296555 
-1,29224791082705 -0,278566791978463 -1,10301457879786 1,39287385985436 -0,294118313721436 2,11878966254219 0,463509740989427 -0,830424191058345 2,11455944918867 -0,826563362296933 
0,301316543156894 0,203014215721755 -0,743916063450238 0,209505148795203 -0,830301382499887 1,29828702922412 -0,239832408372235 0,679194392487032 0,481384744333282 0,178217320320298 
0,693332947354919 -0,915292209906174 -0,871839865982458 -0,617389401881206 0,162105691229042 -0,699444583477194 -0,280489826532774 -0,562861437705747 -0,0235256588331081 0,951110069617215 
0,869630787460893 -1,06600740898261 -0,869637436172756 1,34431822864121 0,664766522899627 -1,31116672590476 -1,61742363590208 1,60184089838194 0,23322670684812 0,599514647200478 
-0,266839085098281 0,89368681232151 0,158946913913799 0,845105866829448 -0,165489740574029 0,529346233014644 -0,922424488664802 0,509256055057168 -0,842824248523835 -1,05641745842407 
1,05247121370559 0,569219485363094 -0,521220019502668 -0,671106971354274 -0,163603396058364 -0,231983254598912 0,791453838251277 0,22214770251566 -0,854624815855932 0,272676648871823 
0,0547891425359011 1,32584807076345 -1,25190089904838 -0,192418194638294 1,5679166288762 -1,01867604786049 -0,620348348105489 -1,08823429209144 0,544738625895576 0,0948653434048711 
