-0,698552753635939 -0,0126653352676259 1,60232177375505 -0,886541227757251 0,373813963203604 -0,196852452040581 0,311260254440019 1,61063878889272 -0,103346716833462 1,13582680258286 
0,127634646257681 0,391269638850945 1,20761794018495 -1,11352850752162 0,86472411947638 -0,562045920436292 0,430439488111269 0,445855280764799 0,0855654119912375 0,457130049740956 
-0,154716317786703 0,933588728623273 0,0280026115472439 -0,241953715329037 -0,528228664258136 -0,239934925567328 1,64698583912942 0,56422200871828 0,25094503565782 -0,217951814279869 
-1,39877103351512 -2,31417487098657 2,37993829237387 -0,434188339595771 -0,640072364830911 0,0836933530325505 0,234770989913387 -0,558494532275244 -0,193986147559707 0,638826910876588 
0,102204506160321 0,665050155034312 1,56777564404056 -0,642837561500649 0,951487161834951 -0,230161369126831 1,67824156491516 -2,08918414070792 -0,443661621512688 0,751981357928357 
-0,71418796186996 -0,532015997698538 0,133079703493546 -1,55258186623621 0,82137089680013 1,04748372799646 -0,715369273775895 1,62600031588087 -1,23936446737981 -0,350915596518161 
-1,38842562854263 -0,143925298538024 -0,0266663272193011 -1,50776433939057 0,0558079492425579 0,748809517244254 -0,29566865352293 -0,0511937202192814 -0,166456142690711 0,39503076644383 
-1,18281691034968 -0,783065979613488 -0,360158571675494 -0,860261498885351 -0,0310744564193648 0,952233527178985 0,365813084582711 1,67084017304789 -0,193440877163988 -0,684067295131305 
0,467823509517509 0,65716997983734 0,00788363023096861 -0,194036322270537 0,189236147590092 0,82624496418342 -0,754254574480119 0,160520158610083 0,437440763604101 -0,687556092827374 
