-0,105309632190182 0,932367819036994 0,165511332063708 0,632020519875 -0,851668748642629 0,925519768113978 0,841215354316502 0,396178494564806 0,599021753109536 
-0,938618720480529 -1,531936092257 -0,348451456682967 -0,399340554792127 0,283412390986184 -0,198171124713109 -0,472860877156658 0,756385736692411 -0,990077226125205 
-1,33145444267544 0,348093399474441 -0,693260435803449 0,0426169322070744 1,49829297972345 0,956686397062934 -1,13347513298712 -1,57651162517607 -0,689686040249507 
-0,737128041562218 0,0124776653868509 1,16083704937801 0,513878254631943 0,463271838362921 -0,330460058851848 -0,812632522165604 0,0230225903885539 0,0475752998229929 
1,13389229006362 -0,0025112816940579 0,962437333521637 0,193051262382907 0,6684044681808 -0,158880625459776 -0,563505042779494 1,33954432872615 -0,793174526557873 
-0,506096230296928 -0,0199303234223881 0,544983064543914 -1,28332648223933 -0,0134734832744456 0,718117411117124 -0,746719798886552 0,893577285992716 -1,51041006477615 
-1,06148111421265 0,852073435602744 0,434074839313549 0,208824935000774 0,0724956528621239 -0,275157123466561 1,30820580836349 1,27134339587872 -0,616299170822044 
-0,86881529626847 0,240503024887528 -0,302207930619925 0,982008602168881 0,720291967373477 0,646389800597629 0,754253575463897 0,0862468327797237 0,372897018386469 
-0,631682829759867 0,35333816770154 0,186599696900509 0,216857943319184 0,318780794422506 -0,951271761824503 0,103271535473071 -1,57663965502178 -0,0506048989717871 
