0,458330895206579 0,160198440677113 0,332951148661296 0,749719638260882 -0,432401946481504 0,569694552370205 -0,513049994075694 -0,058151407952957 -1,21505084521419 -0,772499539490556 
-0,767932644937156 -0,382006934556182 0,237594456988198 0,577845454019422 -0,216938927697921 -0,542581454637731 0,691310253488976 -0,593958696161378 0,509033404062052 1,59089516753419 
0,801450632420113 0,0837029677139139 -0,347267524966629 0,59731738716239 0,650900179357687 0,0202101613489027 -0,0300640145591761 -0,790455979197498 0,42535265851596 0,507920359963514 
0,919187675830996 0,548111381730117 0,793363246970513 0,484145212678306 -1,51205679675707 -0,666110091687231 -0,917940917386646 0,891887044483743 -0,740172824701375 0,301154247159676 
-0,91975471373636 0,668415425190896 0,153263436236076 1,59133366307352 -0,84424879953463 0,306163057361805 -0,330760476799105 1,25710397941438 -0,0433448883906682 -1,06386158030241 
0,309040413847678 -0,914822124836418 -0,539181578689805 -0,659209294724376 0,1479444686081 0,435960682484769 0,0190610949173851 0,874053291917803 0,756739754754929 -0,26680450881636 
-0,2837584878573 0,537476256912796 -1,28904861195947 0,0886292583721826 -0,640143051575936 -0,17416337123288 -0,731185723902278 -0,785067565639069 -0,084709014955772 -1,10394532302159 
-1,18733955899176 -1,57514666390892 0,0897231877132889 -1,6587011329968 0,00232435343895321 -0,173964792770783 0,237439531477839 0,447398811959847 0,44156618669702 -1,34826287800412 
-0,649029361851993 -0,287167993973553 0,25288890919317 -0,203785761181631 -0,801120053884164 0,141009800667413 0,780292960419922 0,452572541694889 0,0292007440702059 0,437982520758166 
