-0,750296210460968 -0,402005392779599 0,352435258554032 -0,391497750483219 0,0205583800657458 -0,589979500318868 -0,603847939975023 0,780758154476415 0,420558866774924 
1,05558336406321 -1,46048801943263 -0,206229189679599 -0,250573882191243 -0,908941218001275 0,849738062289422 -1,61168628278313 -2,36699397121975 0,112028788361712 
0,56203316411098 -0,254164823276533 0,552877045666742 0,466111707890924 1,0955207482155 0,818948130039008 -0,135629466970744 0,293562172876001 1,63187463581696 
0,803530366068487 0,111268789093601 1,32090570204514 0,893384656526327 -0,0558528877123505 0,868177608525463 0,440079538822211 0,759245364814645 1,02430066158776 
0,572847577251423 -0,308208835627515 -0,633242588957885 -0,201979767159549 1,22049126475653 -0,90387182928383 -0,651932957420094 -0,184636567632499 1,18147521724574 
-0,930677246908507 -0,14492888551854 0,637427389452899 -1,56980429866389 -0,491052984661447 1,2074469298024 0,826570693322723 -0,859000435671769 0,249917354085444 
0,522440749929492 -0,830407918351892 1,5814738590049 -0,159512871484977 0,0511317164875249 0,726996207189744 -0,528854136135827 -0,40737830604351 -0,330510634617186 
0,79265316472978 -0,837801292463113 -0,404635131720284 0,618593201794938 -0,997653421013455 0,71781341718408 0,211437400701659 0,894466139965442 -1,05878513559223 
-1,6407286226804 -0,928987068729469 -0,474656088033065 -0,929251125049429 0,118044665311018 -0,412842684151997 -1,36252708720673 0,488047779937763 0,824491058394542 
