-1,44329621046097 0,290994607220401 -0,340564741445968 -0,391497750483219 0,0205583800657458 -0,589979500318868 -0,603847939975023 0,780758154476415 1,11355886677492 
0,362583364063214 -0,76748801943263 -0,206229189679599 -0,250573882191243 0,477058781998725 0,849738062289422 -1,61168628278313 -0,98099397121975 0,112028788361712 
1,94803316411098 -0,947164823276533 -0,140122954333258 1,15911170789092 1,0955207482155 0,818948130039008 -0,135629466970744 0,986562172876001 2,32487463581696 
0,803530366068487 -0,581731210906399 -0,065094297954856 0,200384656526327 0,637147112287649 1,56117760852546 1,13307953882221 0,759245364814645 1,02430066158776 
-0,120152422748577 0,384791164372485 0,0597574110421153 -0,201979767159549 -0,165508735243468 -0,21087182928383 -0,651932957420094 -0,877636567632499 0,488475217245741 
0,455322753091493 -0,83792888551854 1,3304273894529 -0,876804298663886 0,201947015338553 -0,178553070197605 0,826570693322723 0,526999564328231 -0,443082645914556 
0,522440749929492 -0,830407918351892 0,888473859004897 -0,159512871484977 0,0511317164875249 0,0339962071897444 -1,22185413613583 0,97862169395649 -0,330510634617186 
1,48565316472978 -1,53080129246311 0,288364868279716 1,31159320179494 -0,997653421013455 0,02481341718408 -0,481562599298341 -0,491533860034558 0,327214864407766 
-0,947728622680404 -0,928987068729469 -1,16765608803306 -0,929251125049429 0,118044665311018 -0,412842684151997 -1,36252708720673 -0,897952220062237 0,131491058394542 
