-0,750296210460968 -0,402005392779599 -1,03356474144597 -1,08449775048322 0,713558380065746 -0,589979500318868 0,089152060024977 0,780758154476415 -0,272441133225076 
-0,330416635936786 -1,46048801943263 -0,206229189679599 1,13542611780876 0,477058781998725 0,156738062289422 -1,61168628278313 -0,98099397121975 0,112028788361712 
0,56203316411098 -0,947164823276533 -0,140122954333258 1,15911170789092 1,0955207482155 1,51194813003901 -0,135629466970744 0,986562172876001 0,93887463581696 
1,49653036606849 0,111268789093601 0,627905702045144 -0,492615343473673 -0,0558528877123505 0,868177608525463 0,440079538822211 0,759245364814645 1,02430066158776 
-0,120152422748577 -0,308208835627515 -0,633242588957885 0,491020232840451 0,527491264756532 -0,90387182928383 0,0410670425799059 -0,877636567632499 0,488475217245741 
-0,237677246908507 -0,83792888551854 1,3304273894529 -1,56980429866389 -0,491052984661447 0,514446929802395 0,133570693322723 -0,859000435671769 0,249917354085444 
0,522440749929492 -0,830407918351892 1,5814738590049 -0,159512871484977 0,744131716487525 0,0339962071897444 -1,22185413613583 -0,40737830604351 -1,02351063461719 
0,09965316472978 -0,837801292463113 0,981364868279716 -0,0744067982050619 -1,69065342101345 0,71781341718408 -0,481562599298341 0,201466139965442 -0,365785135592234 
-0,947728622680404 -0,235987068729469 0,218343911966935 -1,62225112504943 -1,26795533468898 0,280157315848003 -1,36252708720673 -0,204952220062237 1,51749105839454 
