-0,097249871337903 0,0398429329692587 0,951998336218297 -0,339896132862147 0,820644318973946 -0,00268085254481099 0,758011467349255 -0,808321230662671 0,835863695403497 
-1,41730749690361 0,520469642020981 1,6725583533028 0,973128252650205 0,697953356927705 0,287921655884442 0,154724640671035 0,542639002922289 -0,547897319098887 
0,253944928117536 1,53983895755878 1,4930999716111 -0,372129187626824 -0,0346319081287979 -1,68896471618673 1,36314439574915 -0,738391770859431 -0,990831632801253 
-0,101640430153646 0,251815891476262 1,58419807346314 -0,109095874758948 0,166694325299791 0,0725667590478279 0,316305700371184 1,06145072701967 0,261210653586877 
0,366923101589979 0,795759987629373 0,870596060469093 -1,34156962657001 0,367856657769464 0,503379930510828 -0,588391695911247 0,166187433137646 -0,192391949329708 
-0,443406937384702 0,209772483370627 -1,16228549440079 0,61424554650916 -0,13970945921713 0,115822672139305 -0,765539150575893 0,168128349430919 1,02521430766034 
-1,31933060180877 0,660879316288922 -0,311525158901943 1,64096305240503 -0,0100405286112989 -0,133963910166623 -1,39784921974356 0,552651897502901 0,632862877861067 
0,251665621940356 0,38478837785534 0,660775316721189 0,599991594254967 -0,343177447720979 0,636502629908036 0,412711002297565 0,866801539081056 0,132879015292916 
0,27450662043202 -0,79048544531245 -0,521017700210688 -1,39627995889973 -0,0907374917155771 -1,20081934126644 0,196427233142977 -0,579448666866146 -0,641164254230058 
