0,674561730434448 -0,727928307419144 -0,182553849095271 -0,0313906447973059 1,0002998539113 0,328551736054733 0,195342814175106 1,54221981852931 0,118776141548425 
0,10433590620539 1,22695065084749 0,816208957315986 -1,31142003912591 -0,698462880714546 0,300481107691527 -1,13779719057903 0,441971022375846 -0,0517860696095911 
1,2194087699011 1,11591595573673 -0,780144499512457 0,58903345446523 -0,953309740556548 -0,0207333718523073 0,54530724768774 0,504086475588422 0,018126228074136 
-0,794640430153646 -0,441184108523738 0,198198073463141 -0,802095874758948 0,859694325299791 -0,620433240952172 0,316305700371184 -0,324549272980331 0,261210653586877 
0,366923101589979 0,795759987629373 0,870596060469093 0,0444303734299869 1,06085665776946 -0,189620069489172 -0,588391695911247 0,859187433137646 -0,192391949329708 
0,249593062615298 1,59577248337063 -0,469285494400787 -0,0787544534908395 -0,13970945921713 -0,577177327860695 -0,765539150575893 -0,524871650569081 0,332214307660337 
-1,31933060180877 -0,0321206837110783 0,381474841098057 0,947963052405027 -0,703040528611299 0,559036089833377 -0,011849219743558 -0,140348102497099 0,632862877861067 
0,944665621940356 0,38478837785534 1,35377531672119 1,29299159425497 -1,03617744772098 0,636502629908036 -0,280288997702435 0,866801539081056 0,132879015292916 
-1,11149337956798 -0,79048544531245 -0,521017700210688 -0,703279958899729 -0,0907374917155771 -0,507819341266444 0,196427233142977 -0,579448666866146 -1,33416425423006 
