-0,698552753635939 0,680334664732374 0,909321773755048 -0,886541227757251 1,0668139632036 -0,889852452040581 -0,381739745559981 0,917638788892719 0,589653283166538 -0,250173197417135 
-1,6536395512636 -0,66634055211504 -0,974238796147629 -1,36612563102372 -1,45113042919996 -0,880361194666643 -0,444586122149874 0,960164724830615 -0,799889651033976 0,143729551296555 
-0,840275464505086 0,226613972268819 0,604758300634454 -0,306519124626889 -0,119767934605371 1,46729931600313 -0,9300133669423 -0,968426557881491 0,45169187497892 1,43754741633709 
-0,647093104965562 1,32750169732538 0,0691503064893889 -0,125648430141457 -0,115495527682591 -0,276747091043623 0,371747731577022 0,0380436056470701 -0,570950149065792 0,53464545101609 
-0,0844541262297211 0,602352052741848 -0,378757395492288 -0,289050695448206 0,690380092566079 0,763437407912424 1,03703132337333 -0,076168165404894 0,75222542253054 -0,377573514705791 
-1,58801081838552 0,899064562874876 0,935336377787095 -0,675373873229313 0,65235649871284 -0,190834123902877 0,610034753386879 1,19216227790488 -0,063775627144974 0,694831642525658 
-0,910962566398998 -1,57031492763772 0,648805233193471 -0,302412254118087 -0,821577965837241 -1,3942219641829 1,67942090334856 0,267151819493692 0,86313463089202 0,158550389943435 
1,04954609341014 1,35366309421354 -0,48566201119016 -0,598354086092838 1,62203834671203 -0,201599963568896 -0,206809396486175 0,265036116650345 0,395493767288278 -0,0575557216338607 
-1,30424166083114 0,232677906394321 -1,19664961358888 -0,586867036105537 -0,238552543911409 0,146842332159561 0,778165319538287 0,358524179718701 -0,471004928854297 0,382338596220286 
