0,635703789539032 -1,0950053927796 -0,340564741445968 -1,08449775048322 0,0205583800657458 -1,28297950031887 0,0891520600249767 0,780758154476415 0,420558866774924 
1,05558336406321 -0,767488019432634 0,486770810320401 0,442426117808757 -0,215941218001275 0,849738062289422 -0,918686282783135 -0,980993971219749 0,805028788361712 
0,562033164110981 -0,947164823276533 -0,140122954333258 -0,226888292109076 -0,290479251784496 1,51194813003901 0,557370533029256 0,986562172876001 0,938874635816959 
1,49653036606849 0,111268789093601 0,62790570204514 0,893384656526327 0,637147112287649 1,56117760852546 0,440079538822211 -0,626754635185355 -0,361699338412238 
-0,120152422748577 -0,308208835627515 0,752757411042115 -0,894979767159549 0,527491264756532 0,48212817071617 -0,651932957420094 -0,184636567632499 1,18147521724574 
0,455322753091493 -0,83792888551854 2,0234273894529 -2,26280429866389 -0,491052984661447 -0,178553070197605 0,82657069332272 -0,859000435671769 0,942917354085444 
-0,863559250070508 -0,830407918351892 0,195473859004897 -0,159512871484977 0,744131716487525 -0,659003792810256 0,164145863864173 0,28562169395649 -0,330510634617186 
1,75914966478066 -0,529328843997945 0,780192625606522 -1,09919324492579 -1,40628326487601 1,26426698809269 0,93527823374899 -0,0693401742914409 -0,873991382249627 
-0,821465287274432 -0,714529062195462 -0,0589712785696479 0,350720310281366 -0,196304118524913 -0,157547597381076 0,17862774271035 0,169210347252996 -0,253891412114208 
