0,133663650198683 0,0577935699507559 1,16437067908019 -0,285360065887384 -0,632594347467457 0,686177497583524 0,0540202777152976 -0,556695953443505 -0,403450381664303 -0,10695537574494 
0,680948010497237 -0,937822476931765 0,699077647039237 0,789234188287162 -0,770055414708823 -0,412280476378408 -0,990259619425172 -0,343449636988086 -0,357546885837124 0,0825696397025928 
0,259777709204134 -1,10140673605372 -0,344580057703229 0,900279683945831 -0,654779607269345 1,20579476076029 -0,274917008948939 -0,497098996069794 -0,527101303868974 0,245951460616175 
0,275326188316255 0,458964011379966 0,00687455555232008 -0,797575821712881 -0,843125086843094 0,725144955201608 0,0507496805166592 -1,31153493452935 -0,327095028630968 0,12809751700987 
-0,890941403755425 1,16444337532643 -0,524559354188181 -0,859246885045547 0,54717947771688 -0,245096047057349 1,19589098336496 1,28364884092223 0,589627858991561 0,00820164429405779 
-0,0851882785024067 0,0597073471586721 -0,759172480441245 1,16772592977561 0,955640989042186 -0,133262368739705 0,197778498380342 -0,260328535284534 0,404499245530227 -0,638196707241794 
-0,155388438680856 -0,3229509980059 0,775949895916018 -0,461002305830364 0,645174272193189 -0,919896656317123 -0,0818814901085019 0,0351702787010789 -0,272029459137483 -1,32808388289953 
-0,28633113515439 -0,383154811981672 0,04013633246959 0,0739358870521819 0,788836571289616 -0,597665666122299 -0,883847381865535 1,51466682734232 0,0461002062289511 1,283316439788 
-1,68309622260467 0,134434150128828 -0,0867268550613555 -0,149302948163032 0,0241397391185816 1,21561884115758 -0,474863508178789 -0,081851374223293 0,632783189244933 -0,32386271810339 
