-0,931250692020287 -0,313572656974929 1,15643931158233 -0,757080859391522 0,989105518902236 -1,10421347407401 0,200587810576236 -0,541182961101263 -1,3525923275033 
1,46216581195275 -0,696216604530912 -0,029570440602754 0,89023412013903 -0,519936172706511 0,0383388255901349 -0,13796986133697 1,03324169544701 -0,499064869014111 
-0,54282079056968 0,501227760455212 0,358007228634324 0,242048153593693 -0,974488570981421 -0,880943605620853 -1,35980445134025 1,24856520519572 -0,41882032751563 
-0,498095667687289 0,598387277205189 0,0408806939003431 0,141932984121578 0,316451650725888 0,836163995418308 -0,607485351608361 0,423250772721717 0,553960538261552 
0,0253309277004241 0,971901115016966 -0,174382039254244 0,10384104172878 -0,0713719364452979 -0,85885071468486 -1,07673264082881 1,66978319084308 0,0157848589060759 
-0,78316479631847 -0,393829895832497 -0,166483977714313 -0,862889237638046 1,127016598125 0,0192407597877275 0,388527331589035 -0,0627258468576359 -1,60385628229699 
0,949210601835144 -0,86629884561398 0,967915914006492 1,03738291720319 0,216723591948731 -0,566459686293481 -0,378393146558382 -0,994316521736475 0,553429761693547 
0,299526978596359 0,320232827831168 0,6803317447432 0,134265563978937 -0,195280528252609 0,0568130545717731 0,484378287328583 0,143699210962606 0,36834058043004 
-0,952514559646842 -0,524505705058345 0,679688931293641 0,465620189656327 0,913121974986569 -0,841251349002706 1,44286092362081 -0,320378902690196 0,13641869824632 
