-0,0055527536359391 0,680334664732374 1,60232177375505 -0,886541227757251 -0,319186036796396 -0,196852452040581 -1,07473974555998 0,224638788892719 0,589653283166538 0,442826802582865 
-0,9606395512636 -1,35934055211504 -0,281238796147629 -0,673125631023723 -0,758130429199958 -0,880361194666643 -1,13758612214987 1,65316472483061 -0,106889651033976 0,143729551296555 
-0,840275464505086 0,226613972268819 -0,0882416993655459 -1,69251912462689 -0,812767934605371 0,774299316003127 -1,6230133669423 -0,275426557881491 -0,24130812502108 0,744547416337089 
0,0459068950344379 0,63450169732538 -1,31684969351061 -0,818648430141457 -0,115495527682591 0,416252908956377 0,371747731577022 0,0380436056470701 0,815049850934208 1,22764545101609 
-0,0844541262297211 -0,090647947258152 -0,378757395492288 -0,982050695448206 1,38338009256608 1,45643740791242 1,03703132337333 -0,769168165404894 -0,63377457746946 -0,377573514705791 
-0,202010818385524 0,206064562874876 0,935336377787095 0,0176261267706874 -0,04064350128716 1,19516587609712 -0,775965246613121 0,49916227790488 -0,063775627144974 0,00183164252565793 
-0,217962566398998 -0,877314927637724 0,648805233193471 -0,302412254118087 -0,128577965837241 -0,008221964182901 0,29342090334856 0,960151819493692 1,55613463089202 0,851550389943435 
0,356546093410135 0,660663094213541 -0,48566201119016 -1,29135408609284 0,92903834671203 -0,894599963568896 -0,206809396486175 0,265036116650345 -0,297506232711722 -0,0575557216338607 
-1,99724166083114 0,232677906394321 -0,503649613588885 -0,586867036105537 -0,238552543911409 0,839842332159561 -0,607834680461713 -0,334475820281299 -0,471004928854297 -0,310661403779714 
