-0,750296210460968 0,290994607220401 0,352435258554032 -0,391497750483219 0,0205583800657458 0,103020499681132 -0,603847939975023 0,780758154476415 0,420558866774924 
-0,330416635936786 -1,46048801943263 -0,899229189679599 1,13542611780876 0,477058781998725 0,156738062289422 -0,918686282783135 -1,67399397121975 0,805028788361712 
0,56203316411098 -0,947164823276533 0,552877045666742 0,466111707890924 -0,290479251784496 1,51194813003901 -0,135629466970744 0,986562172876001 2,32487463581696 
0,110530366068487 -0,581731210906399 0,627905702045144 0,893384656526327 0,637147112287649 0,868177608525463 1,13307953882221 0,759245364814645 -0,361699338412238 
-0,120152422748577 1,07779116437248 -0,633242588957885 -0,894979767159549 0,527491264756532 0,48212817071617 -0,651932957420094 -0,877636567632499 0,488475217245741 
-0,930677246908507 -0,83792888551854 1,3304273894529 -0,876804298663886 0,894947015338553 -0,178553070197605 0,826570693322723 -0,166000435671769 0,249917354085444 
1,21544074992949 -0,830407918351892 0,888473859004897 -0,159512871484977 0,744131716487525 0,0339962071897444 -0,528854136135827 -0,40737830604351 -0,330510634617186 
0,79265316472978 -1,53080129246311 0,981364868279716 0,618593201794938 -0,304653421013455 0,71781341718408 -0,481562599298341 0,201466139965442 -1,05878513559223 
-0,254728622680404 0,457012931270531 -1,16765608803306 -1,62225112504943 -0,574955334688982 0,280157315848003 -0,669527087206732 0,488047779937763 1,51749105839454 
