-0,0572962104609684 -0,402005392779599 -0,340564741445968 -1,08449775048322 0,0205583800657458 0,103020499681132 0,782152060024977 0,087758154476415 1,11355886677492 
0,362583364063214 -0,0744880194326341 0,486770810320401 0,442426117808757 1,17005878199872 0,156738062289422 -0,918686282783135 -0,980993971219749 0,112028788361712 
-0,130966835889019 -0,254164823276533 -0,140122954333258 0,466111707890924 -0,290479251784496 1,51194813003901 0,557370533029256 0,986562172876001 0,938874635816959 
0,110530366068487 0,804268789093601 0,627905702045144 0,200384656526327 0,637147112287649 0,175177608525463 -0,252920461177789 0,066245364814645 0,331300661587762 
-0,120152422748577 0,384791164372485 0,752757411042115 -0,201979767159549 0,527491264756532 -0,90387182928383 -0,651932957420094 -0,877636567632499 1,18147521724574 
-0,237677246908507 -0,14492888551854 0,637427389452899 -0,183804298663886 0,201947015338553 1,2074469298024 0,826570693322723 -0,166000435671769 0,249917354085444 
0,522440749929492 -1,52340791835189 1,5814738590049 0,533487128515023 0,744131716487525 0,726996207189744 -1,22185413613583 0,28562169395649 -0,330510634617186 
-0,247087663913186 1,2151633303548 0,897387121463375 -0,0914987836594221 0,117328863472831 -0,157940509629874 0,707199354226794 1,46512180809263 -0,838891730275886 
-0,19314049489989 0,56928735177046 0,728062497963692 -0,117064562507935 -1,36274847375869 -1,16516071693374 -1,47435488451522 0,597548183504747 0,359654579013425 
