-0,0055527536359391 1,37333466473237 0,216321773755048 -0,193541227757251 0,373813963203604 -0,889852452040581 -0,381739745559981 0,224638788892719 -0,103346716833462 0,442826802582865 
-1,6536395512636 -0,66634055211504 -0,974238796147629 -1,36612563102372 -0,065130429199958 -0,880361194666643 0,248413877850126 0,960164724830615 -0,799889651033976 -0,549270448703445 
-0,840275464505086 1,61261397226882 -0,0882416993655459 -0,999519124626889 -0,119767934605371 1,46729931600313 -0,2370133669423 0,417573442118509 -0,24130812502108 1,43754741633709 
-1,34009310496556 1,32750169732538 -0,623849693510611 0,567351569858543 -0,115495527682591 -0,969747091043623 -0,321252268422978 0,0380436056470701 0,815049850934208 0,53464545101609 
-0,0844541262297211 0,602352052741848 0,314242604507712 -0,289050695448206 0,690380092566079 0,070437407912424 1,03703132337333 -0,076168165404894 0,75222542253054 -0,377573514705791 
-0,895010818385524 0,899064562874876 -0,450663622212905 0,0176261267706874 0,65235649871284 0,502165876097123 -0,775965246613121 0,49916227790488 0,629224372855026 0,00183164252565793 
0,475037433601002 -0,877314927637724 -0,0441947668065289 -0,302412254118087 -1,51457796583724 -0,701221964182901 0,29342090334856 0,960151819493692 0,86313463089202 0,158550389943435 
0,356546093410135 0,660663094213541 -0,48566201119016 0,0946459139071619 2,31503834671203 -0,201599963568896 0,486190603513825 0,265036116650345 -0,297506232711722 -0,750555721633861 
-1,30424166083114 -0,460322093605679 -1,19664961358888 -0,586867036105537 -0,931552543911409 0,839842332159561 0,0851653195382867 -0,334475820281299 -1,1640049288543 0,382338596220286 
