0,902072456619736 -0,380366662228651 -0,308953399448168 1,31140686836206 0,409149477914511 -0,741439789413214 -0,579703289819743 1,22427870843852 0,660283846329564 -0,342963084272557 
-0,9606395512636 -1,35934055211504 -0,974238796147629 -0,673125631023723 -0,758130429199958 -1,57336119466664 -1,13758612214987 1,65316472483061 -0,106889651033976 -0,549270448703445 
-0,840275464505086 0,919613972268819 -0,0882416993655459 -1,69251912462689 -0,119767934605371 0,774299316003127 -0,9300133669423 0,417573442118509 0,45169187497892 0,744547416337089 
-0,391683456843106 -0,489985784278245 -0,743916063450238 0,209505148795203 -0,830301382499887 0,605287029224116 -0,239832408372235 -0,013805607512968 -0,211615255666718 0,178217320320298 
-0,692667052645081 -0,222292209906174 -1,56483986598246 0,768610598118794 0,162105691229042 -0,699444583477194 -0,973489826532774 -1,25586143770575 -0,716525658833108 0,951110069617215 
1,56263078746089 0,319992591017388 -0,869637436172756 0,651318228641207 0,664766522899627 -0,618166725904758 -0,924423635902081 0,215840898381938 0,23322670684812 -0,093485352799522 
-1,65283908509828 0,89368681232151 -0,534053086086201 0,152105866829448 -0,858489740574029 0,529346233014644 -0,922424488664802 -0,876743944942832 -0,842824248523835 -0,363417458424073 
-0,333528786294408 -0,816780514636906 0,171779980497332 -0,671106971354274 -1,54960339605836 -1,61798325459891 1,48445383825128 0,22214770251566 -0,854624815855932 -0,420323351128177 
1,4407891425359 -0,060151929236553 0,134099100951617 0,500581805361706 0,874916628876196 -1,01867604786049 0,0726516518945109 -0,395234292091445 0,544738625895576 0,787865343404871 
