-0,097249871337903 0,732842932969259 0,258998336218297 -1,03289613286215 0,820644318973946 -0,00268085254481099 0,0650114673492552 0,577678769337329 0,835863695403497 
-0,724307496903607 0,520469642020981 0,979558353302795 0,973128252650205 0,00495335692770471 1,67392165588444 0,847724640671035 0,542639002922289 -0,547897319098887 
-0,439055071882464 0,153838957558777 1,4930999716111 -1,06512918762682 -0,0346319081287979 -0,995964716186731 0,670144395749152 -1,43139177085943 -0,297831632801253 
0,044258267812085 -0,521699888116075 0,300437909518107 -0,442975585089519 -0,449122778814809 -0,579950995254773 0,365216092842266 1,23695947863532 -0,648252347320436 
-0,469244252350295 0,60903825778935 -0,504259980984153 0,195659387775073 -0,952433416597747 0,688274551969149 1,00854040001498 -0,749067018623029 0,234944019110382 
0,0214363248187286 -0,654736603156541 0,782263171464793 0,520839405954275 0,62844544166161 -0,0747210583997523 0,634876380211616 -0,619781504846542 0,080530071495813 
0,968411494670162 -0,914471724030781 -0,774618566862596 -0,547820477242964 -0,883697892485046 0,110213378322876 -0,689574492019403 -0,155915453636979 0,370919706645384 
0,818338232030318 0,161311491294909 -0,709926570337697 -0,989840047429241 0,0163638680318203 0,450577640650132 -0,744266544988037 -0,361552938228731 0,139932764586496 
0,759473911374562 0,637749382126028 1,06834937233448 0,224580948518394 -1,41950694554975 -0,511242721933519 0,744322609037311 -0,476129077130989 -1,22717692125504 
