-1,44329621046097 0,290994607220401 0,352435258554032 -0,391497750483219 0,713558380065746 0,103020499681132 0,089152060024977 1,47375815447641 0,420558866774924 
1,05558336406321 -0,76748801943263 0,486770810320401 0,442426117808757 -0,215941218001275 1,54273806228942 -0,918686282783135 -1,67399397121975 0,112028788361712 
1,94803316411098 -1,64016482327653 1,24587704566674 -0,226888292109076 0,402520748215504 0,818948130039008 -0,135629466970744 0,986562172876001 1,63187463581696 
0,110530366068487 0,111268789093601 0,627905702045144 -0,492615343473673 0,637147112287649 0,868177608525463 1,13307953882221 0,066245364814645 0,331300661587762 
-0,120152422748577 0,384791164372485 0,0597574110421153 0,491020232840451 -0,165508735243468 -0,21087182928383 0,0410670425799059 -1,5706365676325 -0,204524782754259 
0,455322753091493 -0,14492888551854 0,637427389452899 -1,56980429866389 -0,491052984661447 1,2074469298024 0,826570693322723 -0,166000435671769 -0,443082645914556 
0,522440749929492 -0,830407918351892 0,888473859004897 0,533487128515023 0,744131716487525 0,0339962071897444 -1,22185413613583 -0,40737830604351 0,362489365382814 
0,09965316472978 -1,53080129246311 -0,404635131720284 -0,0744067982050619 -1,69065342101345 0,71781341718408 0,211437400701659 0,201466139965442 0,327214864407766 
-0,947728622680404 -0,235987068729469 0,218343911966935 -1,62225112504943 -1,26795533468898 -0,412842684151997 0,0234729127932679 -0,204952220062237 1,51749105839454 
