-0,526950675773877 0,721596017350255 0,608064338089462 -1,0994030700393 -1,19123032948106 0,25711181789083 1,2601896774169 -0,70291943059951 -0,179961929354333 0,215709573516953 
-0,182905265042514 1,65491030832096 0,135203837945687 0,807338508687605 0,74913585238165 -0,146580337149361 0,542629013263448 0,974606606166161 -0,179727938575543 0,8156730373463 
-1,64446105529343 -1,60777195821459 -0,641842434947306 0,814376713328704 -1,56388396301069 -0,472811446279665 0,0616645560090731 -0,928449053922412 -0,278612888082216 -0,140227139527084 
-0,756930901555778 0,720023945774894 -1,139106937456 0,656222193341806 -0,189885212024155 0,186274072414857 -0,137110751013323 0,928508327309279 -0,915122555236389 -0,256134196769509 
0,15668469348768 0,285810756802936 -0,0867564431795648 -0,933586256547638 0,637081075290721 0,230409818343078 0,375639348638542 0,819562289779802 -0,793729838819117 -1,34337078300974 
0,337396622033974 -1,68340826502741 -0,553685172253142 0,39565676981381 0,199416702240434 0,080821282440713 -0,32956154770244 0,100687624760758 -0,535519107028618 0,974581116798604 
0,502447261881757 0,495638731339313 -1,42430654251729 0,346265210172751 -0,0273595249272689 -0,595929210817408 1,10101724577696 0,478981644603881 -0,00277627928823998 -1,13013822003321 
0,376530413863962 0,614120685954169 -0,49627083859745 -1,61659374180603 0,35198834385862 0,455728187903635 0,171984484964975 -0,708256178399667 -0,208704361962017 0,591706218646237 
0,844549205081793 0,935102266229271 0,251280784896706 -0,628242105072477 -0,784623761561058 -0,76652263652837 -0,419290881971964 0,851236292730196 -1,23619450889863 0,729293505535132 
