0,454749307979713 -1,00657265697493 -0,229560688417666 -0,757080859391522 0,989105518902236 -1,10421347407401 0,200587810576236 -1,23418296110126 -0,659592327503298 
0,769165811952746 -1,38921660453091 -0,029570440602754 0,89023412013903 0,173063827293489 0,0383388255901349 0,55503013866303 -0,352758304552994 -0,499064869014111 
-0,54282079056968 0,501227760455212 -0,334992771365676 0,242048153593693 -0,974488570981421 -0,880943605620853 0,0261955486597469 1,24856520519572 -0,41882032751563 
-0,498095667687289 -0,0946127227948107 0,733880693900343 0,141932984121578 -0,376548349274112 0,143163995418308 0,778514648391639 0,423250772721717 1,24696053826155 
-0,667669072299576 0,971901115016966 -1,56038203925424 -0,58915895827122 0,621628063554702 -0,85885071468486 -0,383732640828813 1,66978319084308 -0,677215141093924 
-1,47616479631847 -1,0868298958325 -0,166483977714313 -0,862889237638046 1,127016598125 -0,673759240212272 1,08152733158904 1,32327415314236 -0,217856282296989 
0,949210601835144 -0,86629884561398 0,274915914006492 0,344382917203187 0,216723591948731 -1,25945968629348 -0,378393146558382 -0,301316521736475 0,553429761693547 
-1,08647302140364 0,320232827831168 -0,7056682552568 0,134265563978937 0,497719471747391 0,749813054571773 1,17737828732858 0,836699210962606 1,06134058043004 
0,433485440353158 -0,524505705058345 0,679688931293641 1,15862018965633 1,60612197498657 -0,841251349002706 1,44286092362081 0,372621097309804 0,82941869824632 
