-0,0184382695655519 -0,0349283074191438 -0,875553849095271 0,661609355202694 -0,385700146088703 -0,364448263945267 0,195342814175106 0,84921981852931 0,811776141548425 
-1,28166409379461 0,533950650847494 0,123208957315986 -1,31142003912591 -0,00546288071454637 0,993481107691527 -0,444797190579026 -0,251028977624154 -0,0517860696095911 
1,2194087699011 -0,270084044263272 -0,780144499512457 0,58903345446523 -0,260309740556548 0,672266628147693 0,54530724768774 0,504086475588422 -0,674873771925864 
-0,794640430153646 0,944815891476262 1,58419807346314 -0,109095874758948 0,859694325299791 -1,31343324095217 -0,376694299628816 1,06145072701967 -0,431789346413123 
-0,326076898410021 0,795759987629373 0,870596060469093 0,0444303734299869 -0,325143342230536 0,503379930510828 0,104608304088753 0,166187433137646 -0,885391949329708 
-0,443406937384702 0,902772483370627 -0,469285494400787 -0,0787544534908395 -0,13970945921713 -0,577177327860695 -0,072539150575893 0,861128349430919 1,02521430766034 
0,066669398191231 -0,0321206837110783 -0,311525158901943 0,947963052405027 -0,0100405286112989 0,559036089833377 -1,39784921974356 -0,833348102497099 0,632862877861067 
1,63766562194036 1,07778837785534 0,660775316721189 0,599991594254967 0,349822552279021 0,636502629908036 -0,973288997702435 -0,519198460918944 0,132879015292916 
-1,11149337956798 -1,48348544531245 -0,521017700210688 -0,703279958899729 -0,0907374917155771 -0,507819341266444 -0,496572766857023 0,113551333133854 -0,641164254230058 
