-0,828546138400466 0,284114023337194 -0,608474649306608 0,468375401323836 -0,343556724183055 -0,308434024131128 0,0473524513874912 -0,0573636978200468 -0,599428589269253 0,87973581248882 
-0,274039950815048 -0,887199483759328 -0,688440029364284 -0,943720406826455 -0,491795239733437 0,870517052649761 -0,533057317851604 0,781399055282306 0,146832733949103 -0,0433985316396684 
0,245949931091606 -0,105788124308823 -0,798465455788404 0,686489001701814 0,982943656846389 0,652954228992087 -0,0413862052566307 -0,146767992128976 -0,92305064290904 -0,248383191995501 
-0,1107058176355 -0,24846418073795 0,876408138254847 0,200200344063435 -0,876303081343092 0,575537874165707 0,241337527167675 -0,52370977938348 -0,271654897961605 -0,0307906591476829 
-0,447360857132525 0,714186250099068 0,235931219177289 -0,160024810191255 -0,552158510103895 -0,672921500947756 -0,730053350203695 -0,846765038485995 0,970777539522749 -0,57379701154949 
0,749319826136027 -0,289218396548749 -0,950405500806126 -0,843050135226478 0,112885814678336 0,277241985908357 0,0825794791255983 -0,294963651008421 0,485431744477447 0,00348904682485807 
0,732952181125503 -0,805879556483533 -0,134313054911007 0,648954602726248 -0,00955836987567993 0,974424229922902 -0,763607622014176 0,111359626572281 0,932582674516636 -0,067333113899144 
-0,370820474517914 0,990652461531876 0,0530539532439103 -0,822376606903214 -0,596037674507144 0,531763680992538 0,658280656513889 0,361559354402851 0,238647511805709 0,655865157794145 
0,383007579195782 -0,194621166770636 -0,117545531651725 0,65074636864045 0,00229698186847238 -0,821487421086751 -0,298058679931824 0,719458273481325 -0,912685470614901 -0,153545067251448 
