0,826663650198683 0,0577935699507559 0,471370679080193 -0,285360065887384 0,0604056525325429 -0,00682250241647597 0,0540202777152976 0,136304046556495 -1,0964503816643 1,27904462425506 
0,680948010497237 -0,937822476931765 0,699077647039237 0,789234188287162 -0,770055414708823 0,280719523621592 -0,990259619425172 -0,343449636988086 -0,357546885837124 -0,610430360297407 
-0,433222290795866 -1,10140673605372 -1,03758005770323 0,207279683945831 0,0382203927306549 1,20579476076029 0,418082991051061 -0,497098996069794 0,165898696131026 0,245951460616175 
0,968326188316255 0,458964011379966 0,69987455555232 -0,104575821712881 -0,843125086843094 1,41814495520161 0,0507496805166592 -0,618534934529352 -0,327095028630968 -0,56490248299013 
-0,890941403755425 0,471443375326434 -1,21755935418818 -0,166246885045547 -0,83882052228312 -0,245096047057349 0,50289098336496 0,590648840922233 1,28262785899156 -0,684798355705942 
-0,0851882785024067 0,752707347158672 -0,066172480441245 1,16772592977561 0,262640989042186 -1,5192623687397 0,890778498380342 -0,260328535284534 -0,288500754469773 0,0548032927582056 
-0,155388438680856 -0,3229509980059 -0,610050104083982 -1,15400230583036 0,645174272193189 0,466103343682877 -0,0818814901085019 -0,657829721298921 -0,965029459137483 -0,635083882899528 
0,40666886484561 -0,383154811981672 0,73313633246959 -0,619064112947818 1,48183657128962 0,0953343338777006 -0,190847381865535 0,128666827342318 0,0461002062289511 -0,102683560211995 
-0,99009622260467 0,134434150128828 -0,779726855061355 -0,149302948163032 0,0241397391185816 0,522618841157583 0,911136491821211 -0,774851374223293 -0,0602168107550669 0,36913728189661 
