0,587690367809818 0,239367819036994 0,165511332063708 0,632020519875 0,534331251357371 0,925519768113978 0,841215354316502 -0,296821505435194 0,599021753109536 
-1,63161872048053 -0,145936092257004 -0,348451456682967 0,293659445207873 0,283412390986184 -0,198171124713109 -1,16586087715666 0,0633857366924109 0,395922773874795 
-0,638454442675437 1,04109339947444 -0,693260435803449 -0,650383067792926 0,805292979723445 0,956686397062934 -0,440475132987124 -0,883511625176068 -0,689686040249507 
-1,43012804156222 -1,37352233461315 0,467837049378006 -0,179121745368057 0,463271838362921 1,05553994114815 -0,812632522165604 0,0230225903885539 -1,33842470017701 
1,13389229006362 0,690488718305942 1,65543733352164 -0,499948737617093 0,6684044681808 -0,851880625459776 0,129494957220506 0,64654432872615 -0,793174526557873 
0,879903769703072 -1,40593032342239 0,544983064543914 -0,590326482239331 -0,0134734832744456 0,0251174111171241 -0,746719798886552 1,58657728599272 -1,51041006477615 
-0,368481114212648 1,54507343560274 0,434074839313549 0,208824935000774 0,0724956528621239 -0,968157123466561 0,615205808363485 0,578343395878721 0,076700829177956 
-0,86881529626847 0,240503024887528 -0,995207930619925 0,289008602168881 1,41329196737348 -0,73961019940237 0,754253575463897 -0,606753167220276 1,06589701838647 
-1,32468282975987 -0,33966183229846 0,879599696900509 0,909857943319184 0,318780794422506 -0,258271761824503 1,48927153547307 -1,57663965502178 0,642395101028213 
