-0,146096937599171 -0,68207385626299 -0,200932106562393 -0,217334074535097 -1,05926663588279 0,55372076740196 0,672161994349287 0,147032283780646 0,004198809914849 
0,884237387802097 -0,70677947704996 0,235082433202808 0,396488045061234 -0,771356951338871 0,186304519505382 0,190226698848524 0,83686438445368 0,632943684702713 
-0,589241063962337 0,217113308243972 -0,446292892479009 -0,56539664956061 -0,197142105814136 -0,491402351060604 0,884179449586281 -0,984732875300447 -0,401279324386865 
0,968835303545387 -1,16478530668457 0,637286473828036 -0,023925942552707 -0,604166598513334 0,71258121686223 1,2791591815884 -0,920416441708997 -0,827894834721412 
-0,195895109244108 -1,40324388527043 0,440084179602602 0,534471584267203 -0,81794918971972 -0,636228329971073 -0,895648175801918 -1,4179813888804 -0,017047466545388 
-0,0203687339184661 1,04161254568613 0,389648218993399 0,349201965774038 1,5301680927636 -1,67412039453402 -0,740075420467218 -0,169726809100121 -0,400715493318027 
-0,945119526850115 0,112299711961439 -0,177931750448855 -1,40252975550179 0,591486475878622 0,925466239417654 -0,0449999082111753 0,7033266908039 0,311817590465219 
-0,247087663913186 0,522163330354804 0,204387121463375 -0,0914987836594221 0,810328863472831 -0,157940509629874 0,0141993542267937 0,772121808092632 -0,145891730275886 
-0,19314049489989 0,56928735177046 0,728062497963692 -0,810064562507935 -1,36274847375869 -0,472160716933739 -1,47435488451522 0,597548183504747 0,359654579013425 
