-0,798309632190182 0,239367819036994 0,165511332063708 1,325020519875 -0,158668748642629 0,925519768113978 0,148215354316502 -0,989821505435194 -0,093978246890464 
-0,245618720480529 -1,531936092257 0,344548543317033 -0,399340554792127 0,283412390986184 -0,198171124713109 0,220139122843342 -0,629614263307589 0,395922773874795 
-1,33145444267544 -0,344906600525559 -0,000260435803449033 -0,650383067792926 0,805292979723445 0,956686397062934 -0,440475132987124 -0,883511625176068 -0,689686040249507 
-0,0441280415622181 -0,680522334613149 -0,225162950621994 0,513878254631943 1,15627183836292 0,362539941148152 -0,119632522165604 -0,669977409611446 -0,645424700177007 
0,440892290063618 -0,0025112816940579 0,962437333521637 0,193051262382907 1,3614044681808 0,534119374540224 0,129494957220506 1,33954432872615 -0,793174526557873 
0,186903769703072 -1,40593032342239 -0,148016935456086 -0,590326482239331 -0,706473483274446 0,718117411117124 -0,0537197988865521 1,58657728599272 -0,817410064776153 
-0,368481114212648 1,54507343560274 0,434074839313549 0,208824935000774 -0,620504347137876 -0,275157123466561 0,615205808363485 0,578343395878721 -1,30929917082204 
-0,17581529626847 0,240503024887528 -0,995207930619925 0,289008602168881 0,720291967373477 0,646389800597629 1,4472535754639 0,0862468327797237 0,372897018386469 
0,0613171702401329 0,35333816770154 0,879599696900509 0,909857943319184 1,01178079442251 -0,258271761824503 0,796271535473071 -0,883639655021783 -0,0506048989717871 
