-0,234669104793421 0,853198440677113 0,332951148661296 1,44271963826088 -1,1254019464815 0,569694552370205 0,179950005924306 -0,751151407952957 -0,522050845214189 -0,0794995394905561 
-0,074932644937156 -0,382006934556182 0,237594456988198 1,27084545401942 -1,60293892769792 -0,542581454637731 0,691310253488976 0,099041303838622 0,509033404062052 1,59089516753419 
0,801450632420113 0,0837029677139139 -0,347267524966629 0,59731738716239 1,34390017935769 0,0202101613489027 -0,0300640145591761 -0,790455979197498 -0,26764734148404 0,507920359963514 
0,226187675830996 0,548111381730117 0,100363246970513 1,17714521267831 -0,819056796757065 -0,666110091687231 -1,61094091738665 0,891887044483743 -1,43317282470138 0,994154247159676 
-1,61275471373636 0,668415425190896 0,153263436236076 0,898333663073524 -0,84424879953463 0,306163057361805 0,362239523200895 0,564103979414377 -0,736344888390668 0,322138419697591 
1,00204041384768 -0,914822124836418 -0,539181578689805 0,726790705275624 0,1479444686081 -0,257039317515231 1,40506109491738 0,181053291917803 0,756739754754929 -0,95980450881636 
0,4092415121427 -0,155523743087204 -0,596048611959465 0,0886292583721826 -0,640143051575936 -1,56016337123288 -1,42418572390228 -0,785067565639069 0,608290985044228 -0,410945323021591 
-1,18733955899176 -0,882146663908915 -1,29627681228671 -0,9657011329968 0,695324353438953 -1,55996479277078 -0,455560468522161 -0,938601188040153 -0,25143381330298 -0,655262878004118 
-0,649029361851993 -0,980167993973553 -0,44011109080683 -0,896785761181631 -0,108120053884164 0,141009800667413 0,780292960419922 -0,240427458305111 0,0292007440702059 1,13098252075817 
