-0,0055527536359391 1,37333466473237 0,909321773755048 -0,193541227757251 1,0668139632036 -0,196852452040581 -0,381739745559981 0,917638788892719 0,589653283166538 0,442826802582865 
-0,2676395512636 -0,66634055211504 -0,281238796147629 -1,36612563102372 -0,758130429199958 -0,187361194666643 -0,444586122149874 1,65316472483061 -0,799889651033976 -0,549270448703445 
-0,840275464505086 0,226613972268819 -0,0882416993655459 -0,999519124626889 -0,119767934605371 0,774299316003127 -0,9300133669423 -0,275426557881491 0,45169187497892 1,43754741633709 
0,0459068950344379 1,32750169732538 -1,31684969351061 -0,125648430141457 -0,115495527682591 -0,276747091043623 0,371747731577022 0,73104360564707 0,122049850934208 0,53464545101609 
0,608545873770279 1,29535205274185 -1,07175739549229 -0,982050695448206 0,690380092566079 1,45643740791242 0,34403132337333 -0,769168165404894 0,05922542253054 -0,377573514705791 
-0,895010818385524 0,899064562874876 -0,450663622212905 0,710626126770687 -0,73364350128716 0,502165876097123 0,610034753386879 0,49916227790488 0,629224372855026 -0,691168357474342 
-0,910962566398998 -1,57031492763772 0,648805233193471 -0,302412254118087 -0,821577965837241 -0,701221964182901 0,98642090334856 0,267151819493692 1,55613463089202 0,851550389943435 
-0,336453906589865 1,35366309421354 0,20733798880984 -1,29135408609284 1,62203834671203 0,491400036431104 0,486190603513825 0,265036116650345 -0,990506232711722 -0,0575557216338607 
-1,99724166083114 0,925677906394321 0,189350386411115 -1,27986703610554 -0,931552543911409 0,839842332159561 0,0851653195382867 -0,334475820281299 -1,1640049288543 0,382338596220286 
