-0,0572962104609684 -0,402005392779599 -0,340564741445968 -0,391497750483219 0,0205583800657458 0,103020499681132 0,782152060024977 0,780758154476415 -0,272441133225076 
0,362583364063214 -0,767488019432634 0,486770810320401 0,442426117808757 0,477058781998725 1,54273806228942 -0,918686282783135 -0,980993971219749 -0,580971211638288 
1,25503316411098 -0,947164823276533 0,552877045666742 -0,919888292109076 -0,983479251784496 0,125948130039008 1,25037053302926 1,679562172876 0,938874635816959 
1,49653036606849 0,111268789093601 0,627905702045144 0,893384656526327 -0,74885288771235 0,868177608525463 0,440079538822211 0,759245364814645 1,02430066158776 
0,572847577251423 0,384791164372485 0,0597574110421153 -0,201979767159549 -0,165508735243468 -0,21087182928383 -0,651932957420094 -1,5706365676325 0,488475217245741 
-0,930677246908507 -0,14492888551854 0,637427389452899 -0,876804298663886 0,894947015338553 -0,178553070197605 0,826570693322723 -0,166000435671769 -0,443082645914556 
1,21544074992949 -0,137407918351892 0,195473859004897 0,533487128515023 0,744131716487525 0,0339962071897444 0,164145863864173 -0,40737830604351 0,362489365382814 
-0,247087663913186 1,2151633303548 0,204387121463375 -0,0914987836594221 0,810328863472831 0,535059490370126 -0,678800645773206 0,772121808092632 -0,145891730275886 
-0,88614049489989 1,26228735177046 0,728062497963692 -1,50306456250794 -1,36274847375869 0,220839283066261 -0,78135488451522 1,29054818350475 -0,333345420986575 
