0,546903062400829 -0,68207385626299 -0,893932106562393 -0,910334074535097 -0,36626663588279 0,55372076740196 0,672161994349287 0,147032283780646 0,697198809914849 
0,884237387802097 -0,70677947704996 0,235082433202808 -0,296511954938766 -1,46435695133887 0,186304519505382 0,190226698848524 0,14386438445368 1,32594368470271 
-0,589241063962337 -0,475886691756028 0,246707107520991 -1,25839664956061 0,495857894185864 -0,491402351060604 0,884179449586281 -0,984732875300447 -0,401279324386865 
1,66183530354539 -1,85778530668457 0,637286473828036 -0,023925942552707 -0,604166598513334 0,01958121686223 0,5861591815884 -0,920416441708997 -0,827894834721412 
-0,888895109244108 -2,09624388527043 0,440084179602602 0,534471584267203 -0,81794918971972 -0,636228329971073 -0,895648175801918 -2,1109813888804 -0,017047466545388 
-0,0203687339184661 1,73461254568613 1,0826482189934 0,349201965774038 1,5301680927636 -1,67412039453402 -0,740075420467218 -0,169726809100121 -0,400715493318027 
-0,945119526850115 -0,580700288038561 0,515068249551145 -1,40252975550179 1,28448647587862 0,925466239417654 -0,737999908211175 1,3963266908039 0,311817590465219 
0,79265316472978 -0,144801292463113 0,288364868279716 0,618593201794938 -0,997653421013455 0,71781341718408 -0,481562599298341 0,894466139965442 -1,05878513559223 
-0,254728622680404 -0,928987068729469 -1,16765608803306 -1,62225112504943 -0,574955334688982 -0,412842684151997 -0,669527087206732 0,488047779937763 1,51749105839454 
