-0,146096937599171 -1,37507385626299 0,492067893437607 -0,217334074535097 -0,36626663588279 0,55372076740196 1,36516199434929 0,147032283780646 0,697198809914849 
0,191237387802097 -0,0137794770499601 0,928082433202808 0,396488045061234 -0,0783569513388711 0,186304519505382 -0,502773301151476 0,83686438445368 0,632943684702713 
-0,589241063962337 0,910113308243972 -0,446292892479009 -0,56539664956061 0,495857894185864 0,201597648939396 0,884179449586281 -1,67773287530045 0,291720675613135 
0,968835303545387 -1,16478530668457 1,33028647382804 -0,023925942552707 -1,29716659851333 0,01958121686223 1,2791591815884 -1,613416441709 -0,827894834721412 
-0,195895109244108 -2,09624388527043 0,440084179602602 0,534471584267203 -0,81794918971972 -1,32922832997107 -1,58864817580192 -2,1109813888804 -0,710047466545388 
-0,0203687339184661 1,04161254568613 0,389648218993399 1,04220196577404 0,8371680927636 -0,98112039453402 -0,740075420467218 -0,862726809100121 0,292284506681973 
-0,252119526850115 0,112299711961439 -0,177931750448855 -1,40252975550179 -0,101513524121378 1,61846623941765 0,648000091788825 1,3963266908039 1,00481759046522 
0,09965316472978 -1,53080129246311 0,288364868279716 0,618593201794938 -0,997653421013455 0,02481341718408 -0,481562599298341 0,201466139965442 0,327214864407766 
-0,947728622680404 0,457012931270531 0,218343911966935 -0,929251125049429 0,118044665311018 -1,105842684152 -1,36252708720673 -0,897952220062237 1,51749105839454 
