0,826663650198683 -0,635206430049244 0,471370679080193 -0,285360065887384 0,0604056525325429 0,686177497583524 -0,638979722284702 -0,556695953443505 -1,0964503816643 0,58604462425506 
0,680948010497237 -0,937822476931765 0,699077647039237 0,096234188287162 -0,0770554147088227 0,280719523621592 -0,297259619425172 0,349550363011914 1,02845311416288 0,775569639702593 
0,259777709204134 -1,10140673605372 -1,03758005770323 0,900279683945831 -1,34777960726935 -0,18020523923971 -0,274917008948939 0,195901003930206 0,165898696131026 0,245951460616175 
-0,417673811683745 0,458964011379966 0,69987455555232 0,588424178287119 0,542874913156906 0,725144955201608 0,743749680516659 0,0744650654706479 -1,02009502863097 0,12809751700987 
-0,890941403755425 1,16444337532643 0,168440645811819 -0,166246885045547 0,54717947771688 -0,245096047057349 0,50289098336496 0,590648840922233 0,589627858991561 0,00820164429405779 
0,607811721497593 1,44570734715867 -0,066172480441245 0,474725929775613 0,262640989042186 -1,5192623687397 -0,495221501619658 -0,260328535284534 1,09749924553023 0,0548032927582056 
-0,848388438680856 0,3700490019941 0,775949895916018 -0,461002305830364 0,645174272193189 -0,919896656317123 -0,774881490108502 -1,35082972129892 -0,272029459137483 -1,32808388289953 
-0,28633113515439 0,309845188018328 1,42613633246959 -0,619064112947818 0,788836571289616 0,788334333877701 -0,190847381865535 0,821666827342318 0,0461002062289511 0,590316439788005 
-0,99009622260467 -0,558565849871172 -0,0867268550613555 -0,149302948163032 0,0241397391185816 1,21561884115758 -0,474863508178789 -0,774851374223293 1,32578318924493 0,36913728189661 
