0,928863056609343 -0,16958113814219 0,542854670222315 0,0681589679178591 0,615148034698864 0,477658726031733 0,339518933249414 -0,910195401827896 0,458431202666103 -0,18063378045784 
-0,921423775107331 0,492736150274396 -0,307473359307029 0,578233879794475 0,203482037039233 0,0103548453237652 0,497202167984658 -0,603378509917938 -1,44112941055192 -0,68172362775203 
-0,978100471188361 -0,054314469185338 -0,427894049057688 -1,39600162010966 0,0923461770137521 0,875402468837054 0,43546911302743 -0,601819300838662 -0,256169453848232 0,119035221518965 
0,0436241550709231 0,400856913719725 0,592431184645943 -0,355609700422087 0,0745624513712537 -1,67933431549479 -0,557934963576931 -0,249820735887541 -0,0678365434039551 -0,18758529636943 
-0,329358980678655 0,619559269859716 0,992146437984028 0,515367235469803 0,252870836878601 -1,3528033856879 0,0669472706815915 -0,940484497668447 -0,828132664704757 1,21422610319463 
-0,223709113534404 -1,60086421201558 0,492452019589232 -0,180405449378959 -0,556076450066677 -0,095822474205318 -0,048687089084502 0,245856290331975 0,975812790904107 -1,26025443413819 
-1,6508103869957 -0,751661765911924 1,03897405202034 0,646395981147138 0,082742064471236 -0,322280688827057 0,900304965628453 0,355136341115058 -0,496328571576778 0,882816352534022 
0,875289808900696 -0,252977096127801 -0,149541966513983 -0,253544114182491 -0,659364647073375 0,095340258951923 1,33953909283063 0,749738715472509 0,73712754301174 -0,247850437298347 
0,383007579195782 -0,194621166770636 -0,117545531651725 0,65074636864045 0,00229698186847238 -0,128487421086751 -0,298058679931824 0,719458273481325 -1,6056854706149 0,539454932748552 
