-1,39155275363594 1,37333466473237 0,909321773755048 -2,27254122775725 0,373813963203604 -0,196852452040581 -0,381739745559981 -0,468361211107281 -0,103346716833462 0,442826802582865 
-0,2676395512636 0,02665944788496 -0,974238796147629 -0,673125631023723 -0,065130429199958 -1,57336119466664 0,248413877850126 1,65316472483061 -0,799889651033976 -0,549270448703445 
0,093752089172952 -0,278566791978463 -1,10301457879786 0,69987385985436 -0,294118313721436 1,42578966254219 1,15650974098943 -0,830424191058345 0,72855944918867 -0,133563362296933 
-0,391683456843106 -0,489985784278245 -0,743916063450238 0,209505148795203 -0,830301382499887 0,605287029224116 -0,239832408372235 0,679194392487032 -0,211615255666718 0,178217320320298 
0,000332947354918733 -0,222292209906174 -0,871839865982458 0,0756105981187944 0,855105691229042 -0,699444583477194 -0,280489826532774 0,130138562294253 -0,716525658833108 0,258110069617215 
0,176630787460893 -1,06600740898261 -0,176637436172756 0,651318228641207 0,664766522899627 0,074833274095242 -0,924423635902081 0,908840898381938 0,23322670684812 -0,093485352799522 
-0,959839085098281 0,89368681232151 -1,2270530860862 1,53810586682945 -0,858489740574029 0,529346233014644 -1,6154244886648 -0,183743944942832 -1,53582424852383 -1,05641745842407 
-0,333528786294408 -0,123780514636906 0,171779980497332 0,0218930286457264 -0,856603396058364 -1,61798325459891 1,48445383825128 -0,47085229748434 -0,161624815855932 0,272676648871823 
0,0547891425359011 1,32584807076345 0,134099100951617 1,19358180536171 0,874916628876196 -0,325676047860494 -0,620348348105489 -0,395234292091445 0,544738625895576 1,48086534340487 
