-1,39155275363594 -0,0126653352676259 1,60232177375505 -1,57954122775725 0,373813963203604 -0,889852452040581 -1,07473974555998 0,917638788892719 0,589653283166538 1,13582680258286 
0,820634646257681 -0,301730361149055 -0,178382059815052 -1,11352850752162 0,86472411947638 0,130954079563708 0,430439488111269 -0,247144719235201 0,0855654119912375 0,457130049740956 
0,538283682213297 0,240588728623273 -0,664997388452756 -0,934953715329037 -0,528228664258136 -0,239934925567328 1,64698583912942 0,56422200871828 -0,44205496434218 -0,217951814279869 
-0,0127710335151161 -1,62117487098657 0,99393829237387 -1,12718833959577 0,0529276351690889 0,0836933530325505 0,927770989913387 0,134505467724756 0,499013852440293 1,33182691087659 
0,102204506160321 0,665050155034312 0,874775644040562 -0,642837561500649 0,258487161834951 0,462838630873169 1,67824156491516 -1,39618414070792 0,249338378487312 0,751981357928357 
-2,10018796186996 -0,532015997698538 0,133079703493546 -1,55258186623621 1,51437089680013 -0,338516272003537 -0,715369273775895 0,93300031588087 0,146635532620193 -0,350915596518161 
-2,08142562854263 -0,143925298538024 -0,719666327219301 -1,50776433939057 -1,33019205075744 0,0558095172442541 0,39733134647707 -0,744193720219281 0,526543857309289 0,39503076644383 
-0,48981691034968 -0,0900659796134879 -0,360158571675494 -1,55326149888535 -0,0310744564193648 0,259233527178985 -0,327186915417289 0,97784017304789 -0,193440877163988 -0,684067295131305 
1,16082350951751 1,35016997983734 0,00788363023096861 -0,194036322270537 0,189236147590092 1,51924496418342 -0,0612545744801194 1,54652015861008 -0,255559236395899 0,00544390717262611 
