0,133663650198683 -0,635206430049244 0,471370679080193 -0,285360065887384 0,0604056525325429 0,686177497583524 0,0540202777152976 0,136304046556495 -0,403450381664303 0,58604462425506 
0,680948010497237 -0,937822476931765 0,699077647039237 0,789234188287162 -0,0770554147088227 -0,412280476378408 -0,990259619425172 -0,343449636988086 0,335453114162876 0,0825696397025928 
0,801450632420113 -0,609297032286086 -0,347267524966629 0,59731738716239 0,650900179357687 0,0202101613489027 -0,723064014559176 -0,790455979197498 -0,26764734148404 0,507920359963514 
0,226187675830996 0,548111381730117 0,793363246970513 0,484145212678306 -0,819056796757065 -0,666110091687231 -0,917940917386646 0,891887044483743 -0,740172824701375 0,301154247159676 
-0,91975471373636 0,668415425190896 0,153263436236076 0,898333663073524 -0,84424879953463 0,306163057361805 -0,330760476799105 0,564103979414377 -0,0433448883906682 -0,370861580302409 
0,309040413847678 -0,914822124836418 -0,539181578689805 0,0337907052756243 0,1479444686081 -0,257039317515231 0,712061094917385 0,874053291917803 0,0637397547549288 -0,95980450881636 
0,4092415121427 -0,155523743087204 -0,596048611959465 0,0886292583721826 -0,640143051575936 -0,86716337123288 -0,731185723902278 -0,785067565639069 0,608290985044228 -0,410945323021591 
-0,494339558991762 -0,882146663908915 -0,603276812286711 -0,9657011329968 0,00232435343895321 -0,866964792770783 0,237439531477839 -0,245601188040153 0,44156618669702 -0,655262878004118 
-0,649029361851993 -0,287167993973553 0,25288890919317 -0,896785761181631 -0,801120053884164 0,141009800667413 0,0872929604199217 -0,240427458305111 -0,663799255929794 0,437982520758166 
