0,209072456619736 0,312633337771349 1,07704660055183 1,31140686836206 -0,283850522085489 -0,741439789413214 -1,27270328981974 0,531278708438519 0,660283846329564 -0,342963084272557 
-0,2676395512636 -0,66634055211504 -0,281238796147629 -0,673125631023723 -1,45113042919996 -0,187361194666643 -0,444586122149874 0,960164724830615 -0,106889651033976 0,143729551296555 
-0,147275464505086 0,919613972268819 0,604758300634454 -0,306519124626889 -0,812767934605371 0,774299316003127 -0,9300133669423 -0,275426557881491 1,14469187497892 0,744547416337089 
-0,391683456843106 -1,18298578427824 -0,743916063450238 0,209505148795203 -0,830301382499887 0,605287029224116 -0,932832408372235 0,679194392487032 -0,904615255666718 0,178217320320298 
0,000332947354918733 -0,915292209906174 -0,178839865982458 -0,617389401881206 0,855105691229042 -0,699444583477194 -0,280489826532774 -1,25586143770575 -1,40952565883311 0,258110069617215 
0,869630787460893 -0,373007408982612 -0,869637436172756 -0,0416817713587929 0,664766522899627 0,074833274095242 -0,231423635902081 0,908840898381938 0,23322670684812 0,599514647200478 
-1,65283908509828 0,89368681232151 -0,534053086086201 0,845105866829448 -1,55148974057403 0,529346233014644 -0,922424488664802 -0,183743944942832 -1,53582424852383 -0,363417458424073 
1,05247121370559 -0,816780514636906 -0,521220019502668 0,0218930286457264 -1,54960339605836 -0,924983254598912 0,791453838251277 -0,47085229748434 -0,854624815855932 -0,420323351128177 
0,747789142535901 0,632848070763447 -1,25190089904838 1,19358180536171 0,874916628876196 -0,325676047860494 -0,620348348105489 -1,08823429209144 0,544738625895576 0,787865343404871 
