1,36756173043445 -0,0349283074191438 -1,56855384909527 1,35460935520269 0,307299853911297 -0,364448263945267 -0,497657185824894 0,84921981852931 0,811776141548425 
-0,58866409379461 0,533950650847494 0,816208957315986 -0,618420039125914 -0,00546288071454637 0,300481107691527 -0,444797190579026 1,13497102237585 -0,744786069609591 
0,526408769901101 0,422915955736728 -0,780144499512457 0,58903345446523 -0,260309740556548 -0,0207333718523073 0,54530724768774 -0,188913524411578 -0,674873771925864 
-1,48764043015365 -0,441184108523738 0,198198073463141 -0,109095874758948 0,859694325299791 0,0725667590478279 1,00930570037118 -0,324549272980331 0,261210653586877 
0,366923101589979 0,102759987629373 1,56359606046909 0,0444303734299869 0,367856657769464 -0,189620069489172 -0,588391695911247 -0,526812566862354 -0,885391949329708 
0,249593062615298 0,902772483370627 -0,469285494400787 -0,0787544534908395 -0,13970945921713 -0,577177327860695 -0,765539150575893 0,861128349430919 1,02521430766034 
0,066669398191231 0,660879316288922 0,381474841098057 0,947963052405027 -0,0100405286112989 -0,133963910166623 -0,011849219743558 -0,833348102497099 -0,060137122138933 
0,251665621940356 1,07778837785534 1,35377531672119 -0,093008405745033 -1,03617744772098 1,32950262990804 -0,280288997702435 0,866801539081056 0,132879015292916 
0,27450662043202 -0,79048544531245 -1,21401770021069 -0,0102799588997291 -0,0907374917155771 -0,507819341266444 -0,496572766857023 0,806551333133854 -1,33416425423006 
