-0,0572962104609684 -0,402005392779599 -1,03356474144597 0,301502249516781 0,713558380065746 0,103020499681132 0,782152060024977 0,780758154476415 1,11355886677492 
1,05558336406321 -0,767488019432634 0,486770810320401 1,13542611780876 -0,215941218001275 1,54273806228942 -0,225686282783135 -0,287993971219749 0,112028788361712 
-0,130966835889019 -0,254164823276533 -0,140122954333258 0,466111707890924 0,402520748215504 0,818948130039008 -0,135629466970744 0,986562172876001 0,938874635816959 
1,49653036606849 0,804268789093601 -0,065094297954856 0,893384656526327 0,637147112287649 1,56117760852546 1,13307953882221 0,066245364814645 0,331300661587762 
-0,120152422748577 0,384791164372485 0,0597574110421153 -0,201979767159549 -0,165508735243468 0,48212817071617 -1,34493295742009 -0,877636567632499 -0,204524782754259 
0,455322753091493 -1,53092888551854 0,637427389452899 -0,183804298663886 0,894947015338553 0,514446929802395 1,51957069332272 -0,166000435671769 0,942917354085444 
1,21544074992949 -0,830407918351892 1,5814738590049 0,533487128515023 -0,641868283512475 0,0339962071897444 0,164145863864173 0,28562169395649 0,362489365382814 
-0,247087663913186 -0,170836669645196 -0,488612878536625 -0,0914987836594221 1,50332886347283 -0,850940509629874 0,0141993542267937 0,079121808092632 -0,145891730275886 
-0,19314049489989 0,56928735177046 0,0350624979636921 -1,50306456250794 -0,66974847375869 -0,472160716933739 -1,47435488451522 1,29054818350475 0,359654579013425 
