-0,0055527536359391 1,37333466473237 1,60232177375505 -1,57954122775725 0,373813963203604 -0,889852452040581 0,311260254440019 0,917638788892719 0,589653283166538 0,442826802582865 
-0,2676395512636 -0,66634055211504 -0,974238796147629 0,0198743689762769 -0,065130429199958 -1,57336119466664 0,248413877850126 0,960164724830615 -0,799889651033976 -0,549270448703445 
-0,840275464505086 0,226613972268819 0,604758300634454 -0,306519124626889 -0,119767934605371 0,774299316003127 -1,6230133669423 0,417573442118509 0,45169187497892 0,051547416337089 
-1,34009310496556 1,32750169732538 -0,623849693510611 -0,125648430141457 -0,115495527682591 -0,969747091043623 1,06474773157702 0,0380436056470701 0,122049850934208 0,53464545101609 
0,608545873770279 0,602352052741848 -1,07175739549229 -0,982050695448206 -0,00261990743392093 0,763437407912424 1,73003132337333 -1,46216816540489 -0,63377457746946 -1,07057351470579 
-0,895010818385524 1,59206456287488 0,935336377787095 0,710626126770687 -0,04064350128716 -0,190834123902877 0,610034753386879 0,49916227790488 1,32222437285503 0,00183164252565793 
-0,910962566398998 -0,877314927637724 0,648805233193471 -0,995412254118087 -0,821577965837241 -0,701221964182901 0,29342090334856 0,960151819493692 1,55613463089202 0,158550389943435 
0,356546093410135 1,35366309421354 0,20733798880984 -0,598354086092838 2,31503834671203 0,491400036431104 -0,206809396486175 -1,12096388334965 -0,297506232711722 -0,0575557216338607 
-0,61124166083114 0,232677906394321 -0,503649613588885 -0,586867036105537 -0,931552543911409 -0,546157667840439 0,0851653195382867 0,358524179718701 0,221995071145703 0,382338596220286 
