-0,828546138400466 0,977114023337194 -0,608474649306608 0,468375401323836 -0,343556724183055 -0,308434024131128 0,740352451387491 -0,0573636978200468 -1,29242858926925 0,87973581248882 
-0,274039950815048 -1,58019948375933 -0,688440029364284 -0,250720406826455 -1,18479523973344 1,56351705264976 -1,2260573178516 0,0883990552823061 0,839832733949103 -0,736398531639668 
0,938949931091606 -0,105788124308823 -0,105465455788404 1,37948900170181 1,67594365684639 -0,040045771007913 -0,0413862052566307 -0,146767992128976 -0,92305064290904 -0,248383191995501 
-0,1107058176355 -0,24846418073795 0,183408138254847 0,200200344063435 -0,876303081343092 -0,117462125834293 0,241337527167675 -0,52370977938348 0,421345102038395 0,662209340852317 
-0,447360857132525 0,714186250099068 0,928931219177289 -0,160024810191255 -1,2451585101039 -1,36592150094776 -0,730053350203695 -0,846765038485995 1,66377753952275 0,11920298845051 
0,056319826136027 -0,289218396548749 -1,64340550080613 -0,843050135226478 -0,580114185321664 0,970241985908357 -0,610420520874402 -0,987963651008421 0,485431744477447 0,696489046824858 
1,4259521811255 -0,805879556483533 -0,134313054911007 1,34195460272625 -0,00955836987567993 0,974424229922902 -1,45660762201418 0,111359626572281 0,932582674516636 0,625666886100856 
0,322179525482086 0,297652461531876 0,74605395324391 -0,822376606903214 0,096962325492856 -0,161236319007462 0,658280656513889 0,361559354402851 0,931647511805709 1,34886515779414 
-0,191544801844538 1,06895361069588 -0,080686636133905 0,222604442957139 0,0357443350533695 -0,0485116329134959 0,908404894130493 -0,920163365975098 0,58646674964459 -0,215615074423428 
