0,133663650198683 0,0577935699507559 0,471370679080193 -0,285360065887384 -0,632594347467457 1,37917749758352 0,747020277715298 -0,556695953443505 -0,403450381664303 -0,10695537574494 
1,37394801049724 -0,937822476931765 1,39207764703924 0,789234188287162 -0,0770554147088227 -1,10528047637841 -0,990259619425172 -0,343449636988086 0,335453114162876 0,775569639702593 
-0,433222290795866 -0,408406736053716 -1,03758005770323 1,59327968394583 -1,34777960726935 0,51279476076029 -0,274917008948939 -1,19009899606979 -0,527101303868974 0,938951460616175 
-0,417673811683745 -0,234035988620034 0,00687455555232008 0,588424178287119 -0,150125086843094 0,0321449552016081 -0,642250319483341 -0,618534934529352 -0,327095028630968 -0,56490248299013 
-1,58394140375542 0,471443375326434 0,168440645811819 0,526753114954453 -0,83882052228312 -0,938096047057349 0,50289098336496 -0,102351159077767 0,589627858991561 0,701201644294058 
-0,0851882785024067 0,752707347158672 -0,759172480441245 0,474725929775613 0,955640989042186 -1,5192623687397 -0,495221501619658 0,432671464715466 0,404499245530227 0,747803292758206 
-0,155388438680856 -0,3229509980059 -0,610050104083982 0,231997694169636 -0,0478257278068109 -0,226896656317123 -0,774881490108502 -1,35082972129892 -0,272029459137483 -1,32808388289953 
0,40666886484561 0,309845188018328 0,73313633246959 0,0739358870521819 0,788836571289616 0,788334333877701 -0,190847381865535 0,821666827342318 0,0461002062289511 0,590316439788005 
-0,99009622260467 -0,558565849871172 -0,779726855061355 -0,149302948163032 0,0241397391185816 -0,170381158842417 0,218136491821211 -0,774851374223293 1,32578318924493 -0,32386271810339 
