-0,0572962104609684 -1,0950053927796 0,352435258554032 -0,391497750483219 -0,672441619934254 0,103020499681132 -0,603847939975023 0,780758154476415 1,11355886677492 
1,05558336406321 -1,46048801943263 -0,206229189679599 1,13542611780876 0,477058781998725 0,849738062289422 -0,918686282783135 -0,287993971219749 0,805028788361712 
-0,130966835889019 -0,947164823276533 -0,140122954333258 -0,919888292109076 0,402520748215504 0,818948130039008 0,557370533029256 0,986562172876001 0,938874635816959 
0,803530366068487 0,804268789093601 1,32090570204514 0,893384656526327 -0,055852887712351 0,175177608525463 0,440079538822211 0,759245364814645 -0,361699338412238 
-0,813152422748577 1,07779116437248 0,0597574110421153 0,491020232840451 -0,165508735243468 0,48212817071617 -0,651932957420094 -0,184636567632499 0,488475217245741 
-0,237677246908507 -0,14492888551854 0,6374273894529 -0,87680429866389 0,894947015338553 0,514446929802395 1,51957069332272 -0,859000435671769 0,942917354085444 
0,522440749929492 -0,830407918351892 0,888473859004897 -0,159512871484977 0,744131716487525 -0,659003792810256 -1,22185413613583 1,67162169395649 -0,330510634617186 
0,37314966478066 -0,529328843997945 0,0871926256065221 -1,09919324492579 -1,40628326487601 1,95726698809269 0,24227823374899 0,623659825708559 0,512008617750373 
-0,128465287274432 0,671470937804538 0,634028721430352 -1,03527968971863 -0,889304118524913 -1,54354759738108 0,17862774271035 0,862210347252996 -0,253891412114208 
