-0,0572962104609684 -0,402005392779599 0,352435258554032 -1,08449775048322 0,0205583800657458 -0,589979500318868 0,782152060024977 0,780758154476415 0,420558866774924 
-0,330416635936786 -0,0744880194326341 1,1797708103204 0,442426117808757 0,477058781998725 0,849738062289422 -0,918686282783135 -0,980993971219749 0,112028788361712 
0,562033164110981 -0,947164823276533 -0,140122954333258 0,466111707890924 0,402520748215504 0,818948130039008 0,557370533029256 0,293562172876001 0,938874635816959 
0,803530366068487 0,111268789093601 0,62790570204514 0,200384656526327 -0,055852887712351 1,56117760852546 -0,252920461177789 0,066245364814645 -0,361699338412238 
-0,813152422748577 -0,308208835627515 0,752757411042115 -0,201979767159549 -0,165508735243468 -0,21087182928383 0,0410670425799059 -0,184636567632499 1,18147521724574 
0,455322753091493 -0,14492888551854 1,3304273894529 -0,87680429866389 0,894947015338553 0,514446929802395 1,51957069332272 -0,859000435671769 0,942917354085444 
-0,170559250070508 -0,830407918351892 1,5814738590049 -0,159512871484977 1,43713171648752 0,0339962071897444 -1,22185413613583 0,28562169395649 0,362489365382814 
1,06614966478066 -0,529328843997945 0,780192625606522 -0,40619324492579 -1,40628326487601 1,26426698809269 0,24227823374899 1,31665982570856 -0,873991382249627 
-0,821465287274432 -0,714529062195462 -0,0589712785696479 -0,342279689718634 -0,196304118524913 -1,54354759738108 0,17862774271035 1,555210347253 -0,946891412114208 
