-0,146096937599171 -0,68207385626299 -0,200932106562393 -0,217334074535097 -1,05926663588279 0,55372076740196 0,672161994349287 0,147032283780646 0,004198809914849 
0,191237387802097 -0,70677947704996 0,235082433202808 0,396488045061234 -0,771356951338871 0,879304519505382 -0,502773301151476 1,52986438445368 0,632943684702713 
-0,589241063962337 0,217113308243972 -1,13929289247901 -0,56539664956061 0,495857894185864 0,201597648939396 0,884179449586281 -1,67773287530045 -1,09427932438686 
1,66183530354539 -1,85778530668457 1,33028647382804 -0,716925942552707 -0,604166598513334 0,01958121686223 1,2791591815884 -0,920416441708997 -0,134894834721412 
-0,195895109244108 -1,40324388527043 0,440084179602602 -0,158528415732797 -1,51094918971972 -1,32922832997107 -1,58864817580192 -0,7249813888804 -0,710047466545388 
-0,0203687339184661 1,04161254568613 -0,303351781006601 0,349201965774038 2,2231680927636 -0,98112039453402 -0,047075420467218 -0,169726809100121 -0,400715493318027 
-0,252119526850115 0,112299711961439 0,515068249551145 -1,40252975550179 1,28448647587862 0,232466239417654 -0,737999908211175 0,7033266908039 1,00481759046522 
0,09965316472978 -0,837801292463113 0,288364868279716 -0,0744067982050619 -1,69065342101345 1,41081341718408 0,211437400701659 0,201466139965442 -0,365785135592234 
-0,947728622680404 -0,928987068729469 -0,474656088033065 -0,929251125049429 -0,574955334688982 -0,412842684151997 -0,669527087206732 -0,897952220062237 0,824491058394542 
