-0,559336349801317 -1,32820643004924 0,471370679080193 -0,285360065887384 -0,632594347467457 -0,00682250241647597 0,0540202777152976 0,829304046556495 0,289549618335697 0,58604462425506 
-0,012051989502763 -0,937822476931765 0,699077647039237 0,096234188287162 -0,770055414708823 0,280719523621592 -0,990259619425172 0,349550363011914 0,335453114162876 0,775569639702593 
-0,433222290795866 -1,10140673605372 -0,344580057703229 1,59327968394583 -1,34777960726935 -0,18020523923971 -0,274917008948939 -1,19009899606979 0,858898696131026 0,245951460616175 
0,275326188316255 0,458964011379966 0,00687455555232008 0,588424178287119 -0,150125086843094 1,41814495520161 0,743749680516659 0,0744650654706479 -1,02009502863097 -0,56490248299013 
-1,58394140375542 -0,221556624673566 -0,524559354188181 -0,859246885045547 -0,14582052228312 -0,938096047057349 0,50289098336496 0,590648840922233 -0,103372141008439 0,701201644294058 
-0,778188278502407 0,752707347158672 -0,066172480441245 0,474725929775613 -0,430359010957814 -1,5192623687397 0,197778498380342 0,432671464715466 1,09749924553023 0,747803292758206 
-0,848388438680856 0,3700490019941 0,0829498959160178 0,231997694169636 0,645174272193189 -0,226896656317123 -0,774881490108502 -0,657829721298921 -0,965029459137483 0,057916117100472 
-0,28633113515439 -0,383154811981672 0,73313633246959 0,0739358870521819 0,0958365712896161 0,0953343338777006 -0,883847381865535 0,821666827342318 0,0461002062289511 0,590316439788005 
-0,99009622260467 -0,558565849871172 -0,779726855061355 -0,842302948163032 -0,668860260881418 0,522618841157583 0,218136491821211 -0,774851374223293 1,32578318924493 -0,32386271810339 
