1,36756173043445 -0,727928307419144 -0,875553849095271 1,35460935520269 0,307299853911297 -0,364448263945267 0,195342814175106 0,84921981852931 0,118776141548425 
0,10433590620539 0,533950650847494 0,123208957315986 -1,31142003912591 -0,698462880714546 0,993481107691527 -1,13779719057903 0,441971022375846 -0,744786069609591 
1,2194087699011 0,422915955736728 -1,47314449951246 0,58903345446523 0,432690259443452 -0,0207333718523073 0,54530724768774 1,19708647558842 -0,674873771925864 
-1,48764043015365 -0,441184108523738 0,891198073463141 -0,109095874758948 0,166694325299791 0,0725667590478279 1,00930570037118 -0,324549272980331 0,261210653586877 
-0,326076898410021 0,102759987629373 0,177596060469093 -0,648569626570013 -0,325143342230536 1,19637993051083 -0,588391695911247 0,859187433137646 0,500608050670292 
-0,443406937384702 0,902772483370627 -0,469285494400787 -0,0787544534908395 -0,13970945921713 -0,577177327860695 -0,072539150575893 0,168128349430919 -0,360785692339663 
-0,626330601808769 -0,0321206837110783 -0,311525158901943 1,64096305240503 -0,0100405286112989 0,559036089833377 -0,704849219743558 -0,833348102497099 0,632862877861067 
0,944665621940356 0,38478837785534 0,660775316721189 0,599991594254967 -1,03617744772098 -0,056497370091964 -0,280288997702435 -0,519198460918944 -0,560120984707084 
-0,41849337956798 -0,79048544531245 0,171982299789312 -0,703279958899729 -0,0907374917155771 -1,20081934126644 -0,496572766857023 -0,579448666866146 -0,641164254230058 
