0,902072456619736 -0,380366662228651 0,384046600551832 -0,0745931316379429 0,409149477914511 -1,43443978941321 -0,579703289819743 -0,161721291561481 -0,0327161536704359 0,350036915727443 
-0,2676395512636 -0,66634055211504 -0,974238796147629 -0,673125631023723 -0,065130429199958 -0,880361194666643 -0,444586122149874 1,65316472483061 -0,799889651033976 0,143729551296555 
-0,840275464505086 0,226613972268819 -0,0882416993655459 -0,999519124626889 -0,119767934605371 0,774299316003127 -0,9300133669423 -0,275426557881491 1,14469187497892 0,051547416337089 
0,301316543156894 0,203014215721755 -0,743916063450238 0,209505148795203 -0,137301382499887 1,29828702922412 -0,932832408372235 0,679194392487032 -0,211615255666718 0,178217320320298 
0,000332947354918733 -1,60829220990617 -0,178839865982458 0,0756105981187944 0,855105691229042 -0,00644458347719401 -0,973489826532774 0,130138562294253 -0,716525658833108 0,951110069617215 
0,869630787460893 0,319992591017388 -0,869637436172756 0,651318228641207 0,664766522899627 -0,618166725904758 -0,924423635902081 0,908840898381938 0,23322670684812 1,29251464720048 
-0,266839085098281 0,89368681232151 -0,534053086086201 1,53810586682945 -0,858489740574029 0,529346233014644 -0,922424488664802 -0,183743944942832 -0,842824248523835 -0,363417458424073 
0,359471213705592 -0,816780514636906 0,171779980497332 0,0218930286457264 -1,54960339605836 -1,61798325459891 0,791453838251277 -0,47085229748434 -0,161624815855932 0,272676648871823 
1,4407891425359 1,32584807076345 -1,25190089904838 0,500581805361706 1,5679166288762 -0,325676047860494 -0,620348348105489 -0,395234292091445 -0,148261374104424 1,48086534340487 
