-0,097249871337903 0,0398429329692587 0,951998336218297 -0,339896132862147 0,820644318973946 -0,695680852544811 0,0650114673492552 -0,115321230662671 0,142863695403497 
-0,724307496903607 -0,172530357979019 1,6725583533028 0,973128252650205 -0,688046643072295 0,980921655884442 0,847724640671035 0,542639002922289 -0,547897319098887 
-0,439055071882464 0,846838957558777 0,800099971611099 -1,06512918762682 0,658368091871202 -1,68896471618673 0,670144395749152 -1,43139177085943 -0,297831632801253 
-0,648741732187915 0,864300111883925 0,993437909518107 0,250024414910481 -1,14212277881481 0,806049004745227 -0,327783907157734 0,543959478635322 0,0447476526795639 
0,223755747649705 1,30203825778935 0,188740019015847 1,58165938777507 -0,259433416597747 1,38127455196915 0,315540400014976 -0,749067018623029 0,927944019110382 
0,0214363248187286 -0,654736603156541 -0,603736828535207 0,520839405954275 0,62844544166161 -0,0747210583997523 -0,0581236197883839 -0,619781504846542 0,773530071495813 
0,968411494670162 -1,60747172403078 -0,774618566862596 0,145179522757036 -0,883697892485046 0,803213378322876 -1,3825744920194 0,537084546363021 -1,01508029335462 
0,125338232030318 0,854311491294909 -0,0169265703376972 -0,989840047429241 -0,67663613196818 -0,242422359349868 0,641733455011963 -0,361552938228731 0,139932764586496 
0,759473911374562 -0,0552506178739719 0,375349372334475 -0,468419051481606 -0,726506945549746 -0,511242721933519 1,43732260903731 -0,476129077130989 0,158823078744962 
