-0,097249871337903 0,732842932969259 0,258998336218297 -0,339896132862147 0,820644318973946 -0,00268085254481099 0,0650114673492552 0,577678769337329 0,835863695403497 
-0,031307496903607 0,520469642020981 0,979558353302795 0,973128252650205 0,697953356927705 1,67392165588444 0,847724640671035 1,23563900292229 -1,24089731909889 
-0,439055071882464 0,846838957558777 0,800099971611099 -0,372129187626824 -0,0346319081287979 -0,995964716186731 1,36314439574915 -0,738391770859431 -0,297831632801253 
-0,648741732187915 -0,521699888116075 0,993437909518107 -0,442975585089519 -1,14212277881481 0,113049004745227 1,05821609284227 1,23695947863532 -0,648252347320436 
0,916755747649705 0,60903825778935 -0,504259980984153 0,888659387775073 -1,64543341659775 0,688274551969149 1,00854040001498 -1,44206701862303 0,234944019110382 
0,0214363248187286 0,0382633968434591 0,0892631714647929 1,21383940595427 -0,06455455833839 -0,767721058399752 0,634876380211616 -0,619781504846542 0,773530071495813 
0,275411494670162 -1,60747172403078 -0,774618566862596 -0,547820477242964 -1,57669789248505 1,49621337832288 -0,689574492019403 0,537084546363021 -0,322080293354616 
0,818338232030318 0,854311491294909 -0,0169265703376972 -0,989840047429241 -0,67663613196818 -0,242422359349868 0,641733455011963 0,331447061771269 1,5259327645865 
0,759473911374562 1,33074938212603 1,06834937233448 0,224580948518394 -1,41950694554975 -1,20424272193352 0,744322609037311 -0,476129077130989 -0,534176921255038 
