-0,0572962104609684 -0,402005392779599 -1,03356474144597 -0,391497750483219 -0,672441619934254 0,103020499681132 0,782152060024977 0,087758154476415 0,420558866774924 
-0,330416635936786 -0,767488019432634 1,1797708103204 -0,250573882191243 1,17005878199872 1,54273806228942 -0,918686282783135 -1,67399397121975 -0,580971211638288 
0,562033164110981 -1,64016482327653 -0,140122954333258 -0,226888292109076 0,402520748215504 0,818948130039008 -0,135629466970744 0,986562172876001 0,245874635816959 
0,803530366068487 -0,581731210906399 0,62790570204514 -0,492615343473673 0,637147112287649 0,868177608525463 0,440079538822211 -0,626754635185355 -1,05469933841224 
-0,813152422748577 -0,308208835627515 0,0597574110421153 -0,201979767159549 1,22049126475653 0,48212817071617 0,0410670425799059 -0,184636567632499 -0,204524782754259 
1,14832275309149 -0,14492888551854 1,3304273894529 -2,26280429866389 0,201947015338553 0,514446929802395 1,51957069332272 -0,859000435671769 0,249917354085444 
0,522440749929492 -0,137407918351892 0,195473859004897 -0,852512871484977 0,744131716487525 0,726996207189744 -1,22185413613583 1,67162169395649 0,362489365382814 
1,75914966478066 -0,529328843997945 1,47319262560652 -0,40619324492579 -0,71328326487601 0,57126698809269 0,24227823374899 -0,0693401742914409 -0,180991382249627 
0,564534712725568 -0,714529062195462 -0,0589712785696479 -0,342279689718634 -0,196304118524913 -0,850547597381076 -0,51437225728965 1,555210347253 -0,253891412114208 
