0,928863056609343 -0,16958113814219 0,542854670222315 0,761158967917859 0,615148034698864 -0,215341273968267 0,339518933249414 -1,6031954018279 0,458431202666103 -1,56663378045784 
-0,921423775107331 0,492736150274396 -1,00047335930703 0,578233879794475 0,203482037039233 0,0103548453237652 0,497202167984658 -0,603378509917938 -0,055129410551921 -0,68172362775203 
-0,978100471188361 0,638685530814662 -0,427894049057688 -1,39600162010966 0,785346177013752 0,182402468837054 0,43546911302743 0,091180699161338 -0,949169453848232 0,119035221518965 
0,736624155070923 0,400856913719725 1,28543118464594 0,337390299577913 -0,618437548628746 -1,67933431549479 0,135065036423069 -0,942820735887541 -1,45383654340396 0,50541470363057 
-0,329358980678655 -0,766440730140284 1,68514643798403 -0,177632764530197 0,252870836878601 0,0331966143121 -0,626052729318409 -0,940484497668447 -0,828132664704757 0,521226103194629 
-0,223709113534404 -0,90786421201558 1,18545201958923 -0,180405449378959 -0,556076450066677 -0,095822474205318 -0,741687089084502 0,938856290331975 1,66881279090411 0,125745565861811 
-1,6508103869957 -0,751661765911924 1,03897405202034 1,33939598114714 -0,610257935528764 -0,322280688827057 0,900304965628453 0,355136341115058 -0,496328571576778 -0,503183647465978 
0,182289808900696 -0,252977096127801 -0,149541966513983 0,439455885817509 -1,35236464707338 -0,597659741048077 0,646539092830633 0,749738715472509 0,0441275430117396 -0,247850437298347 
0,383007579195782 -0,194621166770636 -0,117545531651725 1,34374636864045 0,00229698186847238 -0,821487421086751 0,394941320068176 0,719458273481325 -1,6056854706149 -0,153545067251448 
