-0,483927543380264 -0,380366662228651 1,07704660055183 0,618406868362057 1,10214947791451 -1,43443978941321 -0,579703289819743 0,531278708438519 -0,0327161536704359 -1,03596308427256 
-0,2676395512636 0,02665944788496 -0,281238796147629 -0,673125631023723 -0,065130429199958 -0,880361194666643 -0,444586122149874 0,960164724830615 -0,106889651033976 0,836729551296555 
-0,840275464505086 1,61261397226882 -0,0882416993655459 -0,999519124626889 0,573232065394629 0,774299316003127 -0,9300133669423 -0,275426557881491 1,14469187497892 0,744547416337089 
0,994316543156894 -1,18298578427824 -1,43691606345024 0,209505148795203 -0,830301382499887 0,605287029224116 -0,932832408372235 0,679194392487032 0,481384744333282 0,871217320320298 
-0,692667052645081 -0,222292209906174 -1,56483986598246 0,0756105981187944 0,162105691229042 -1,39244458347719 -0,973489826532774 -0,562861437705747 -0,716525658833108 0,951110069617215 
1,56263078746089 -0,373007408982612 -0,869637436172756 0,651318228641207 0,664766522899627 -1,31116672590476 -0,924423635902081 0,908840898381938 -0,45977329315188 0,599514647200478 
-1,65283908509828 0,20068681232151 0,158946913913799 0,152105866829448 -0,858489740574029 0,529346233014644 -0,229424488664802 -0,183743944942832 -0,149824248523835 -0,363417458424073 
0,359471213705592 -0,123780514636906 0,864779980497332 0,0218930286457264 -0,856603396058364 -1,61798325459891 0,0984538382512771 -0,47085229748434 -0,854624815855932 -1,11332335112818 
0,747789142535901 1,32584807076345 -0,558900899048383 1,19358180536171 0,874916628876196 -0,325676047860494 -0,620348348105489 -0,395234292091445 -0,148261374104424 0,787865343404871 
