0,902072456619736 0,312633337771349 0,384046600551832 -0,0745931316379429 -0,283850522085489 -0,741439789413214 0,113296710180257 -0,161721291561481 0,660283846329564 -1,03596308427256 
-0,2676395512636 -0,66634055211504 -0,974238796147629 -0,673125631023723 -0,758130429199958 -1,57336119466664 -0,444586122149874 0,960164724830615 -0,799889651033976 0,143729551296555 
-0,840275464505086 0,226613972268819 0,604758300634454 -0,999519124626889 -0,119767934605371 0,081299316003127 -0,9300133669423 0,417573442118509 -0,24130812502108 0,744547416337089 
0,994316543156894 0,203014215721755 -1,43691606345024 0,209505148795203 -0,830301382499887 1,29828702922412 -0,932832408372235 -0,013805607512968 0,481384744333282 0,178217320320298 
-0,692667052645081 -0,915292209906174 -0,178839865982458 -0,617389401881206 0,162105691229042 -0,00644458347719401 -0,973489826532774 -0,562861437705747 -0,716525658833108 1,64411006961722 
1,56263078746089 -0,373007408982612 -0,869637436172756 1,34431822864121 0,664766522899627 -0,618166725904758 -0,924423635902081 0,908840898381938 -0,45977329315188 -0,093485352799522 
-0,266839085098281 0,89368681232151 0,158946913913799 0,845105866829448 -0,858489740574029 0,529346233014644 -0,922424488664802 -0,183743944942832 -0,842824248523835 -0,363417458424073 
-0,333528786294408 -0,816780514636906 0,171779980497332 0,0218930286457264 -1,54960339605836 -0,924983254598912 1,48445383825128 -1,16385229748434 -0,854624815855932 -0,420323351128177 
1,4407891425359 -0,060151929236553 -1,25190089904838 -0,192418194638294 0,181916628876196 0,367323952139506 -0,620348348105489 -0,395234292091445 -0,148261374104424 0,0948653434048711 
