-0,146096937599171 0,01092614373701 -0,893932106562393 0,475665925464903 -1,05926663588279 1,24672076740196 0,672161994349287 0,147032283780646 0,697198809914849 
0,884237387802097 -1,39977947704996 0,235082433202808 0,396488045061234 -0,771356951338871 0,186304519505382 -0,502773301151476 0,83686438445368 0,632943684702713 
0,103758936037663 -0,475886691756028 -1,13929289247901 -1,25839664956061 0,495857894185864 -0,491402351060604 0,884179449586281 -0,291732875300447 0,291720675613135 
1,66183530354539 -0,47178530668457 0,637286473828036 0,669074057447293 -0,604166598513334 1,40558121686223 1,2791591815884 -0,920416441708997 -0,134894834721412 
-0,195895109244108 -1,40324388527043 1,1330841796026 0,534471584267203 -0,81794918971972 -0,636228329971073 -1,58864817580192 -1,4179813888804 -0,017047466545388 
-0,0203687339184661 1,04161254568613 -0,303351781006601 1,04220196577404 1,5301680927636 -0,98112039453402 -0,740075420467218 -0,169726809100121 -0,400715493318027 
-0,252119526850115 0,112299711961439 -0,177931750448855 -1,40252975550179 0,591486475878622 0,925466239417654 -0,737999908211175 1,3963266908039 0,311817590465219 
-0,940087663913186 1,2151633303548 0,897387121463375 0,601501216340578 1,50332886347283 -0,850940509629874 -0,678800645773206 0,772121808092632 -0,838891730275886 
0,49985950510011 -0,12371264822954 0,728062497963692 -0,117064562507935 -0,66974847375869 -1,16516071693374 -2,16735488451522 -0,0954518164952529 1,05265457901342 
