-1,37387989822071 0,124904467609667 0,31271362924609 1,10013986540546 0,216050087402132 -0,0789616184541779 1,44185745241719 -1,08648746342281 1,29528481590854 0,419885068861714 
0,835110696594282 -1,44182404121981 -1,30986316300969 1,19797967354254 -1,76356019987984 -0,186103807090364 0,47772217983274 -1,24292474408351 -0,685834301196427 0,274082656318826 
-0,154822187743067 0,665300755605707 0,388330807038737 -0,774451080311765 0,159408163526286 -0,0684814110582139 -0,1679874642468 -0,241501471898752 0,456479354508444 -0,380630130298263 
1,78535563476726 -0,737212963918323 0,707914708046203 -0,55267029176218 -1,20502005934111 0,42813856779977 0,090384500901859 0,260374370617966 -0,0436882682483121 -0,268456528553952 
0,223112923369796 0,205616633037858 -0,487005989759698 -0,560537119536911 0,887034729708934 0,330135740666248 -0,620506141796478 1,76630132343075 -0,800659383261418 1,18844424726416 
-0,0599033148306903 0,0516952709535581 -0,228839736072738 -0,121707341863172 2,38505850645111 -1,03918065382642 0,81557366057093 -0,605835290442144 -0,752268298120828 -0,0224685015396531 
0,475025845792622 1,37635892431594 -1,23596681793126 -0,017085053793194 -0,97947056590555 -2,19967633948739 0,236261250733985 -0,450192871247508 0,709999732883647 0,194301232320397 
0,723511692007776 -0,78265219078523 -2,1992364758352 -0,724377772642475 -0,949030267050969 0,025561179219075 0,845306745365405 -1,51613207342435 0,031514189979301 2,21527242286004 
-0,447975269261736 0,530711212322447 -0,519842088637334 0,961035107244288 -0,627726815467573 -1,3453396361863 -0,81537322784559 -2,24937795009062 -0,551728798213288 0,913160594485309 
