-0,698552753635939 -0,0126653352676259 0,216321773755048 -1,57954122775725 0,373813963203604 -0,889852452040581 -0,381739745559981 1,61063878889272 -0,103346716833462 0,442826802582865 
1,51363464625768 0,391269638850945 -0,178382059815052 -1,11352850752162 -0,52127588052362 0,130954079563708 -0,262560511888731 -0,940144719235201 0,778565411991237 0,457130049740956 
0,538283682213297 0,933588728623273 -0,664997388452756 -0,241953715329037 -0,528228664258136 0,453065074432672 1,64698583912942 1,95022200871828 -1,13505496434218 -0,910951814279869 
-1,39877103351512 -2,31417487098657 1,68693829237387 -0,434188339595771 -0,640072364830911 0,77669335303255 0,927770989913387 -0,558494532275244 -0,193986147559707 -0,0541730891234119 
0,102204506160321 -0,0279498449656879 1,56777564404056 -0,642837561500649 -0,434512838165049 0,462838630873169 2,37124156491516 -1,39618414070792 -0,443661621512688 0,751981357928357 
-0,71418796186996 -1,22501599769854 -0,559920296506454 -0,85958186623621 1,51437089680013 0,354483727996463 -0,715369273775895 0,93300031588087 0,146635532620193 -0,350915596518161 
-0,69542562854263 -0,836925298538024 -0,0266663272193011 -2,20076433939057 0,0558079492425579 0,0558095172442541 -0,29566865352293 -0,744193720219281 0,526543857309289 0,39503076644383 
-0,48981691034968 -0,783065979613488 -0,360158571675494 -1,55326149888535 -0,0310744564193648 -0,433766472821015 -0,327186915417289 1,67084017304789 -0,193440877163988 -0,684067295131305 
-0,225176490482491 1,35016997983734 -0,685116369769031 -0,194036322270537 -0,503763852409908 1,51924496418342 0,631745425519881 0,160520158610083 0,437440763604101 0,698443907172626 
