-0,234669104793421 0,853198440677113 -0,360048851338704 1,44271963826088 -0,432401946481504 0,569694552370205 0,872950005924306 -0,058151407952957 -0,522050845214189 -0,0794995394905561 
-0,767932644937156 0,310993065443818 0,930594456988198 0,577845454019422 -0,216938927697921 0,150418545362269 -0,00168974651102427 -1,28695869616138 0,509033404062052 0,897895167534191 
0,108450632420113 -1,30229703228609 -1,04026752496663 0,59731738716239 0,650900179357687 0,713210161348903 -1,41606401455918 -1,4834559791975 -0,96064734148404 0,507920359963514 
0,226187675830996 1,24111138173012 1,48636324697051 0,484145212678306 -0,126056796757065 -0,666110091687231 -0,917940917386646 0,198887044483743 -1,43317282470138 0,301154247159676 
-1,61275471373636 0,668415425190896 -0,539736563763924 0,205333663073524 -0,84424879953463 0,306163057361805 -1,0237604767991 0,564103979414377 0,649655111609332 0,322138419697591 
1,00204041384768 -1,60782212483642 0,153818421310195 0,0337907052756243 0,1479444686081 0,435960682484769 0,712061094917385 0,874053291917803 -0,629260245245071 -0,95980450881636 
-0,2837584878573 -0,155523743087204 -0,596048611959465 -0,604370741627817 -0,640143051575936 -0,86716337123288 -1,42418572390228 -0,092067565639069 0,608290985044228 -1,10394532302159 
-0,494339558991762 -0,882146663908915 0,0897231877132889 -0,9657011329968 0,00232435343895321 -0,866964792770783 0,930439531477839 -0,245601188040153 -0,25143381330298 -0,655262878004118 
-0,649029361851993 0,405832006026447 0,25288890919317 -1,58978576118163 -0,801120053884164 -0,551990199332587 0,780292960419922 0,452572541694889 0,0292007440702059 0,437982520758166 
