0,546903062400829 0,01092614373701 0,492067893437607 -0,217334074535097 -1,75226663588279 1,24672076740196 0,672161994349287 0,147032283780646 0,697198809914849 
0,191237387802097 -1,39977947704996 0,928082433202808 0,396488045061234 -0,771356951338871 0,879304519505382 0,190226698848524 0,83686438445368 -0,0600563152972869 
-1,28224106396234 0,910113308243972 -1,13929289247901 -0,56539664956061 0,495857894185864 -0,491402351060604 0,191179449586281 -0,984732875300447 -0,401279324386865 
0,275835303545387 -1,16478530668457 1,33028647382804 -0,023925942552707 0,088833401486666 0,71258121686223 0,5861591815884 -0,227416441708997 -0,827894834721412 
-0,195895109244108 -1,40324388527043 1,1330841796026 0,534471584267203 -0,81794918971972 0,0567716700289269 -0,895648175801918 -0,7249813888804 -0,017047466545388 
0,672631266081534 1,04161254568613 1,0826482189934 1,04220196577404 2,2231680927636 -1,67412039453402 -0,047075420467218 -0,169726809100121 0,292284506681973 
-0,252119526850115 0,805299711961439 -0,177931750448855 -0,70952975550179 0,591486475878622 0,232466239417654 0,648000091788825 1,3963266908039 1,00481759046522 
0,09965316472978 -1,53080129246311 -0,404635131720284 -0,0744067982050619 -0,304653421013455 1,41081341718408 -1,17456259929834 -0,491533860034558 -1,05878513559223 
-1,6407286226804 0,457012931270531 -0,474656088033065 -0,929251125049429 -0,574955334688982 -0,412842684151997 -1,36252708720673 0,488047779937763 0,131491058394542 
