-1,44329621046097 -0,402005392779599 0,352435258554032 -0,391497750483219 0,713558380065746 -0,589979500318868 0,089152060024977 1,47375815447641 1,11355886677492 
0,362583364063214 -1,46048801943263 -0,206229189679599 0,442426117808757 0,477058781998725 1,54273806228942 -0,225686282783135 -1,67399397121975 0,112028788361712 
1,94803316411098 -0,254164823276533 -0,140122954333258 -0,226888292109076 1,0955207482155 0,818948130039008 -0,828629466970744 0,293562172876001 1,63187463581696 
0,803530366068487 0,111268789093601 1,32090570204514 0,200384656526327 -0,74885288771235 0,175177608525463 1,13307953882221 1,45224536481464 -0,361699338412238 
0,572847577251423 1,07779116437248 -0,633242588957885 -0,201979767159549 0,527491264756532 -0,21087182928383 -0,651932957420094 -0,877636567632499 1,18147521724574 
-0,237677246908507 -0,14492888551854 1,3304273894529 -0,876804298663886 0,201947015338553 1,2074469298024 0,826570693322723 0,526999564328231 0,249917354085444 
1,21544074992949 -0,137407918351892 1,5814738590049 -0,159512871484977 -0,641868283512475 0,726996207189744 -1,22185413613583 0,28562169395649 -0,330510634617186 
0,79265316472978 -0,837801292463113 0,288364868279716 0,618593201794938 -0,997653421013455 0,71781341718408 -1,17456259929834 0,201466139965442 -1,05878513559223 
-1,6407286226804 0,457012931270531 -1,16765608803306 -0,929251125049429 -1,26795533468898 -0,412842684151997 -0,669527087206732 -0,204952220062237 0,131491058394542 
