0,928863056609343 0,52341886185781 0,542854670222315 0,761158967917859 0,615148034698864 1,17065872603173 -0,353481066750586 -1,6031954018279 0,458431202666103 -0,87363378045784 
-1,61442377510733 0,492736150274396 -0,307473359307029 -0,114766120205525 0,203482037039233 0,0103548453237652 0,497202167984658 0,089621490082062 -0,748129410551921 0,0112763722479698 
-0,978100471188361 0,638685530814662 -1,12089404905769 -1,39600162010966 0,0923461770137521 -0,510597531162946 0,43546911302743 -0,601819300838662 -0,949169453848232 0,119035221518965 
0,736624155070923 -0,292143086280275 0,592431184645943 -0,355609700422087 0,767562451371254 -0,98633431549479 0,135065036423069 -0,249820735887541 -0,0678365434039551 0,50541470363057 
-1,02235898067865 -0,0734407301402841 0,992146437984028 0,515367235469803 -0,440129163121399 -0,6598033856879 0,0669472706815915 -1,63348449766845 -0,828132664704757 1,21422610319463 
0,469290886465596 -0,21486421201558 -0,200547980410768 0,512594550621041 -0,556076450066677 1,29017752579468 -0,741687089084502 0,938856290331975 1,66881279090411 -0,567254434138189 
-1,6508103869957 0,634338234088075 0,345974052020336 0,646395981147138 -0,610257935528764 -0,322280688827057 1,59330496562845 -0,337863658884942 -1,18932857157678 0,189816352534022 
0,182289808900696 -0,945977096127801 -1,53554196651398 0,439455885817509 -1,35236464707338 -0,597659741048077 1,33953909283063 0,749738715472509 0,73712754301174 -0,247850437298347 
-0,309992420804218 0,498378833229364 0,575454468348275 -0,04225363135955 0,00229698186847238 -0,128487421086751 -0,298058679931824 1,41245827348132 -1,6056854706149 -0,153545067251448 
