-1,39155275363594 0,680334664732374 0,909321773755048 -2,27254122775725 0,373813963203604 -0,196852452040581 -0,381739745559981 -0,468361211107281 0,589653283166538 -0,250173197417135 
-0,2676395512636 -0,66634055211504 -1,66723879614763 -0,673125631023723 -0,758130429199958 -0,880361194666643 0,248413877850126 0,96016472483061 -0,799889651033976 0,836729551296555 
-0,599247910827048 -0,278566791978463 0,282985421202139 2,08587385985436 -0,294118313721436 0,73278966254219 1,15650974098943 0,555575808941655 2,11455944918867 0,559436637703067 
-0,391683456843106 -0,489985784278245 -0,743916063450238 0,209505148795203 -0,830301382499887 0,605287029224116 -0,932832408372235 0,679194392487032 0,481384744333282 0,178217320320298 
0,693332947354919 -0,915292209906174 -1,56483986598246 0,0756105981187944 -0,530894308770958 -0,699444583477194 -0,973489826532774 -0,562861437705747 -0,0235256588331081 0,951110069617215 
0,869630787460893 -0,373007408982612 -0,176637436172756 0,651318228641207 0,664766522899627 -1,31116672590476 -0,924423635902081 0,908840898381938 -0,45977329315188 0,599514647200478 
-0,959839085098281 0,20068681232151 -0,534053086086201 0,845105866829448 -0,858489740574029 1,22234623301464 -1,6154244886648 -0,876743944942832 -0,842824248523835 -0,363417458424073 
1,05247121370559 -0,816780514636906 0,171779980497332 0,0218930286457264 -0,163603396058364 -0,924983254598912 0,0984538382512771 0,22214770251566 -0,854624815855932 -1,11332335112818 
1,4407891425359 0,632848070763447 -0,558900899048383 0,500581805361706 0,181916628876196 -0,325676047860494 -1,31334834810549 -0,395234292091445 1,23773862589558 0,0948653434048711 
