0,209072456619736 -0,380366662228651 -0,308953399448168 1,31140686836206 0,409149477914511 -0,741439789413214 0,113296710180257 -0,161721291561481 -0,0327161536704359 -0,342963084272557 
-1,6536395512636 0,02665944788496 -0,281238796147629 -0,673125631023723 -0,065130429199958 -0,880361194666643 -0,444586122149874 0,960164724830615 -0,799889651033976 -0,549270448703445 
-1,53327546450509 0,919613972268819 1,29775830063445 -0,999519124626889 -0,119767934605371 0,774299316003127 -0,2370133669423 -0,275426557881491 0,45169187497892 0,744547416337089 
-0,391683456843106 -1,18298578427824 -0,743916063450238 0,902505148795203 -0,830301382499887 1,29828702922412 -0,239832408372235 0,679194392487032 -0,211615255666718 0,178217320320298 
0,693332947354919 -1,60829220990617 -0,178839865982458 0,768610598118794 0,855105691229042 -0,00644458347719401 -0,973489826532774 -0,562861437705747 -0,716525658833108 0,258110069617215 
0,869630787460893 -1,06600740898261 -1,56263743617276 1,34431822864121 0,664766522899627 -1,31116672590476 -1,61742363590208 0,215840898381938 0,92622670684812 1,29251464720048 
-0,959839085098281 0,89368681232151 -0,534053086086201 0,152105866829448 -0,858489740574029 0,529346233014644 -0,922424488664802 -0,183743944942832 -0,842824248523835 0,329582541575927 
0,359471213705592 -0,123780514636906 -0,521220019502668 -0,671106971354274 -1,54960339605836 -0,924983254598912 0,791453838251277 -1,16385229748434 -0,161624815855932 -0,420323351128177 
0,0547891425359011 0,632848070763447 -1,25190089904838 -0,192418194638294 1,5679166288762 0,367323952139506 -1,31334834810549 0,297765707908555 0,544738625895576 1,48086534340487 
