-1,39155275363594 0,680334664732374 1,60232177375505 -1,57954122775725 -0,319186036796396 0,496147547959419 0,311260254440019 0,224638788892719 0,589653283166538 -0,250173197417135 
-0,2676395512636 -0,66634055211504 -0,974238796147629 -1,36612563102372 -0,758130429199958 -0,187361194666643 -0,444586122149874 1,65316472483061 -0,799889651033976 0,836729551296555 
0,093752089172952 -0,278566791978463 -0,410014578797861 1,39287385985436 -0,294118313721436 0,73278966254219 0,463509740989427 -0,137424191058345 1,42155944918867 -0,133563362296933 
0,301316543156894 0,203014215721755 -0,743916063450238 -0,483494851204797 -1,52330138249989 0,605287029224116 -0,932832408372235 0,679194392487032 -0,211615255666718 0,871217320320298 
-0,692667052645081 -1,60829220990617 -1,56483986598246 0,0756105981187944 0,162105691229042 -0,00644458347719401 -1,66648982653277 -0,562861437705747 -1,40952565883311 1,64411006961722 
0,176630787460893 -1,06600740898261 -1,56263743617276 1,34431822864121 0,664766522899627 0,074833274095242 -0,231423635902081 0,215840898381938 -0,45977329315188 -0,093485352799522 
-1,65283908509828 1,58668681232151 -0,534053086086201 0,845105866829448 -0,165489740574029 1,22234623301464 -1,6154244886648 0,509256055057168 -0,842824248523835 0,329582541575927 
-0,333528786294408 0,569219485363094 -0,521220019502668 0,0218930286457264 -1,54960339605836 -0,924983254598912 0,791453838251277 0,22214770251566 0,531375184144068 -1,11332335112818 
0,747789142535901 1,32584807076345 -1,25190089904838 -0,192418194638294 1,5679166288762 0,367323952139506 -0,620348348105489 -1,08823429209144 0,544738625895576 0,787865343404871 
