-0,828546138400466 0,977114023337194 -0,608474649306608 0,468375401323836 -0,343556724183055 -0,308434024131128 0,0473524513874912 -0,0573636978200468 0,0935714107307469 0,87973581248882 
-0,967039950815048 -0,194199483759328 -0,688440029364284 -0,943720406826455 0,201204760266563 0,177517052649761 -0,533057317851604 1,47439905528231 0,146832733949103 -0,736398531639668 
0,245949931091606 -0,105788124308823 -0,105465455788404 0,686489001701814 0,982943656846389 -0,040045771007913 -0,0413862052566307 -0,839767992128976 -0,92305064290904 -0,941383191995501 
-0,1107058176355 -0,24846418073795 0,876408138254847 -0,492799655936565 -1,56930308134309 -0,117462125834293 0,934337527167675 -0,52370977938348 -0,271654897961605 0,662209340852317 
-0,447360857132525 0,021186250099068 0,928931219177289 -0,160024810191255 -0,552158510103895 -0,672921500947756 -1,42305335020369 -1,53976503848599 0,970777539522749 -0,57379701154949 
0,056319826136027 -0,982218396548749 -0,950405500806126 -0,843050135226478 -0,580114185321664 0,970241985908357 0,775579479125598 0,398036348991579 -0,207568255522553 0,696489046824858 
0,039952181125503 -0,805879556483533 -0,827313054911007 0,648954602726248 -0,70255836987568 0,281424229922902 -1,45660762201418 -0,581640373427719 0,239582674516636 -0,067333113899144 
-0,370820474517914 0,990652461531876 0,0530539532439103 -0,129376606903214 0,096962325492856 -0,161236319007462 -0,0347193434861109 -0,331440645597149 0,238647511805709 1,34886515779414 
-0,191544801844538 -0,317046389304123 -1,4666866361339 0,222604442957139 0,0357443350533695 0,644488367086504 0,908404894130493 -0,227163365975098 -0,79953325035541 0,477384925576572 
