-0,698552753635939 -0,0126653352676259 0,909321773755048 -1,57954122775725 0,373813963203604 -0,889852452040581 0,311260254440019 0,917638788892719 0,589653283166538 1,13582680258286 
-1,6536395512636 0,02665944788496 -0,974238796147629 -0,673125631023723 -0,758130429199958 -1,57336119466664 -1,13758612214987 0,960164724830615 -1,49288965103398 0,836729551296555 
-1,53327546450509 1,61261397226882 1,29775830063445 -0,999519124626889 -0,119767934605371 1,46729931600313 -0,9300133669423 -0,968426557881491 1,14469187497892 0,744547416337089 
0,0459068950344379 0,63450169732538 0,0691503064893889 0,567351569858543 -0,115495527682591 0,416252908956377 -0,321252268422978 0,73104360564707 0,815049850934208 1,92064545101609 
-0,0844541262297211 -0,090647947258152 -0,378757395492288 -0,982050695448206 -0,00261990743392093 1,45643740791242 1,03703132337333 -1,46216816540489 0,75222542253054 -0,377573514705791 
-0,895010818385524 0,206064562874876 0,242336377787095 0,0176261267706874 -0,04064350128716 1,19516587609712 0,610034753386879 -0,19383772209512 0,629224372855026 0,00183164252565793 
-0,910962566398998 -0,184314927637724 1,34180523319347 -0,302412254118087 -0,128577965837241 -1,3942219641829 0,98642090334856 0,960151819493692 0,86313463089202 0,851550389943435 
-0,336453906589865 -0,032336905786459 -0,48566201119016 -0,598354086092838 0,92903834671203 -0,201599963568896 -0,206809396486175 0,265036116650345 -0,297506232711722 -0,0575557216338607 
-1,99724166083114 0,925677906394321 0,189350386411115 -0,586867036105537 -1,62455254391141 0,839842332159561 0,0851653195382867 -0,334475820281299 -1,1640049288543 1,07533859622029 
