-0,105309632190182 0,239367819036994 -0,527488667936292 -0,060979480125 -0,158668748642629 1,61851976811398 0,148215354316502 -0,296821505435194 0,599021753109536 
-0,938618720480529 -0,838936092257004 -0,348451456682967 0,293659445207873 0,283412390986184 -1,58417112471311 -0,472860877156658 0,0633857366924109 0,395922773874795 
-0,638454442675437 0,348093399474441 -0,693260435803449 0,0426169322070744 1,49829297972345 0,956686397062934 -0,440475132987124 -0,883511625176068 -1,38268604024951 
-1,43012804156222 -0,680522334613149 1,16083704937801 -0,872121745368057 0,463271838362921 0,362539941148152 0,573367477834396 -0,669977409611446 -0,645424700177007 
1,13389229006362 -0,0025112816940579 1,65543733352164 0,886051262382907 1,3614044681808 -0,158880625459776 -0,563505042779494 -0,04645567127385 -0,100174526557873 
-0,506096230296928 -0,0199303234223881 0,544983064543914 -1,28332648223933 -0,0134734832744456 1,41111741111712 -0,0537197988865521 1,58657728599272 -1,51041006477615 
-1,06148111421265 1,54507343560274 0,434074839313549 -0,484175064999226 -0,620504347137876 -0,968157123466561 1,30820580836349 -0,114656604121279 -1,30929917082204 
-1,56181529626847 0,240503024887528 -0,995207930619925 0,289008602168881 0,720291967373477 -0,0466101994023705 1,4472535754639 0,0862468327797237 0,372897018386469 
-0,631682829759867 0,35333816770154 0,879599696900509 0,216857943319184 -0,374219205577494 -0,258271761824503 0,796271535473071 -0,190639655021783 -0,0506048989717871 
