-0,238250692020287 -1,00657265697493 0,463439311582334 -0,757080859391522 0,296105518902236 -0,411213474074012 0,893587810576236 -0,541182961101263 0,033407672496702 
0,769165811952746 -0,0032166045309121 -0,029570440602754 1,58323412013903 0,173063827293489 -0,654661174409865 -0,83096986133697 -0,352758304552994 -1,19206486901411 
-0,54282079056968 1,19422776045521 0,358007228634324 1,62804815359369 -0,281488570981421 -1,57394360562085 -0,666804451340253 0,555565205195716 0,27417967248437 
0,194904332312711 -0,0946127227948107 0,0408806939003431 0,141932984121578 0,316451650725888 0,143163995418308 0,778514648391639 0,423250772721717 1,24696053826155 
-0,667669072299576 0,971901115016966 -0,867382039254244 0,10384104172878 0,621628063554702 -0,85885071468486 0,309267359171187 0,976783190843083 -0,677215141093924 
-0,0901647963184701 -1,0868298958325 -1,55248397771431 -1,55588923763805 0,434016598124996 0,712240759787728 0,388527331589035 1,32327415314236 -0,910856282296989 
1,64221060183514 -0,17329884561398 0,274915914006492 1,03738291720319 1,60272359194873 0,126540313706519 1,00760685344162 -0,994316521736475 -0,139570238306453 
-0,393473021403641 1,01323282783117 -0,7056682552568 -0,558734436021063 -0,195280528252609 0,749813054571773 -0,208621712671417 0,836699210962606 0,36834058043004 
-0,259514559646842 0,168494294941655 -0,0133110687063589 -0,227379810343673 0,220121974986569 -0,841251349002706 0,0568609236208071 0,372621097309804 0,13641869824632 
