-0,146096937599171 0,01092614373701 -0,893932106562393 -0,217334074535097 -0,36626663588279 -0,13927923259804 -0,0208380056507129 0,840032283780646 0,004198809914849 
0,191237387802097 -0,0137794770499601 -0,457917566797192 0,396488045061234 -1,46435695133887 -0,506695480494618 0,190226698848524 1,52986438445368 0,632943684702713 
0,103758936037663 -0,475886691756028 -1,13929289247901 -0,56539664956061 -0,197142105814136 -0,491402351060604 0,884179449586281 -0,984732875300447 0,291720675613135 
1,66183530354539 -1,85778530668457 -0,0557135261719639 -0,023925942552707 -1,29716659851333 0,01958121686223 1,2791591815884 -0,227416441708997 -0,827894834721412 
-0,888895109244108 -0,71024388527043 1,1330841796026 1,2274715842672 -0,81794918971972 -1,32922832997107 -0,895648175801918 -1,4179813888804 -0,710047466545388 
-0,0203687339184661 0,34861254568613 -0,303351781006601 0,349201965774038 1,5301680927636 -0,98112039453402 -1,43307542046722 -0,169726809100121 -0,400715493318027 
-0,945119526850115 0,112299711961439 -0,177931750448855 -2,09552975550179 0,591486475878622 0,925466239417654 -0,0449999082111753 0,0103266908039 -0,381182409534781 
0,79265316472978 -0,837801292463113 0,288364868279716 -0,0744067982050619 -0,997653421013455 0,71781341718408 -1,17456259929834 0,894466139965442 -1,05878513559223 
-0,254728622680404 0,457012931270531 -1,16765608803306 -0,929251125049429 -0,574955334688982 -0,412842684151997 -0,669527087206732 -0,204952220062237 0,824491058394542 
