0,674561730434448 -0,727928307419144 -0,182553849095271 -0,0313906447973059 1,0002998539113 0,328551736054733 -0,497657185824894 0,84921981852931 0,118776141548425 
-0,58866409379461 0,533950650847494 0,816208957315986 -0,618420039125914 -0,00546288071454637 0,300481107691527 0,248202809420974 -0,251028977624154 -0,0517860696095911 
-0,166591230098899 0,422915955736728 -0,780144499512457 0,58903345446523 -0,260309740556548 0,672266628147693 0,54530724768774 -0,188913524411578 -0,674873771925864 
-1,48764043015365 0,944815891476262 0,891198073463141 -0,109095874758948 0,859694325299791 0,0725667590478279 1,00930570037118 1,06145072701967 0,261210653586877 
0,366923101589979 0,795759987629373 0,870596060469093 -0,648569626570013 -0,325143342230536 0,503379930510828 0,104608304088753 0,166187433137646 0,500608050670292 
0,249593062615298 1,59577248337063 -0,469285494400787 -0,0787544534908395 0,55329054078287 0,115822672139305 -1,45853915057589 0,168128349430919 0,332214307660337 
-1,31933060180877 -0,0321206837110783 -0,311525158901943 0,947963052405027 -0,0100405286112989 0,559036089833377 -1,39784921974356 -0,833348102497099 1,32586287786107 
0,944665621940356 0,38478837785534 0,660775316721189 -0,093008405745033 -0,343177447720979 -0,056497370091964 -0,973288997702435 0,173801539081056 0,132879015292916 
0,27450662043202 -1,48348544531245 -1,21401770021069 -0,703279958899729 -0,783737491715577 -1,20081934126644 -0,496572766857023 -0,579448666866146 -0,641164254230058 
