-1,52154613840047 0,977114023337194 -0,608474649306608 0,468375401323836 0,349443275816945 0,384565975868872 0,0473524513874912 -0,750363697820047 -1,29242858926925 0,87973581248882 
-0,967039950815048 -1,58019948375933 -0,688440029364284 -0,943720406826455 -0,491795239733437 0,870517052649761 0,159942682148396 0,781399055282306 0,146832733949103 0,649601468360332 
0,245949931091606 -0,798788124308823 -0,105465455788404 0,686489001701814 0,982943656846389 0,652954228992087 0,651613794743369 -0,839767992128976 -0,23005064290904 -0,248383191995501 
-0,8037058176355 -0,94146418073795 0,876408138254847 -0,492799655936565 -1,56930308134309 -0,117462125834293 0,241337527167675 -1,21670977938348 -0,964654897961605 -0,0307906591476829 
-1,14036085713253 0,021186250099068 0,928931219177289 -0,853024810191255 -0,552158510103895 -0,672921500947756 -0,730053350203695 -1,53976503848599 0,970777539522749 0,11920298845051 
0,749319826136027 -0,982218396548749 -0,950405500806126 -0,150050135226478 0,112885814678336 0,277241985908357 0,0825794791255983 0,398036348991579 -0,207568255522553 0,00348904682485807 
0,732952181125503 -0,805879556483533 0,558686945088993 -0,0440453972737519 -0,00955836987567993 0,281424229922902 -1,45660762201418 0,111359626572281 0,239582674516636 0,625666886100856 
-1,06382047451791 1,68365246153188 0,74605395324391 -0,822376606903214 -1,28903767450714 -0,161236319007462 0,658280656513889 1,05455935440285 -0,454352488194291 1,34886515779414 
-0,884544801844538 1,06895361069588 -0,080686636133905 0,222604442957139 -0,65725566494663 0,644488367086504 0,215404894130493 -1,6131633659751 0,58646674964459 0,477384925576572 
