0,230299428039835 -0,935543561324265 0,414862634341634 0,61038602748019 1,48330252145152 0,861201384678577 0,523829365858729 -0,0126486403791459 1,46695847615505 -0,0898995637380982 
0,202170681129755 -0,947437606727442 -0,764883123867159 0,0801284597628418 -0,0652515483392643 0,856374869694642 0,030112490244728 -0,891501870887122 0,709552021561913 0,368287792135164 
0,78087580473203 0,277730923740999 -0,01336746803176 -1,5702093606541 -0,342861116264882 0,942806123436338 0,104619732640972 1,35348380623594 -0,58419368955502 0,546286292162857 
1,03158961953716 -1,34609104120968 -0,99618625454427 -0,439948861864837 -0,110008880081591 -0,324623236756596 1,60556186641406 0,808862343979935 -1,08523670744907 0,478381467740229 
0,446102708320181 0,130529323187903 -0,575529729749788 0,665043772042284 0,265464325386316 0,176662579433835 -0,748075224980281 0,43126742392884 0,0732982629320111 -0,173778847406515 
-0,0265709986102632 -0,512638237100392 0,0931487973281875 -0,133080029456448 1,15192181874203 -0,354431495701164 0,0778239067074955 0,292071994995732 0,567247143745072 -0,459503601984821 
-1,62941834796239 1,55634555962279 0,957545049175874 -0,079327816007812 0,571510816724743 0,548261722339439 -0,951251352183172 -0,017934262002322 -0,809862660155568 1,25937168841733 
-0,442186996719421 -0,471749853735208 0,500734836561948 -1,46182944617832 0,922185083814983 0,343346481544127 -0,146739346509212 -0,371411240074044 -1,52867368604041 -0,133523695698717 
-0,69511865158338 -1,32664769128787 -0,41281445669607 1,2825851578515 -0,42714270922688 -0,14877214336245 0,946760161462128 0,136893774912177 0,794129319393136 -0,755577384380427 
