0,587690367809818 0,932367819036994 0,165511332063708 -0,060979480125 -0,851668748642629 1,61851976811398 0,148215354316502 0,396178494564806 1,29202175310954 
-0,938618720480529 -0,145936092257004 -1,04145145668297 -1,09234055479213 -0,409587609013816 -0,891171124713109 -1,16586087715666 0,0633857366924109 -0,297077226125205 
-0,638454442675437 0,348093399474441 -1,38626043580345 0,0426169322070744 0,805292979723445 1,64968639706293 -1,13347513298712 -0,883511625176068 -0,689686040249507 
-0,737128041562218 -0,680522334613149 -0,225162950621994 0,513878254631943 0,463271838362921 -0,330460058851848 -0,812632522165604 -0,669977409611446 -1,33842470017701 
0,440892290063618 -0,0025112816940579 0,962437333521637 -0,499948737617093 -0,0245955318191999 -0,158880625459776 0,129494957220506 1,33954432872615 -0,100174526557873 
0,879903769703072 -0,712930323422388 -0,148016935456086 0,102673517760669 -0,706473483274446 1,41111741111712 -0,0537197988865521 0,893577285992716 -0,817410064776153 
-1,06148111421265 0,852073435602744 0,434074839313549 0,208824935000774 -0,620504347137876 -0,275157123466561 0,615205808363485 0,578343395878721 -1,30929917082204 
-0,17581529626847 0,240503024887528 -0,302207930619925 -0,403991397831119 0,0272919673734771 -0,0466101994023705 0,754253575463897 0,0862468327797237 1,06589701838647 
-0,631682829759867 0,35333816770154 0,879599696900509 0,216857943319184 -0,374219205577494 -0,258271761824503 0,103271535473071 -1,57663965502178 0,642395101028213 
