0,133663650198683 -1,32820643004924 0,471370679080193 -0,978360065887384 0,753405652532543 1,37917749758352 0,0540202777152976 0,829304046556495 -0,403450381664303 1,27904462425506 
-0,012051989502763 -1,63082247693176 0,699077647039237 1,48223418828716 0,615944585291177 -0,412280476378408 -0,990259619425172 -1,03644963698809 1,02845311416288 0,0825696397025928 
0,259777709204134 -1,10140673605372 -1,03758005770323 0,207279683945831 -0,654779607269345 1,20579476076029 -0,274917008948939 -0,497098996069794 0,165898696131026 0,938951460616175 
0,275326188316255 1,15196401137997 0,00687455555232008 -0,104575821712881 -0,843125086843094 0,0321449552016081 0,743749680516659 -1,31153493452935 -1,02009502863097 -0,56490248299013 
-0,890941403755425 0,471443375326434 -0,524559354188181 -0,166246885045547 -0,14582052228312 -0,938096047057349 -0,19010901663504 1,28364884092223 0,589627858991561 0,00820164429405779 
0,607811721497593 1,44570734715867 -0,759172480441245 -0,218274070224387 0,955640989042186 -0,133262368739705 -0,495221501619658 0,432671464715466 -0,288500754469773 0,0548032927582056 
-0,155388438680856 -0,3229509980059 -0,610050104083982 -1,15400230583036 0,645174272193189 -0,919896656317123 -0,774881490108502 -1,35082972129892 -0,272029459137483 -0,635083882899528 
1,09966886484561 -0,383154811981672 0,73313633246959 -1,31206411294782 1,48183657128962 0,0953343338777006 -0,883847381865535 1,51466682734232 0,0461002062289511 0,590316439788005 
-0,99009622260467 0,827434150128828 -0,0867268550613555 -0,149302948163032 -0,668860260881418 0,522618841157583 -0,474863508178789 -0,774851374223293 0,632783189244933 0,36913728189661 
