-0,69855275363594 0,680334664732374 1,60232177375505 -1,57954122775725 1,0668139632036 0,496147547959419 -1,07473974555998 0,224638788892719 0,589653283166538 -0,250173197417135 
-0,2676395512636 0,02665944788496 -0,974238796147629 -0,673125631023723 -1,45113042919996 -0,880361194666643 -1,13758612214987 1,65316472483061 -1,49288965103398 -0,549270448703445 
-0,599247910827048 -0,971566791978463 -0,410014578797861 1,39287385985436 0,398881686278564 1,42578966254219 1,15650974098943 -0,137424191058345 2,11455944918867 -0,133563362296933 
0,994316543156894 -1,18298578427824 -0,050916063450238 0,902505148795203 -0,830301382499887 1,29828702922412 0,453167591627765 0,679194392487032 -0,904615255666718 0,178217320320298 
0,000332947354918733 -0,222292209906174 -0,178839865982458 0,0756105981187944 0,855105691229042 -0,699444583477194 -0,973489826532774 -1,25586143770575 -0,716525658833108 0,951110069617215 
0,176630787460893 -1,06600740898261 -0,869637436172756 0,651318228641207 0,664766522899627 -1,31116672590476 -0,924423635902081 0,908840898381938 -0,45977329315188 1,29251464720048 
-0,959839085098281 0,89368681232151 -0,534053086086201 0,845105866829448 -0,165489740574029 0,529346233014644 -0,922424488664802 -0,876743944942832 -0,149824248523835 0,329582541575927 
0,359471213705592 0,569219485363094 0,864779980497332 0,0218930286457264 -0,856603396058364 -1,61798325459891 0,791453838251277 0,22214770251566 -0,854624815855932 -0,420323351128177 
0,747789142535901 1,32584807076345 -0,558900899048383 0,500581805361706 1,5679166288762 -0,325676047860494 0,0726516518945109 -0,395234292091445 0,544738625895576 0,787865343404871 
