-0,0572962104609684 -0,402005392779599 -1,03356474144597 -0,391497750483219 0,713558380065746 -0,589979500318868 -0,603847939975023 0,780758154476415 0,420558866774924 
-0,330416635936786 -0,767488019432634 0,486770810320401 0,442426117808757 -0,215941218001275 0,156738062289422 -0,225686282783135 -0,980993971219749 -0,580971211638288 
0,562033164110981 -1,64016482327653 -0,833122954333258 -0,919888292109076 0,402520748215504 1,51194813003901 0,557370533029256 0,986562172876001 0,938874635816959 
0,803530366068487 0,111268789093601 1,32090570204514 0,200384656526327 0,637147112287649 1,56117760852546 -0,252920461177789 0,759245364814645 -0,361699338412238 
-0,813152422748577 -0,308208835627515 0,0597574110421153 0,491020232840451 -0,165508735243468 -0,21087182928383 -1,34493295742009 0,508363432367501 0,488475217245741 
1,14832275309149 -0,14492888551854 1,3304273894529 -0,87680429866389 0,201947015338553 -0,871553070197605 0,82657069332272 -0,166000435671769 0,249917354085444 
-0,170559250070508 -0,137407918351892 0,888473859004897 -0,159512871484977 0,744131716487525 0,0339962071897444 -1,22185413613583 0,97862169395649 0,362489365382814 
1,06614966478066 0,163671156002055 0,780192625606522 -0,40619324492579 -1,40628326487601 1,95726698809269 0,93527823374899 1,31665982570856 0,512008617750373 
-0,128465287274432 -0,0215290621954617 0,634028721430352 -0,342279689718634 -0,889304118524913 -0,850547597381076 -0,51437225728965 0,862210347252996 0,439108587885792 
