-0,698552753635939 0,680334664732374 0,909321773755048 -0,886541227757251 0,373813963203604 -0,889852452040581 -0,381739745559981 0,917638788892719 0,589653283166538 0,442826802582865 
-0,9606395512636 -0,66634055211504 -0,974238796147629 -0,673125631023723 -0,758130429199958 -0,880361194666643 -0,444586122149874 0,960164724830615 -0,799889651033976 0,143729551296555 
-0,840275464505086 0,919613972268819 0,604758300634454 -0,999519124626889 -0,119767934605371 0,774299316003127 -0,9300133669423 -0,275426557881491 0,45169187497892 0,744547416337089 
0,301316543156894 -0,489985784278245 -0,743916063450238 0,209505148795203 -0,830301382499887 0,605287029224116 -0,239832408372235 0,679194392487032 -0,211615255666718 0,178217320320298 
0,000332947354918733 -0,915292209906174 -0,871839865982458 0,0756105981187944 0,162105691229042 -0,699444583477194 -0,973489826532774 -0,562861437705747 -0,716525658833108 0,951110069617215 
0,869630787460893 -0,373007408982612 -0,869637436172756 0,651318228641207 0,664766522899627 -0,618166725904758 -0,924423635902081 0,908840898381938 0,23322670684812 0,599514647200478 
-0,959839085098281 0,89368681232151 -0,534053086086201 0,845105866829448 -0,858489740574029 0,529346233014644 -0,922424488664802 -0,183743944942832 -0,842824248523835 -0,363417458424073 
0,359471213705592 -0,123780514636906 0,171779980497332 0,0218930286457264 -0,856603396058364 -0,924983254598912 0,791453838251277 -0,47085229748434 -0,161624815855932 -0,420323351128177 
0,747789142535901 0,632848070763447 -0,558900899048383 0,500581805361706 0,874916628876196 -0,325676047860494 -0,620348348105489 -0,395234292091445 0,544738625895576 0,787865343404871 
