0,826663650198683 0,0577935699507559 0,471370679080193 -0,978360065887384 -0,632594347467457 1,37917749758352 0,0540202777152976 0,136304046556495 0,289549618335697 1,27904462425506 
0,680948010497237 -0,244822476931765 0,00607764703923708 0,789234188287162 0,615944585291177 -1,10528047637841 -1,68325961942517 -0,343449636988086 -0,357546885837124 0,0825696397025928 
-0,433222290795866 -0,408406736053716 -1,03758005770323 0,900279683945831 -0,654779607269345 0,51279476076029 -0,967917008948939 -0,497098996069794 0,858898696131026 0,245951460616175 
0,968326188316255 0,458964011379966 1,39287455555232 -0,797575821712881 0,542874913156906 0,725144955201608 0,0507496805166592 -1,31153493452935 -1,02009502863097 0,82109751700987 
-0,890941403755425 0,471443375326434 -0,524559354188181 -0,859246885045547 0,54717947771688 -0,245096047057349 0,50289098336496 0,590648840922233 -0,103372141008439 0,701201644294058 
-0,778188278502407 0,0597073471586721 -0,759172480441245 -0,218274070224387 0,955640989042186 -0,826262368739705 0,890778498380342 0,432671464715466 0,404499245530227 0,0548032927582056 
0,537611561319144 -0,3229509980059 0,775949895916018 -0,461002305830364 -0,0478257278068109 -0,226896656317123 -0,0818814901085019 0,0351702787010789 -0,965029459137483 -0,635083882899528 
0,40666886484561 0,309845188018328 0,73313633246959 -0,619064112947818 0,788836571289616 -0,597665666122299 -0,883847381865535 0,821666827342318 -0,646899793771049 0,590316439788005 
-0,99009622260467 0,134434150128828 0,606273144938644 -0,842302948163032 0,717139739118582 1,21561884115758 -0,474863508178789 -0,774851374223293 0,632783189244933 -0,32386271810339 
