-0,0055527536359391 1,37333466473237 0,909321773755048 -1,57954122775725 -0,319186036796396 -1,58285245204058 -0,381739745559981 0,224638788892719 0,589653283166538 0,442826802582865 
0,820634646257681 -0,301730361149055 1,20761794018495 -1,11352850752162 0,17172411947638 0,130954079563708 -0,955560511888731 -0,247144719235201 -0,607434588008762 -0,235869950259044 
0,538283682213297 0,240588728623273 0,0280026115472439 0,451046284670963 -0,528228664258136 -0,239934925567328 2,33998583912942 1,25722200871828 -0,44205496434218 -0,910951814279869 
-1,39877103351512 -1,62117487098657 1,68693829237387 -1,12718833959577 -0,640072364830911 0,77669335303255 0,234770989913387 0,134505467724756 0,499013852440293 0,638826910876588 
0,795204506160321 0,665050155034312 0,874775644040562 0,050162438499351 0,951487161834951 -0,230161369126831 1,67824156491516 -0,70318414070792 0,249338378487312 0,058981357928357 
-2,10018796186996 0,160984002301462 0,826079703493546 -0,85958186623621 2,20737089680013 0,354483727996463 -0,715369273775895 2,31900031588087 -0,546364467379807 -0,350915596518161 
-0,69542562854263 -0,836925298538024 -0,719666327219301 -2,20076433939057 0,0558079492425579 0,0558095172442541 -0,98866865352293 -0,744193720219281 -0,166456142690711 -0,29796923355617 
-0,48981691034968 -0,0900659796134879 0,332841428324506 -0,167261498885351 -0,724074456419365 0,259233527178985 -0,327186915417289 1,67084017304789 -0,886440877163988 0,00893270486869502 
-0,225176490482491 1,35016997983734 0,00788363023096861 -0,194036322270537 -0,503763852409908 0,82624496418342 0,631745425519881 0,160520158610083 -0,255559236395899 0,00544390717262611 
