0,235863056609343 0,52341886185781 0,542854670222315 -0,624841032082141 -0,0778519653011359 0,477658726031733 0,339518933249414 -0,217195401827896 0,458431202666103 -0,87363378045784 
-1,61442377510733 0,492736150274396 -0,307473359307029 1,27123387979448 0,203482037039233 0,703354845323765 1,19020216798466 -0,603378509917938 -1,44112941055192 0,0112763722479698 
-0,978100471188361 0,638685530814662 -1,12089404905769 -0,0100016201096591 0,785346177013752 0,182402468837054 0,43546911302743 -0,601819300838662 0,436830546151768 0,119035221518965 
1,42962415507092 0,400856913719725 1,28543118464594 0,337390299577913 -0,618437548628746 -0,98633431549479 0,135065036423069 -0,249820735887541 -0,0678365434039551 -0,18758529636943 
-1,02235898067865 -0,0734407301402841 0,992146437984028 -0,177632764530197 -0,440129163121399 0,0331966143121 -0,626052729318409 -0,940484497668447 -0,828132664704757 0,521226103194629 
-0,223709113534404 -0,21486421201558 1,18545201958923 0,512594550621041 -0,556076450066677 0,597177525794682 -0,741687089084502 -0,447143709668025 0,975812790904107 -1,26025443413819 
-1,6508103869957 0,634338234088075 -0,347025947979664 -0,0466040188528619 -0,610257935528764 -0,322280688827057 0,207304965628453 1,04813634111506 -1,18932857157678 0,882816352534022 
0,875289808900696 -0,252977096127801 -1,53554196651398 -0,253544114182491 -1,35236464707338 0,788340258951923 0,646539092830633 0,749738715472509 -0,64887245698826 -0,940850437298347 
1,07600757919578 -0,194621166770636 -0,810545531651725 -0,04225363135955 -0,690703018131528 -1,51448742108675 -0,298058679931824 0,719458273481325 -0,912685470614901 -0,153545067251448 
