-0,483927543380264 -0,380366662228651 -0,308953399448168 0,618406868362057 0,409149477914511 -0,048439789413214 -0,579703289819743 -0,161721291561481 0,660283846329564 -0,342963084272557 
-0,9606395512636 -1,35934055211504 -0,974238796147629 -1,36612563102372 -0,065130429199958 -1,57336119466664 -0,444586122149874 0,960164724830615 -0,799889651033976 0,143729551296555 
-0,840275464505086 0,226613972268819 0,604758300634454 -0,999519124626889 -0,812767934605371 0,774299316003127 -0,9300133669423 0,417573442118509 0,45169187497892 1,43754741633709 
0,301316543156894 -0,489985784278245 -0,050916063450238 -0,483494851204797 -0,137301382499887 1,29828702922412 -0,239832408372235 1,37219439248703 -0,904615255666718 0,178217320320298 
0,000332947354918733 -0,915292209906174 -0,178839865982458 0,768610598118794 -0,530894308770958 -1,39244458347719 -0,973489826532774 -0,562861437705747 -0,716525658833108 0,951110069617215 
0,869630787460893 -0,373007408982612 -0,869637436172756 -0,0416817713587929 -0,0282334771003729 0,074833274095242 -0,924423635902081 0,215840898381938 0,23322670684812 1,29251464720048 
-0,266839085098281 0,89368681232151 0,158946913913799 1,53810586682945 -0,165489740574029 0,529346233014644 -0,922424488664802 -0,183743944942832 -0,842824248523835 -0,363417458424073 
0,359471213705592 -0,816780514636906 -0,521220019502668 0,0218930286457264 -0,856603396058364 -0,924983254598912 0,791453838251277 -1,16385229748434 0,531375184144068 -1,11332335112818 
1,4407891425359 0,632848070763447 -0,558900899048383 -0,192418194638294 0,181916628876196 -0,325676047860494 -0,620348348105489 -0,395234292091445 1,23773862589558 1,48086534340487 
