1,2887501286621 -0,653157067030741 0,951998336218297 0,353103867137853 1,51364431897395 -0,695680852544811 0,0650114673492552 0,577678769337329 1,5288636954035 
-0,724307496903607 -0,172530357979019 0,286558353302795 0,280128252650205 0,00495335692770471 0,980921655884442 1,54072464067103 -0,150360997077711 -1,24089731909889 
-0,439055071882464 0,846838957558777 0,107099971611099 -1,06512918762682 0,658368091871202 -1,68896471618673 1,36314439574915 -0,738391770859431 0,395168367198747 
-0,648741732187915 -0,521699888116075 0,300437909518107 -1,13597558508952 -0,449122778814809 0,113049004745227 0,365216092842266 0,543959478635322 -0,648252347320436 
-0,469244252350295 -0,08396174221065 -0,504259980984153 0,888659387775073 -0,259433416597747 0,688274551969149 0,315540400014976 -0,0560670186230291 0,234944019110382 
-0,671563675181271 0,0382633968434591 0,0892631714647929 0,520839405954275 0,62844544166161 -0,0747210583997523 0,634876380211616 0,073218495153458 0,773530071495813 
0,968411494670162 -0,914471724030781 -0,774618566862596 -0,547820477242964 -0,190697892485046 0,803213378322876 -0,689574492019403 -0,155915453636979 0,370919706645384 
0,818338232030318 1,54731149129491 0,676073429662303 -0,296840047429241 -0,67663613196818 -0,242422359349868 0,641733455011963 -0,361552938228731 1,5259327645865 
1,45247391137456 0,637749382126028 0,375349372334475 -0,468419051481606 -0,726506945549746 -0,511242721933519 1,43732260903731 -0,476129077130989 -0,534176921255038 
