0,209072456619736 -0,380366662228651 0,384046600551832 0,618406868362057 0,409149477914511 -0,741439789413214 -0,579703289819743 0,531278708438519 0,660283846329564 -0,342963084272557 
0,820634646257681 0,391269638850945 0,514617940184948 -1,11352850752162 0,17172411947638 0,130954079563708 -0,262560511888731 -0,247144719235201 0,0855654119912375 0,457130049740956 
0,538283682213297 0,240588728623273 0,0280026115472439 -0,241953715329037 -0,528228664258136 -0,239934925567328 1,64698583912942 1,25722200871828 -0,44205496434218 -0,217951814279869 
-0,705771033515116 -1,62117487098657 1,68693829237387 -0,434188339595771 -0,640072364830911 0,0836933530325505 0,234770989913387 0,134505467724756 -0,193986147559707 0,638826910876588 
0,102204506160321 -0,0279498449656879 0,874775644040562 -0,642837561500649 0,258487161834951 0,462838630873169 1,67824156491516 -1,39618414070792 0,249338378487312 0,751981357928357 
-1,40718796186996 -0,532015997698538 0,133079703493546 -1,55258186623621 1,51437089680013 0,354483727996463 -0,715369273775895 1,62600031588087 -0,546364467379807 -0,350915596518161 
-1,38842562854263 -0,143925298538024 -0,719666327219301 -1,50776433939057 -0,637192050757442 0,0558095172442541 -0,29566865352293 -0,0511937202192814 -0,166456142690711 0,39503076644383 
-1,18281691034968 -0,0900659796134879 -0,360158571675494 -0,860261498885351 -0,0310744564193648 0,259233527178985 -0,327186915417289 1,67084017304789 -0,193440877163988 0,00893270486869502 
0,467823509517509 1,35016997983734 0,00788363023096861 -0,194036322270537 0,189236147590092 1,51924496418342 -0,0612545744801194 0,853520158610083 0,437440763604101 0,00544390717262611 
