-0,234669104793421 1,54619844067711 0,332951148661296 0,749719638260882 0,260598053518496 0,569694552370205 0,872950005924306 -0,751151407952957 0,170949154785811 -0,0794995394905561 
-0,767932644937156 -0,382006934556182 -0,455405543011802 1,27084545401942 -0,216938927697921 -1,23558145463773 -0,694689746511024 -0,593958696161378 -0,183966595937948 0,204895167534191 
0,801450632420113 -0,609297032286086 -0,347267524966629 0,59731738716239 0,650900179357687 0,713210161348903 -0,0300640145591761 -0,790455979197498 -0,96064734148404 -0,185079640036486 
-0,466812324169004 -0,144888618269883 1,48636324697051 0,484145212678306 -0,819056796757065 -0,666110091687231 -0,917940917386646 1,58488704448374 -0,0471728247013751 0,301154247159676 
-1,61275471373636 -0,0245845748091039 -0,539736563763924 0,205333663073524 -0,84424879953463 0,999163057361805 -1,0237604767991 0,564103979414377 0,649655111609332 0,322138419697591 
-0,383959586152322 -1,60782212483642 -0,539181578689805 0,726790705275624 -0,5450555313919 -0,950039317515231 1,40506109491738 0,181053291917803 -0,629260245245071 -0,26680450881636 
-0,2837584878573 -0,155523743087204 -0,596048611959465 0,0886292583721826 0,052856948424064 -1,56016337123288 -0,038185723902278 -1,47806756563907 -0,084709014955772 -0,410945323021591 
-0,494339558991762 -0,882146663908915 -0,603276812286711 -1,6587011329968 0,00232435343895321 -0,173964792770783 -0,455560468522161 -0,938601188040153 1,13456618669702 -1,34826287800412 
0,0439706381480069 0,405832006026447 -0,44011109080683 -0,203785761181631 -0,108120053884164 0,834009800667413 0,0872929604199217 -0,240427458305111 0,0292007440702059 0,437982520758166 
