-0,0572962104609684 -0,402005392779599 -1,03356474144597 0,301502249516781 0,0205583800657458 -1,28297950031887 -0,603847939975023 0,780758154476415 0,420558866774924 
1,05558336406321 -1,46048801943263 -0,206229189679599 0,442426117808757 -0,215941218001275 1,54273806228942 -1,61168628278313 -0,287993971219749 0,805028788361712 
-0,130966835889019 -0,254164823276533 -0,140122954333258 -0,919888292109076 -0,983479251784496 1,51194813003901 1,25037053302926 0,986562172876001 0,245874635816959 
1,49653036606849 -0,581731210906399 0,62790570204514 -0,492615343473673 0,637147112287649 0,868177608525463 0,440079538822211 0,759245364814645 -1,05469933841224 
-0,120152422748577 -0,308208835627515 0,0597574110421153 0,491020232840451 1,22049126475653 1,17512817071617 -0,651932957420094 -0,184636567632499 0,488475217245741 
-0,237677246908507 0,54807111448146 1,3304273894529 -1,56980429866389 0,894947015338553 -0,178553070197605 0,82657069332272 -0,859000435671769 0,249917354085444 
-0,170559250070508 -0,137407918351892 0,888473859004897 -0,159512871484977 0,744131716487525 -0,659003792810256 -0,528854136135827 0,97862169395649 0,362489365382814 
0,37314966478066 0,163671156002055 1,47319262560652 -0,40619324492579 -0,71328326487601 0,57126698809269 0,24227823374899 0,623659825708559 -0,873991382249627 
-0,821465287274432 -0,0215290621954617 0,634028721430352 0,350720310281366 -0,889304118524913 -0,850547597381076 -1,20737225728965 1,555210347253 -0,946891412114208 
