-0,457136943390657 -0,16958113814219 1,23585467022231 0,0681589679178591 0,615148034698864 -0,215341273968267 0,339518933249414 -1,6031954018279 0,458431202666103 -0,18063378045784 
-0,921423775107331 -0,200263849725604 -0,307473359307029 0,578233879794475 0,203482037039233 0,703354845323765 0,497202167984658 -0,603378509917938 -0,055129410551921 0,0112763722479698 
-1,67110047118836 -0,054314469185338 -0,427894049057688 -0,703001620109659 -0,600653822986248 -0,510597531162946 0,43546911302743 -0,601819300838662 -0,256169453848232 0,119035221518965 
0,736624155070923 -0,292143086280275 0,592431184645943 0,337390299577913 -0,618437548628746 -1,67933431549479 -0,557934963576931 -0,249820735887541 -0,0678365434039551 -0,18758529636943 
-1,02235898067865 -0,0734407301402841 0,299146437984028 -0,177632764530197 0,945870836878601 -0,6598033856879 0,0669472706815915 -0,940484497668447 -1,52113266470476 1,21422610319463 
-0,916709113534404 -0,90786421201558 0,492452019589232 0,512594550621041 -0,556076450066677 1,29017752579468 -0,741687089084502 -0,447143709668025 0,282812790904107 -0,567254434138189 
-0,957810386995697 0,634338234088075 -0,347025947979664 0,646395981147138 -1,30325793552876 -0,322280688827057 0,900304965628453 -0,337863658884942 -0,496328571576778 -0,503183647465978 
0,875289808900696 0,440022903872199 -0,842541966513983 -0,253544114182491 -0,659364647073375 0,788340258951923 0,646539092830633 0,749738715472509 -0,64887245698826 0,445149562701653 
0,383007579195782 0,498378833229364 -0,117545531651725 -0,04225363135955 0,00229698186847238 -0,128487421086751 0,394941320068176 1,41245827348132 -0,912685470614901 0,539454932748552 
