0,454749307979713 -1,00657265697493 -0,229560688417666 -0,0640808593915221 1,68210551890224 -1,10421347407401 0,200587810576236 -0,541182961101263 -0,659592327503298 
0,0761658119527461 -0,696216604530912 -0,722570440602754 0,89023412013903 0,866063827293489 0,0383388255901349 -0,13796986133697 -0,352758304552994 -1,19206486901411 
0,15017920943032 0,501227760455212 0,358007228634324 1,62804815359369 -0,281488570981421 -1,57394360562085 -0,666804451340253 1,24856520519572 0,27417967248437 
-0,498095667687289 -0,787612722794811 0,0408806939003431 0,141932984121578 -0,376548349274112 -0,549836004581692 0,0855146483916391 1,11625077272172 0,553960538261552 
0,718330927700424 0,278901115016966 -0,867382039254244 0,10384104172878 0,621628063554702 -0,16585071468486 -0,383732640828813 0,976783190843083 -1,37021514109392 
-1,47616479631847 0,299170104167503 -0,859483977714313 -0,169889237638046 1,127016598125 0,0192407597877275 0,388527331589035 0,630274153142364 -0,910856282296989 
0,949210601835144 0,51970115438602 0,274915914006492 0,344382917203187 0,909723591948731 -0,566459686293481 0,314606853441618 0,391683478263525 0,553429761693547 
-0,393473021403641 0,320232827831168 -0,0126682552568002 0,827265563978937 0,497719471747391 0,749813054571773 0,484378287328583 0,836699210962606 1,06134058043004 
-0,952514559646842 0,861494294941655 0,679688931293641 -0,227379810343673 0,913121974986569 -1,53425134900271 0,0568609236208071 -0,320378902690196 0,82941869824632 
