-0,927669104793421 0,853198440677113 -0,360048851338704 1,44271963826088 -1,1254019464815 0,569694552370205 0,179950005924306 -0,751151407952957 -1,21505084521419 -0,0794995394905561 
-0,074932644937156 0,310993065443818 0,237594456988198 0,577845454019422 -1,60293892769792 0,150418545362269 -0,00168974651102427 -1,28695869616138 0,509033404062052 0,897895167534191 
0,801450632420113 -1,30229703228609 -0,347267524966629 0,59731738716239 -0,042099820642313 0,0202101613489027 -0,723064014559176 -1,4834559791975 -0,96064734148404 -0,185079640036486 
0,919187675830996 1,24111138173012 0,100363246970513 0,484145212678306 -1,51205679675707 -0,666110091687231 -1,61094091738665 0,198887044483743 -0,0471728247013751 0,301154247159676 
-1,61275471373636 0,668415425190896 0,846263436236076 0,898333663073524 -0,84424879953463 -0,386836942638195 -0,330760476799105 0,564103979414377 -0,736344888390668 -1,06386158030241 
0,309040413847678 -0,221822124836418 -0,539181578689805 -0,659209294724376 0,1479444686081 -0,950039317515231 0,712061094917385 0,181053291917803 0,0637397547549288 -0,95980450881636 
-0,2837584878573 -0,848523743087204 -0,596048611959465 -0,604370741627817 0,052856948424064 -1,56016337123288 -1,42418572390228 -0,785067565639069 -0,084709014955772 -1,10394532302159 
-0,494339558991762 -0,189146663908915 -1,29627681228671 -0,2727011329968 -0,690675646561047 -0,866964792770783 -0,455560468522161 -0,245601188040153 0,44156618669702 -1,34826287800412 
-1,34202936185199 0,405832006026447 0,94588890919317 -0,896785761181631 -1,49412005388416 0,141009800667413 0,780292960419922 -0,933427458305111 -1,35679925592979 0,437982520758166 
