-0,238250692020287 -1,00657265697493 0,463439311582334 -0,0640808593915221 0,989105518902236 -0,411213474074012 -0,492412189423764 -0,541182961101263 -0,659592327503298 
0,769165811952746 -0,696216604530912 -0,722570440602754 0,89023412013903 0,173063827293489 -0,654661174409865 0,55503013866303 0,340241695447006 -0,499064869014111 
-0,54282079056968 0,501227760455212 0,358007228634324 0,935048153593693 -0,281488570981421 -0,187943605620853 -0,666804451340253 0,555565205195716 -0,41882032751563 
0,194904332312711 0,598387277205189 1,42688069390034 -1,24406701587842 -0,376548349274112 0,143163995418308 -0,607485351608361 0,423250772721717 -0,139039461738448 
0,718330927700424 0,971901115016966 -0,867382039254244 0,10384104172878 0,621628063554702 -0,16585071468486 -0,383732640828813 1,66978319084308 -1,37021514109392 
-1,47616479631847 -0,393829895832497 -0,859483977714313 -0,169889237638046 -0,258983401875004 -0,673759240212272 1,08152733158904 0,630274153142364 -0,910856282296989 
1,64221060183514 -0,17329884561398 1,66091591400649 0,344382917203187 0,909723591948731 -0,566459686293481 1,00760685344162 0,391683478263525 1,24642976169355 
-0,393473021403641 -0,372767172168832 0,6803317447432 -0,558734436021063 -0,195280528252609 0,749813054571773 1,17737828732858 1,52969921096261 -0,32465941956996 
-0,259514559646842 -0,524505705058345 1,37268893129364 -0,227379810343673 1,60612197498657 -0,841251349002706 0,749860923620807 1,0656210973098 0,13641869824632 
