-0,0184382695655519 -0,727928307419144 -0,875553849095271 -0,0313906447973059 -0,385700146088703 0,328551736054733 -0,497657185824894 0,84921981852931 0,811776141548425 
-1,28166409379461 -0,159049349152506 0,123208957315986 0,0745799608740859 -0,00546288071454637 0,300481107691527 -1,13779719057903 0,441971022375846 -1,43778606960959 
-0,166591230098899 0,422915955736728 -0,780144499512457 -0,10396654553477 0,432690259443452 0,672266628147693 0,54530724768774 1,19708647558842 -0,674873771925864 
-1,48764043015365 0,251815891476262 0,891198073463141 0,583904125241052 1,55269432529979 0,0725667590478279 -0,376694299628816 -0,324549272980331 0,261210653586877 
-1,01907689841002 0,795759987629373 0,870596060469093 0,0444303734299869 0,367856657769464 -0,189620069489172 -1,28139169591125 0,166187433137646 0,500608050670292 
-0,443406937384702 0,209772483370627 -0,469285494400787 -0,771754453490839 -0,13970945921713 -0,577177327860695 -0,765539150575893 0,168128349430919 0,332214307660337 
0,066669398191231 -0,0321206837110783 -0,311525158901943 1,64096305240503 -0,0100405286112989 1,25203608983338 -1,39784921974356 0,552651897502901 0,632862877861067 
1,63766562194036 1,07778837785534 0,660775316721189 -0,093008405745033 0,349822552279021 0,636502629908036 -0,280288997702435 0,173801539081056 -1,25312098470708 
0,27450662043202 -0,79048544531245 -1,21401770021069 -1,39627995889973 -0,0907374917155771 -0,507819341266444 0,196427233142977 0,113551333133854 -1,33416425423006 
