-2,08455275363594 1,37333466473237 0,909321773755048 -2,27254122775725 -0,319186036796396 -0,196852452040581 0,311260254440019 0,224638788892719 0,589653283166538 -0,943173197417135 
-0,2676395512636 0,02665944788496 -0,974238796147629 0,0198743689762769 -1,45113042919996 -0,880361194666643 0,248413877850126 0,96016472483061 -0,799889651033976 0,143729551296555 
0,093752089172952 -0,278566791978463 -1,10301457879786 2,08587385985436 -0,294118313721436 1,42578966254219 -0,229490259010573 -0,137424191058345 1,42155944918867 -0,133563362296933 
0,301316543156894 -1,18298578427824 -0,743916063450238 -0,483494851204797 -1,52330138249989 0,605287029224116 -0,239832408372235 0,679194392487032 0,481384744333282 0,178217320320298 
0,000332947354918733 -0,222292209906174 -0,871839865982458 0,768610598118794 0,855105691229042 -1,39244458347719 -0,280489826532774 0,130138562294253 -0,716525658833108 0,258110069617215 
0,869630787460893 -1,06600740898261 -1,56263743617276 1,34431822864121 -0,0282334771003729 0,074833274095242 -1,61742363590208 0,215840898381938 0,23322670684812 1,29251464720048 
-1,65283908509828 0,89368681232151 -1,2270530860862 0,845105866829448 -0,165489740574029 1,22234623301464 -0,922424488664802 -0,876743944942832 -1,53582424852383 0,329582541575927 
0,359471213705592 -0,123780514636906 0,171779980497332 0,0218930286457264 -0,163603396058364 -0,231983254598912 0,791453838251277 -0,47085229748434 0,531375184144068 -0,420323351128177 
0,747789142535901 -0,060151929236553 -0,558900899048383 1,19358180536171 0,874916628876196 -1,01867604786049 -1,31334834810549 0,297765707908555 0,544738625895576 0,0948653434048711 
