-0,0184382695655519 -0,0349283074191438 -0,182553849095271 0,661609355202694 0,307299853911297 -0,364448263945267 0,888342814175106 0,84921981852931 0,118776141548425 
-0,58866409379461 -0,159049349152506 0,123208957315986 -0,618420039125914 0,687537119285454 0,300481107691527 -0,444797190579026 0,441971022375846 -1,43778606960959 
0,526408769901101 0,422915955736728 -0,780144499512457 0,58903345446523 -0,260309740556548 -0,0207333718523073 1,23830724768774 0,504086475588422 -0,674873771925864 
-0,794640430153646 0,251815891476262 1,58419807346314 -0,109095874758948 0,166694325299791 -1,31343324095217 -0,376694299628816 0,368450727019669 0,954210653586877 
-0,326076898410021 0,102759987629373 1,56359606046909 -0,648569626570013 0,367856657769464 0,503379930510828 0,104608304088753 0,166187433137646 0,500608050670292 
-0,443406937384702 0,209772483370627 -0,469285494400787 0,61424554650916 -0,83270945921713 -0,577177327860695 -1,45853915057589 0,861128349430919 0,332214307660337 
-0,626330601808769 -0,725120683711078 1,07447484109806 1,64096305240503 -0,0100405286112989 -0,133963910166623 -0,704849219743558 0,552651897502901 0,632862877861067 
0,251665621940356 -0,30821162214466 0,660775316721189 0,599991594254967 -0,343177447720979 -0,056497370091964 -0,973288997702435 0,866801539081056 -0,560120984707084 
-0,41849337956798 -0,0974854453124501 -0,521017700210688 -0,703279958899729 -0,783737491715577 0,185180658733556 0,889427233142977 0,113551333133854 -1,33416425423006 
