-0,238250692020287 -1,00657265697493 -0,229560688417666 -0,757080859391522 0,989105518902236 -0,411213474074012 -0,492412189423764 -0,541182961101263 0,033407672496702 
0,0761658119527461 -0,0032166045309121 -1,41557044060275 1,58323412013903 0,173063827293489 0,731338825590135 -0,13796986133697 0,340241695447006 -0,499064869014111 
0,15017920943032 1,19422776045521 1,05100722863432 0,242048153593693 -0,974488570981421 -1,57394360562085 0,0261955486597469 0,555565205195716 0,96717967248437 
-0,498095667687289 -0,0946127227948107 0,733880693900343 -0,551067015878422 0,316451650725888 -0,549836004581692 0,0855146483916391 -0,269749227278283 0,553960538261552 
-0,667669072299576 0,971901115016966 -1,56038203925424 -0,58915895827122 0,621628063554702 -0,85885071468486 -0,383732640828813 1,66978319084308 -0,677215141093924 
-0,78316479631847 0,299170104167503 -0,859483977714313 -0,862889237638046 1,127016598125 0,0192407597877275 0,388527331589035 -0,0627258468576359 -0,217856282296989 
0,949210601835144 -0,86629884561398 0,274915914006492 -0,348617082796813 0,909723591948731 -0,566459686293481 -0,378393146558382 -0,301316521736475 1,24642976169355 
-0,393473021403641 1,01323282783117 -0,0126682552568002 -0,558734436021063 -0,195280528252609 1,44281305457177 0,484378287328583 0,836699210962606 -0,32465941956996 
-0,952514559646842 0,168494294941655 0,679688931293641 1,15862018965633 0,913121974986569 -0,841251349002706 0,0568609236208071 0,372621097309804 0,82941869824632 
