-0,750296210460968 0,290994607220401 -0,340564741445968 0,301502249516781 0,0205583800657458 -0,589979500318868 -1,29684793997502 0,780758154476415 1,11355886677492 
-0,330416635936786 -0,76748801943263 -0,206229189679599 0,442426117808757 0,477058781998725 0,849738062289422 -0,918686282783135 -2,36699397121975 0,805028788361712 
1,25503316411098 -0,254164823276533 0,552877045666742 -0,226888292109076 1,0955207482155 1,51194813003901 -0,135629466970744 0,293562172876001 2,32487463581696 
1,49653036606849 -0,581731210906399 1,32090570204514 0,200384656526327 -0,0558528877123505 0,175177608525463 0,440079538822211 0,759245364814645 0,331300661587762 
-0,120152422748577 -0,308208835627515 0,0597574110421153 -0,201979767159549 1,22049126475653 0,48212817071617 -0,651932957420094 -0,877636567632499 1,18147521724574 
-0,930677246908507 -0,83792888551854 0,637427389452899 -1,56980429866389 0,201947015338553 0,514446929802395 0,826570693322723 0,526999564328231 0,249917354085444 
1,21544074992949 -1,52340791835189 0,195473859004897 -0,852512871484977 0,744131716487525 0,726996207189744 -1,22185413613583 0,28562169395649 0,362489365382814 
0,09965316472978 -1,53080129246311 0,981364868279716 0,618593201794938 -0,997653421013455 1,41081341718408 -0,481562599298341 -0,491533860034558 -0,365785135592234 
-0,947728622680404 0,457012931270531 -0,474656088033065 -0,929251125049429 -0,574955334688982 0,280157315848003 -1,36252708720673 -0,897952220062237 0,824491058394542 
