-1,39155275363594 0,680334664732374 0,909321773755048 -1,57954122775725 0,373813963203604 -0,196852452040581 -0,381739745559981 0,224638788892719 0,589653283166538 -0,250173197417135 
-0,2676395512636 -0,66634055211504 -0,974238796147629 -0,673125631023723 -0,758130429199958 -0,880361194666643 -0,444586122149874 1,65316472483061 -0,799889651033976 0,143729551296555 
-0,599247910827048 -0,278566791978463 -0,410014578797861 1,39287385985436 -0,294118313721436 1,42578966254219 0,463509740989427 -0,137424191058345 1,42155944918867 -0,133563362296933 
-0,647093104965562 1,32750169732538 -0,623849693510611 -0,125648430141457 -0,115495527682591 -0,276747091043623 0,371747731577022 0,0380436056470701 0,122049850934208 1,22764545101609 
-0,0844541262297211 0,602352052741848 -0,378757395492288 -0,982050695448206 0,690380092566079 0,763437407912424 1,03703132337333 -0,769168165404894 0,05922542253054 -0,377573514705791 
-0,895010818385524 0,899064562874876 0,242336377787095 0,0176261267706874 -0,04064350128716 0,502165876097123 -0,082965246613121 0,49916227790488 0,629224372855026 0,00183164252565793 
-0,217962566398998 -0,877314927637724 0,648805233193471 -0,302412254118087 -0,821577965837241 -0,701221964182901 0,98642090334856 0,960151819493692 1,55613463089202 0,851550389943435 
0,356546093410135 0,660663094213541 -0,48566201119016 -0,598354086092838 1,62203834671203 -0,201599963568896 0,486190603513825 -0,427963883349655 -0,297506232711722 -0,0575557216338607 
-1,30424166083114 0,232677906394321 -0,503649613588885 -0,586867036105537 -0,931552543911409 0,146842332159561 0,0851653195382867 -0,334475820281299 -0,471004928854297 0,382338596220286 
