-1,39155275363594 0,680334664732374 0,909321773755048 -1,57954122775725 -0,319186036796396 0,496147547959419 -0,381739745559981 -0,468361211107281 0,589653283166538 -0,250173197417135 
-0,9606395512636 -0,66634055211504 -0,281238796147629 -1,36612563102372 -0,758130429199958 -0,880361194666643 -1,13758612214987 2,34616472483061 -0,799889651033976 0,836729551296555 
0,093752089172952 -0,971566791978463 -0,410014578797861 2,08587385985436 -0,294118313721436 0,73278966254219 1,15650974098943 0,555575808941655 0,72855944918867 -0,826563362296933 
-0,391683456843106 -0,489985784278245 -1,43691606345024 -0,483494851204797 -1,52330138249989 0,605287029224116 0,453167591627765 0,679194392487032 -0,904615255666718 0,178217320320298 
0,000332947354918733 -0,222292209906174 -0,178839865982458 -0,617389401881206 0,855105691229042 -0,699444583477194 -0,973489826532774 -1,25586143770575 -0,716525658833108 0,258110069617215 
0,869630787460893 0,319992591017388 -0,869637436172756 1,34431822864121 -0,0282334771003729 -0,618166725904758 -0,231423635902081 0,908840898381938 -0,45977329315188 0,599514647200478 
-0,959839085098281 0,89368681232151 0,158946913913799 0,845105866829448 -1,55148974057403 0,529346233014644 -0,229424488664802 -0,183743944942832 -0,149824248523835 -0,363417458424073 
0,359471213705592 -0,123780514636906 0,171779980497332 0,0218930286457264 -1,54960339605836 -0,231983254598912 1,48445383825128 -0,47085229748434 -0,161624815855932 -0,420323351128177 
0,0547891425359011 0,632848070763447 -1,25190089904838 1,19358180536171 0,181916628876196 0,367323952139506 -1,31334834810549 -0,395234292091445 0,544738625895576 0,0948653434048711 
