-0,135546138400466 0,284114023337194 -0,608474649306608 -0,224624598676164 0,349443275816945 -0,308434024131128 0,0473524513874912 -0,750363697820047 -0,599428589269253 0,87973581248882 
-0,967039950815048 -1,58019948375933 -0,688440029364284 -1,63672040682645 -0,491795239733437 1,56351705264976 0,159942682148396 0,781399055282306 0,839832733949103 -0,0433985316396684 
0,938949931091606 -0,105788124308823 -0,105465455788404 0,686489001701814 0,289943656846389 0,652954228992087 0,651613794743369 -0,146767992128976 -0,92305064290904 0,444616808004499 
-0,1107058176355 -0,94146418073795 0,876408138254847 -0,492799655936565 -0,876303081343092 0,575537874165707 0,934337527167675 -0,52370977938348 -0,271654897961605 -0,723790659147683 
-0,447360857132525 0,021186250099068 0,235931219177289 -0,160024810191255 -0,552158510103895 -1,36592150094776 -1,42305335020369 -0,153765038485995 0,970777539522749 0,11920298845051 
1,44231982613603 -0,289218396548749 -0,257405500806126 -0,843050135226478 -0,580114185321664 0,970241985908357 0,775579479125598 -0,294963651008421 0,485431744477447 0,696489046824858 
1,4259521811255 -0,805879556483533 -0,134313054911007 0,648954602726248 -0,70255836987568 0,974424229922902 -0,070607622014176 0,111359626572281 0,932582674516636 0,625666886100856 
-0,370820474517914 0,990652461531876 0,0530539532439103 -0,129376606903214 -0,596037674507144 0,531763680992538 0,658280656513889 1,05455935440285 -0,454352488194291 0,655865157794145 
-0,884544801844538 -0,317046389304123 -1,4666866361339 0,222604442957139 0,0357443350533695 1,3374883670865 0,908404894130493 -0,227163365975098 -0,10653325035541 -0,215615074423428 
