-1,39155275363594 1,37333466473237 0,216321773755048 -2,27254122775725 0,373813963203604 -0,196852452040581 -0,381739745559981 -0,468361211107281 0,589653283166538 -0,250173197417135 
0,4253604487364 -1,35934055211504 -0,974238796147629 0,0198743689762769 -1,45113042919996 -0,187361194666643 -0,444586122149874 1,65316472483061 -0,799889651033976 0,143729551296555 
-0,599247910827048 -0,278566791978463 0,282985421202139 1,39287385985436 -0,987118313721436 0,73278966254219 0,463509740989427 0,555575808941655 1,42155944918867 0,559436637703067 
0,301316543156894 -0,489985784278245 -0,743916063450238 0,902505148795203 -0,830301382499887 -0,0877129707758839 0,453167591627765 -0,013805607512968 -0,211615255666718 -0,514782679679702 
-0,692667052645081 -0,915292209906174 -0,871839865982458 0,768610598118794 0,162105691229042 -1,39244458347719 -0,973489826532774 -0,562861437705747 -0,716525658833108 0,951110069617215 
0,869630787460893 0,319992591017388 -1,56263743617276 1,34431822864121 -0,0282334771003729 -0,618166725904758 -0,924423635902081 0,215840898381938 0,92622670684812 -0,093485352799522 
-0,959839085098281 1,58668681232151 -0,534053086086201 0,845105866829448 -0,858489740574029 1,22234623301464 -0,229424488664802 -0,183743944942832 -0,842824248523835 -0,363417458424073 
0,359471213705592 -0,123780514636906 0,864779980497332 0,0218930286457264 -1,54960339605836 -0,924983254598912 0,0984538382512771 -1,16385229748434 -0,854624815855932 -1,11332335112818 
1,4407891425359 0,632848070763447 0,134099100951617 1,19358180536171 0,874916628876196 -0,325676047860494 -0,620348348105489 0,297765707908555 1,23773862589558 1,48086534340487 
