-1,39155275363594 -0,0126653352676259 1,60232177375505 -0,193541227757251 -0,319186036796396 -0,196852452040581 -1,07473974555998 0,917638788892719 -0,103346716833462 0,442826802582865 
-0,9606395512636 0,02665944788496 -0,281238796147629 -0,673125631023723 -0,758130429199958 -0,187361194666643 -0,444586122149874 1,65316472483061 -0,799889651033976 0,143729551296555 
-0,147275464505086 0,919613972268819 1,29775830063445 -1,69251912462689 -0,119767934605371 1,46729931600313 -0,2370133669423 -0,275426557881491 0,45169187497892 0,051547416337089 
0,301316543156894 -0,489985784278245 -0,743916063450238 0,209505148795203 -0,137301382499887 0,605287029224116 -0,239832408372235 1,37219439248703 -0,211615255666718 -0,514782679679702 
-0,692667052645081 -1,60829220990617 -0,871839865982458 0,0756105981187944 -0,530894308770958 -0,699444583477194 -0,280489826532774 -0,562861437705747 -0,0235256588331081 1,64411006961722 
1,56263078746089 -1,06600740898261 -0,176637436172756 1,34431822864121 1,35776652289963 -1,31116672590476 -1,61742363590208 0,908840898381938 0,23322670684812 -0,093485352799522 
-0,959839085098281 0,20068681232151 -1,2270530860862 1,53810586682945 -0,858489740574029 0,529346233014644 -0,922424488664802 -0,876743944942832 -1,53582424852383 0,329582541575927 
-0,333528786294408 -0,123780514636906 0,171779980497332 0,0218930286457264 -1,54960339605836 -0,924983254598912 0,791453838251277 -0,47085229748434 -0,161624815855932 -1,11332335112818 
1,4407891425359 0,632848070763447 -0,558900899048383 0,500581805361706 1,5679166288762 -0,325676047860494 -0,620348348105489 -0,395234292091445 1,23773862589558 1,48086534340487 
