0,595750128662097 -0,653157067030741 0,258998336218297 -1,03289613286215 1,51364431897395 -0,695680852544811 -0,627988532650745 -0,115321230662671 0,142863695403497 
-0,724307496903607 0,520469642020981 1,6725583533028 1,6661282526502 0,697953356927705 1,67392165588444 0,847724640671035 0,542639002922289 -0,547897319098887 
-1,13205507188246 0,153838957558777 0,800099971611099 -0,372129187626824 -0,0346319081287979 -0,995964716186731 0,670144395749152 -1,43139177085943 -0,297831632801253 
-1,34174173218792 0,864300111883925 0,300437909518107 -0,442975585089519 0,243877221185191 0,113049004745227 0,365216092842266 0,543959478635322 -1,34125234732044 
0,916755747649705 0,60903825778935 -0,504259980984153 0,888659387775073 -1,64543341659775 0,688274551969149 1,00854040001498 -0,749067018623029 0,927944019110382 
0,0214363248187286 0,0382633968434591 -0,603736828535207 -0,172160594045725 -0,06455455833839 -0,0747210583997523 -0,751123619788384 0,766218495153458 0,773530071495813 
-0,417588505329838 -0,914471724030781 -0,774618566862596 0,838179522757036 -0,883697892485046 0,110213378322876 -0,689574492019403 0,537084546363021 0,370919706645384 
1,51133823203032 0,854311491294909 -0,0169265703376972 -0,989840047429241 0,70936386803182 1,14357764065013 0,641733455011963 1,02444706177127 0,139932764586496 
1,45247391137456 0,637749382126028 -0,317650627665525 -0,468419051481606 -0,0335069455497461 -0,511242721933519 0,744322609037311 0,216870922869011 -0,534176921255038 
