-0,698552753635939 1,37333466473237 0,216321773755048 -0,886541227757251 0,373813963203604 -0,889852452040581 -1,07473974555998 0,224638788892719 0,589653283166538 -0,250173197417135 
1,51363464625768 1,08426963885094 0,514617940184948 -1,11352850752162 -0,52127588052362 0,823954079563708 -0,955560511888731 -0,247144719235201 -0,607434588008762 -0,235869950259044 
-0,154716317786703 0,240588728623273 0,721002611547244 0,451046284670963 -1,22122866425814 -0,239934925567328 0,95398583912942 1,25722200871828 -1,13505496434218 -0,910951814279869 
-1,39877103351512 -1,62117487098657 2,37993829237387 -0,434188339595771 -0,640072364830911 0,0836933530325505 -0,458229010086613 0,134505467724756 -0,886986147559707 1,33182691087659 
0,795204506160321 0,665050155034312 0,181775644040562 -1,33583756150065 0,258487161834951 0,462838630873169 2,37124156491516 -1,39618414070792 0,249338378487312 0,751981357928357 
-1,40718796186996 0,160984002301462 0,826079703493546 -2,24558186623621 2,20737089680013 0,354483727996463 -0,715369273775895 2,31900031588087 -1,23936446737981 -1,04391559651816 
-1,38842562854263 0,549074701461976 -0,0266663272193011 -1,50776433939057 -0,637192050757442 -0,637190482755746 -0,29566865352293 -0,744193720219281 -0,166456142690711 0,39503076644383 
-1,87581691034968 -0,783065979613488 -1,05315857167549 -0,860261498885351 0,661925543580635 0,259233527178985 0,365813084582711 2,36384017304789 -0,886440877163988 0,701932704868695 
1,16082350951751 1,35016997983734 0,00788363023096861 -0,194036322270537 0,189236147590092 1,51924496418342 -0,0612545744801194 1,54652015861008 1,1304407636041 0,698443907172626 
