-0,105309632190182 0,239367819036994 0,858511332063708 1,325020519875 -0,158668748642629 1,61851976811398 0,148215354316502 0,396178494564806 1,29202175310954 
-0,938618720480529 -0,838936092257004 0,344548543317033 0,293659445207873 0,283412390986184 -0,198171124713109 -0,472860877156658 0,0633857366924109 -0,297077226125205 
-0,638454442675437 0,348093399474441 -0,000260435803449033 0,735616932207074 0,805292979723445 0,956686397062934 -0,440475132987124 -0,883511625176068 -0,689686040249507 
-0,737128041562218 -1,37352233461315 1,16083704937801 -0,872121745368057 0,463271838362921 1,05553994114815 0,573367477834396 -0,669977409611446 -0,645424700177007 
1,13389229006362 0,690488718305942 0,962437333521637 -0,499948737617093 0,6684044681808 -0,158880625459776 0,822494957220506 1,33954432872615 -0,793174526557873 
0,879903769703072 -1,40593032342239 -0,148016935456086 0,102673517760669 -0,0134734832744456 0,0251174111171241 -0,746719798886552 1,58657728599272 -0,124410064776153 
-0,368481114212648 0,159073435602744 0,434074839313549 0,208824935000774 0,0724956528621239 0,417842876533439 0,615205808363485 0,578343395878721 -0,616299170822044 
-1,56181529626847 0,240503024887528 -0,995207930619925 0,982008602168881 0,0272919673734771 -0,73961019940237 0,754253575463897 0,0862468327797237 1,06589701838647 
-1,32468282975987 0,35333816770154 0,186599696900509 0,216857943319184 0,318780794422506 0,434728238175497 0,103271535473071 -0,190639655021783 -0,0506048989717871 
