-1,39155275363594 -0,0126653352676259 0,909321773755048 -2,27254122775725 -0,319186036796396 0,496147547959419 0,311260254440019 0,224638788892719 1,28265328316654 -0,250173197417135 
0,4253604487364 -0,66634055211504 -0,974238796147629 -0,673125631023723 -1,45113042919996 -1,57336119466664 -1,13758612214987 2,34616472483061 -0,799889651033976 0,143729551296555 
-0,599247910827048 -0,971566791978463 -0,410014578797861 0,69987385985436 -0,987118313721436 0,73278966254219 -0,229490259010573 -0,830424191058345 1,42155944918867 0,559436637703067 
0,994316543156894 0,203014215721755 -1,43691606345024 -0,483494851204797 -0,830301382499887 -0,0877129707758839 -0,239832408372235 1,37219439248703 -0,211615255666718 0,178217320320298 
-0,692667052645081 -1,60829220990617 -1,56483986598246 0,0756105981187944 0,162105691229042 -0,699444583477194 -1,66648982653277 0,130138562294253 -1,40952565883311 1,64411006961722 
1,56263078746089 -0,373007408982612 -1,56263743617276 0,651318228641207 -0,0282334771003729 -1,31116672590476 -0,924423635902081 0,908840898381938 0,23322670684812 -0,093485352799522 
-0,959839085098281 0,20068681232151 -0,534053086086201 0,845105866829448 -0,165489740574029 -0,163653766985356 -0,229424488664802 -0,183743944942832 -0,842824248523835 -0,363417458424073 
0,359471213705592 0,569219485363094 0,171779980497332 0,0218930286457264 -0,856603396058364 -1,61798325459891 0,0984538382512771 -0,47085229748434 -0,161624815855932 0,272676648871823 
0,0547891425359011 1,32584807076345 -0,558900899048383 -0,192418194638294 0,874916628876196 -0,325676047860494 -0,620348348105489 -1,08823429209144 -0,148261374104424 0,0948653434048711 
