-0,559336349801317 -0,635206430049244 0,471370679080193 0,407639934112616 -0,632594347467457 0,686177497583524 0,0540202777152976 -0,556695953443505 -0,403450381664303 -0,10695537574494 
-0,012051989502763 -0,937822476931765 0,699077647039237 0,096234188287162 -0,770055414708823 0,280719523621592 -1,68325961942517 -0,343449636988086 0,335453114162876 0,0825696397025928 
0,259777709204134 -0,408406736053716 -0,344580057703229 0,900279683945831 -0,654779607269345 0,51279476076029 -0,967917008948939 0,195901003930206 0,165898696131026 0,245951460616175 
0,275326188316255 0,458964011379966 1,39287455555232 -0,104575821712881 -0,150125086843094 0,0321449552016081 0,743749680516659 0,0744650654706479 0,365904971369032 0,12809751700987 
-0,197941403755425 0,471443375326434 -0,524559354188181 -0,859246885045547 -0,14582052228312 -0,938096047057349 0,50289098336496 0,590648840922233 1,28262785899156 0,701201644294058 
-0,0851882785024067 1,44570734715867 -0,759172480441245 1,16772592977561 -0,430359010957814 -0,826262368739705 0,197778498380342 0,432671464715466 -0,288500754469773 -0,638196707241794 
-0,155388438680856 -0,3229509980059 0,0829498959160178 -0,461002305830364 1,33817427219319 -0,226896656317123 -0,0818814901085019 -0,657829721298921 0,420970540862517 -0,635083882899528 
1,09966886484561 0,309845188018328 0,73313633246959 -0,619064112947818 0,788836571289616 0,0953343338777006 -1,57684738186554 0,128666827342318 0,0461002062289511 1,283316439788 
-0,99009622260467 0,134434150128828 -0,0867268550613555 -0,149302948163032 0,0241397391185816 -0,170381158842417 -0,474863508178789 -0,774851374223293 0,632783189244933 -1,01686271810339 
