-0,105309632190182 -0,453632180963006 0,165511332063708 0,632020519875 -0,158668748642629 0,232519768113978 0,841215354316502 0,396178494564806 0,599021753109536 
-0,245618720480529 -0,145936092257004 -1,04145145668297 -0,399340554792127 -0,409587609013816 -0,891171124713109 -0,472860877156658 0,756385736692411 -0,297077226125205 
-0,638454442675437 -0,344906600525559 -0,000260435803449033 -0,650383067792926 0,112292979723445 0,956686397062934 -1,13347513298712 -0,190511625176068 -1,38268604024951 
-0,737128041562218 0,0124776653868509 0,467837049378006 -0,872121745368057 1,15627183836292 0,362539941148152 -0,119632522165604 -0,669977409611446 -0,645424700177007 
-0,252107709936382 0,690488718305942 1,65543733352164 0,193051262382907 0,6684044681808 -0,851880625459776 0,129494957220506 0,64654432872615 -0,100174526557873 
0,879903769703072 -0,712930323422388 1,23798306454391 -0,590326482239331 -0,0134734832744456 0,718117411117124 -0,746719798886552 0,893577285992716 -0,124410064776153 
-0,368481114212648 0,852073435602744 1,12707483931355 -0,484175064999226 0,0724956528621239 -0,275157123466561 0,615205808363485 0,578343395878721 -1,30929917082204 
-0,86881529626847 -0,452496975112472 0,390792069380075 0,982008602168881 0,720291967373477 0,646389800597629 0,0612535754638971 0,779246832779724 -0,320102981613531 
-0,631682829759867 0,35333816770154 1,57259969690051 0,216857943319184 -0,374219205577494 -0,258271761824503 1,48927153547307 -0,190639655021783 -0,0506048989717871 
