-0,234669104793421 1,54619844067711 1,0259511486613 0,056719638260882 0,260598053518496 0,569694552370205 0,179950005924306 -1,44415140795296 -1,21505084521419 -0,772499539490556 
-1,46093264493716 -0,382006934556182 0,237594456988198 0,577845454019422 -0,909938927697921 -1,23558145463773 0,691310253488976 -0,593958696161378 0,509033404062052 0,204895167534191 
0,108450632420113 -0,609297032286086 -0,347267524966629 0,59731738716239 1,34390017935769 0,0202101613489027 -0,723064014559176 -0,790455979197498 -0,96064734148404 1,20092035996351 
0,226187675830996 1,24111138173012 1,48636324697051 0,484145212678306 -0,819056796757065 -0,666110091687231 -0,917940917386646 0,891887044483743 -0,740172824701375 -0,391845752840324 
-1,61275471373636 0,668415425190896 0,153263436236076 0,898333663073524 -0,15124879953463 -0,386836942638195 0,362239523200895 1,25710397941438 -0,736344888390668 -0,370861580302409 
-0,383959586152322 -0,221822124836418 0,153818421310195 0,0337907052756243 -0,5450555313919 -0,257039317515231 0,712061094917385 0,874053291917803 0,0637397547549288 -0,95980450881636 
0,4092415121427 -0,155523743087204 0,0969513880405349 0,0886292583721826 -0,640143051575936 -0,86716337123288 -0,731185723902278 -1,47806756563907 -0,084709014955772 0,282054676978409 
-0,494339558991762 -0,882146663908915 0,0897231877132889 -1,6587011329968 0,00232435343895321 -1,55996479277078 0,237439531477839 -0,245601188040153 -0,25143381330298 0,037737121995882 
-0,649029361851993 -0,980167993973553 0,25288890919317 -0,896785761181631 -0,801120053884164 0,834009800667413 0,0872929604199217 -0,240427458305111 -0,663799255929794 0,437982520758166 
