1,2887501286621 0,732842932969259 1,6449983362183 0,353103867137853 0,820644318973946 0,690319147455189 0,0650114673492552 0,577678769337329 0,835863695403497 
-0,031307496903607 -0,172530357979019 0,286558353302795 1,6661282526502 0,00495335692770471 0,980921655884442 0,154724640671035 0,542639002922289 -1,24089731909889 
-0,439055071882464 0,153838957558777 0,107099971611099 -1,06512918762682 1,3513680918712 -0,995964716186731 0,670144395749152 -1,43139177085943 -0,297831632801253 
-0,648741732187915 0,171300111883925 0,300437909518107 -0,442975585089519 -0,449122778814809 0,113049004745227 1,05821609284227 0,543959478635322 -1,34125234732044 
-0,469244252350295 0,60903825778935 0,188740019015847 1,58165938777507 -0,259433416597747 0,688274551969149 -0,377459599985024 -0,0560670186230291 0,927944019110382 
0,0214363248187286 0,731263396843459 -0,603736828535207 -0,172160594045725 0,62844544166161 -0,0747210583997523 -0,751123619788384 -0,619781504846542 0,773530071495813 
0,968411494670162 -1,60747172403078 -1,4676185668626 0,838179522757036 -0,190697892485046 1,49621337832288 -0,689574492019403 -0,155915453636979 -0,322080293354616 
0,818338232030318 0,854311491294909 -0,709926570337697 -0,989840047429241 0,0163638680318203 0,450577640650132 -0,744266544988037 1,02444706177127 0,832932764586496 
0,759473911374562 1,33074938212603 0,375349372334475 0,224580948518394 -0,726506945549746 -0,511242721933519 0,051322609037311 0,216870922869011 -1,22717692125504 
