0,185668462215303 0,0169029954764539 0,488577180942324 -0,017907963315448 0,420239755613841 -1,34707247080192 0,249534184056583 -1,60186839754361 -1,57168441915078 
-0,163591964712176 0,61967406217925 -0,43090506150895 0,0662192595499658 -0,909489657687717 -0,829108740761927 -0,441859227052359 0,327654695756573 -0,264714188824275 
0,64322620706783 -0,138088691578288 -0,257893768086514 1,12303677457107 -0,927170577425123 -0,303439751874395 -0,134028122064205 0,113390699547432 -0,0767387762091769 
-0,813746293627073 0,776730446972293 -1,0239778549387 -0,935927754238214 0,479996073748915 -0,914916031661404 0,213042997095754 0,634440081023816 -0,667788312615728 
0,985476147376688 -0,376388827686845 -0,312063576333254 -1,49831455846751 0,958625965732441 1,42960748253418 -0,255140843454348 -0,659386022789118 -0,281998992856126 
-0,914439356846008 0,288306447345906 -0,776962601182965 0,101212636787543 -1,09105272845461 0,382811924155248 -0,78599999928195 0,769410241287858 0,521808618164066 
-0,130438372087869 0,0626316876442319 -1,44192642709842 -0,900983067183282 -1,57687984125124 -0,000150943933591052 0,422666305407261 0,0632804776836562 -0,685598844515904 
-0,240706564212081 -0,227664210473962 -0,860322011569665 0,791010970152454 0,239176262454212 -0,543929738711533 -0,468320428146199 0,265664625570953 -0,988956476556583 
0,35434938750898 0,448540765535338 -0,0967146573107293 -0,687501250620699 -0,314822381974581 0,732215445363994 -1,02144075901827 1,1664112347818 0,132084252201526 
