-0,457136943390657 -0,16958113814219 0,542854670222315 0,761158967917859 0,615148034698864 0,477658726031733 0,339518933249414 -0,910195401827896 1,1514312026661 -0,18063378045784 
-1,61442377510733 1,1857361502744 -0,307473359307029 0,578233879794475 0,896482037039233 0,703354845323765 0,497202167984658 -1,29637850991794 -1,44112941055192 0,70427637224797 
-0,285100471188361 0,638685530814662 -0,427894049057688 -0,703001620109659 0,0923461770137521 -0,510597531162946 0,43546911302743 -0,601819300838662 -0,949169453848232 1,50503522151896 
0,0436241550709231 -0,292143086280275 1,28543118464594 1,03039029957791 -0,618437548628746 -0,98633431549479 0,135065036423069 -0,249820735887541 -0,760836543403955 -0,18758529636943 
-0,329358980678655 -0,0734407301402841 0,992146437984028 -0,177632764530197 0,945870836878601 0,0331966143121 0,759947270681591 -0,247484497668447 -1,52113266470476 0,521226103194629 
-0,223709113534404 -0,21486421201558 0,492452019589232 -0,180405449378959 -0,556076450066677 -0,095822474205318 -0,741687089084502 0,245856290331975 0,975812790904107 0,125745565861811 
-1,6508103869957 -0,751661765911924 1,03897405202034 -0,0466040188528619 0,082742064471236 -0,322280688827057 0,207304965628453 1,04813634111506 0,196671428423222 0,882816352534022 
0,875289808900696 -0,252977096127801 -0,842541966513983 -0,253544114182491 -0,659364647073375 -0,597659741048077 0,646539092830633 0,749738715472509 0,0441275430117396 0,445149562701653 
0,383007579195782 0,498378833229364 -0,117545531651725 -0,04225363135955 -0,690703018131528 -0,821487421086751 -0,991058679931824 0,026458273481325 -1,6056854706149 0,539454932748552 
