0,235863056609343 -0,86258113814219 0,542854670222315 0,761158967917859 -0,0778519653011359 1,17065872603173 -0,353481066750586 -0,217195401827896 -0,234568797333897 -1,56663378045784 
-0,921423775107331 0,492736150274396 0,385526640692971 0,578233879794475 0,896482037039233 0,703354845323765 1,19020216798466 -0,603378509917938 -0,055129410551921 0,0112763722479698 
-0,978100471188361 0,638685530814662 -0,427894049057688 -0,703001620109659 0,0923461770137521 -0,510597531162946 0,43546911302743 -0,601819300838662 -0,256169453848232 0,812035221518965 
1,42962415507092 0,400856913719725 0,592431184645943 0,337390299577913 -0,618437548628746 -1,67933431549479 0,135065036423069 -0,249820735887541 -1,45383654340396 1,19841470363057 
0,363641019321345 -0,766440730140284 0,992146437984028 -0,177632764530197 -0,440129163121399 0,0331966143121 0,0669472706815915 -0,247484497668447 -1,52113266470476 -0,171773896805371 
-0,223709113534404 -0,90786421201558 1,18545201958923 1,20559455062104 0,136923549933323 -0,095822474205318 -0,741687089084502 0,938856290331975 0,282812790904107 -0,567254434138189 
-0,957810386995697 -0,0586617659119245 0,345974052020336 -0,0466040188528619 -0,610257935528764 -0,322280688827057 0,900304965628453 0,355136341115058 0,196671428423222 -0,503183647465978 
1,5682898089007 -0,252977096127801 -0,149541966513983 -0,253544114182491 -0,659364647073375 0,095340258951923 -0,0464609071693669 0,749738715472509 -0,64887245698826 -0,247850437298347 
0,383007579195782 -0,194621166770636 0,575454468348275 -0,04225363135955 0,695296981868472 -0,128487421086751 -0,298058679931824 0,719458273481325 -0,912685470614901 0,539454932748552 
