-0,828546138400466 0,284114023337194 -0,608474649306608 1,16137540132384 -0,343556724183055 0,384565975868872 0,740352451387491 -0,0573636978200468 -0,599428589269253 0,87973581248882 
-0,274039950815048 -0,887199483759328 -1,38144002936428 -0,943720406826455 0,201204760266563 0,177517052649761 -0,533057317851604 0,781399055282306 0,839832733949103 -0,0433985316396684 
0,245949931091606 -0,798788124308823 -1,4914654557884 0,686489001701814 1,67594365684639 0,652954228992087 -0,0413862052566307 -0,146767992128976 -0,92305064290904 0,444616808004499 
0,5822941823645 0,44453581926205 1,56940813825485 0,200200344063435 -0,183303081343092 1,26853787416571 0,241337527167675 0,16929022061652 0,421345102038395 -0,0307906591476829 
0,245639142867475 1,40718625009907 0,928931219177289 -0,160024810191255 0,140841489896105 -0,672921500947756 -1,42305335020369 -0,153765038485995 0,970777539522749 -0,57379701154949 
1,44231982613603 -0,289218396548749 -0,950405500806126 -1,53605013522648 0,112885814678336 0,970241985908357 0,0825794791255983 0,398036348991579 0,485431744477447 0,696489046824858 
0,039952181125503 -0,805879556483533 -0,134313054911007 0,648954602726248 -0,70255836987568 0,281424229922902 -0,070607622014176 -0,581640373427719 0,932582674516636 -0,760333113899144 
0,322179525482086 0,990652461531876 0,74605395324391 -0,822376606903214 0,096962325492856 1,22476368099254 -0,0347193434861109 0,361559354402851 -0,454352488194291 1,34886515779414 
-0,884544801844538 0,375953610695877 -1,4666866361339 0,222604442957139 -0,65725566494663 -0,0485116329134959 0,908404894130493 -0,920163365975098 -0,79953325035541 1,17038492557657 
