-0,097249871337903 0,732842932969259 1,6449983362183 -1,03289613286215 0,127644318973946 -0,695680852544811 0,0650114673492552 -0,115321230662671 0,835863695403497 
-0,031307496903607 -0,172530357979019 0,979558353302795 0,973128252650205 -0,688046643072295 1,67392165588444 0,154724640671035 1,23563900292229 -0,547897319098887 
-1,13205507188246 0,846838957558777 0,107099971611099 -0,372129187626824 1,3513680918712 -0,995964716186731 0,670144395749152 -0,738391770859431 -0,297831632801253 
-0,648741732187915 0,171300111883925 0,993437909518107 -0,442975585089519 -1,14212277881481 0,113049004745227 1,05821609284227 0,543959478635322 -0,648252347320436 
0,916755747649705 0,60903825778935 -1,19725998098415 0,195659387775073 -0,952433416597747 0,688274551969149 -0,377459599985024 -1,44206701862303 0,234944019110382 
0,0214363248187286 0,0382633968434591 0,0892631714647929 -0,172160594045725 0,62844544166161 -0,0747210583997523 -0,0581236197883839 0,073218495153458 0,773530071495813 
0,968411494670162 -1,60747172403078 -0,774618566862596 -0,547820477242964 -0,190697892485046 0,110213378322876 -1,3825744920194 -0,848915453636979 -1,01508029335462 
1,51133823203032 0,161311491294909 0,676073429662303 -0,989840047429241 0,0163638680318203 0,450577640650132 0,641733455011963 1,02444706177127 0,832932764586496 
1,45247391137456 1,33074938212603 0,375349372334475 -0,468419051481606 -0,726506945549746 -0,511242721933519 0,051322609037311 -1,16912907713099 -0,534176921255038 
