0,133663650198683 0,0577935699507559 -0,221629320919807 -0,285360065887384 0,0604056525325429 1,37917749758352 0,747020277715298 0,136304046556495 0,289549618335697 0,58604462425506 
-0,012051989502763 -1,63082247693176 0,00607764703923708 0,789234188287162 -0,0770554147088227 -0,412280476378408 -0,990259619425172 -1,03644963698809 -0,357546885837124 0,0825696397025928 
0,259777709204134 -0,408406736053716 0,348419942296771 0,900279683945831 0,0382203927306549 -0,18020523923971 -0,967917008948939 -1,19009899606979 0,165898696131026 0,938951460616175 
0,275326188316255 -0,234035988620034 1,39287455555232 0,588424178287119 -0,150125086843094 0,725144955201608 0,0507496805166592 0,0744650654706479 -0,327095028630968 0,82109751700987 
-0,197941403755425 1,16444337532643 -0,524559354188181 -0,859246885045547 -0,14582052228312 -0,245096047057349 1,19589098336496 0,590648840922233 -0,103372141008439 -0,684798355705942 
0,607811721497593 0,752707347158672 -0,066172480441245 0,474725929775613 0,262640989042186 -0,826262368739705 -0,495221501619658 0,432671464715466 -0,288500754469773 -0,638196707241794 
-0,848388438680856 -0,3229509980059 0,0829498959160178 -1,15400230583036 0,645174272193189 -0,226896656317123 -0,0818814901085019 -1,35082972129892 -0,272029459137483 -1,32808388289953 
1,09966886484561 -1,07615481198167 1,42613633246959 0,0739358870521819 1,48183657128962 0,0953343338777006 -0,883847381865535 0,821666827342318 0,0461002062289511 1,283316439788 
-0,29709622260467 0,134434150128828 -0,0867268550613555 -0,842302948163032 0,0241397391185816 -0,170381158842417 -0,474863508178789 -0,081851374223293 1,32578318924493 -0,32386271810339 
