-0,2033933794938 0,114506075970599 0,254753323856161 1,64434288722246 -0,746192760354463 -0,427523851128073 1,12387530482136 0,0213659093814744 -0,326626467204944 1,42819930138029 
0,360705152787597 1,2474930452269 0,35620025392957 1,03974982137361 0,284690891697859 -1,59999806898227 -0,455759916201122 0,556545230353505 0,825844048148414 0,93404158387987 
-0,822669521822906 -0,264637245454191 -0,67454327877869 -0,060845308792705 -0,029243009644208 0,260236912062502 0,922134717890124 -0,243903675057415 -1,28636736127425 -0,355762156064977 
1,11844126949526 -0,894859760019397 -0,540440489031114 -0,200008535678037 -0,333455394350204 0,261585915117332 0,486381202697 -1,33290094123404 -0,293632827077356 0,0143757877007014 
-0,16253445229192 -1,39809642814523 0,33276483478619 0,0769229188784599 0,910930741243963 -0,616433938493688 -0,517636900250165 0,456946263475319 1,631550608204 1,30784480445033 
0,280327881644167 -0,343563831105625 1,3635190258429 -0,440501401871676 -0,0685150777308806 -0,245756134039609 -0,210950645250711 0,701598632648866 0,673585896866669 1,37957032758304 
-0,349658569018197 -0,32522102012123 -0,385266729344272 0,336135688860033 -1,38324196811497 0,255564912806994 -0,598066465741986 -1,13679121039239 1,68020521572381 -0,362895023419473 
-1,08637927167927 -0,122858974967086 -0,149821942569139 -0,188531739552287 -1,28942396382821 0,189426906322328 0,402597919759619 0,32753380234285 0,0282239499633312 0,20119092884948 
-0,915126187687333 0,158188454414806 -0,875454283261418 -0,208212165724585 0,363909962290856 -0,230994899399111 -1,2583787858623 -0,406939087159438 -0,517493457947156 -0,394699260310596 
