-0,0055527536359391 0,680334664732374 1,60232177375505 -0,886541227757251 0,373813963203604 -1,58285245204058 0,311260254440019 0,917638788892719 -0,103346716833462 -0,250173197417135 
0,820634646257681 0,391269638850945 0,514617940184948 -1,80652850752162 0,17172411947638 0,130954079563708 -0,955560511888731 0,445855280764799 0,778565411991237 -0,235869950259044 
1,2312836822133 0,240588728623273 0,0280026115472439 -0,241953715329037 -0,528228664258136 -0,239934925567328 0,95398583912942 1,25722200871828 -0,44205496434218 -0,910951814279869 
-0,705771033515116 -0,92817487098657 1,68693829237387 0,258811660404229 -1,33307236483091 0,0836933530325505 0,927770989913387 0,134505467724756 0,499013852440293 -0,0541730891234119 
-0,590795493839679 -0,0279498449656879 0,874775644040562 -0,642837561500649 0,258487161834951 1,15583863087317 1,67824156491516 -1,39618414070792 -0,443661621512688 0,058981357928357 
-2,10018796186996 -1,22501599769854 -0,559920296506454 -1,55258186623621 1,51437089680013 1,04748372799646 -0,715369273775895 1,62600031588087 -0,546364467379807 -1,04391559651816 
-0,69542562854263 0,549074701461976 -1,4126663272193 -2,20076433939057 -0,637192050757442 -0,637190482755746 -0,29566865352293 -0,744193720219281 -0,166456142690711 -0,29796923355617 
-1,87581691034968 -0,0900659796134879 0,332841428324506 -0,860261498885351 -0,724074456419365 0,952233527178985 -0,327186915417289 1,67084017304789 -0,886440877163988 0,701932704868695 
1,16082350951751 0,65716997983734 0,700883630230969 -0,194036322270537 0,189236147590092 2,21224496418342 0,631745425519881 0,853520158610083 -0,255559236395899 -0,687556092827374 
