-1,52154613840047 -0,408885976662806 -0,608474649306608 0,468375401323836 -0,343556724183055 0,384565975868872 0,740352451387491 -0,750363697820047 -0,599428589269253 0,87973581248882 
0,418960049184952 -1,58019948375933 -0,688440029364284 -0,943720406826455 -0,491795239733437 1,56351705264976 0,159942682148396 0,781399055282306 -0,546167266050897 -0,0433985316396684 
0,938949931091606 -0,798788124308823 -0,105465455788404 0,686489001701814 0,289943656846389 1,34595422899209 0,651613794743369 0,546232007871024 -1,61605064290904 -0,248383191995501 
0,5822941823645 -0,24846418073795 1,56940813825485 0,893200344063435 -0,183303081343092 1,26853787416571 0,934337527167675 -0,52370977938348 -0,271654897961605 -0,0307906591476829 
0,245639142867475 0,714186250099068 -0,457068780822711 -0,160024810191255 0,140841489896105 -1,36592150094776 -0,037053350203695 -0,846765038485995 0,277777539522749 0,11920298845051 
0,749319826136027 0,403781603451251 -1,64340550080613 -0,843050135226478 -0,580114185321664 0,277241985908357 0,775579479125598 -0,294963651008421 0,485431744477447 0,696489046824858 
0,732952181125503 -0,805879556483533 -0,134313054911007 1,34195460272625 -0,00955836987567993 0,281424229922902 -0,070607622014176 0,111359626572281 0,932582674516636 -0,067333113899144 
-0,370820474517914 0,297652461531876 0,0530539532439103 -0,822376606903214 -0,596037674507144 0,531763680992538 0,658280656513889 1,05455935440285 0,931647511805709 0,655865157794145 
-1,57754480184454 1,06895361069588 -1,4666866361339 0,915604442957139 0,0357443350533695 1,3374883670865 1,60140489413049 -0,920163365975098 -0,10653325035541 0,477384925576572 
