-0,238250692020287 -1,00657265697493 0,463439311582334 -0,757080859391522 1,68210551890224 0,281786525925988 0,200587810576236 -1,23418296110126 -0,659592327503298 
0,0761658119527461 -1,38921660453091 -0,722570440602754 0,19723412013903 -0,519936172706511 -0,654661174409865 -0,13796986133697 -0,352758304552994 -0,499064869014111 
-0,54282079056968 0,501227760455212 0,358007228634324 0,242048153593693 -0,281488570981421 -1,57394360562085 -1,35980445134025 0,555565205195716 0,27417967248437 
-0,498095667687289 -0,0946127227948107 0,0408806939003431 -1,24406701587842 1,00945165072589 0,836163995418308 0,0855146483916391 1,11625077272172 0,553960538261552 
0,0253309277004241 1,66490111501697 -0,867382039254244 0,79684104172878 0,621628063554702 -1,55185071468486 -0,383732640828813 0,976783190843083 -0,677215141093924 
-0,0901647963184701 -0,393829895832497 -0,859483977714313 -0,862889237638046 1,127016598125 -0,673759240212272 0,388527331589035 1,32327415314236 -0,910856282296989 
0,949210601835144 0,51970115438602 0,274915914006492 0,344382917203187 0,216723591948731 0,126540313706519 -0,378393146558382 0,391683478263525 1,24642976169355 
-1,08647302140364 0,320232827831168 -0,0126682552568002 -0,558734436021063 -0,195280528252609 0,749813054571773 0,484378287328583 0,143699210962606 1,06134058043004 
-0,259514559646842 0,168494294941655 0,679688931293641 0,465620189656327 0,220121974986569 -0,148251349002706 0,0568609236208071 0,372621097309804 1,52241869824632 
