-0,0572962104609684 -0,402005392779599 -1,03356474144597 -0,391497750483219 0,713558380065746 -1,28297950031887 -0,603847939975023 0,087758154476415 1,11355886677492 
0,362583364063214 -0,767488019432634 1,1797708103204 1,13542611780876 -0,215941218001275 0,849738062289422 -1,61168628278313 -0,287993971219749 -0,580971211638288 
0,562033164110981 -0,254164823276533 -0,833122954333258 -0,919888292109076 -0,290479251784496 0,818948130039008 -0,135629466970744 0,986562172876001 1,63187463581696 
1,49653036606849 0,111268789093601 1,32090570204514 -0,492615343473673 -0,0558528877123505 0,868177608525463 1,13307953882221 0,759245364814645 0,331300661587762 
-0,813152422748577 0,384791164372485 0,0597574110421153 -0,201979767159549 -0,165508735243468 -0,21087182928383 -1,34493295742009 -0,184636567632499 0,488475217245741 
-0,237677246908507 -1,53092888551854 0,637427389452899 -1,56980429866389 0,201947015338553 1,2074469298024 0,133570693322723 -0,166000435671769 0,942917354085444 
0,522440749929492 -0,830407918351892 1,5814738590049 -0,159512871484977 -0,641868283512475 -0,659003792810256 -0,528854136135827 0,28562169395649 0,362489365382814 
-0,247087663913186 0,522163330354804 0,204387121463375 0,601501216340578 1,50332886347283 -0,850940509629874 0,707199354226794 0,772121808092632 -0,145891730275886 
-0,19314049489989 0,56928735177046 0,0350624979636921 -1,50306456250794 -2,05574847375869 -1,16516071693374 -2,16735488451522 -0,0954518164952529 -0,333345420986575 
