-0,750296210460968 -0,402005392779599 -0,340564741445968 -0,391497750483219 0,0205583800657458 -0,589979500318868 -0,603847939975023 0,780758154476415 0,420558866774924 
0,362583364063214 -1,46048801943263 -0,206229189679599 0,442426117808757 -0,215941218001275 0,849738062289422 -0,918686282783135 -1,67399397121975 0,112028788361712 
1,25503316411098 -0,947164823276533 0,552877045666742 0,466111707890924 0,402520748215504 0,818948130039008 -0,135629466970744 0,293562172876001 1,63187463581696 
0,803530366068487 0,111268789093601 1,32090570204514 0,200384656526327 0,637147112287649 0,868177608525463 0,440079538822211 0,066245364814645 -0,361699338412238 
-0,813152422748577 0,384791164372485 0,0597574110421153 -0,201979767159549 0,527491264756532 0,48212817071617 -0,651932957420094 -0,184636567632499 0,488475217245741 
0,455322753091493 -0,14492888551854 1,3304273894529 -1,56980429866389 0,201947015338553 -0,178553070197605 1,51957069332272 -0,859000435671769 0,942917354085444 
-0,170559250070508 -0,137407918351892 0,888473859004897 -0,159512871484977 0,744131716487525 0,0339962071897444 -0,528854136135827 0,97862169395649 -0,330510634617186 
1,06614966478066 0,163671156002055 0,780192625606522 -0,40619324492579 -1,40628326487601 1,26426698809269 0,24227823374899 0,623659825708559 -0,180991382249627 
-0,128465287274432 -0,0215290621954617 0,634028721430352 -0,342279689718634 -0,196304118524913 -0,850547597381076 -0,51437225728965 0,862210347252996 -0,253891412114208 
