-0,146096937599171 -0,68207385626299 -0,200932106562393 0,475665925464903 -0,36626663588279 0,55372076740196 -0,0208380056507129 0,147032283780646 0,004198809914849 
1,5772373878021 -0,70677947704996 0,928082433202808 0,396488045061234 -0,771356951338871 0,186304519505382 0,190226698848524 0,14386438445368 0,632943684702713 
-0,589241063962337 -0,475886691756028 -0,446292892479009 -0,56539664956061 -0,197142105814136 -0,491402351060604 0,884179449586281 -1,67773287530045 -1,09427932438686 
0,275835303545387 -0,47178530668457 0,637286473828036 -0,023925942552707 -0,604166598513334 0,71258121686223 1,2791591815884 -0,920416441708997 -0,827894834721412 
0,497104890755892 -2,09624388527043 0,440084179602602 0,534471584267203 -0,81794918971972 0,0567716700289269 -0,895648175801918 -1,4179813888804 0,675952533454612 
-0,0203687339184661 1,73461254568613 1,0826482189934 0,349201965774038 2,2231680927636 -1,67412039453402 -0,740075420467218 -0,169726809100121 -0,400715493318027 
-0,945119526850115 0,805299711961439 -0,177931750448855 -1,40252975550179 -0,101513524121378 0,925466239417654 -0,0449999082111753 0,0103266908039 -0,381182409534781 
0,79265316472978 -0,837801292463113 0,288364868279716 1,31159320179494 -0,304653421013455 0,71781341718408 -1,17456259929834 0,894466139965442 -1,05878513559223 
-0,947728622680404 -0,235987068729469 -1,16765608803306 -0,929251125049429 -0,574955334688982 -1,105842684152 -0,669527087206732 -0,204952220062237 0,824491058394542 
