0,928863056609343 -0,16958113814219 0,542854670222315 0,761158967917859 1,30814803469886 1,17065872603173 0,339518933249414 -1,6031954018279 1,1514312026661 -0,87363378045784 
-0,228423775107331 0,492736150274396 0,385526640692971 0,578233879794475 0,203482037039233 -0,682645154676235 0,497202167984658 0,089621490082062 -0,055129410551921 0,70427637224797 
-0,285100471188361 0,638685530814662 -1,12089404905769 -0,703001620109659 -0,600653822986248 0,182402468837054 -0,25753088697257 -0,601819300838662 -0,949169453848232 0,812035221518965 
1,42962415507092 0,400856913719725 0,592431184645943 0,337390299577913 0,0745624513712537 -0,29333431549479 0,828065036423069 -0,249820735887541 -0,760836543403955 0,50541470363057 
-0,329358980678655 0,619559269859716 0,992146437984028 -0,177632764530197 0,252870836878601 -0,6598033856879 -0,626052729318409 -0,247484497668447 -0,828132664704757 -0,171773896805371 
-0,223709113534404 -1,60086421201558 -0,200547980410768 -0,180405449378959 0,136923549933323 1,29017752579468 -0,741687089084502 0,245856290331975 0,975812790904107 -0,567254434138189 
-1,6508103869957 -0,0586617659119245 0,345974052020336 0,646395981147138 -0,610257935528764 -0,322280688827057 0,900304965628453 0,355136341115058 -1,18932857157678 0,189816352534022 
0,875289808900696 -0,252977096127801 -1,53554196651398 0,439455885817509 -0,659364647073375 0,095340258951923 1,33953909283063 1,44273871547251 0,0441275430117396 -0,247850437298347 
0,383007579195782 -0,194621166770636 -0,117545531651725 0,65074636864045 0,00229698186847238 -0,128487421086751 0,394941320068176 1,41245827348132 -0,912685470614901 0,539454932748552 
