-0,238250692020287 -0,313572656974929 0,463439311582334 -0,757080859391522 0,989105518902236 -0,411213474074012 0,200587810576236 -0,541182961101263 -0,659592327503298 
0,769165811952746 -0,696216604530912 -0,722570440602754 0,89023412013903 0,173063827293489 0,0383388255901349 -0,13796986133697 0,340241695447006 -0,499064869014111 
-0,54282079056968 0,501227760455212 0,358007228634324 0,935048153593693 -0,281488570981421 -0,880943605620853 -0,666804451340253 0,555565205195716 0,27417967248437 
-0,498095667687289 -0,0946127227948107 0,733880693900343 -0,551067015878422 0,316451650725888 0,143163995418308 0,0855146483916391 0,423250772721717 0,553960538261552 
0,0253309277004241 0,971901115016966 -0,867382039254244 0,10384104172878 0,621628063554702 -0,85885071468486 -0,383732640828813 0,976783190843083 -0,677215141093924 
-0,78316479631847 -0,393829895832497 -0,859483977714313 -0,862889237638046 0,434016598124996 0,0192407597877275 0,388527331589035 0,630274153142364 -0,910856282296989 
0,949210601835144 -0,17329884561398 0,967915914006492 0,344382917203187 0,909723591948731 -0,566459686293481 0,314606853441618 -0,301316521736475 0,553429761693547 
-0,393473021403641 0,320232827831168 -0,0126682552568002 0,134265563978937 -0,195280528252609 0,749813054571773 0,484378287328583 0,836699210962606 0,36834058043004 
-0,631682829759867 0,35333816770154 0,879599696900509 0,216857943319184 0,318780794422506 -0,258271761824503 0,796271535473071 -0,883639655021783 -0,0506048989717871 
