-0,828546138400466 0,284114023337194 -0,608474649306608 -0,224624598676164 -1,03655672418305 -1,00143402413113 -0,645647548612509 -0,0573636978200468 0,0935714107307469 0,87973581248882 
-0,967039950815048 -0,887199483759328 0,004559970635716 -0,250720406826455 -0,491795239733437 0,870517052649761 -0,533057317851604 0,0883990552823061 0,146832733949103 0,649601468360332 
0,245949931091606 0,587211875691177 -0,798465455788404 0,686489001701814 0,289943656846389 0,652954228992087 -0,0413862052566307 0,546232007871024 -0,92305064290904 -0,941383191995501 
0,5822941823645 -0,94146418073795 0,876408138254847 0,893200344063435 -0,876303081343092 0,575537874165707 -0,451662472832325 -0,52370977938348 -0,964654897961605 -0,0307906591476829 
0,245639142867475 0,021186250099068 0,235931219177289 0,532975189808745 -0,552158510103895 -0,672921500947756 -0,730053350203695 -0,846765038485995 0,277777539522749 -0,57379701154949 
1,44231982613603 -0,289218396548749 -0,950405500806126 -1,53605013522648 0,805885814678336 0,277241985908357 0,0825794791255983 -0,294963651008421 0,485431744477447 0,696489046824858 
0,732952181125503 -0,805879556483533 -0,134313054911007 1,34195460272625 -0,70255836987568 0,974424229922902 -1,45660762201418 0,111359626572281 0,239582674516636 -0,067333113899144 
0,322179525482086 1,68365246153188 0,0530539532439103 -0,822376606903214 -0,596037674507144 1,22476368099254 -0,0347193434861109 0,361559354402851 0,931647511805709 0,655865157794145 
-0,191544801844538 0,375953610695877 -0,080686636133905 0,222604442957139 -0,65725566494663 0,644488367086504 0,215404894130493 -0,227163365975098 0,58646674964459 0,477384925576572 
