-0,0572962104609684 -1,0950053927796 -1,03356474144597 0,301502249516781 0,713558380065746 -0,589979500318868 0,782152060024977 0,780758154476415 0,420558866774924 
1,05558336406321 -1,46048801943263 -0,206229189679599 1,13542611780876 -0,215941218001275 0,849738062289422 -0,918686282783135 -1,67399397121975 0,112028788361712 
-0,130966835889019 -1,64016482327653 -0,140122954333258 -0,919888292109076 -0,290479251784496 0,818948130039008 -0,135629466970744 0,986562172876001 0,245874635816959 
1,49653036606849 0,111268789093601 2,01390570204514 -0,492615343473673 -0,055852887712351 0,175177608525463 0,440079538822211 -0,626754635185355 0,331300661587762 
-1,50615242274858 -0,308208835627515 0,0597574110421153 -0,201979767159549 0,527491264756532 0,48212817071617 -0,651932957420094 0,508363432367501 -0,204524782754259 
0,455322753091493 -0,83792888551854 0,6374273894529 -1,56980429866389 0,201947015338553 0,514446929802395 2,21257069332272 -0,166000435671769 1,63591735408544 
-0,170559250070508 0,555592081648108 0,888473859004897 -0,159512871484977 0,051131716487525 0,726996207189744 -1,22185413613583 0,97862169395649 -1,02351063461719 
1,75914966478066 0,163671156002055 0,0871926256065221 -0,40619324492579 -0,71328326487601 0,57126698809269 -0,45072176625101 -0,0693401742914409 -0,180991382249627 
-0,821465287274432 -0,0215290621954617 -0,0589712785696479 -0,342279689718634 -0,196304118524913 -1,54354759738108 -0,51437225728965 0,169210347252996 0,439108587885792 
