-0,698552753635939 0,680334664732374 0,216321773755048 -0,886541227757251 0,373813963203604 -0,889852452040581 0,311260254440019 0,224638788892719 -0,103346716833462 -0,250173197417135 
-1,6536395512636 -1,35934055211504 -0,974238796147629 -0,673125631023723 -1,45113042919996 -0,880361194666643 -1,13758612214987 0,960164724830615 -1,49288965103398 0,836729551296555 
-0,840275464505086 0,226613972268819 -0,0882416993655459 -0,306519124626889 0,573232065394629 0,774299316003127 -0,9300133669423 -0,275426557881491 -0,24130812502108 0,744547416337089 
0,0459068950344379 1,32750169732538 -0,623849693510611 0,567351569858543 0,577504472317409 0,416252908956377 -0,321252268422978 0,0380436056470701 -0,570950149065792 1,92064545101609 
-0,0844541262297211 0,602352052741848 -0,378757395492288 -0,982050695448206 -0,00261990743392093 0,763437407912424 1,03703132337333 -0,076168165404894 -0,63377457746946 0,315426485294209 
-0,202010818385524 1,59206456287488 0,242336377787095 -0,675373873229313 0,65235649871284 0,502165876097123 -0,082965246613121 1,19216227790488 0,629224372855026 0,00183164252565793 
-0,910962566398998 -0,184314927637724 -0,0441947668065289 -0,302412254118087 -0,821577965837241 -0,701221964182901 0,29342090334856 1,65315181949369 1,55613463089202 0,158550389943435 
1,04954609341014 0,660663094213541 -0,48566201119016 0,0946459139071619 1,62203834671203 0,491400036431104 0,486190603513825 -0,427963883349655 -0,990506232711722 0,635444278366139 
-0,61124166083114 0,232677906394321 -0,503649613588885 0,106132963894463 -0,931552543911409 0,146842332159561 0,0851653195382867 -0,334475820281299 -1,1640049288543 -0,310661403779714 
