-0,0572962104609684 -0,402005392779599 -1,03356474144597 -1,08449775048322 -0,672441619934254 -1,28297950031887 0,0891520600249767 0,087758154476415 0,420558866774924 
-0,330416635936786 -0,767488019432634 0,486770810320401 1,13542611780876 0,477058781998725 0,156738062289422 -1,61168628278313 -0,980993971219749 0,805028788361712 
1,25503316411098 -0,947164823276533 -0,833122954333258 -0,226888292109076 -0,983479251784496 0,818948130039008 -0,135629466970744 0,986562172876001 0,938874635816959 
0,110530366068487 0,111268789093601 -0,065094297954856 0,200384656526327 0,637147112287649 0,868177608525463 1,13307953882221 0,759245364814645 0,331300661587762 
0,572847577251423 0,384791164372485 0,0597574110421153 -0,201979767159549 1,22049126475653 -0,21087182928383 -1,34493295742009 -0,877636567632499 0,488475217245741 
-0,237677246908507 -1,53092888551854 -0,0555726105471009 -0,183804298663886 0,201947015338553 -0,178553070197605 0,826570693322723 0,526999564328231 0,942917354085444 
1,21544074992949 -0,830407918351892 0,888473859004897 -0,159512871484977 -0,641868283512475 0,726996207189744 -1,22185413613583 0,97862169395649 -1,02351063461719 
-0,940087663913186 1,2151633303548 0,897387121463375 -0,0914987836594221 0,117328863472831 -0,157940509629874 0,707199354226794 0,772121808092632 -0,145891730275886 
-0,19314049489989 0,56928735177046 0,728062497963692 -0,810064562507935 -2,05574847375869 -0,472160716933739 -2,16735488451522 0,597548183504747 0,359654579013425 
