-0,706755984438004 0,0253337635776651 0,865186513338791 -0,127281630936676 -0,048890672474117 1,98579972597202 -1,38137374061736 0,663506105385491 1,1223739644016 
0,161561190691572 -0,630086232735816 1,30110677316417 -0,81553849912553 1,14075237676117 -0,819640820176173 -0,78763087828999 0,692777680728481 0,902333559130008 
1,58336071295401 0,383263252388343 0,605334763231377 -0,436944719141789 -0,182792398059644 -1,25492648547372 0,0124283465614674 -0,112456699419979 -1,59330031646616 
0,065583223973207 -1,12559202476246 -1,62414027162182 -1,39680062846225 -0,975668085727686 1,71513639737719 0,758332331259424 0,332473550612328 -1,37198876950098 
1,56922369540679 -0,888534018717955 0,75370286393617 0,69807971598072 0,175482835529597 -0,397005676942414 0,531236415856162 -0,377562924929691 0,352747551795443 
0,553053032105813 0,350306981871979 0,780579581754552 0,94067875636354 1,64069434599145 1,74071986297272 0,0801492841356201 -1,28270646727351 -0,805721055040006 
0,151819794682236 0,037188734703785 -0,0988738383626909 -0,958887001187488 0,860290022501857 0,370566026945862 1,19310004243818 -0,446956964590567 0,0960981301479498 
-0,332485763976577 -0,13463818084618 0,038581852991871 -1,41402962421301 1,50512916961505 0,501278826148845 0,245347949324803 -1,35685457369678 -0,111688300553564 
1,14863069519383 -0,114719003026708 0,514780416858746 0,00234044017379187 -1,96818113499795 1,88777052687005 0,778325962730835 -0,154624685544346 -0,848763681291958 
