0,454749307979713 -0,313572656974929 0,463439311582334 -0,757080859391522 0,989105518902236 -0,411213474074012 -0,492412189423764 -0,541182961101263 0,033407672496702 
1,46216581195275 -0,696216604530912 -0,722570440602754 1,58323412013903 0,866063827293489 -0,654661174409865 -0,13796986133697 -0,352758304552994 -1,19206486901411 
-0,54282079056968 -0,191772239544788 0,358007228634324 1,62804815359369 -0,281488570981421 -0,880943605620853 -0,666804451340253 0,555565205195716 0,27417967248437 
-1,19109566768729 0,598387277205189 0,0408806939003431 -1,24406701587842 -0,376548349274112 -0,549836004581692 -0,607485351608361 1,11625077272172 0,553960538261552 
-0,667669072299576 1,66490111501697 -0,867382039254244 0,79684104172878 -0,0713719364452979 -1,55185071468486 0,309267359171187 1,66978319084308 -0,677215141093924 
-0,0901647963184701 -1,0868298958325 -0,166483977714313 -0,862889237638046 0,434016598124996 0,0192407597877275 0,388527331589035 0,630274153142364 -0,910856282296989 
0,949210601835144 -0,17329884561398 1,66091591400649 1,03738291720319 1,60272359194873 -1,25945968629348 0,314606853441618 -0,301316521736475 1,24642976169355 
-0,393473021403641 0,320232827831168 0,6803317447432 0,827265563978937 -0,888280528252609 0,749813054571773 0,484378287328583 0,836699210962606 -0,32465941956996 
0,433485440353158 0,168494294941655 -0,0133110687063589 -0,227379810343673 0,913121974986569 -0,841251349002706 0,0568609236208071 0,372621097309804 1,52241869824632 
