0,826663650198683 -1,32820643004924 -0,221629320919807 0,407639934112616 -0,632594347467457 0,686177497583524 0,747020277715298 0,136304046556495 -0,403450381664303 1,27904462425506 
0,680948010497237 -0,244822476931765 0,699077647039237 1,48223418828716 0,615944585291177 -1,10528047637841 -0,990259619425172 -0,343449636988086 1,02845311416288 0,0825696397025928 
-0,433222290795866 -1,10140673605372 -1,03758005770323 0,900279683945831 -1,34777960726935 0,51279476076029 -0,274917008948939 0,195901003930206 0,858898696131026 0,938951460616175 
0,275326188316255 0,458964011379966 1,39287455555232 0,588424178287119 0,542874913156906 0,0321449552016081 -0,642250319483341 -0,618534934529352 -0,327095028630968 -0,56490248299013 
-0,890941403755425 1,16444337532643 0,168440645811819 -0,166246885045547 -0,14582052228312 -0,938096047057349 1,19589098336496 -0,102351159077767 0,589627858991561 0,00820164429405779 
-0,0851882785024067 0,752707347158672 -0,759172480441245 0,474725929775613 0,955640989042186 -1,5192623687397 -0,495221501619658 0,432671464715466 0,404499245530227 -0,638196707241794 
-0,155388438680856 -0,3229509980059 -0,610050104083982 0,231997694169636 1,33817427219319 -0,226896656317123 -0,0818814901085019 -0,657829721298921 -0,272029459137483 -1,32808388289953 
0,40666886484561 -0,383154811981672 0,73313633246959 0,0739358870521819 1,48183657128962 0,0953343338777006 -0,883847381865535 1,51466682734232 -0,646899793771049 -0,102683560211995 
-0,99009622260467 0,827434150128828 0,606273144938644 -0,842302948163032 0,0241397391185816 -0,170381158842417 -0,474863508178789 -0,774851374223293 0,632783189244933 0,36913728189661 
