-0,992776175026212 -0,528958930414617 0,1747831754269 0,97921022090605 0,850072245043736 0,710585832461056 0,949275350174529 1,34348136918362 -0,428191606620416 -0,225861885517306 
0,19345921455997 0,200491013564398 -0,618912632399664 -0,227980863874769 -0,104654511951215 0,422206327050089 0,985565720757733 0,568278187684844 0,885323018713539 -1,39845032699846 
-0,950869815108306 -1,23303286247143 0,876533064933742 0,33628264597444 1,06476840071183 -0,14034938679093 -1,37213052424748 0,925523275474796 -0,44293712146717 -1,31554593038119 
0,211858127537583 1,12045769183499 0,335708923966954 -1,21123519613512 1,10844248043347 -0,407760591901727 0,139617980057196 -1,52691678511813 -0,0777364555176983 -1,26390784403072 
0,841735619977925 -0,104305106729411 0,884261867908883 -0,549458542628893 -0,313794588989017 -0,189447490120981 0,666262019908643 0,369521629410107 -0,992060145359514 -0,109707577670788 
0,392611897267686 -0,83606274232085 -0,906763777731808 0,178861561780265 0,0829540673098312 -0,14574331255478 0,287508004651641 0,83850052945246 0,914441820194219 0,683421631834666 
-0,303283643291464 -0,976247925300267 0,0934184906507929 -1,49864567623923 1,25527998694511 0,152001522724983 -0,442217910402556 0,206322563735453 0,356576655691758 -1,38989392004949 
-0,024411653007107 0,819482505875864 -0,353985356797457 1,14923086274426 -0,547185946976387 0,846435291621105 0,268705269619685 0,425991607562635 0,957077234963457 -1,13178410916719 
1,57938859330043 -0,0486521536575869 0,91758342083431 0,666770456203618 -0,708157827648873 -0,645079130141567 -0,358778530433205 0,463847362186689 1,09181073655505 0,868185792988253 
