0,902072456619736 -0,380366662228651 1,07704660055183 0,618406868362057 0,409149477914511 -0,048439789413214 -0,579703289819743 0,531278708438519 -0,0327161536704359 -1,03596308427256 
-0,9606395512636 -1,35934055211504 -0,281238796147629 -1,36612563102372 -1,45113042919996 -0,880361194666643 0,248413877850126 0,960164724830615 -0,106889651033976 -0,549270448703445 
-0,840275464505086 0,919613972268819 0,604758300634454 -0,999519124626889 -0,812767934605371 0,774299316003127 -0,9300133669423 -0,968426557881491 1,14469187497892 0,051547416337089 
0,301316543156894 -0,489985784278245 -0,050916063450238 -0,483494851204797 -1,52330138249989 1,29828702922412 -0,239832408372235 -0,013805607512968 -0,211615255666718 -0,514782679679702 
0,000332947354918733 -1,60829220990617 -0,871839865982458 0,768610598118794 0,162105691229042 -0,699444583477194 -1,66648982653277 0,130138562294253 -0,716525658833108 0,258110069617215 
0,869630787460893 -1,06600740898261 -0,869637436172756 -0,0416817713587929 -0,0282334771003729 -1,31116672590476 -0,231423635902081 1,60184089838194 -0,45977329315188 1,29251464720048 
-0,959839085098281 0,89368681232151 -1,2270530860862 1,53810586682945 -0,858489740574029 0,529346233014644 -1,6154244886648 -0,183743944942832 -0,842824248523835 -0,363417458424073 
0,359471213705592 -0,123780514636906 0,171779980497332 0,0218930286457264 -0,856603396058364 -0,231983254598912 0,791453838251277 -1,16385229748434 0,531375184144068 0,272676648871823 
0,747789142535901 1,32584807076345 -1,25190089904838 -0,192418194638294 1,5679166288762 -0,325676047860494 -1,31334834810549 -1,08823429209144 0,544738625895576 0,0948653434048711 
