0,674561730434448 -0,727928307419144 -0,182553849095271 0,661609355202694 0,307299853911297 -0,364448263945267 -0,497657185824894 1,54221981852931 0,811776141548425 
-1,28166409379461 -0,159049349152506 0,123208957315986 0,0745799608740859 -0,00546288071454637 0,993481107691527 -1,13779719057903 1,13497102237585 -0,744786069609591 
-0,166591230098899 -0,270084044263272 -0,780144499512457 1,28203345446523 -0,260309740556548 0,672266628147693 0,54530724768774 0,504086475588422 -1,36787377192586 
-1,48764043015365 0,251815891476262 0,198198073463141 -0,109095874758948 0,859694325299791 -1,31343324095217 0,316305700371184 -0,324549272980331 0,954210653586877 
-0,326076898410021 -0,590240012370627 0,177596060469093 0,0444303734299869 0,367856657769464 1,19637993051083 -1,28139169591125 -0,526812566862354 -0,192391949329708 
-0,443406937384702 0,209772483370627 -0,469285494400787 0,61424554650916 -0,13970945921713 -1,27017732786069 -0,072539150575893 0,861128349430919 0,332214307660337 
-0,626330601808769 0,660879316288922 0,381474841098057 1,64096305240503 0,682959471388701 0,559036089833377 -0,704849219743558 0,552651897502901 1,32586287786107 
0,944665621940356 0,38478837785534 -0,0322246832788109 0,599991594254967 0,349822552279021 0,636502629908036 -0,280288997702435 0,173801539081056 -1,25312098470708 
-0,41849337956798 -0,0974854453124501 -0,521017700210688 -0,703279958899729 -0,0907374917155771 0,185180658733556 0,196427233142977 -0,579448666866146 -0,641164254230058 
