-0,457136943390657 -0,16958113814219 1,23585467022231 0,761158967917859 0,615148034698864 0,477658726031733 0,339518933249414 -1,6031954018279 -0,234568797333897 -0,87363378045784 
-1,61442377510733 1,1857361502744 0,385526640692971 1,27123387979448 0,203482037039233 0,703354845323765 0,497202167984658 0,089621490082062 -0,748129410551921 0,70427637224797 
-0,285100471188361 -0,054314469185338 0,265105950942312 -0,703001620109659 0,785346177013752 0,182402468837054 0,43546911302743 -0,601819300838662 -0,256169453848232 1,50503522151896 
1,42962415507092 0,400856913719725 0,592431184645943 0,337390299577913 0,0745624513712537 -0,98633431549479 0,135065036423069 -0,249820735887541 -0,0678365434039551 1,19841470363057 
-0,329358980678655 -0,0734407301402841 1,68514643798403 -0,177632764530197 -0,440129163121399 -0,6598033856879 0,0669472706815915 -0,940484497668447 -0,828132664704757 0,521226103194629 
-0,223709113534404 -0,90786421201558 0,492452019589232 -0,180405449378959 -1,24907645006668 -0,095822474205318 -0,741687089084502 0,245856290331975 0,282812790904107 -1,26025443413819 
-1,6508103869957 0,634338234088075 1,03897405202034 0,646395981147138 -0,610257935528764 -0,322280688827057 0,900304965628453 1,04813634111506 -0,496328571576778 0,189816352534022 
0,182289808900696 -0,945977096127801 -0,149541966513983 -0,253544114182491 -0,659364647073375 0,095340258951923 1,33953909283063 1,44273871547251 0,73712754301174 -0,247850437298347 
0,383007579195782 0,498378833229364 0,575454468348275 1,34374636864045 0,00229698186847238 -0,821487421086751 0,394941320068176 1,41245827348132 -0,912685470614901 0,539454932748552 
