-1,44329621046097 0,290994607220401 0,352435258554032 -0,391497750483219 0,0205583800657458 -1,28297950031887 -0,603847939975023 0,780758154476415 1,11355886677492 
-0,330416635936786 -2,15348801943263 -0,206229189679599 -0,250573882191243 -0,215941218001275 0,156738062289422 -0,225686282783135 -0,98099397121975 0,112028788361712 
1,25503316411098 -0,254164823276533 -0,140122954333258 0,466111707890924 0,402520748215504 0,818948130039008 0,557370533029256 -0,399437827123999 1,63187463581696 
0,110530366068487 0,111268789093601 1,32090570204514 0,200384656526327 -0,74885288771235 1,56117760852546 0,440079538822211 0,759245364814645 0,331300661587762 
0,572847577251423 0,384791164372485 0,752757411042115 -0,201979767159549 -0,165508735243468 0,48212817071617 -1,34493295742009 -0,184636567632499 -0,204524782754259 
-0,930677246908507 -1,53092888551854 -0,0555726105471009 -0,876804298663886 0,201947015338553 0,514446929802395 0,826570693322723 -0,166000435671769 0,942917354085444 
0,522440749929492 -0,137407918351892 1,5814738590049 -0,852512871484977 -0,641868283512475 0,0339962071897444 0,164145863864173 0,28562169395649 -0,330510634617186 
1,48565316472978 -0,144801292463113 -0,404635131720284 0,618593201794938 -0,997653421013455 0,02481341718408 0,211437400701659 0,201466139965442 -1,05878513559223 
-1,6407286226804 0,457012931270531 -0,474656088033065 -0,929251125049429 -1,26795533468898 -1,105842684152 -1,36252708720673 -0,204952220062237 0,824491058394542 
