0,209072456619736 -0,380366662228651 1,07704660055183 0,618406868362057 -0,283850522085489 -0,048439789413214 -0,579703289819743 0,531278708438519 -0,0327161536704359 -0,342963084272557 
-0,2676395512636 -0,66634055211504 -0,974238796147629 -0,673125631023723 -0,758130429199958 -0,880361194666643 -1,13758612214987 0,960164724830615 -0,799889651033976 0,836729551296555 
-0,840275464505086 0,919613972268819 1,29775830063445 -0,999519124626889 -0,812767934605371 0,774299316003127 -0,9300133669423 -0,968426557881491 0,45169187497892 0,051547416337089 
-0,391683456843106 -1,18298578427824 -0,743916063450238 0,209505148795203 -0,830301382499887 1,29828702922412 -0,239832408372235 -0,013805607512968 0,481384744333282 0,178217320320298 
-0,692667052645081 -1,60829220990617 -0,871839865982458 0,768610598118794 0,162105691229042 -0,699444583477194 -1,66648982653277 0,130138562294253 -0,0235256588331081 0,258110069617215 
1,56263078746089 -0,373007408982612 -0,176637436172756 0,651318228641207 1,35776652289963 -0,618166725904758 -0,924423635902081 0,908840898381938 0,23322670684812 1,29251464720048 
-1,65283908509828 0,89368681232151 0,158946913913799 0,152105866829448 -0,858489740574029 0,529346233014644 -0,922424488664802 -0,183743944942832 -0,842824248523835 -0,363417458424073 
-0,333528786294408 -0,816780514636906 0,864779980497332 0,714893028645726 -0,163603396058364 -0,924983254598912 0,0984538382512771 0,22214770251566 -0,161624815855932 -0,420323351128177 
0,747789142535901 -0,060151929236553 -0,558900899048383 -0,192418194638294 0,874916628876196 -1,01867604786049 -0,620348348105489 0,297765707908555 1,23773862589558 0,0948653434048711 
