-1,39155275363594 0,680334664732374 0,909321773755048 -0,193541227757251 0,373813963203604 -0,889852452040581 -0,381739745559981 0,917638788892719 0,589653283166538 1,13582680258286 
0,127634646257681 0,391269638850945 -0,178382059815052 -1,11352850752162 0,86472411947638 0,823954079563708 -0,262560511888731 -0,247144719235201 0,0855654119912375 1,15013004974096 
0,538283682213297 0,240588728623273 0,0280026115472439 -0,241953715329037 -0,528228664258136 -0,932934925567328 0,95398583912942 1,95022200871828 -1,13505496434218 -0,217951814279869 
-0,0127710335151161 -1,62117487098657 2,37993829237387 -0,434188339595771 0,0529276351690889 0,77669335303255 -0,458229010086613 0,827505467724756 -0,193986147559707 -0,0541730891234119 
0,102204506160321 -0,0279498449656879 0,874775644040562 -1,33583756150065 0,258487161834951 0,462838630873169 1,67824156491516 -1,39618414070792 -0,443661621512688 0,751981357928357 
-0,71418796186996 -1,22501599769854 -0,559920296506454 -2,24558186623621 1,51437089680013 0,354483727996463 -0,022369273775895 0,93300031588087 -1,23936446737981 -1,04391559651816 
-1,38842562854263 -0,143925298538024 -0,719666327219301 -0,81476433939057 -1,33019205075744 0,0558095172442541 0,39733134647707 -0,744193720219281 0,526543857309289 -0,29796923355617 
-1,87581691034968 -0,0900659796134879 -0,360158571675494 -0,167261498885351 0,661925543580635 0,952233527178985 -0,327186915417289 1,67084017304789 -0,193440877163988 0,701932704868695 
1,16082350951751 0,65716997983734 0,700883630230969 -0,194036322270537 -0,503763852409908 1,51924496418342 -0,0612545744801194 0,853520158610083 -0,255559236395899 0,00544390717262611 
