-0,238250692020287 -0,313572656974929 0,463439311582334 -1,45008085939152 0,989105518902236 -1,10421347407401 0,200587810576236 0,151817038898737 -0,659592327503298 
0,0761658119527461 -0,696216604530912 -0,029570440602754 0,89023412013903 0,173063827293489 0,0383388255901349 -0,83096986133697 0,340241695447006 -1,19206486901411 
-1,23582079056968 0,501227760455212 0,358007228634324 0,935048153593693 -0,281488570981421 -0,187943605620853 -1,35980445134025 1,24856520519572 0,27417967248437 
-0,498095667687289 -0,0946127227948107 1,42688069390034 -1,24406701587842 0,316451650725888 -0,549836004581692 0,0855146483916391 1,11625077272172 1,24696053826155 
0,718330927700424 0,278901115016966 -0,174382039254244 0,10384104172878 0,621628063554702 -0,85885071468486 -1,07673264082881 0,976783190843083 0,0157848589060759 
-1,47616479631847 -1,0868298958325 -0,166483977714313 -0,862889237638046 0,434016598124996 0,0192407597877275 -0,304472668410965 -0,0627258468576359 -0,217856282296989 
0,949210601835144 -0,17329884561398 0,274915914006492 0,344382917203187 0,909723591948731 -0,566459686293481 -0,378393146558382 -0,301316521736475 0,553429761693547 
0,299526978596359 0,320232827831168 -0,0126682552568002 0,827265563978937 0,497719471747391 0,0568130545717731 0,484378287328583 0,143699210962606 0,36834058043004 
0,433485440353158 0,168494294941655 1,37268893129364 -0,227379810343673 1,60612197498657 -0,148251349002706 0,749860923620807 1,0656210973098 0,82941869824632 
