-0,146096937599171 -1,37507385626299 0,492067893437607 0,475665925464903 -0,36626663588279 -0,13927923259804 0,672161994349287 0,840032283780646 0,004198809914849 
1,5772373878021 -0,70677947704996 -0,457917566797192 -0,296511954938766 -0,771356951338871 -0,506695480494618 0,190226698848524 0,14386438445368 -0,0600563152972869 
-0,589241063962337 0,217113308243972 -0,446292892479009 -1,25839664956061 -0,197142105814136 -1,1844023510606 0,884179449586281 -0,984732875300447 -0,401279324386865 
0,275835303545387 -1,85778530668457 1,33028647382804 -0,716925942552707 -0,604166598513334 0,71258121686223 1,9721591815884 -0,920416441708997 -1,52089483472141 
-0,195895109244108 -1,40324388527043 -0,252915820397398 0,534471584267203 -1,51094918971972 0,0567716700289269 -0,895648175801918 -1,4179813888804 -0,710047466545388 
0,672631266081534 0,34861254568613 1,0826482189934 1,04220196577404 2,2231680927636 -1,67412039453402 -0,047075420467218 -0,862726809100121 -0,400715493318027 
-0,252119526850115 -0,580700288038561 -0,177931750448855 -1,40252975550179 0,591486475878622 0,925466239417654 -0,0449999082111753 0,7033266908039 0,311817590465219 
1,48565316472978 -0,837801292463113 0,981364868279716 -0,0744067982050619 -0,997653421013455 0,71781341718408 -1,17456259929834 -0,491533860034558 -1,05878513559223 
-0,254728622680404 -0,928987068729469 -0,474656088033065 -0,929251125049429 -1,26795533468898 0,280157315848003 0,0234729127932679 -0,204952220062237 1,51749105839454 
