-0,057296210460968 -0,402005392779599 -1,03356474144597 -0,391497750483219 0,713558380065746 0,103020499681132 -0,603847939975023 0,780758154476415 0,420558866774924 
-0,330416635936786 -1,46048801943263 -0,206229189679599 0,442426117808757 -0,215941218001275 0,156738062289422 -0,225686282783135 -1,67399397121975 0,805028788361712 
1,25503316411098 -1,64016482327653 0,552877045666742 -0,226888292109076 -0,290479251784496 0,818948130039008 -0,135629466970744 -0,399437827123999 0,93887463581696 
1,49653036606849 -0,581731210906399 0,627905702045144 -0,492615343473673 -0,74885288771235 1,56117760852546 -0,252920461177789 0,759245364814645 -0,361699338412238 
-0,120152422748577 1,07779116437248 0,0597574110421153 -0,894979767159549 1,22049126475653 -0,90387182928383 -0,651932957420094 -1,5706365676325 -0,204524782754259 
-0,930677246908507 -0,83792888551854 1,3304273894529 -0,183804298663886 0,201947015338553 0,514446929802395 0,826570693322723 0,526999564328231 -0,443082645914556 
1,21544074992949 -0,137407918351892 0,195473859004897 -0,852512871484977 -0,641868283512475 -0,659003792810256 -0,528854136135827 0,28562169395649 -1,02351063461719 
0,09965316472978 -0,837801292463113 0,288364868279716 -0,0744067982050619 -0,997653421013455 0,71781341718408 -0,481562599298341 0,201466139965442 0,327214864407766 
-0,254728622680404 -0,235987068729469 -0,474656088033065 -0,929251125049429 -0,574955334688982 -1,105842684152 -1,36252708720673 -0,204952220062237 0,824491058394542 
