0,209072456619736 -1,07336666222865 0,384046600551832 0,618406868362057 0,409149477914511 -0,741439789413214 -0,579703289819743 -0,161721291561481 0,660283846329564 0,350036915727443 
-0,9606395512636 -1,35934055211504 -0,974238796147629 0,0198743689762769 -0,758130429199958 -0,880361194666643 -0,444586122149874 0,267164724830615 -0,799889651033976 0,143729551296555 
-0,840275464505086 0,226613972268819 0,604758300634454 -0,306519124626889 -0,119767934605371 0,774299316003127 -0,2370133669423 -0,968426557881491 -0,24130812502108 0,051547416337089 
0,301316543156894 -1,18298578427824 -0,050916063450238 0,209505148795203 -0,830301382499887 0,605287029224116 -0,932832408372235 1,37219439248703 0,481384744333282 -0,514782679679702 
0,000332947354918733 -0,222292209906174 -0,871839865982458 -0,617389401881206 0,855105691229042 -0,00644458347719401 -0,973489826532774 -0,562861437705747 -0,0235256588331081 0,951110069617215 
0,176630787460893 -0,373007408982612 -1,56263743617276 -0,0416817713587929 0,664766522899627 -0,618166725904758 -0,231423635902081 1,60184089838194 0,92622670684812 1,29251464720048 
-0,266839085098281 0,89368681232151 -1,2270530860862 0,152105866829448 -1,55148974057403 -0,163653766985356 -0,922424488664802 -0,183743944942832 -0,149824248523835 0,329582541575927 
0,359471213705592 -0,123780514636906 -0,521220019502668 0,0218930286457264 -0,856603396058364 -1,61798325459891 1,48445383825128 0,22214770251566 0,531375184144068 0,272676648871823 
0,747789142535901 -0,060151929236553 -1,25190089904838 0,500581805361706 1,5679166288762 -1,01867604786049 -0,620348348105489 -1,08823429209144 1,23773862589558 0,787865343404871 
