1,14679588541286 -0,766658265966297 0,089323680423816 1,00014190160257 -0,95410091276099 0,612330909344987 0,834953684282933 -0,033087522910949 -0,189992353235833 -0,176154634531659 
-1,23135659359505 0,77230291803009 1,07491695453269 -0,627012829761027 0,297217426787232 -1,49016015411409 -0,276550233027223 0,250664911522374 1,49061068979167 0,153291789420551 
-1,69245191666458 0,922554214156025 0,815780487757074 -1,66562149273586 0,0724250288086128 0,13009718578779 0,885588799257106 -1,97188911387412 -0,371547097686002 -1,08662094709353 
-0,972049035118916 0,934728861756031 1,52931316844202 -0,741992722145278 -1,56055246104093 -0,421703920137465 0,84953332499114 0,350028656120425 2,01583354350079 0,606363270248456 
0,455314241096058 -0,238183153145566 -0,210689191338927 1,50688056054007 -0,873406860625561 0,0654766387611052 -0,943372757147706 -0,720115374643409 -0,539668444329718 0,33749087124015 
1,77123330231441 0,532710809974331 -1,32164348554455 1,65747797676757 -0,186658383261253 -1,46875832874317 -1,27543875372337 -1,32405482684032 -0,76528312720604 -0,69819809854878 
1,41974211008788 1,11384279815706 -2,04754042522495 1,20362859385769 -0,204105599412744 -0,473085455351083 0,242989749588068 -1,26209032332203 -0,759460368720098 0,411921346924697 
0,0463065208947779 0,37342111085235 -0,0721686319784111 0,577247419543214 0,00497754832449304 -1,84026876351902 -1,25275659450505 -0,998100072782999 0,207785367889696 -0,993051609952492 
-0,619530057064504 -0,0872958260994851 0,953779330455595 0,983962031073851 -1,16485424940794 -1,19775984509325 1,25637234730058 0,87183519167445 -0,86233433888403 -0,477794132297763 
