-0,0055527536359391 0,680334664732374 0,909321773755048 -0,193541227757251 0,373813963203604 -0,889852452040581 -1,07473974555998 1,61063878889272 0,589653283166538 -0,250173197417135 
-0,2676395512636 -0,66634055211504 -1,66723879614763 0,0198743689762769 -0,065130429199958 -0,880361194666643 -0,444586122149874 1,65316472483061 -0,106889651033976 0,143729551296555 
-0,147275464505086 0,919613972268819 1,29775830063445 -0,999519124626889 -0,119767934605371 1,46729931600313 -0,9300133669423 -0,275426557881491 -0,24130812502108 0,051547416337089 
-1,34009310496556 1,32750169732538 -1,31684969351061 -0,125648430141457 -0,115495527682591 -0,276747091043623 0,371747731577022 -0,65495639435293 -0,570950149065792 0,53464545101609 
-0,777454126229721 1,29535205274185 -1,07175739549229 -0,982050695448206 0,690380092566079 0,070437407912424 0,34403132337333 -0,769168165404894 0,05922542253054 -0,377573514705791 
-1,58801081838552 0,899064562874876 0,935336377787095 0,710626126770687 -0,04064350128716 -0,190834123902877 -0,082965246613121 -0,19383772209512 -0,063775627144974 0,694831642525658 
-0,217962566398998 -0,184314927637724 -0,0441947668065289 -0,302412254118087 -1,51457796583724 -0,008221964182901 1,67942090334856 1,65315181949369 1,55613463089202 0,158550389943435 
1,04954609341014 0,660663094213541 0,20733798880984 -0,598354086092838 0,92903834671203 -0,201599963568896 1,17919060351382 -0,427963883349655 -0,990506232711722 -0,0575557216338607 
-1,30424166083114 -0,460322093605679 -1,19664961358888 -0,586867036105537 -0,238552543911409 -0,546157667840439 0,0851653195382867 -0,334475820281299 -0,471004928854297 1,07533859622029 
