1,36756173043445 -0,0349283074191438 -1,56855384909527 0,661609355202694 1,0002998539113 -0,364448263945267 -0,497657185824894 0,84921981852931 1,50477614154843 
-0,58866409379461 0,533950650847494 0,816208957315986 -0,618420039125914 -0,00546288071454637 0,300481107691527 -0,444797190579026 0,441971022375846 -0,744786069609591 
0,526408769901101 0,422915955736728 -1,47314449951246 -0,10396654553477 0,432690259443452 0,672266628147693 -0,14769275231226 -0,188913524411578 -1,36787377192586 
-0,101640430153646 -0,441184108523738 0,891198073463141 0,583904125241052 0,859694325299791 0,0725667590478279 0,316305700371184 -0,324549272980331 0,954210653586877 
0,366923101589979 0,102759987629373 1,56359606046909 0,0444303734299869 0,367856657769464 0,503379930510828 -0,588391695911247 0,859187433137646 0,500608050670292 
0,249593062615298 0,902772483370627 -0,469285494400787 -0,0787544534908395 0,55329054078287 0,115822672139305 -1,45853915057589 -0,524871650569081 0,332214307660337 
0,066669398191231 -0,725120683711078 1,07447484109806 0,947963052405027 -0,703040528611299 1,25203608983338 -1,39784921974356 -0,140348102497099 0,632862877861067 
0,944665621940356 -0,30821162214466 -0,0322246832788109 1,29299159425497 -0,343177447720979 0,636502629908036 -0,280288997702435 0,173801539081056 -0,560120984707084 
-1,11149337956798 -0,79048544531245 -0,521017700210688 -0,703279958899729 -0,783737491715577 0,185180658733556 -0,496572766857023 0,113551333133854 -0,641164254230058 
