0,635703789539032 -1,0950053927796 -1,03356474144597 -0,391497750483219 0,0205583800657458 -1,28297950031887 0,782152060024977 0,087758154476415 1,11355886677492 
0,362583364063214 -0,0744880194326341 0,486770810320401 -0,250573882191243 0,477058781998725 1,54273806228942 -1,61168628278313 -1,67399397121975 0,112028788361712 
0,562033164110981 -0,947164823276533 -0,140122954333258 -0,226888292109076 -0,290479251784496 1,51194813003901 0,557370533029256 0,293562172876001 0,938874635816959 
1,49653036606849 0,804268789093601 0,627905702045144 0,200384656526327 -0,74885288771235 0,175177608525463 0,440079538822211 0,759245364814645 -0,361699338412238 
0,572847577251423 1,07779116437248 0,0597574110421153 -0,201979767159549 -0,165508735243468 0,48212817071617 0,0410670425799059 -1,5706365676325 0,488475217245741 
-0,237677246908507 -0,83792888551854 0,637427389452899 -0,876804298663886 0,201947015338553 -0,178553070197605 0,826570693322723 -0,166000435671769 0,249917354085444 
0,522440749929492 -0,830407918351892 0,888473859004897 -0,159512871484977 0,0511317164875249 0,0339962071897444 -0,528854136135827 0,97862169395649 0,362489365382814 
0,445912336086814 0,522163330354804 0,204387121463375 -0,0914987836594221 0,117328863472831 -0,157940509629874 0,0141993542267937 0,079121808092632 0,547108269724114 
-0,19314049489989 0,56928735177046 0,0350624979636921 -0,810064562507935 -2,05574847375869 -1,16516071693374 -1,47435488451522 -0,0954518164952529 0,359654579013425 
