-1,44329621046097 -0,402005392779599 -0,340564741445968 -1,08449775048322 0,0205583800657458 -0,589979500318868 -0,603847939975023 0,087758154476415 0,420558866774924 
0,362583364063214 -2,15348801943263 0,486770810320401 0,442426117808757 -0,215941218001275 0,156738062289422 -0,225686282783135 -0,98099397121975 -0,580971211638288 
1,25503316411098 -0,254164823276533 -0,140122954333258 1,15911170789092 0,402520748215504 1,51194813003901 0,557370533029256 0,293562172876001 1,63187463581696 
0,803530366068487 0,111268789093601 -0,065094297954856 -0,492615343473673 -0,0558528877123505 0,175177608525463 0,440079538822211 0,066245364814645 0,331300661587762 
-0,120152422748577 1,07779116437248 0,0597574110421153 -0,201979767159549 0,527491264756532 -0,21087182928383 -0,651932957420094 -0,877636567632499 0,488475217245741 
-0,237677246908507 -0,14492888551854 0,637427389452899 -1,56980429866389 0,201947015338553 1,2074469298024 0,133570693322723 -0,166000435671769 0,942917354085444 
-0,170559250070508 -0,830407918351892 0,888473859004897 0,533487128515023 0,744131716487525 -0,659003792810256 -0,528854136135827 0,28562169395649 -0,330510634617186 
0,79265316472978 -0,837801292463113 -0,404635131720284 1,31159320179494 -0,997653421013455 0,02481341718408 -1,17456259929834 -0,491533860034558 -1,05878513559223 
-0,947728622680404 -0,235987068729469 -1,16765608803306 -0,929251125049429 0,118044665311018 -0,412842684151997 0,0234729127932679 0,488047779937763 0,824491058394542 
