0,826663650198683 0,0577935699507559 0,471370679080193 0,407639934112616 -0,632594347467457 0,686177497583524 0,747020277715298 -0,556695953443505 -0,403450381664303 1,27904462425506 
1,37394801049724 -1,63082247693176 0,699077647039237 0,789234188287162 -0,0770554147088227 0,280719523621592 -0,990259619425172 -0,343449636988086 0,335453114162876 0,0825696397025928 
0,259777709204134 -1,10140673605372 -1,03758005770323 0,900279683945831 -1,34777960726935 0,51279476076029 -0,274917008948939 -0,497098996069794 0,858898696131026 0,938951460616175 
-0,417673811683745 1,15196401137997 0,69987455555232 -0,104575821712881 -0,843125086843094 0,725144955201608 -0,642250319483341 -1,31153493452935 0,365904971369032 0,82109751700987 
-1,58394140375542 1,16444337532643 0,168440645811819 -0,859246885045547 -0,14582052228312 -0,245096047057349 0,50289098336496 0,590648840922233 0,589627858991561 -0,684798355705942 
-0,0851882785024067 0,752707347158672 -1,45217248044125 0,474725929775613 0,262640989042186 -0,826262368739705 0,197778498380342 -0,260328535284534 -0,288500754469773 0,0548032927582056 
-0,848388438680856 0,3700490019941 0,775949895916018 0,231997694169636 0,645174272193189 -0,919896656317123 -0,774881490108502 0,0351702787010789 -0,272029459137483 -1,32808388289953 
0,40666886484561 -0,383154811981672 0,73313633246959 -0,619064112947818 0,788836571289616 -0,597665666122299 -0,883847381865535 0,821666827342318 0,0461002062289511 0,590316439788005 
-0,29709622260467 0,134434150128828 -0,779726855061355 -1,53530294816303 0,0241397391185816 -0,170381158842417 -0,474863508178789 -1,46785137422329 1,32578318924493 -0,32386271810339 
