-0,0572962104609684 0,290994607220401 0,352435258554032 -1,08449775048322 0,713558380065746 -1,28297950031887 0,782152060024977 0,780758154476415 0,420558866774924 
0,362583364063214 -0,0744880194326341 0,486770810320401 0,442426117808757 -0,215941218001275 0,156738062289422 -1,61168628278313 -0,980993971219749 0,112028788361712 
1,25503316411098 -1,64016482327653 0,552877045666742 -0,226888292109076 -0,290479251784496 0,818948130039008 -0,135629466970744 0,986562172876001 0,245874635816959 
1,49653036606849 0,111268789093601 1,32090570204514 0,893384656526327 -0,0558528877123505 1,56117760852546 -0,252920461177789 0,759245364814645 1,02430066158776 
-0,120152422748577 0,384791164372485 0,0597574110421153 -0,201979767159549 -0,165508735243468 -0,21087182928383 0,0410670425799059 -0,184636567632499 -0,204524782754259 
-0,237677246908507 -0,83792888551854 1,3304273894529 -1,56980429866389 0,201947015338553 0,514446929802395 0,826570693322723 -0,859000435671769 0,249917354085444 
0,522440749929492 -0,830407918351892 0,195473859004897 -0,852512871484977 0,744131716487525 0,0339962071897444 -0,528854136135827 0,28562169395649 -0,330510634617186 
0,445912336086814 0,522163330354804 -0,488612878536625 0,601501216340578 1,50332886347283 -0,850940509629874 0,707199354226794 1,46512180809263 -0,838891730275886 
-0,88614049489989 0,56928735177046 1,42106249796369 -0,810064562507935 -1,36274847375869 -0,472160716933739 -1,47435488451522 0,597548183504747 -0,333345420986575 
