0,235863056609343 -0,16958113814219 0,542854670222315 0,0681589679178591 -0,0778519653011359 1,17065872603173 -0,353481066750586 -0,910195401827896 0,458431202666103 -0,18063378045784 
-0,921423775107331 -0,200263849725604 0,385526640692971 1,27123387979448 0,203482037039233 0,0103548453237652 0,497202167984658 -0,603378509917938 -0,748129410551921 -0,68172362775203 
-0,978100471188361 0,638685530814662 -0,427894049057688 -0,703001620109659 0,0923461770137521 -0,510597531162946 1,12846911302743 0,091180699161338 0,436830546151768 0,812035221518965 
0,736624155070923 0,400856913719725 -0,100568815354057 0,337390299577913 0,0745624513712537 -1,67933431549479 -0,557934963576931 0,443179264112459 -1,45383654340396 -0,18758529636943 
-0,329358980678655 -0,0734407301402841 0,992146437984028 -0,177632764530197 0,252870836878601 -0,6598033856879 0,0669472706815915 -1,63348449766845 -0,828132664704757 1,21422610319463 
-0,223709113534404 -0,90786421201558 0,492452019589232 0,512594550621041 -0,556076450066677 0,597177525794682 -0,048687089084502 0,245856290331975 0,282812790904107 -0,567254434138189 
-0,957810386995697 -0,0586617659119245 1,03897405202034 -0,0466040188528619 -0,610257935528764 -0,322280688827057 0,900304965628453 0,355136341115058 0,196671428423222 0,189816352534022 
0,875289808900696 -0,945977096127801 -0,842541966513983 -0,946544114182491 -0,659364647073375 -0,597659741048077 -0,0464609071693669 0,749738715472509 0,73712754301174 -0,247850437298347 
-0,884544801844538 1,06895361069588 -1,4666866361339 0,222604442957139 -0,65725566494663 0,644488367086504 0,215404894130493 -0,227163365975098 -0,10653325035541 0,477384925576572 
