0,133663650198683 0,0577935699507559 0,471370679080193 -0,978360065887384 0,753405652532543 0,686177497583524 0,0540202777152976 0,829304046556495 -0,403450381664303 -0,10695537574494 
1,37394801049724 -0,937822476931765 0,00607764703923708 0,096234188287162 0,615944585291177 -1,10528047637841 -0,990259619425172 -0,343449636988086 0,335453114162876 0,775569639702593 
0,801450632420113 -1,30229703228609 -0,347267524966629 0,59731738716239 1,34390017935769 0,0202101613489027 -0,0300640145591761 -1,4834559791975 -0,26764734148404 0,507920359963514 
0,226187675830996 0,548111381730117 0,793363246970513 0,484145212678306 -0,126056796757065 -1,35911009168723 -0,917940917386646 0,198887044483743 -1,43317282470138 0,994154247159676 
-1,61275471373636 0,668415425190896 0,153263436236076 0,898333663073524 -0,15124879953463 0,306163057361805 -1,0237604767991 0,564103979414377 -0,736344888390668 0,322138419697591 
0,309040413847678 -0,914822124836418 0,153818421310195 0,0337907052756243 0,1479444686081 -0,950039317515231 0,0190610949173851 0,874053291917803 0,756739754754929 -0,95980450881636 
0,4092415121427 -0,155523743087204 -1,28904861195947 -0,604370741627817 -0,640143051575936 -0,86716337123288 -0,731185723902278 -1,47806756563907 0,608290985044228 0,282054676978409 
-0,494339558991762 -0,189146663908915 -0,603276812286711 -0,9657011329968 0,695324353438953 -1,55996479277078 0,237439531477839 -0,245601188040153 0,44156618669702 -1,34826287800412 
-0,649029361851993 -0,980167993973553 0,25288890919317 -0,896785761181631 -1,49412005388416 0,834009800667413 0,0872929604199217 0,452572541694889 -0,663799255929794 1,13098252075817 
