-0,798309632190182 0,239367819036994 0,165511332063708 0,632020519875 -0,158668748642629 0,925519768113978 0,148215354316502 -0,296821505435194 1,29202175310954 
-1,63161872048053 -0,145936092257004 -1,04145145668297 -1,09234055479213 0,976412390986184 -1,58417112471311 0,220139122843342 0,0633857366924109 -0,297077226125205 
0,0545455573245629 1,04109339947444 -0,693260435803449 0,0426169322070744 0,112292979723445 0,956686397062934 -0,440475132987124 -0,883511625176068 -1,38268604024951 
-0,737128041562218 -0,680522334613149 -0,225162950621994 0,513878254631943 0,463271838362921 0,362539941148152 0,573367477834396 -0,669977409611446 -1,33842470017701 
1,13389229006362 0,690488718305942 0,269437333521637 0,193051262382907 1,3614044681808 -0,158880625459776 0,129494957220506 0,64654432872615 -0,100174526557873 
0,186903769703072 -1,40593032342239 1,23798306454391 -0,590326482239331 -0,0134734832744456 0,0251174111171241 -1,43971979888655 0,893577285992716 -0,817410064776153 
-0,368481114212648 0,852073435602744 0,434074839313549 0,208824935000774 0,0724956528621239 -0,968157123466561 1,30820580836349 -0,114656604121279 -0,616299170822044 
-1,56181529626847 0,933503024887528 -0,302207930619925 -0,403991397831119 0,0272919673734771 -0,73961019940237 0,754253575463897 0,0862468327797237 1,06589701838647 
-0,631682829759867 0,35333816770154 0,879599696900509 0,216857943319184 1,01178079442251 -0,258271761824503 1,48927153547307 -1,57663965502178 -0,0506048989717871 
