0,674561730434448 -0,727928307419144 -0,182553849095271 0,661609355202694 0,307299853911297 -1,05744826394527 -0,497657185824894 0,84921981852931 0,811776141548425 
0,10433590620539 -0,159049349152506 -0,569791042684014 -0,618420039125914 -0,00546288071454637 0,993481107691527 -0,444797190579026 1,13497102237585 -1,43778606960959 
1,2194087699011 1,11591595573673 -0,0871444995124571 1,28203345446523 -0,260309740556548 -0,0207333718523073 -0,14769275231226 0,504086475588422 0,018126228074136 
-1,34174173218792 0,171300111883925 1,68643790951811 -0,442975585089519 0,243877221185191 0,113049004745227 0,365216092842266 1,23695947863532 -0,648252347320436 
-0,469244252350295 0,60903825778935 0,188740019015847 1,58165938777507 -1,64543341659775 0,688274551969149 -0,377459599985024 -0,749067018623029 0,927944019110382 
-0,671563675181271 0,0382633968434591 0,0892631714647929 1,21383940595427 1,32144544166161 -0,0747210583997523 -0,0581236197883839 0,766218495153458 0,773530071495813 
0,968411494670162 -0,914471724030781 -1,4676185668626 -0,547820477242964 -0,883697892485046 1,49621337832288 -0,689574492019403 -0,155915453636979 -1,01508029335462 
0,125338232030318 1,54731149129491 0,676073429662303 -0,296840047429241 -0,67663613196818 1,14357764065013 0,641733455011963 0,331447061771269 0,832932764586496 
1,45247391137456 0,637749382126028 1,06834937233448 -0,468419051481606 -1,41950694554975 -0,511242721933519 0,744322609037311 -0,476129077130989 -1,22717692125504 
