-0,698552753635939 -0,0126653352676259 0,216321773755048 -0,886541227757251 -0,319186036796396 -0,196852452040581 0,311260254440019 1,61063878889272 1,28265328316654 0,442826802582865 
-0,9606395512636 0,02665944788496 -0,974238796147629 -0,673125631023723 -1,45113042919996 -0,880361194666643 -0,444586122149874 1,65316472483061 -1,49288965103398 0,143729551296555 
-0,840275464505086 0,226613972268819 0,604758300634454 -0,999519124626889 -0,812767934605371 0,081299316003127 -0,2370133669423 -0,275426557881491 -0,24130812502108 0,744547416337089 
-1,34009310496556 1,32750169732538 -1,31684969351061 -0,125648430141457 -0,115495527682591 -0,276747091043623 0,371747731577022 0,0380436056470701 0,122049850934208 1,92064545101609 
-0,777454126229721 0,602352052741848 -1,07175739549229 -1,67505069544821 1,38338009256608 0,070437407912424 1,03703132337333 -1,46216816540489 0,05922542253054 -0,377573514705791 
-0,895010818385524 0,206064562874876 0,935336377787095 0,0176261267706874 0,65235649871284 0,502165876097123 -0,082965246613121 -0,19383772209512 -0,063775627144974 0,00183164252565793 
-0,217962566398998 -0,184314927637724 1,34180523319347 -0,995412254118087 -0,128577965837241 -0,008221964182901 1,67942090334856 0,267151819493692 0,86313463089202 0,158550389943435 
-0,336453906589865 1,35366309421354 0,20733798880984 0,0946459139071619 1,62203834671203 -0,201599963568896 -0,206809396486175 -0,427963883349655 0,395493767288278 -0,0575557216338607 
-1,30424166083114 -0,460322093605679 -1,19664961358888 -0,586867036105537 -0,931552543911409 0,146842332159561 0,0851653195382867 -0,334475820281299 -0,471004928854297 0,382338596220286 
