-0,0055527536359391 -0,0126653352676259 0,216321773755048 -1,57954122775725 -0,319186036796396 -0,889852452040581 -1,07473974555998 0,224638788892719 -0,103346716833462 1,13582680258286 
0,127634646257681 1,08426963885094 0,514617940184948 -1,11352850752162 0,17172411947638 0,823954079563708 -0,955560511888731 -0,247144719235201 -0,607434588008762 0,457130049740956 
0,538283682213297 0,933588728623273 0,0280026115472439 -0,241953715329037 -1,22122866425814 -0,239934925567328 1,64698583912942 1,95022200871828 -1,13505496434218 -0,217951814279869 
-0,705771033515116 -2,31417487098657 1,68693829237387 -0,434188339595771 -0,640072364830911 0,77669335303255 0,234770989913387 -0,558494532275244 -0,886986147559707 0,638826910876588 
0,102204506160321 -0,0279498449656879 1,56777564404056 -0,642837561500649 0,258487161834951 0,462838630873169 0,98524156491516 -1,39618414070792 0,249338378487312 0,751981357928357 
-1,40718796186996 0,160984002301462 0,826079703493546 -1,55258186623621 1,51437089680013 1,04748372799646 -0,715369273775895 2,31900031588087 -1,23936446737981 -0,350915596518161 
-1,38842562854263 0,549074701461976 -0,719666327219301 -2,20076433939057 -0,637192050757442 0,0558095172442541 0,39733134647707 0,641806279780719 -0,166456142690711 1,08803076644383 
-1,87581691034968 -0,783065979613488 0,332841428324506 -0,860261498885351 -0,724074456419365 0,952233527178985 0,365813084582711 1,67084017304789 -0,886440877163988 0,00893270486869502 
1,16082350951751 1,35016997983734 0,00788363023096861 -0,194036322270537 0,882236147590092 0,82624496418342 0,631745425519881 1,54652015861008 1,1304407636041 0,00544390717262611 
