0,595750128662097 -0,653157067030741 0,258998336218297 0,353103867137853 1,51364431897395 -0,00268085254481099 0,758011467349255 -0,115321230662671 0,835863695403497 
-0,724307496903607 -0,172530357979019 1,6725583533028 0,973128252650205 0,00495335692770471 0,980921655884442 0,847724640671035 1,23563900292229 -1,24089731909889 
-1,13205507188246 0,153838957558777 0,107099971611099 -0,372129187626824 0,658368091871202 -0,995964716186731 1,36314439574915 -0,738391770859431 -0,297831632801253 
-0,648741732187915 0,171300111883925 1,68643790951811 0,250024414910481 -0,449122778814809 0,113049004745227 -0,327783907157734 1,23695947863532 0,0447476526795639 
0,223755747649705 1,30203825778935 -0,504259980984153 0,888659387775073 -0,952433416597747 -0,00472544803085095 -0,377459599985024 -0,0560670186230291 0,927944019110382 
0,0214363248187286 0,0382633968434591 0,782263171464793 1,21383940595427 1,32144544166161 -0,767721058399752 0,634876380211616 -0,619781504846542 1,46653007149581 
0,275411494670162 -0,914471724030781 -1,4676185668626 0,145179522757036 -0,883697892485046 0,110213378322876 0,00342550798059693 -0,155915453636979 -0,322080293354616 
0,125338232030318 0,854311491294909 -0,0169265703376972 -0,989840047429241 0,0163638680318203 0,450577640650132 0,641733455011963 0,331447061771269 0,832932764586496 
0,759473911374562 0,637749382126028 -0,317650627665525 -0,468419051481606 -0,0335069455497461 -0,511242721933519 1,43732260903731 -0,476129077130989 -0,534176921255038 
