-0,105309632190182 -0,453632180963006 0,165511332063708 0,632020519875 -0,158668748642629 0,232519768113978 1,5342153543165 -0,296821505435194 0,599021753109536 
-0,938618720480529 -0,838936092257004 -1,04145145668297 -1,09234055479213 -0,409587609013816 -0,198171124713109 -0,472860877156658 0,0633857366924109 -0,297077226125205 
-1,33145444267544 1,04109339947444 -1,38626043580345 0,0426169322070744 0,805292979723445 0,263686397062934 -0,440475132987124 -1,57651162517607 -0,689686040249507 
-0,0441280415622181 -0,680522334613149 -0,225162950621994 0,513878254631943 1,15627183836292 0,362539941148152 0,573367477834396 -0,669977409611446 -0,645424700177007 
0,440892290063618 -0,0025112816940579 0,962437333521637 -0,499948737617093 0,6684044681808 -0,158880625459776 0,822494957220506 1,33954432872615 -0,793174526557873 
0,879903769703072 -0,0199303234223881 1,23798306454391 -0,590326482239331 -0,706473483274446 1,41111741111712 -0,746719798886552 0,893577285992716 -0,817410064776153 
-0,368481114212648 0,159073435602744 -0,258925160686451 0,901824935000774 -0,620504347137876 0,417842876533439 -0,0777941916365149 1,27134339587872 -1,30929917082204 
-0,86881529626847 0,240503024887528 0,390792069380075 0,982008602168881 0,720291967373477 -0,0466101994023705 0,754253575463897 0,0862468327797237 0,372897018386469 
-0,631682829759867 -0,33966183229846 0,879599696900509 0,909857943319184 0,318780794422506 -0,258271761824503 1,48927153547307 -0,190639655021783 -0,743604898971787 
