-0,750296210460968 -1,0950053927796 0,352435258554032 -1,08449775048322 0,0205583800657458 0,103020499681132 -1,29684793997502 0,087758154476415 1,11355886677492 
-0,330416635936786 -1,46048801943263 0,486770810320401 1,13542611780876 -0,215941218001275 0,849738062289422 -0,918686282783135 -2,36699397121975 0,112028788361712 
1,94803316411098 -0,947164823276533 -0,140122954333258 0,466111707890924 0,402520748215504 0,818948130039008 0,557370533029256 0,293562172876001 0,93887463581696 
0,803530366068487 -0,581731210906399 0,627905702045144 0,200384656526327 -0,0558528877123505 0,868177608525463 -0,252920461177789 1,45224536481464 -0,361699338412238 
-0,120152422748577 1,07779116437248 0,752757411042115 -0,201979767159549 0,527491264756532 -0,21087182928383 0,0410670425799059 -0,877636567632499 0,488475217245741 
-0,930677246908507 -0,83792888551854 0,637427389452899 -0,876804298663886 -0,491052984661447 -0,178553070197605 0,133570693322723 0,526999564328231 0,942917354085444 
-0,170559250070508 -1,52340791835189 0,888473859004897 -0,159512871484977 0,0511317164875249 0,726996207189744 0,164145863864173 0,97862169395649 -0,330510634617186 
0,79265316472978 -0,144801292463113 0,288364868279716 1,31159320179494 -0,997653421013455 0,02481341718408 -1,17456259929834 0,201466139965442 0,327214864407766 
-0,254728622680404 -0,928987068729469 0,218343911966935 -0,929251125049429 -1,26795533468898 -1,105842684152 -0,669527087206732 -0,204952220062237 0,824491058394542 
