-0,146096937599171 -0,68207385626299 -0,200932106562393 0,475665925464903 -1,05926663588279 0,55372076740196 -0,0208380056507129 0,147032283780646 0,004198809914849 
0,191237387802097 -0,0137794770499601 -0,457917566797192 0,396488045061234 -0,771356951338871 -0,506695480494618 0,190226698848524 0,83686438445368 0,632943684702713 
-0,589241063962337 -0,475886691756028 0,246707107520991 -0,56539664956061 -0,197142105814136 -0,491402351060604 0,191179449586281 -0,984732875300447 -1,09427932438686 
1,66183530354539 -0,47178530668457 0,637286473828036 -0,023925942552707 -1,29716659851333 0,71258121686223 1,2791591815884 -1,613416441709 -0,827894834721412 
-0,888895109244108 -1,40324388527043 1,1330841796026 0,534471584267203 -0,12494918971972 -1,32922832997107 -0,895648175801918 -1,4179813888804 0,675952533454612 
-0,0203687339184661 1,73461254568613 0,389648218993399 0,349201965774038 1,5301680927636 -1,67412039453402 -0,740075420467218 0,523273190899879 -0,400715493318027 
-0,945119526850115 0,805299711961439 -0,177931750448855 -0,70952975550179 0,591486475878622 0,232466239417654 -0,737999908211175 0,0103266908039 0,311817590465219 
0,79265316472978 -1,53080129246311 0,288364868279716 1,31159320179494 -0,997653421013455 0,71781341718408 -0,481562599298341 -0,491533860034558 -0,365785135592234 
-0,254728622680404 -0,235987068729469 -0,474656088033065 -0,929251125049429 0,118044665311018 -0,412842684151997 -1,36252708720673 0,488047779937763 0,824491058394542 
