0,674561730434448 -0,0349283074191438 -0,875553849095271 -0,0313906447973059 0,307299853911297 -1,05744826394527 0,888342814175106 1,54221981852931 1,50477614154843 
-0,58866409379461 -0,159049349152506 0,123208957315986 -0,618420039125914 0,687537119285454 0,993481107691527 -0,444797190579026 -0,251028977624154 -1,43778606960959 
-0,166591230098899 -0,270084044263272 -1,47314449951246 1,28203345446523 0,432690259443452 -0,713733371852307 0,54530724768774 0,504086475588422 -0,674873771925864 
-0,794640430153646 0,944815891476262 0,891198073463141 0,583904125241052 0,166694325299791 -0,620433240952172 -0,376694299628816 -0,324549272980331 -0,431789346413123 
-0,326076898410021 -0,590240012370627 1,56359606046909 -0,648569626570013 -0,325143342230536 1,19637993051083 -0,588391695911247 0,166187433137646 -0,885391949329708 
-1,1364069373847 0,902772483370627 0,223714505599213 0,61424554650916 -0,13970945921713 -1,27017732786069 -0,072539150575893 0,861128349430919 -0,360785692339663 
-0,626330601808769 -0,725120683711078 1,07447484109806 1,64096305240503 -0,703040528611299 -0,133963910166623 -0,704849219743558 0,552651897502901 -0,060137122138933 
0,251665621940356 0,38478837785534 0,660775316721189 0,599991594254967 -0,343177447720979 0,636502629908036 -0,973288997702435 0,173801539081056 -0,560120984707084 
-0,41849337956798 -1,48348544531245 -0,521017700210688 -0,0102799588997291 -0,783737491715577 -0,507819341266444 0,196427233142977 -0,579448666866146 -1,33416425423006 
