-0,698552753635939 0,680334664732374 0,216321773755048 -0,193541227757251 0,373813963203604 -0,889852452040581 -1,07473974555998 0,224638788892719 1,28265328316654 -0,250173197417135 
0,820634646257681 1,08426963885094 0,514617940184948 -1,11352850752162 0,86472411947638 0,823954079563708 -0,955560511888731 -0,940144719235201 0,0855654119912375 1,15013004974096 
1,2312836822133 0,240588728623273 0,721002611547244 0,451046284670963 -1,22122866425814 -0,239934925567328 1,64698583912942 1,25722200871828 -0,44205496434218 -0,217951814279869 
-0,0127710335151161 -1,62117487098657 2,37993829237387 0,258811660404229 -1,33307236483091 0,0836933530325505 -0,458229010086613 -0,558494532275244 0,499013852440293 0,638826910876588 
0,102204506160321 0,665050155034312 1,56777564404056 -1,33583756150065 0,951487161834951 1,15583863087317 2,37124156491516 -0,70318414070792 0,249338378487312 0,751981357928357 
-2,10018796186996 -0,532015997698538 0,133079703493546 -2,24558186623621 1,51437089680013 -0,338516272003537 -0,715369273775895 0,93300031588087 0,146635532620193 -0,350915596518161 
-1,38842562854263 -0,143925298538024 -1,4126663272193 -1,50776433939057 0,0558079492425579 0,0558095172442541 -0,29566865352293 0,641806279780719 0,526543857309289 1,08803076644383 
-1,18281691034968 -0,0900659796134879 -0,360158571675494 -1,55326149888535 -0,0310744564193648 0,259233527178985 0,365813084582711 2,36384017304789 0,499559122836012 0,00893270486869502 
0,467823509517509 0,65716997983734 0,00788363023096861 -0,887036322270537 0,189236147590092 0,82624496418342 -0,754254574480119 0,160520158610083 0,437440763604101 0,698443907172626 
