0,902072456619736 -1,07336666222865 0,384046600551832 0,618406868362057 -0,283850522085489 -0,048439789413214 -1,27270328981974 1,22427870843852 1,35328384632956 0,350036915727443 
-0,2676395512636 -0,66634055211504 -0,281238796147629 -0,673125631023723 -0,758130429199958 -0,187361194666643 -0,444586122149874 0,267164724830615 -1,49288965103398 0,143729551296555 
-0,840275464505086 0,919613972268819 1,29775830063445 -0,999519124626889 -0,119767934605371 1,46729931600313 -1,6230133669423 -0,275426557881491 0,45169187497892 0,051547416337089 
-0,391683456843106 -1,18298578427824 -0,743916063450238 0,209505148795203 -0,830301382499887 0,605287029224116 -0,239832408372235 0,679194392487032 -0,211615255666718 0,871217320320298 
0,000332947354918733 -1,60829220990617 -1,56483986598246 0,0756105981187944 0,855105691229042 -1,39244458347719 -0,280489826532774 0,130138562294253 -0,716525658833108 0,258110069617215 
0,869630787460893 -0,373007408982612 -1,56263743617276 -0,0416817713587929 1,35776652289963 0,074833274095242 -0,924423635902081 1,60184089838194 0,23322670684812 -0,093485352799522 
-1,65283908509828 0,20068681232151 -1,2270530860862 1,53810586682945 -0,858489740574029 0,529346233014644 -0,229424488664802 -0,876743944942832 -0,842824248523835 -0,363417458424073 
1,05247121370559 -0,123780514636906 0,171779980497332 0,0218930286457264 -0,856603396058364 -0,924983254598912 0,791453838251277 -0,47085229748434 0,531375184144068 -0,420323351128177 
1,4407891425359 -0,060151929236553 -0,558900899048383 0,500581805361706 0,181916628876196 -0,325676047860494 -0,620348348105489 -1,08823429209144 0,544738625895576 0,787865343404871 
