-1,52154613840047 -0,408885976662806 -1,30147464930661 0,468375401323836 0,349443275816945 -0,308434024131128 0,0473524513874912 -0,0573636978200468 0,0935714107307469 0,18673581248882 
-0,967039950815048 -0,194199483759328 0,004559970635716 -0,943720406826455 -1,18479523973344 0,177517052649761 -1,2260573178516 0,781399055282306 0,146832733949103 0,649601468360332 
0,938949931091606 0,587211875691177 -1,4914654557884 0,686489001701814 1,67594365684639 0,652954228992087 0,651613794743369 -0,146767992128976 -0,23005064290904 -0,248383191995501 
-0,1107058176355 0,44453581926205 0,876408138254847 0,893200344063435 -0,183303081343092 0,575537874165707 0,934337527167675 -0,52370977938348 -0,271654897961605 -0,0307906591476829 
0,245639142867475 0,714186250099068 0,235931219177289 0,532975189808745 -0,552158510103895 -0,672921500947756 -0,730053350203695 -0,846765038485995 0,277777539522749 0,11920298845051 
0,749319826136027 -0,289218396548749 -0,950405500806126 -1,53605013522648 0,805885814678336 0,277241985908357 0,775579479125598 -0,987963651008421 0,485431744477447 0,696489046824858 
0,732952181125503 -0,805879556483533 0,558686945088993 1,34195460272625 -0,00955836987567993 0,974424229922902 -0,070607622014176 -0,581640373427719 0,932582674516636 -0,760333113899144 
-0,370820474517914 1,68365246153188 0,0530539532439103 -0,822376606903214 -0,596037674507144 -0,161236319007462 1,35128065651389 -0,331440645597149 0,931647511805709 0,655865157794145 
-0,191544801844538 1,06895361069588 -0,773686636133905 0,915604442957139 0,0357443350533695 0,644488367086504 0,215404894130493 -1,6131633659751 -0,10653325035541 -0,215615074423428 
