-0,798309632190182 -0,453632180963006 0,165511332063708 -0,060979480125 -0,851668748642629 0,925519768113978 0,148215354316502 -0,989821505435194 0,599021753109536 
-1,63161872048053 -0,145936092257004 -1,04145145668297 -1,09234055479213 0,283412390986184 -0,891171124713109 -1,16586087715666 0,756385736692411 -0,990077226125205 
-1,33145444267544 0,348093399474441 -0,693260435803449 0,735616932207074 1,49829297972345 0,956686397062934 -1,13347513298712 -0,883511625176068 -1,38268604024951 
-0,0441280415622181 0,0124776653868509 0,467837049378006 -0,179121745368057 -0,229728161637079 -0,330460058851848 -0,119632522165604 0,0230225903885539 -0,645424700177007 
-0,252107709936382 0,690488718305942 0,962437333521637 0,193051262382907 1,3614044681808 -0,158880625459776 0,129494957220506 1,33954432872615 -0,793174526557873 
0,186903769703072 -1,40593032342239 -0,148016935456086 -0,590326482239331 -0,0134734832744456 0,0251174111171241 -0,0537197988865521 0,893577285992716 -0,124410064776153 
0,324518885787352 0,159073435602744 0,434074839313549 0,901824935000774 -0,620504347137876 -0,968157123466561 -0,0777941916365149 1,27134339587872 0,076700829177956 
-0,86881529626847 -0,452496975112472 0,390792069380075 0,289008602168881 0,0272919673734771 0,646389800597629 1,4472535754639 0,779246832779724 0,372897018386469 
-1,32468282975987 0,35333816770154 0,879599696900509 0,216857943319184 0,318780794422506 -0,258271761824503 0,796271535473071 -0,883639655021783 0,642395101028213 
