0,674561730434448 -0,0349283074191438 -1,56855384909527 0,661609355202694 0,307299853911297 -0,364448263945267 0,195342814175106 1,54221981852931 0,811776141548425 
-0,58866409379461 -0,159049349152506 0,816208957315986 -0,618420039125914 -0,00546288071454637 0,300481107691527 0,248202809420974 -0,251028977624154 -0,744786069609591 
-0,166591230098899 0,422915955736728 -0,780144499512457 0,58903345446523 -0,953309740556548 -0,713733371852307 0,54530724768774 0,504086475588422 -1,36787377192586 
-1,48764043015365 0,251815891476262 0,198198073463141 -0,109095874758948 0,166694325299791 -0,620433240952172 0,316305700371184 0,368450727019669 0,954210653586877 
-0,326076898410021 0,795759987629373 0,870596060469093 -1,34156962657001 0,367856657769464 -0,189620069489172 0,104608304088753 0,166187433137646 -0,192391949329708 
0,249593062615298 0,209772483370627 -0,469285494400787 -0,0787544534908395 -0,83270945921713 -0,577177327860695 -0,765539150575893 0,168128349430919 0,332214307660337 
-0,626330601808769 -0,725120683711078 -0,311525158901943 0,947963052405027 -0,0100405286112989 0,559036089833377 -0,704849219743558 -0,140348102497099 1,32586287786107 
0,944665621940356 1,07778837785534 -0,0322246832788109 -0,093008405745033 -0,343177447720979 0,636502629908036 -0,280288997702435 0,173801539081056 -0,560120984707084 
-1,11149337956798 -1,48348544531245 -0,521017700210688 -0,703279958899729 -0,783737491715577 -0,507819341266444 0,889427233142977 0,113551333133854 -1,33416425423006 
