-0,234669104793421 0,853198440677113 0,332951148661296 0,749719638260882 -1,1254019464815 -0,123305447629795 -0,513049994075694 -1,44415140795296 0,170949154785811 0,613500460509444 
-1,46093264493716 0,310993065443818 -0,455405543011802 0,577845454019422 -0,909938927697921 0,150418545362269 -0,694689746511024 -0,593958696161378 1,20203340406205 1,59089516753419 
0,801450632420113 -1,30229703228609 -0,347267524966629 -0,0956826128376099 0,650900179357687 0,0202101613489027 -0,723064014559176 -0,790455979197498 -0,26764734148404 -0,185079640036486 
0,226187675830996 1,24111138173012 0,793363246970513 -0,208854787321694 -0,819056796757065 0,0268899083127689 -0,917940917386646 0,891887044483743 -1,43317282470138 0,994154247159676 
-0,91975471373636 0,668415425190896 -0,539736563763924 0,205333663073524 -0,15124879953463 0,306163057361805 0,362239523200895 0,564103979414377 -0,0433448883906682 0,322138419697591 
1,00204041384768 -0,221822124836418 -0,539181578689805 0,0337907052756243 -0,5450555313919 0,435960682484769 0,712061094917385 0,874053291917803 0,0637397547549288 -0,95980450881636 
-0,2837584878573 -0,155523743087204 -0,596048611959465 0,781629258372183 -1,33314305157594 -0,86716337123288 -0,731185723902278 -0,092067565639069 -0,084709014955772 -0,410945323021591 
0,198660441008238 -1,57514666390892 -0,603276812286711 -0,2727011329968 0,00232435343895321 -0,866964792770783 0,930439531477839 -0,245601188040153 1,13456618669702 -0,655262878004118 
-1,34202936185199 -0,287167993973553 0,94588890919317 -0,896785761181631 -0,801120053884164 0,834009800667413 0,780292960419922 -0,933427458305111 -0,663799255929794 0,437982520758166 
