-0,750296210460968 -0,402005392779599 -1,03356474144597 -0,391497750483219 0,0205583800657458 0,103020499681132 0,089152060024977 0,087758154476415 0,420558866774924 
0,362583364063214 -0,76748801943263 0,486770810320401 0,442426117808757 -0,908941218001275 0,849738062289422 -1,61168628278313 -1,67399397121975 -0,580971211638288 
1,25503316411098 -1,64016482327653 0,552877045666742 0,466111707890924 0,402520748215504 0,818948130039008 0,557370533029256 0,293562172876001 2,32487463581696 
0,110530366068487 0,804268789093601 -0,065094297954856 0,200384656526327 0,637147112287649 1,56117760852546 -0,252920461177789 0,066245364814645 -0,361699338412238 
-0,120152422748577 -0,308208835627515 0,0597574110421153 -0,201979767159549 0,527491264756532 -0,21087182928383 0,0410670425799059 -0,184636567632499 0,488475217245741 
-0,930677246908507 -0,14492888551854 1,3304273894529 -1,56980429866389 -0,491052984661447 0,514446929802395 0,826570693322723 -0,166000435671769 0,249917354085444 
1,21544074992949 -1,52340791835189 0,888473859004897 -0,852512871484977 -0,641868283512475 0,0339962071897444 -1,22185413613583 0,97862169395649 -1,02351063461719 
0,79265316472978 -0,837801292463113 0,288364868279716 0,618593201794938 -0,997653421013455 1,41081341718408 -1,17456259929834 0,201466139965442 0,327214864407766 
-0,947728622680404 -0,235987068729469 0,218343911966935 -0,929251125049429 0,118044665311018 -1,105842684152 -1,36252708720673 -0,204952220062237 0,824491058394542 
