-0,828546138400466 -0,408885976662806 0,084525350693392 0,468375401323836 -0,343556724183055 0,384565975868872 0,0473524513874912 -0,750363697820047 -0,599428589269253 0,87973581248882 
-0,967039950815048 -0,194199483759328 -1,38144002936428 -0,943720406826455 -0,491795239733437 0,177517052649761 -1,2260573178516 1,47439905528231 0,146832733949103 0,649601468360332 
-0,447050068908394 -0,105788124308823 -1,4914654557884 0,686489001701814 0,289943656846389 -0,040045771007913 -0,0413862052566307 -0,839767992128976 -0,92305064290904 -0,248383191995501 
-0,1107058176355 -0,24846418073795 0,876408138254847 0,200200344063435 -0,183303081343092 1,26853787416571 0,241337527167675 -0,52370977938348 -0,271654897961605 0,662209340852317 
0,245639142867475 1,40718625009907 0,235931219177289 -0,853024810191255 0,140841489896105 -0,672921500947756 -0,730053350203695 -0,153765038485995 0,277777539522749 -0,57379701154949 
1,44231982613603 -0,289218396548749 -0,950405500806126 -0,843050135226478 -0,580114185321664 0,277241985908357 0,775579479125598 0,398036348991579 0,485431744477447 0,00348904682485807 
1,4259521811255 -0,112879556483533 -0,827313054911007 0,648954602726248 -0,70255836987568 0,281424229922902 -0,763607622014176 0,111359626572281 0,932582674516636 0,625666886100856 
-0,370820474517914 0,990652461531876 0,74605395324391 -0,822376606903214 -0,596037674507144 0,531763680992538 0,658280656513889 1,05455935440285 0,238647511805709 1,34886515779414 
-0,191544801844538 0,375953610695877 -0,773686636133905 -0,470395557042861 -0,65725566494663 0,644488367086504 0,215404894130493 -0,227163365975098 -0,10653325035541 -0,215615074423428 
