0,219558401601183 0,46571950217044 -0,618552593336698 0,516100085115107 0,0905637581458151 1,2677231056796 -0,037253010862625 -0,810429551257486 -1,25586164911597 
-1,56655147389395 0,253654793488632 -1,3749789920384 -0,502592112637401 -0,706881806117893 -0,195899669930758 -0,821118619848098 -0,080546695310877 0,857224864818726 
-0,282596580643019 0,226411955709295 0,141422129767678 0,558759905830845 -0,454547937412536 -0,298163428282907 0,750877215410991 -0,120614082142997 -0,0154410065223654 
-0,945123100627737 0,104616861666374 0,222033093614053 0,539801410823502 0,945677172367311 0,594146637057023 -0,0854834388408268 0,866836566416005 -1,55702298690007 
0,110705569903695 0,72713317802508 -0,960618321765502 -0,602497379110426 0,271005942146762 0,938373249926778 -0,321265729466577 0,254253721448711 -0,871750317454222 
-1,15345259174912 0,631430270909998 -1,18149033074849 -0,666719117977991 -0,117447476423088 0,321436163653357 -1,34796825969544 -0,311434645523519 -0,973043040359878 
1,61743599175868 0,0467984957703379 -1,46573256041702 -0,706389165053791 1,45822286970412 0,597177840288811 -0,409835887798032 -0,785129910234888 0,777953587076139 
-1,17089474273002 0,27964711528255 0,307977621121322 -0,276125629095419 0,582891326203426 -0,573718372533898 1,66812331696931 0,761175810248207 0,885320126664043 
0,817843186584228 0,626900798467407 0,262406013562533 0,2030488798409 0,494025635297422 0,291198341138753 0,266586889171315 0,90432980716011 0,940955646947006 
