-0,146096937599171 -0,68207385626299 -0,893932106562393 -0,910334074535097 -1,05926663588279 1,24672076740196 0,672161994349287 0,840032283780646 0,004198809914849 
1,5772373878021 -0,70677947704996 0,235082433202808 1,08948804506123 -0,771356951338871 0,186304519505382 0,190226698848524 0,83686438445368 -0,0600563152972869 
-0,589241063962337 -0,475886691756028 -0,446292892479009 -0,56539664956061 -0,197142105814136 -0,491402351060604 0,191179449586281 -0,291732875300447 -1,09427932438686 
0,968835303545387 -0,47178530668457 0,637286473828036 -0,716925942552707 -1,29716659851333 0,71258121686223 0,5861591815884 -0,227416441708997 -0,827894834721412 
0,497104890755892 -1,40324388527043 0,440084179602602 0,534471584267203 -1,51094918971972 -0,636228329971073 -0,202648175801918 -1,4179813888804 0,675952533454612 
-0,713368733918466 1,73461254568613 0,389648218993399 0,349201965774038 1,5301680927636 -1,67412039453402 -1,43307542046722 -0,169726809100121 -0,400715493318027 
-1,63811952685011 0,112299711961439 0,515068249551145 -1,40252975550179 -0,101513524121378 0,925466239417654 -0,0449999082111753 0,0103266908039 -0,381182409534781 
0,09965316472978 -1,53080129246311 0,981364868279716 -0,0744067982050619 -1,69065342101345 0,71781341718408 -0,481562599298341 -0,491533860034558 -1,05878513559223 
-0,254728622680404 -0,235987068729469 -1,16765608803306 -0,236251125049429 0,118044665311018 -0,412842684151997 -0,669527087206732 0,488047779937763 0,824491058394542 
