0,235863056609343 -0,16958113814219 0,542854670222315 0,0681589679178591 0,615148034698864 0,477658726031733 0,339518933249414 -1,6031954018279 0,458431202666103 -0,87363378045784 
-1,61442377510733 0,492736150274396 0,385526640692971 0,578233879794475 0,203482037039233 -0,682645154676235 -0,195797832015342 0,089621490082062 -0,055129410551921 0,70427637224797 
-0,978100471188361 0,638685530814662 -0,427894049057688 -0,0100016201096591 -0,600653822986248 0,182402468837054 0,43546911302743 -1,29481930083866 -0,256169453848232 1,50503522151896 
0,736624155070923 0,400856913719725 0,592431184645943 1,03039029957791 0,767562451371254 -0,29333431549479 0,135065036423069 0,443179264112459 -0,0678365434039551 -0,18758529636943 
-0,329358980678655 -0,766440730140284 1,68514643798403 -0,177632764530197 0,252870836878601 -1,3528033856879 0,0669472706815915 -1,63348449766845 -0,828132664704757 0,521226103194629 
0,469290886465596 -0,21486421201558 -0,200547980410768 -0,180405449378959 -1,24907645006668 -0,095822474205318 -0,741687089084502 0,245856290331975 1,66881279090411 -0,567254434138189 
-0,957810386995697 0,634338234088075 0,345974052020336 1,33939598114714 -1,30325793552876 -1,01528068882706 0,900304965628453 -0,337863658884942 0,196671428423222 0,189816352534022 
0,875289808900696 -0,252977096127801 -0,842541966513983 -0,253544114182491 -0,659364647073375 0,095340258951923 0,646539092830633 0,749738715472509 0,0441275430117396 -0,940850437298347 
-0,309992420804218 -0,194621166770636 -0,117545531651725 1,34374636864045 0,00229698186847238 -1,51448742108675 -0,991058679931824 1,41245827348132 -1,6056854706149 -0,846545067251448 
