0,595750128662097 -0,653157067030741 0,951998336218297 -0,339896132862147 0,820644318973946 0,690319147455189 0,758011467349255 -0,115321230662671 1,5288636954035 
-0,724307496903607 -0,172530357979019 0,979558353302795 0,973128252650205 0,00495335692770471 0,287921655884442 0,847724640671035 1,23563900292229 -1,24089731909889 
0,253944928117536 0,153838957558777 1,4930999716111 -0,372129187626824 -0,0346319081287979 -1,68896471618673 0,670144395749152 -0,738391770859431 -0,297831632801253 
-0,648741732187915 -0,521699888116075 0,993437909518107 -1,13597558508952 -1,14212277881481 0,113049004745227 -0,327783907157734 0,543959478635322 0,0447476526795639 
0,916755747649705 0,60903825778935 -0,504259980984153 0,888659387775073 -1,64543341659775 -0,00472544803085095 0,315540400014976 -0,0560670186230291 0,927944019110382 
-0,671563675181271 0,731263396843459 0,0892631714647929 1,21383940595427 0,62844544166161 -0,0747210583997523 -0,0581236197883839 0,073218495153458 0,773530071495813 
0,275411494670162 -0,914471724030781 -0,0816185668625961 -0,547820477242964 -1,57669789248505 0,803213378322876 0,00342550798059693 -0,848915453636979 -0,322080293354616 
0,818338232030318 0,854311491294909 0,676073429662303 -1,68284004742924 0,70936386803182 -0,242422359349868 -0,744266544988037 0,331447061771269 0,832932764586496 
0,759473911374562 -0,0552506178739719 -0,317650627665525 -0,468419051481606 -1,41950694554975 -0,511242721933519 0,744322609037311 -1,16912907713099 -1,22717692125504 
