-0,698552753635939 1,37333466473237 0,909321773755048 -1,57954122775725 -0,319186036796396 -0,889852452040581 -0,381739745559981 0,917638788892719 0,589653283166538 0,442826802582865 
-0,9606395512636 -0,66634055211504 -0,281238796147629 0,0198743689762769 -0,758130429199958 -0,187361194666643 -0,444586122149874 0,267164724830615 -0,799889651033976 0,836729551296555 
-1,53327546450509 0,919613972268819 1,29775830063445 -0,999519124626889 -0,119767934605371 0,081299316003127 -0,9300133669423 0,417573442118509 1,14469187497892 1,43754741633709 
-1,34009310496556 2,02050169732538 -0,623849693510611 -0,125648430141457 0,577504472317409 -0,276747091043623 0,371747731577022 -0,65495639435293 0,122049850934208 0,53464545101609 
-0,777454126229721 -0,090647947258152 -0,378757395492288 -0,289050695448206 0,690380092566079 0,763437407912424 1,03703132337333 -0,769168165404894 0,05922542253054 -0,377573514705791 
-0,895010818385524 0,899064562874876 0,242336377787095 -0,675373873229313 0,65235649871284 -0,190834123902877 -0,082965246613121 1,19216227790488 0,629224372855026 0,00183164252565793 
-0,217962566398998 -0,184314927637724 1,34180523319347 -0,302412254118087 -0,821577965837241 -1,3942219641829 0,98642090334856 0,960151819493692 1,55613463089202 0,158550389943435 
0,356546093410135 -0,032336905786459 0,20733798880984 -0,598354086092838 1,62203834671203 -0,201599963568896 0,486190603513825 0,265036116650345 -0,990506232711722 -0,0575557216338607 
-1,30424166083114 0,232677906394321 -0,503649613588885 0,106132963894463 -1,62455254391141 0,839842332159561 0,0851653195382867 -1,0274758202813 -0,471004928854297 -0,310661403779714 
