-0,0572962104609684 -0,402005392779599 -0,340564741445968 0,301502249516781 -0,672441619934254 -0,589979500318868 0,0891520600249767 1,47375815447641 0,420558866774924 
1,05558336406321 -0,0744880194326341 0,486770810320401 1,13542611780876 1,17005878199872 0,849738062289422 -0,225686282783135 -0,287993971219749 0,112028788361712 
1,25503316411098 -0,254164823276533 -0,140122954333258 -0,226888292109076 -0,290479251784496 0,125948130039008 0,557370533029256 0,986562172876001 0,245874635816959 
0,803530366068487 -0,581731210906399 1,32090570204514 0,200384656526327 1,33014711228765 0,868177608525463 -0,252920461177789 0,066245364814645 -0,361699338412238 
-1,50615242274858 1,07779116437248 -0,633242588957885 -0,201979767159549 0,527491264756532 1,17512817071617 -0,651932957420094 0,508363432367501 0,488475217245741 
0,455322753091493 -0,14492888551854 2,0234273894529 -0,87680429866389 0,894947015338553 -0,178553070197605 0,82657069332272 -0,859000435671769 0,942917354085444 
0,522440749929492 -0,830407918351892 0,888473859004897 0,533487128515023 1,43713171648752 -0,659003792810256 -0,528854136135827 1,67162169395649 -0,330510634617186 
1,75914966478066 0,163671156002055 1,47319262560652 0,28680675507421 -0,71328326487601 1,95726698809269 0,24227823374899 0,623659825708559 -0,180991382249627 
-0,128465287274432 0,671470937804538 1,32702872143035 -0,342279689718634 -0,196304118524913 -0,157547597381076 0,17862774271035 0,862210347252996 -0,946891412114208 
