-0,828546138400466 0,284114023337194 -1,30147464930661 0,468375401323836 -1,03655672418305 -1,00143402413113 0,740352451387491 -0,750363697820047 -0,599428589269253 0,18673581248882 
-0,967039950815048 -1,58019948375933 0,004559970635716 -1,63672040682645 0,201204760266563 0,870517052649761 -0,533057317851604 0,781399055282306 0,146832733949103 -0,0433985316396684 
-0,447050068908394 -0,798788124308823 -0,798465455788404 0,686489001701814 0,289943656846389 1,34595422899209 -0,734386205256631 -0,839767992128976 -0,92305064290904 -0,248383191995501 
-0,8037058176355 0,44453581926205 0,183408138254847 -0,492799655936565 -0,183303081343092 0,575537874165707 0,934337527167675 -1,21670977938348 0,421345102038395 -0,723790659147683 
-0,447360857132525 0,021186250099068 0,235931219177289 -0,853024810191255 -1,2451585101039 -0,672921500947756 -0,730053350203695 -0,846765038485995 1,66377753952275 -1,26679701154949 
0,749319826136027 -0,982218396548749 -1,64340550080613 -0,843050135226478 -0,580114185321664 0,277241985908357 0,775579479125598 -0,294963651008421 1,17843174447745 0,696489046824858 
0,039952181125503 -0,112879556483533 -0,827313054911007 0,648954602726248 -0,00955836987567993 0,974424229922902 -0,763607622014176 0,111359626572281 0,932582674516636 -0,067333113899144 
-0,370820474517914 0,297652461531876 0,74605395324391 -0,822376606903214 -0,596037674507144 0,531763680992538 -0,0347193434861109 0,361559354402851 -0,454352488194291 1,34886515779414 
-0,191544801844538 0,375953610695877 -0,773686636133905 -0,470395557042861 -0,65725566494663 0,644488367086504 0,215404894130493 -0,227163365975098 -0,10653325035541 0,477384925576572 
