-1,02381276776773 -0,100805897778275 -0,226460411146032 -0,66058439035089 -0,261905725994569 -0,569750511818449 -0,970794859328677 0,549297953745955 0,38830934436447 -1,98114023531002 
0,296766628476682 1,49505542584977 0,703990939280945 0,154589638358722 -0,811131588095395 0,266227387481475 0,955804193078915 1,76816559094478 -0,1073121142007 0,38604552828988 
-0,323709848021953 0,14275152382569 0,692934994442824 0,794764424578643 -0,303919788418766 0,957673336997942 -0,167592825618849 -0,791589133982821 -0,829732460821854 0,867679851706456 
1,35787635004561 0,102042700677199 -1,33604321615167 -0,465066107672204 0,181549601514148 -0,00897018687705009 -2,00133168685405 0,175703113514792 -0,00256711972484702 0,409184102625206 
-0,316596240418309 -0,127939121684497 0,082571814340806 -0,623151056931424 1,41670295958766 0,02584540426072 1,10254366764498 0,849071345860172 -0,198988617024845 0,953981114529996 
-0,146081376716067 -0,141074937661213 -1,66228341219634 -0,786554277482235 -0,00822009222452502 0,526435708406584 0,899259107778901 -0,714224835724675 0,029335398067876 -1,60557906299251 
-0,788157686199601 0,127794274654144 0,379030414567809 -0,786370507341982 -0,260016585355632 0,580723927799484 0,44509864200144 1,47605704695315 0,280040036844574 0,890838598781656 
-0,118440925664474 -0,912898920435877 0,077732710669624 -0,823496216825906 0,395641768708193 -0,502770726337457 -0,246820290515116 -0,376913948625752 -1,62193853500902 -0,0227651926794858 
0,855129669352961 0,06233582852098 -1,59260051695798 -1,47671357535185 0,0137612284225229 0,498951287706826 0,764326112873538 0,450511061330564 -0,763846015447679 -0,0378861068924359 
