-0,798309632190182 0,932367819036994 -0,527488667936292 0,632020519875 -0,158668748642629 1,61851976811398 0,148215354316502 -0,296821505435194 -0,093978246890464 
-1,63161872048053 -0,838936092257004 -0,348451456682967 -1,09234055479213 0,976412390986184 -0,198171124713109 0,220139122843342 0,756385736692411 0,395922773874795 
0,0545455573245629 -0,344906600525559 -0,000260435803449033 0,0426169322070744 0,805292979723445 1,64968639706293 -1,13347513298712 -0,883511625176068 0,00331395975049298 
-1,43012804156222 -0,680522334613149 -0,225162950621994 0,513878254631943 -0,229728161637079 1,05553994114815 -0,119632522165604 -1,36297740961145 -0,645424700177007 
0,440892290063618 0,690488718305942 0,962437333521637 0,886051262382907 1,3614044681808 0,534119374540224 0,822494957220506 0,64654432872615 -0,793174526557873 
0,879903769703072 -1,40593032342239 0,544983064543914 0,102673517760669 -0,706473483274446 0,0251174111171241 -0,746719798886552 0,200577285992716 -0,124410064776153 
-1,06148111421265 1,54507343560274 -0,258925160686451 0,208824935000774 0,765495652862124 -0,968157123466561 0,615205808363485 1,27134339587872 0,076700829177956 
-1,56181529626847 -0,452496975112472 -0,302207930619925 0,289008602168881 0,720291967373477 0,646389800597629 0,754253575463897 0,0862468327797237 -0,320102981613531 
0,433485440353158 0,168494294941655 1,37268893129364 1,15862018965633 0,220121974986569 -0,148251349002706 0,749860923620807 1,0656210973098 1,52241869824632 
