0,235863056609343 -0,16958113814219 -0,150145329777685 0,0681589679178591 0,615148034698864 0,477658726031733 0,339518933249414 -1,6031954018279 0,458431202666103 -0,18063378045784 
-0,228423775107331 0,492736150274396 -1,00047335930703 -0,114766120205525 0,896482037039233 0,0103548453237652 -0,195797832015342 0,089621490082062 -0,055129410551921 0,0112763722479698 
-0,978100471188361 0,638685530814662 -1,12089404905769 -0,0100016201096591 0,785346177013752 0,182402468837054 1,12846911302743 0,091180699161338 0,436830546151768 0,812035221518965 
0,0436241550709231 0,400856913719725 0,592431184645943 1,03039029957791 0,0745624513712537 -1,67933431549479 0,828065036423069 -0,249820735887541 -0,760836543403955 1,19841470363057 
-0,329358980678655 -0,0734407301402841 0,992146437984028 0,515367235469803 -0,440129163121399 -0,6598033856879 0,0669472706815915 -0,247484497668447 -0,828132664704757 1,21422610319463 
0,469290886465596 -0,21486421201558 0,492452019589232 1,20559455062104 -1,24907645006668 0,597177525794682 -1,4346870890845 -0,447143709668025 1,66881279090411 -0,567254434138189 
-0,264810386995697 -0,0586617659119245 0,345974052020336 0,646395981147138 -0,610257935528764 -1,01528068882706 0,900304965628453 -0,337863658884942 0,196671428423222 0,882816352534022 
0,875289808900696 -0,252977096127801 -0,842541966513983 -0,253544114182491 -0,659364647073375 -0,597659741048077 1,33953909283063 0,0567387154725091 0,0441275430117396 -0,247850437298347 
-0,309992420804218 -0,194621166770636 -0,117545531651725 0,65074636864045 0,00229698186847238 -1,51448742108675 -0,991058679931824 1,41245827348132 -0,219685470614901 -0,846545067251448 
