-0,105309632190182 0,932367819036994 -0,527488667936292 -0,060979480125 -0,851668748642629 1,61851976811398 0,841215354316502 -0,989821505435194 0,599021753109536 
-0,245618720480529 -0,145936092257004 0,344548543317033 -1,09234055479213 0,976412390986184 -0,198171124713109 -0,472860877156658 0,756385736692411 0,395922773874795 
-0,638454442675437 0,348093399474441 -1,38626043580345 0,0426169322070744 0,805292979723445 1,64968639706293 -1,13347513298712 -0,190511625176068 -0,689686040249507 
-0,0441280415622181 0,0124776653868509 -0,225162950621994 -0,872121745368057 -0,229728161637079 -0,330460058851848 -0,119632522165604 -0,669977409611446 -0,645424700177007 
-0,252107709936382 0,690488718305942 0,962437333521637 0,886051262382907 0,6684044681808 -0,158880625459776 0,822494957220506 0,64654432872615 -0,793174526557873 
0,879903769703072 -0,0199303234223881 1,23798306454391 0,102673517760669 -0,0134734832744456 0,0251174111171241 -0,746719798886552 0,893577285992716 -0,817410064776153 
-1,06148111421265 0,159073435602744 0,434074839313549 0,208824935000774 0,0724956528621239 -0,275157123466561 1,30820580836349 0,578343395878721 -0,616299170822044 
-1,56181529626847 -0,452496975112472 -0,302207930619925 0,289008602168881 0,720291967373477 -0,0466101994023705 0,0612535754638971 0,0862468327797237 1,06589701838647 
-1,32468282975987 0,35333816770154 0,879599696900509 -0,476142056680816 1,01178079442251 -0,951271761824503 0,103271535473071 -0,883639655021783 0,642395101028213 
