-1,39155275363594 0,680334664732374 0,216321773755048 -0,886541227757251 -0,319186036796396 -1,58285245204058 -1,07473974555998 0,224638788892719 1,28265328316654 -0,250173197417135 
-0,2676395512636 0,02665944788496 -0,281238796147629 -0,673125631023723 -1,45113042919996 -1,57336119466664 -0,444586122149874 1,65316472483061 -0,106889651033976 0,143729551296555 
-0,840275464505086 0,919613972268819 1,29775830063445 -0,999519124626889 -0,119767934605371 0,081299316003127 -0,9300133669423 -0,275426557881491 0,45169187497892 1,43754741633709 
-0,647093104965562 1,32750169732538 -1,31684969351061 -0,125648430141457 -0,808495527682591 -0,969747091043623 -0,321252268422978 0,0380436056470701 0,122049850934208 1,22764545101609 
-0,0844541262297211 0,602352052741848 0,314242604507712 -0,289050695448206 1,38338009256608 0,763437407912424 1,03703132337333 -1,46216816540489 0,05922542253054 -0,377573514705791 
-0,202010818385524 0,206064562874876 0,935336377787095 0,0176261267706874 0,65235649871284 0,502165876097123 0,610034753386879 0,49916227790488 1,32222437285503 -0,691168357474342 
-0,217962566398998 -0,877314927637724 0,648805233193471 0,390587745881913 -1,51457796583724 -0,701221964182901 1,67942090334856 0,267151819493692 1,55613463089202 0,158550389943435 
-0,336453906589865 0,660663094213541 0,20733798880984 -0,598354086092838 1,62203834671203 0,491400036431104 1,17919060351382 -0,427963883349655 -0,297506232711722 -0,0575557216338607 
-0,61124166083114 0,232677906394321 -0,503649613588885 0,106132963894463 -0,931552543911409 -0,546157667840439 0,0851653195382867 0,358524179718701 -1,1640049288543 1,07533859622029 
