-0,828546138400466 0,284114023337194 -1,30147464930661 0,468375401323836 -1,03655672418305 0,384565975868872 -0,645647548612509 -0,750363697820047 -1,29242858926925 1,57273581248882 
-0,967039950815048 -0,887199483759328 -0,688440029364284 -0,943720406826455 -0,491795239733437 0,177517052649761 -0,533057317851604 0,0883990552823061 -0,546167266050897 -0,0433985316396684 
-0,447050068908394 -0,798788124308823 -0,105465455788404 0,686489001701814 0,982943656846389 0,652954228992087 -0,734386205256631 0,546232007871024 -0,92305064290904 -0,248383191995501 
0,5822941823645 0,44453581926205 1,56940813825485 0,200200344063435 -0,876303081343092 0,575537874165707 0,934337527167675 -0,52370977938348 -0,271654897961605 -0,0307906591476829 
-1,14036085713253 0,021186250099068 0,235931219177289 -0,160024810191255 -0,552158510103895 -0,672921500947756 -0,037053350203695 -0,846765038485995 0,277777539522749 -1,26679701154949 
1,44231982613603 -0,982218396548749 -1,64340550080613 -1,53605013522648 0,112885814678336 -0,415758014091643 0,0825794791255983 0,398036348991579 1,17843174447745 -0,689510953175142 
0,732952181125503 -0,805879556483533 -0,827313054911007 0,648954602726248 -0,70255836987568 0,974424229922902 -0,763607622014176 0,111359626572281 0,932582674516636 -0,760333113899144 
-0,370820474517914 0,990652461531876 0,0530539532439103 -0,822376606903214 -1,28903767450714 -0,161236319007462 1,35128065651389 1,05455935440285 0,931647511805709 -0,0371348422058549 
-0,884544801844538 0,375953610695877 -1,4666866361339 -0,470395557042861 0,728744335053369 0,644488367086504 0,215404894130493 -0,920163365975098 -0,79953325035541 1,17038492557657 
