-1,52154613840047 0,284114023337194 -0,608474649306608 0,468375401323836 -1,03655672418305 -1,00143402413113 0,0473524513874912 0,635636302179953 0,0935714107307469 1,57273581248882 
-0,274039950815048 -1,58019948375933 -0,688440029364284 -1,63672040682645 0,201204760266563 1,56351705264976 0,159942682148396 1,47439905528231 0,146832733949103 0,649601468360332 
-0,447050068908394 -0,105788124308823 -1,4914654557884 1,37948900170181 0,289943656846389 1,34595422899209 -0,0413862052566307 -0,146767992128976 -0,92305064290904 0,444616808004499 
-0,1107058176355 -0,24846418073795 0,876408138254847 0,200200344063435 -1,56930308134309 1,26853787416571 0,241337527167675 0,16929022061652 -0,964654897961605 0,662209340852317 
-1,14036085713253 0,021186250099068 0,235931219177289 -0,853024810191255 0,140841489896105 -0,672921500947756 -1,42305335020369 -0,846765038485995 1,66377753952275 -0,57379701154949 
0,749319826136027 -0,289218396548749 -0,950405500806126 -0,843050135226478 0,112885814678336 0,277241985908357 0,0825794791255983 -0,294963651008421 0,485431744477447 -0,689510953175142 
0,732952181125503 -0,112879556483533 -0,134313054911007 0,648954602726248 -0,00955836987567993 0,974424229922902 -1,45660762201418 0,111359626572281 0,932582674516636 -0,067333113899144 
-1,06382047451791 0,990652461531876 0,0530539532439103 -0,822376606903214 -0,596037674507144 0,531763680992538 0,658280656513889 0,361559354402851 -0,454352488194291 1,34886515779414 
-0,884544801844538 0,375953610695877 -0,773686636133905 0,915604442957139 0,728744335053369 1,3374883670865 0,215404894130493 -0,227163365975098 -0,10653325035541 -0,215615074423428 
