0,235863056609343 -0,86258113814219 -0,150145329777685 -0,624841032082141 1,30814803469886 0,477658726031733 -0,353481066750586 -0,910195401827896 1,1514312026661 -0,87363378045784 
-1,61442377510733 0,492736150274396 -0,307473359307029 1,27123387979448 0,203482037039233 0,703354845323765 -0,195797832015342 -0,603378509917938 -0,748129410551921 0,70427637224797 
-1,67110047118836 0,638685530814662 0,265105950942312 -1,39600162010966 0,0923461770137521 0,875402468837054 1,12846911302743 -1,29481930083866 -0,949169453848232 0,812035221518965 
0,736624155070923 1,09385691371972 0,592431184645943 1,03039029957791 -0,618437548628746 -0,98633431549479 -0,557934963576931 -0,942820735887541 -0,760836543403955 0,50541470363057 
-1,02235898067865 -0,766440730140284 0,299146437984028 0,515367235469803 -0,440129163121399 0,0331966143121 -0,626052729318409 -1,63348449766845 -1,52113266470476 0,521226103194629 
0,469290886465596 -1,60086421201558 1,18545201958923 -0,180405449378959 0,136923549933323 -0,095822474205318 -1,4346870890845 0,245856290331975 0,282812790904107 -0,567254434138189 
-1,6508103869957 -0,751661765911924 -0,347025947979664 0,646395981147138 -0,610257935528764 -0,322280688827057 1,59330496562845 1,04813634111506 -0,496328571576778 0,189816352534022 
0,875289808900696 -0,252977096127801 -0,842541966513983 -0,946544114182491 -0,659364647073375 -0,597659741048077 -0,0464609071693669 1,44273871547251 0,0441275430117396 -0,247850437298347 
0,383007579195782 0,498378833229364 -0,117545531651725 1,34374636864045 0,00229698186847238 -0,821487421086751 -0,298058679931824 1,41245827348132 -0,912685470614901 -0,153545067251448 
