-0,0572962104609684 0,290994607220401 -1,03356474144597 -1,08449775048322 0,0205583800657458 -0,589979500318868 0,0891520600249767 0,780758154476415 1,11355886677492 
-0,330416635936786 -0,767488019432634 0,486770810320401 0,442426117808757 1,17005878199872 0,849738062289422 -0,918686282783135 -0,980993971219749 -0,580971211638288 
0,562033164110981 -0,947164823276533 -0,140122954333258 -0,226888292109076 -0,983479251784496 0,818948130039008 0,557370533029256 1,679562172876 1,63187463581696 
0,803530366068487 0,111268789093601 1,32090570204514 0,200384656526327 0,637147112287649 0,868177608525463 -0,252920461177789 0,759245364814645 0,331300661587762 
0,572847577251423 0,384791164372485 0,752757411042115 -0,201979767159549 0,527491264756532 -0,21087182928383 -0,651932957420094 -0,877636567632499 1,18147521724574 
0,455322753091493 -1,53092888551854 0,637427389452899 -1,56980429866389 0,201947015338553 -0,178553070197605 0,133570693322723 0,526999564328231 -0,443082645914556 
1,21544074992949 -0,137407918351892 1,5814738590049 0,533487128515023 -0,641868283512475 0,0339962071897444 -0,528854136135827 0,28562169395649 -0,330510634617186 
-0,247087663913186 0,522163330354804 -0,488612878536625 -0,0914987836594221 1,50332886347283 -0,850940509629874 -0,678800645773206 1,46512180809263 -0,145891730275886 
-0,19314049489989 0,56928735177046 0,728062497963692 -0,117064562507935 -0,66974847375869 -1,16516071693374 -0,78135488451522 -0,0954518164952529 0,359654579013425 
