-0,234669104793421 1,54619844067711 1,0259511486613 1,44271963826088 -0,432401946481504 0,569694552370205 -0,513049994075694 -1,44415140795296 -0,522050845214189 -0,0794995394905561 
-1,46093264493716 -0,382006934556182 0,237594456988198 -0,115154545980578 -0,909938927697921 -1,23558145463773 -0,00168974651102427 -0,593958696161378 0,509033404062052 0,897895167534191 
0,108450632420113 -0,609297032286086 0,345732475033371 0,59731738716239 -0,042099820642313 0,0202101613489027 -0,723064014559176 -0,790455979197498 -0,26764734148404 0,507920359963514 
0,226187675830996 1,24111138173012 0,793363246970513 -0,208854787321694 -0,819056796757065 -0,666110091687231 -0,917940917386646 0,891887044483743 -0,740172824701375 0,301154247159676 
-0,22675471373636 1,3614154251909 0,153263436236076 0,205333663073524 -0,84424879953463 0,306163057361805 -0,330760476799105 0,564103979414377 -0,0433448883906682 -0,370861580302409 
0,309040413847678 -0,914822124836418 -1,2321815786898 0,0337907052756243 0,1479444686081 -0,950039317515231 1,40506109491738 0,181053291917803 0,0637397547549288 -0,95980450881636 
0,4092415121427 0,537476256912796 -1,28904861195947 0,0886292583721826 0,052856948424064 -0,86716337123288 -1,42418572390228 -1,47806756563907 0,608290985044228 0,282054676978409 
-0,494339558991762 -0,882146663908915 -0,603276812286711 -1,6587011329968 -0,690675646561047 -0,866964792770783 0,930439531477839 0,447398811959847 0,44156618669702 -1,34826287800412 
0,0439706381480069 -0,287167993973553 0,25288890919317 -0,896785761181631 -0,801120053884164 0,141009800667413 0,0872929604199217 -0,240427458305111 -0,663799255929794 1,13098252075817 
