0,235863056609343 -0,86258113814219 -0,150145329777685 0,0681589679178591 1,30814803469886 -0,215341273968267 0,339518933249414 -0,217195401827896 0,458431202666103 -0,87363378045784 
-0,228423775107331 1,1857361502744 0,385526640692971 -0,114766120205525 0,896482037039233 0,0103548453237652 0,497202167984658 0,089621490082062 -0,055129410551921 0,0112763722479698 
-1,67110047118836 0,638685530814662 -0,427894049057688 -0,0100016201096591 -0,600653822986248 0,875402468837054 1,12846911302743 -0,601819300838662 0,436830546151768 1,50503522151896 
0,0436241550709231 0,400856913719725 0,592431184645943 1,03039029957791 0,0745624513712537 -0,98633431549479 0,135065036423069 -0,249820735887541 -0,0678365434039551 0,50541470363057 
0,363641019321345 -0,0734407301402841 0,992146437984028 -0,870632764530197 0,252870836878601 -0,6598033856879 0,0669472706815915 -0,940484497668447 -1,52113266470476 0,521226103194629 
-0,223709113534404 -0,90786421201558 1,18545201958923 -0,180405449378959 -0,556076450066677 0,597177525794682 -0,741687089084502 0,245856290331975 0,282812790904107 -1,26025443413819 
-0,264810386995697 -0,0586617659119245 0,345974052020336 -0,0466040188528619 -1,30325793552876 0,370719311172943 1,59330496562845 1,04813634111506 -0,496328571576778 0,189816352534022 
0,875289808900696 -0,252977096127801 -0,149541966513983 -0,946544114182491 -1,35236464707338 0,095340258951923 -0,0464609071693669 0,0567387154725091 0,0441275430117396 -0,247850437298347 
0,383007579195782 0,498378833229364 -0,117545531651725 0,65074636864045 0,00229698186847238 -0,821487421086751 -0,298058679931824 0,719458273481325 -0,219685470614901 -0,153545067251448 
