0,635703789539032 -0,402005392779599 -0,340564741445968 -0,391497750483219 0,713558380065746 -0,589979500318868 -0,603847939975023 0,780758154476415 0,420558866774924 
1,05558336406321 -0,0744880194326341 0,486770810320401 0,442426117808757 1,17005878199872 1,54273806228942 -1,61168628278313 -0,287993971219749 0,112028788361712 
1,25503316411098 -0,254164823276533 -0,140122954333258 0,466111707890924 0,402520748215504 0,818948130039008 0,557370533029256 0,293562172876001 1,63187463581696 
0,110530366068487 -0,581731210906399 2,01390570204514 0,200384656526327 -0,055852887712351 0,868177608525463 0,440079538822211 0,066245364814645 -0,361699338412238 
-0,813152422748577 0,384791164372485 -0,633242588957885 -0,201979767159549 -0,165508735243468 0,48212817071617 -1,34493295742009 -0,877636567632499 0,488475217245741 
0,455322753091493 -0,14492888551854 0,6374273894529 -1,56980429866389 0,894947015338553 -0,178553070197605 0,82657069332272 -1,55200043567177 0,249917354085444 
0,522440749929492 -0,830407918351892 1,5814738590049 -0,159512871484977 1,43713171648752 0,726996207189744 0,164145863864173 0,28562169395649 -0,330510634617186 
1,75914966478066 0,163671156002055 1,47319262560652 -1,09919324492579 -1,40628326487601 1,26426698809269 -0,45072176625101 0,623659825708559 0,512008617750373 
-0,821465287274432 -0,0215290621954617 0,634028721430352 -0,342279689718634 -0,889304118524913 -0,850547597381076 0,17862774271035 0,169210347252996 -0,946891412114208 
