-1,39155275363594 -0,0126653352676259 0,216321773755048 -0,88654122775725 1,0668139632036 0,496147547959419 -1,07473974555998 0,224638788892719 0,589653283166538 -0,250173197417135 
-0,9606395512636 -0,66634055211504 -0,281238796147629 0,0198743689762769 -0,065130429199958 -0,187361194666643 -1,13758612214987 1,65316472483061 -1,49288965103398 0,143729551296555 
-1,29224791082705 -0,971566791978463 -0,410014578797861 2,08587385985436 -0,987118313721436 0,73278966254219 -0,229490259010573 0,555575808941655 0,72855944918867 0,559436637703067 
-0,391683456843106 -1,18298578427824 -0,743916063450238 0,902505148795203 -0,830301382499887 0,605287029224116 0,453167591627765 0,679194392487032 -0,211615255666718 0,178217320320298 
-0,692667052645081 -0,915292209906174 -0,871839865982458 0,768610598118794 0,162105691229042 -0,00644458347719401 -0,973489826532774 0,130138562294253 -0,0235256588331081 0,258110069617215 
0,176630787460893 0,319992591017388 -0,176637436172756 1,34431822864121 -0,0282334771003729 -1,31116672590476 -0,924423635902081 1,60184089838194 0,92622670684812 0,599514647200478 
-0,959839085098281 0,20068681232151 -0,534053086086201 0,845105866829448 -0,858489740574029 0,529346233014644 -1,6154244886648 -0,876743944942832 -0,842824248523835 0,329582541575927 
-0,333528786294408 -0,123780514636906 0,864779980497332 0,0218930286457264 -1,54960339605836 -1,61798325459891 0,791453838251277 -0,47085229748434 0,531375184144068 -0,420323351128177 
0,747789142535901 -0,060151929236553 0,134099100951617 0,500581805361706 0,874916628876196 0,367323952139506 -1,31334834810549 -0,395234292091445 -0,148261374104424 0,787865343404871 
