-0,238250692020287 -1,00657265697493 0,463439311582334 -1,45008085939152 0,296105518902236 -0,411213474074012 -0,492412189423764 0,151817038898737 -0,659592327503298 
1,46216581195275 -0,696216604530912 -0,029570440602754 0,19723412013903 0,173063827293489 0,731338825590135 -0,13796986133697 1,03324169544701 -0,499064869014111 
-1,23582079056968 0,501227760455212 -0,334992771365676 0,242048153593693 -0,281488570981421 -0,880943605620853 -0,666804451340253 0,555565205195716 0,27417967248437 
-0,498095667687289 -0,0946127227948107 1,42688069390034 -0,551067015878422 0,316451650725888 0,143163995418308 -0,607485351608361 0,423250772721717 1,24696053826155 
0,0253309277004241 0,971901115016966 -0,174382039254244 0,79684104172878 0,621628063554702 -0,85885071468486 0,309267359171187 1,66978319084308 0,0157848589060759 
-1,47616479631847 -1,0868298958325 -0,859483977714313 -0,169889237638046 0,434016598124996 0,0192407597877275 0,388527331589035 -0,0627258468576359 -0,910856282296989 
0,949210601835144 -0,17329884561398 0,967915914006492 0,344382917203187 0,909723591948731 -1,25945968629348 0,314606853441618 0,391683478263525 0,553429761693547 
-0,393473021403641 -0,372767172168832 -0,0126682552568002 0,827265563978937 -0,195280528252609 0,0568130545717731 1,17737828732858 0,836699210962606 1,06134058043004 
-0,259514559646842 -0,524505705058345 0,679688931293641 1,15862018965633 1,60612197498657 -0,841251349002706 0,749860923620807 0,372621097309804 0,82941869824632 
