0,546903062400829 -0,68207385626299 -0,200932106562393 -0,217334074535097 -1,05926663588279 0,55372076740196 -0,0208380056507129 -0,545967716219354 0,697198809914849 
0,884237387802097 -0,0137794770499601 -0,457917566797192 1,08948804506123 -0,771356951338871 0,879304519505382 0,883226698848524 1,52986438445368 -0,0600563152972869 
-0,589241063962337 0,217113308243972 -0,446292892479009 -0,56539664956061 -0,890142105814136 -0,491402351060604 0,191179449586281 -1,67773287530045 -0,401279324386865 
0,968835303545387 -1,85778530668457 1,33028647382804 0,669074057447293 0,088833401486666 0,71258121686223 1,9721591815884 -1,613416441709 -1,52089483472141 
0,497104890755892 -1,40324388527043 -0,252915820397398 1,2274715842672 -1,51094918971972 -0,636228329971073 -0,895648175801918 -0,7249813888804 -0,710047466545388 
-0,713368733918466 1,73461254568613 1,0826482189934 1,04220196577404 1,5301680927636 -2,36712039453402 -1,43307542046722 -0,169726809100121 -0,400715493318027 
-0,945119526850115 0,112299711961439 -0,870931750448855 -1,40252975550179 0,591486475878622 1,61846623941765 -0,0449999082111753 1,3963266908039 1,00481759046522 
0,79265316472978 -0,837801292463113 0,288364868279716 1,31159320179494 -0,997653421013455 0,71781341718408 -0,481562599298341 0,201466139965442 -0,365785135592234 
-1,6407286226804 0,457012931270531 -0,474656088033065 -0,236251125049429 -0,574955334688982 -1,105842684152 -1,36252708720673 -0,897952220062237 1,51749105839454 
