0,458330895206579 0,160198440677113 0,332951148661296 0,749719638260882 -1,1254019464815 0,569694552370205 -0,513049994075694 -0,751151407952957 0,170949154785811 0,613500460509444 
-0,767932644937156 0,310993065443818 0,237594456988198 -0,115154545980578 -1,60293892769792 -1,23558145463773 -0,00168974651102427 -0,593958696161378 -0,183966595937948 0,204895167534191 
0,801450632420113 -1,30229703228609 -0,347267524966629 1,29031738716239 1,34390017935769 0,0202101613489027 -0,0300640145591761 -0,790455979197498 -0,96064734148404 0,507920359963514 
0,919187675830996 0,548111381730117 1,48636324697051 0,484145212678306 -0,819056796757065 -0,666110091687231 -0,224940917386646 0,891887044483743 -0,0471728247013751 -0,391845752840324 
-1,61275471373636 0,668415425190896 0,153263436236076 1,59133366307352 -0,84424879953463 -0,386836942638195 -0,330760476799105 1,25710397941438 0,649655111609332 -1,06386158030241 
-0,383959586152322 -0,221822124836418 -0,539181578689805 0,0337907052756243 0,1479444686081 -0,257039317515231 0,712061094917385 1,5670532919178 -0,629260245245071 -0,95980450881636 
0,4092415121427 -0,848523743087204 -1,28904861195947 -0,604370741627817 -1,33314305157594 -1,56016337123288 -0,731185723902278 -0,785067565639069 1,30129098504423 -1,10394532302159 
0,198660441008238 -0,882146663908915 0,0897231877132889 -0,9657011329968 0,00232435343895321 -0,866964792770783 0,237439531477839 -0,938601188040153 -0,25143381330298 -0,655262878004118 
-1,34202936185199 -0,980167993973553 0,94588890919317 -1,58978576118163 -1,49412005388416 -0,551990199332587 0,0872929604199217 -0,240427458305111 0,0292007440702059 -0,255017479241834 
