-0,0572962104609684 0,290994607220401 -0,340564741445968 -1,08449775048322 0,0205583800657458 -1,28297950031887 -0,603847939975023 0,087758154476415 0,420558866774924 
1,05558336406321 -0,0744880194326341 -0,206229189679599 -0,250573882191243 0,477058781998725 0,849738062289422 -0,918686282783135 -0,980993971219749 0,112028788361712 
1,25503316411098 -0,947164823276533 -0,833122954333258 -0,919888292109076 -0,290479251784496 1,51194813003901 0,557370533029256 0,293562172876001 0,938874635816959 
0,803530366068487 0,804268789093601 1,32090570204514 0,200384656526327 -0,0558528877123505 0,868177608525463 0,440079538822211 0,759245364814645 -0,361699338412238 
0,572847577251423 -0,308208835627515 -0,633242588957885 -0,201979767159549 0,527491264756532 0,48212817071617 -0,651932957420094 -0,877636567632499 -0,204524782754259 
-0,237677246908507 -0,14492888551854 -0,0555726105471009 -0,876804298663886 0,894947015338553 -0,178553070197605 0,826570693322723 -0,859000435671769 0,249917354085444 
1,21544074992949 -0,137407918351892 0,888473859004897 0,533487128515023 0,0511317164875249 0,0339962071897444 -0,528854136135827 -0,40737830604351 -0,330510634617186 
0,445912336086814 0,522163330354804 0,204387121463375 0,601501216340578 0,810328863472831 -0,850940509629874 0,0141993542267937 0,772121808092632 -0,145891730275886 
0,49985950510011 0,56928735177046 0,728062497963692 -0,117064562507935 -1,36274847375869 -1,16516071693374 -1,47435488451522 1,29054818350475 0,359654579013425 
