-0,238250692020287 -0,313572656974929 -0,229560688417666 -0,757080859391522 0,989105518902236 -0,411213474074012 0,893587810576236 -0,541182961101263 0,033407672496702 
1,46216581195275 -1,38921660453091 -0,722570440602754 1,58323412013903 0,173063827293489 0,0383388255901349 0,55503013866303 0,340241695447006 -0,499064869014111 
-1,23582079056968 -0,191772239544788 0,358007228634324 0,935048153593693 0,411511429018579 -1,57394360562085 -0,666804451340253 1,24856520519572 0,27417967248437 
0,194904332312711 -0,787612722794811 1,42688069390034 -1,24406701587842 -0,376548349274112 0,143163995418308 -0,607485351608361 -0,269749227278283 0,553960538261552 
-0,667669072299576 0,971901115016966 -0,867382039254244 0,10384104172878 -0,0713719364452979 -0,85885071468486 0,309267359171187 0,976783190843083 -1,37021514109392 
-0,78316479631847 -1,0868298958325 -0,859483977714313 -0,862889237638046 0,434016598124996 0,0192407597877275 0,388527331589035 0,630274153142364 -0,910856282296989 
1,64221060183514 0,51970115438602 0,967915914006492 1,03738291720319 1,60272359194873 0,126540313706519 1,00760685344162 -0,301316521736475 0,553429761693547 
-0,393473021403641 0,320232827831168 -0,0126682552568002 0,134265563978937 0,497719471747391 0,749813054571773 -0,208621712671417 0,836699210962606 -0,32465941956996 
-0,259514559646842 0,168494294941655 1,37268893129364 -0,227379810343673 0,913121974986569 -0,148251349002706 0,749860923620807 0,372621097309804 1,52241869824632 
