-0,0055527536359391 1,37333466473237 1,60232177375505 -0,886541227757251 0,373813963203604 -1,58285245204058 -0,381739745559981 0,224638788892719 0,589653283166538 1,13582680258286 
0,820634646257681 1,08426963885094 0,514617940184948 -1,80652850752162 0,17172411947638 0,823954079563708 0,430439488111269 -0,940144719235201 -0,607434588008762 -0,235869950259044 
0,538283682213297 0,240588728623273 0,721002611547244 -0,241953715329037 0,164771335741864 -0,239934925567328 2,33998583912942 1,25722200871828 -0,44205496434218 -0,217951814279869 
-0,705771033515116 -2,31417487098657 0,99393829237387 -0,434188339595771 -0,640072364830911 -0,609306646967449 0,234770989913387 -0,558494532275244 0,499013852440293 0,638826910876588 
0,795204506160321 -0,0279498449656879 0,874775644040562 -0,642837561500649 0,258487161834951 0,462838630873169 1,67824156491516 -1,39618414070792 0,249338378487312 0,058981357928357 
-1,40718796186996 -0,532015997698538 -0,559920296506454 -2,24558186623621 0,82137089680013 0,354483727996463 -0,715369273775895 0,93300031588087 -0,546364467379807 0,342084403481839 
-0,69542562854263 -0,143925298538024 -0,0266663272193011 -0,81476433939057 -0,637192050757442 0,0558095172442541 -0,98866865352293 0,641806279780719 -0,166456142690711 -0,29796923355617 
-0,48981691034968 -0,0900659796134879 -0,360158571675494 -1,55326149888535 -0,0310744564193648 0,952233527178985 0,365813084582711 0,97784017304789 -0,193440877163988 -0,684067295131305 
1,16082350951751 0,65716997983734 0,00788363023096861 0,498963677729463 -0,503763852409908 2,21224496418342 -0,754254574480119 1,54652015861008 0,437440763604101 -0,687556092827374 
