-0,698552753635939 0,680334664732374 0,909321773755048 -0,886541227757251 0,373813963203604 -0,889852452040581 -0,381739745559981 0,224638788892719 -0,103346716833462 0,442826802582865 
0,820634646257681 0,391269638850945 0,514617940184948 -1,11352850752162 0,17172411947638 0,823954079563708 -0,262560511888731 0,445855280764799 0,0855654119912375 1,15013004974096 
-0,154716317786703 0,240588728623273 0,0280026115472439 -0,934953715329037 -0,528228664258136 -0,239934925567328 1,64698583912942 1,25722200871828 -0,44205496434218 0,475048185720131 
-1,39877103351512 -2,31417487098657 2,37993829237387 -0,434188339595771 0,0529276351690889 -0,609306646967449 -0,458229010086613 -0,558494532275244 0,499013852440293 1,33182691087659 
-0,590795493839679 0,665050155034312 0,874775644040562 -0,642837561500649 -0,434512838165049 0,462838630873169 0,98524156491516 -1,39618414070792 -0,443661621512688 1,44498135792836 
-2,10018796186996 0,160984002301462 0,133079703493546 -0,85958186623621 2,20737089680013 -0,338516272003537 -0,022369273775895 2,31900031588087 -0,546364467379807 0,342084403481839 
-1,38842562854263 -0,143925298538024 -0,719666327219301 -1,50776433939057 0,0558079492425579 0,0558095172442541 -0,29566865352293 -0,744193720219281 0,526543857309289 0,39503076644383 
-1,87581691034968 -0,783065979613488 -0,360158571675494 -1,55326149888535 -0,0310744564193648 0,259233527178985 0,365813084582711 0,97784017304789 0,499559122836012 -0,684067295131305 
0,467823509517509 0,65716997983734 0,00788363023096861 -0,194036322270537 0,882236147590092 1,51924496418342 -0,754254574480119 0,853520158610083 0,437440763604101 0,698443907172626 
