-0,69855275363594 0,680334664732374 1,60232177375505 -1,57954122775725 0,373813963203604 -0,196852452040581 -0,381739745559981 0,917638788892719 0,589653283166538 -0,943173197417135 
0,4253604487364 0,02665944788496 -0,974238796147629 -0,673125631023723 -1,45113042919996 -0,187361194666643 -1,13758612214987 1,65316472483061 -0,106889651033976 0,143729551296555 
-0,599247910827048 -0,971566791978463 -1,10301457879786 2,08587385985436 -0,294118313721436 0,73278966254219 1,15650974098943 -0,137424191058345 0,72855944918867 -0,826563362296933 
0,301316543156894 -0,489985784278245 -0,743916063450238 -0,483494851204797 -0,830301382499887 1,29828702922412 -0,239832408372235 -0,013805607512968 -0,904615255666718 0,178217320320298 
0,693332947354919 -0,915292209906174 -1,56483986598246 0,768610598118794 0,855105691229042 -0,699444583477194 -0,280489826532774 0,130138562294253 -0,0235256588331081 1,64411006961722 
0,869630787460893 -0,373007408982612 -0,869637436172756 -0,0416817713587929 0,664766522899627 0,074833274095242 -0,231423635902081 1,60184089838194 0,23322670684812 0,599514647200478 
-1,65283908509828 0,20068681232151 -0,534053086086201 1,53810586682945 -1,55148974057403 0,529346233014644 -0,922424488664802 -0,183743944942832 -0,842824248523835 -0,363417458424073 
0,359471213705592 0,569219485363094 0,171779980497332 0,714893028645726 -0,163603396058364 -1,61798325459891 0,791453838251277 -0,47085229748434 -0,161624815855932 -1,11332335112818 
0,747789142535901 -0,060151929236553 -1,25190089904838 0,500581805361706 1,5679166288762 0,367323952139506 -0,620348348105489 -0,395234292091445 0,544738625895576 0,787865343404871 
