0,133663650198683 -0,635206430049244 1,16437067908019 -0,285360065887384 -0,632594347467457 -0,00682250241647597 0,747020277715298 0,136304046556495 -1,0964503816643 0,58604462425506 
0,680948010497237 -0,937822476931765 1,39207764703924 0,789234188287162 -0,770055414708823 -0,412280476378408 -0,297259619425172 0,349550363011914 -0,357546885837124 0,0825696397025928 
-0,433222290795866 -1,10140673605372 -1,03758005770323 1,59327968394583 -1,34777960726935 1,20579476076029 -0,274917008948939 -0,497098996069794 -0,527101303868974 0,245951460616175 
0,275326188316255 0,458964011379966 1,39287455555232 -0,104575821712881 -0,150125086843094 0,725144955201608 -0,642250319483341 -1,31153493452935 -0,327095028630968 0,12809751700987 
-1,58394140375542 1,16444337532643 -0,524559354188181 -0,859246885045547 0,54717947771688 -0,938096047057349 0,50289098336496 -0,102351159077767 0,589627858991561 0,701201644294058 
-0,778188278502407 0,752707347158672 -0,066172480441245 -0,218274070224387 -0,430359010957814 -0,133262368739705 0,197778498380342 0,432671464715466 1,09749924553023 -0,638196707241794 
0,537611561319144 -0,3229509980059 0,0829498959160178 -0,461002305830364 0,645174272193189 0,466103343682877 -0,0818814901085019 0,0351702787010789 -0,272029459137483 -0,635083882899528 
1,09966886484561 -1,07615481198167 1,42613633246959 -0,619064112947818 0,788836571289616 0,0953343338777006 -0,190847381865535 0,821666827342318 0,0461002062289511 -0,102683560211995 
-0,29709622260467 0,134434150128828 -0,779726855061355 -1,53530294816303 -0,668860260881418 1,21561884115758 0,218136491821211 -0,774851374223293 0,632783189244933 -0,32386271810339 
