-0,69855275363594 -0,0126653352676259 1,60232177375505 -1,57954122775725 0,373813963203604 0,496147547959419 -0,381739745559981 0,917638788892719 0,589653283166538 0,442826802582865 
-0,2676395512636 -1,35934055211504 -0,974238796147629 0,0198743689762769 -0,065130429199958 -1,57336119466664 -0,444586122149874 2,34616472483061 -1,49288965103398 0,143729551296555 
-0,599247910827048 0,414433208021537 0,282985421202139 0,69987385985436 -0,294118313721436 2,11878966254219 0,463509740989427 -0,137424191058345 1,42155944918867 -0,826563362296933 
0,301316543156894 -1,18298578427824 -0,743916063450238 0,902505148795203 -1,52330138249989 1,29828702922412 -0,239832408372235 0,679194392487032 -0,211615255666718 0,178217320320298 
0,693332947354919 -0,915292209906174 -1,56483986598246 0,0756105981187944 0,162105691229042 -1,39244458347719 -0,973489826532774 0,130138562294253 -0,716525658833108 0,951110069617215 
0,869630787460893 0,319992591017388 -0,869637436172756 0,651318228641207 0,664766522899627 0,074833274095242 -0,231423635902081 0,908840898381938 0,92622670684812 0,599514647200478 
-0,959839085098281 1,58668681232151 -0,534053086086201 0,845105866829448 -1,55148974057403 0,529346233014644 -0,922424488664802 -0,876743944942832 -0,842824248523835 0,329582541575927 
1,05247121370559 -0,816780514636906 0,171779980497332 0,0218930286457264 -0,856603396058364 -1,61798325459891 0,0984538382512771 -0,47085229748434 -0,161624815855932 0,272676648871823 
0,747789142535901 0,632848070763447 -0,558900899048383 1,19358180536171 0,874916628876196 -0,325676047860494 -1,31334834810549 0,297765707908555 0,544738625895576 0,0948653434048711 
