0,458330895206579 0,853198440677113 -0,360048851338704 0,749719638260882 -1,1254019464815 1,2626945523702 0,179950005924306 -1,44415140795296 0,170949154785811 -0,0794995394905561 
-1,46093264493716 -0,382006934556182 0,237594456988198 -0,115154545980578 -1,60293892769792 0,150418545362269 -0,00168974651102427 -0,593958696161378 0,509033404062052 0,897895167534191 
0,108450632420113 -1,30229703228609 -1,04026752496663 0,59731738716239 1,34390017935769 0,0202101613489027 -0,0300640145591761 -0,790455979197498 0,42535265851596 0,507920359963514 
-0,466812324169004 0,548111381730117 0,793363246970513 1,17714521267831 -1,51205679675707 -1,35911009168723 -1,61094091738665 1,58488704448374 -0,740172824701375 0,994154247159676 
-1,61275471373636 -0,0245845748091039 -0,539736563763924 0,205333663073524 -0,15124879953463 -0,386836942638195 0,362239523200895 0,564103979414377 -0,0433448883906682 0,322138419697591 
1,00204041384768 -0,914822124836418 -0,539181578689805 0,0337907052756243 0,1479444686081 0,435960682484769 1,40506109491738 0,181053291917803 0,756739754754929 -0,95980450881636 
0,4092415121427 -0,155523743087204 -0,596048611959465 0,0886292583721826 0,052856948424064 -0,86716337123288 -1,42418572390228 -0,785067565639069 -0,084709014955772 -1,10394532302159 
-0,494339558991762 -0,189146663908915 -0,603276812286711 -0,2727011329968 0,695324353438953 -1,55996479277078 0,237439531477839 -0,938601188040153 -0,25143381330298 -0,655262878004118 
0,0439706381480069 0,405832006026447 0,25288890919317 -0,896785761181631 -1,49412005388416 -0,551990199332587 0,0872929604199217 -0,240427458305111 -0,663799255929794 0,437982520758166 
