-0,234669104793421 1,54619844067711 0,332951148661296 0,749719638260882 0,260598053518496 0,569694552370205 0,179950005924306 -0,751151407952957 -1,21505084521419 -0,772499539490556 
-0,767932644937156 -0,382006934556182 -0,455405543011802 -0,115154545980578 -0,216938927697921 -0,542581454637731 0,691310253488976 -0,593958696161378 0,509033404062052 0,897895167534191 
1,49445063242011 -0,609297032286086 -0,347267524966629 -0,0956826128376099 0,650900179357687 0,713210161348903 -0,723064014559176 -0,790455979197498 -0,96064734148404 0,507920359963514 
0,226187675830996 0,548111381730117 0,793363246970513 0,484145212678306 -0,126056796757065 -0,666110091687231 -1,61094091738665 0,891887044483743 -0,740172824701375 0,301154247159676 
-0,91975471373636 0,668415425190896 0,153263436236076 0,205333663073524 -1,53724879953463 0,306163057361805 -1,0237604767991 1,25710397941438 -0,0433448883906682 0,322138419697591 
0,309040413847678 -0,914822124836418 -1,2321815786898 -0,659209294724376 0,1479444686081 -0,950039317515231 0,712061094917385 0,181053291917803 0,0637397547549288 -0,95980450881636 
-0,2837584878573 -0,155523743087204 0,0969513880405349 0,0886292583721826 -0,640143051575936 -0,86716337123288 -0,038185723902278 -0,785067565639069 0,608290985044228 -0,410945323021591 
0,198660441008238 -0,189146663908915 -1,29627681228671 -0,2727011329968 0,00232435343895321 -0,866964792770783 -0,455560468522161 -0,245601188040153 1,13456618669702 -0,655262878004118 
-1,34202936185199 -0,287167993973553 0,25288890919317 -0,896785761181631 -1,49412005388416 0,141009800667413 0,780292960419922 0,452572541694889 -0,663799255929794 -0,255017479241834 
