0,133663650198683 -0,635206430049244 0,471370679080193 -0,285360065887384 0,0604056525325429 -0,00682250241647597 -0,638979722284702 -0,556695953443505 0,289549618335697 -0,10695537574494 
0,680948010497237 -1,63082247693176 0,699077647039237 0,789234188287162 -0,0770554147088227 0,280719523621592 -1,68325961942517 -1,03644963698809 0,335453114162876 -0,610430360297407 
0,259777709204134 -1,10140673605372 -0,344580057703229 0,900279683945831 0,0382203927306549 -0,18020523923971 -0,274917008948939 -1,19009899606979 0,165898696131026 0,245951460616175 
-0,417673811683745 -0,234035988620034 0,00687455555232008 -0,104575821712881 -0,150125086843094 1,41814495520161 0,0507496805166592 -0,618534934529352 -1,02009502863097 0,82109751700987 
-0,890941403755425 1,16444337532643 0,168440645811819 -0,166246885045547 -0,14582052228312 0,447903952942651 1,19589098336496 0,590648840922233 0,589627858991561 0,701201644294058 
-0,778188278502407 0,0597073471586721 -0,759172480441245 0,474725929775613 0,955640989042186 -0,826262368739705 0,197778498380342 -0,260328535284534 -0,288500754469773 0,0548032927582056 
-0,155388438680856 -0,3229509980059 -0,610050104083982 -1,15400230583036 0,645174272193189 -0,919896656317123 -0,0818814901085019 -1,35082972129892 -0,272029459137483 -0,635083882899528 
-0,28633113515439 -1,07615481198167 0,04013633246959 -0,619064112947818 1,48183657128962 0,788334333877701 -0,883847381865535 0,821666827342318 0,0461002062289511 0,590316439788005 
-0,99009622260467 0,134434150128828 -0,779726855061355 -0,149302948163032 0,0241397391185816 0,522618841157583 0,218136491821211 -1,46785137422329 0,632783189244933 -0,32386271810339 
