-0,750296210460968 -0,402005392779599 0,352435258554032 0,301502249516781 0,713558380065746 -0,589979500318868 -0,603847939975023 0,087758154476415 -0,272441133225076 
1,05558336406321 -1,46048801943263 -0,206229189679599 -0,250573882191243 -0,215941218001275 0,156738062289422 -0,918686282783135 -1,67399397121975 0,112028788361712 
0,56203316411098 -0,254164823276533 1,24587704566674 -0,226888292109076 1,0955207482155 0,125948130039008 0,557370533029256 0,293562172876001 1,63187463581696 
0,803530366068487 0,111268789093601 0,62790570204514 0,200384656526327 0,637147112287649 0,868177608525463 0,440079538822211 0,066245364814645 -0,361699338412238 
-0,120152422748577 0,384791164372485 0,752757411042115 -0,201979767159549 1,22049126475653 -0,21087182928383 -1,34493295742009 0,508363432367501 0,488475217245741 
0,455322753091493 -0,14492888551854 0,6374273894529 -0,87680429866389 -0,491052984661447 0,514446929802395 2,21257069332272 -1,55200043567177 0,942917354085444 
0,522440749929492 0,555592081648108 0,195473859004897 -0,159512871484977 0,744131716487525 0,0339962071897444 0,164145863864173 0,97862169395649 -0,330510634617186 
0,37314966478066 0,856671156002055 1,47319262560652 -0,40619324492579 -1,40628326487601 1,95726698809269 0,24227823374899 -0,0693401742914409 -0,873991382249627 
-0,821465287274432 -0,0215290621954617 1,32702872143035 -0,342279689718634 -0,889304118524913 -0,157547597381076 -0,51437225728965 0,862210347252996 -0,253891412114208 
