0,546903062400829 -0,68207385626299 0,492067893437607 -0,217334074535097 -1,05926663588279 1,24672076740196 0,672161994349287 0,840032283780646 0,004198809914849 
0,884237387802097 -0,0137794770499601 0,928082433202808 0,396488045061234 -1,46435695133887 0,879304519505382 0,190226698848524 0,83686438445368 0,632943684702713 
-1,28224106396234 -0,475886691756028 -1,13929289247901 0,12760335043939 -0,197142105814136 -0,491402351060604 1,57717944958628 -0,291732875300447 0,291720675613135 
0,968835303545387 -1,16478530668457 0,637286473828036 0,669074057447293 -0,604166598513334 0,71258121686223 1,2791591815884 -0,920416441708997 -0,827894834721412 
-0,195895109244108 -1,40324388527043 0,440084179602602 1,2274715842672 -0,81794918971972 -0,636228329971073 -0,202648175801918 -1,4179813888804 -0,017047466545388 
-0,713368733918466 1,04161254568613 0,389648218993399 1,04220196577404 1,5301680927636 -1,67412039453402 -1,43307542046722 -0,169726809100121 -1,09371549331803 
-1,63811952685011 0,805299711961439 -0,870931750448855 -0,70952975550179 0,591486475878622 0,232466239417654 -0,0449999082111753 0,7033266908039 0,311817590465219 
0,09965316472978 -0,837801292463113 -0,404635131720284 1,31159320179494 -1,69065342101345 0,02481341718408 -0,481562599298341 -0,491533860034558 -0,365785135592234 
-0,254728622680404 -0,928987068729469 -1,16765608803306 -0,929251125049429 -0,574955334688982 -1,105842684152 -0,669527087206732 -0,204952220062237 0,824491058394542 
