-0,0572962104609684 -0,402005392779599 -0,340564741445968 -0,391497750483219 0,0205583800657458 0,103020499681132 -0,603847939975023 0,087758154476415 -0,272441133225076 
1,05558336406321 -0,767488019432634 0,486770810320401 0,442426117808757 -0,215941218001275 0,849738062289422 -0,918686282783135 -0,980993971219749 0,112028788361712 
0,562033164110981 -0,947164823276533 -0,833122954333258 -0,226888292109076 -0,983479251784496 1,51194813003901 0,557370533029256 0,986562172876001 0,938874635816959 
1,49653036606849 -0,581731210906399 0,627905702045144 0,893384656526327 0,637147112287649 1,56117760852546 0,440079538822211 0,759245364814645 0,331300661587762 
0,572847577251423 0,384791164372485 0,0597574110421153 -0,201979767159549 -0,165508735243468 -0,21087182928383 0,0410670425799059 -0,877636567632499 1,18147521724574 
-0,237677246908507 -0,83792888551854 -0,0555726105471009 -0,183804298663886 0,201947015338553 -0,178553070197605 1,51957069332272 -0,859000435671769 0,942917354085444 
0,522440749929492 -0,137407918351892 1,5814738590049 -0,852512871484977 -0,641868283512475 0,0339962071897444 -0,528854136135827 0,28562169395649 -0,330510634617186 
-0,247087663913186 1,2151633303548 0,204387121463375 -0,0914987836594221 0,810328863472831 -0,850940509629874 0,707199354226794 1,46512180809263 0,547108269724114 
-0,19314049489989 0,56928735177046 1,42106249796369 -1,50306456250794 -1,36274847375869 -0,472160716933739 -1,47435488451522 0,597548183504747 1,05265457901342 
