-0,828546138400466 0,284114023337194 -0,608474649306608 1,16137540132384 -0,343556724183055 0,384565975868872 0,740352451387491 -0,0573636978200468 0,0935714107307469 0,87973581248882 
0,418960049184952 -0,887199483759328 -1,38144002936428 -0,250720406826455 0,201204760266563 1,56351705264976 0,159942682148396 0,781399055282306 -0,546167266050897 -0,736398531639668 
0,245949931091606 -0,105788124308823 -1,4914654557884 1,37948900170181 0,982943656846389 -0,040045771007913 -0,0413862052566307 -0,839767992128976 -0,23005064290904 0,444616808004499 
-0,1107058176355 0,44453581926205 1,56940813825485 0,200200344063435 -0,876303081343092 -0,117462125834293 0,241337527167675 -0,52370977938348 -0,271654897961605 -0,0307906591476829 
0,245639142867475 0,714186250099068 0,235931219177289 -0,160024810191255 0,140841489896105 -0,672921500947756 -0,730053350203695 -0,846765038485995 0,970777539522749 0,11920298845051 
0,056319826136027 -0,289218396548749 -0,950405500806126 -0,150050135226478 0,112885814678336 0,277241985908357 0,775579479125598 -0,294963651008421 0,485431744477447 0,00348904682485807 
1,4259521811255 -0,112879556483533 -0,134313054911007 -0,0440453972737519 -0,00955836987567993 1,6674242299229 -0,763607622014176 0,111359626572281 0,239582674516636 -0,760333113899144 
0,322179525482086 1,68365246153188 0,0530539532439103 -1,51537660690321 -1,28903767450714 0,531763680992538 0,658280656513889 -0,331440645597149 0,931647511805709 -0,0371348422058549 
-0,884544801844538 -0,317046389304123 -1,4666866361339 -0,470395557042861 0,0357443350533695 0,644488367086504 0,908404894130493 -0,227163365975098 -0,10653325035541 0,477384925576572 
