0,458330895206579 1,54619844067711 -0,360048851338704 0,056719638260882 0,260598053518496 0,569694552370205 0,872950005924306 -1,44415140795296 -1,21505084521419 -0,0794995394905561 
-0,074932644937156 -0,382006934556182 0,237594456988198 0,577845454019422 -0,909938927697921 -0,542581454637731 -0,694689746511024 -0,593958696161378 -0,183966595937948 0,897895167534191 
0,801450632420113 -1,30229703228609 -1,04026752496663 0,59731738716239 0,650900179357687 -0,672789838651097 -0,723064014559176 -1,4834559791975 0,42535265851596 0,507920359963514 
0,919187675830996 0,548111381730117 0,793363246970513 -0,208854787321694 -0,819056796757065 -1,35911009168723 -1,61094091738665 0,198887044483743 -0,740172824701375 0,994154247159676 
-0,22675471373636 0,668415425190896 -0,539736563763924 0,898333663073524 -1,53724879953463 0,306163057361805 -1,0237604767991 -0,128896020585623 -0,0433448883906682 0,322138419697591 
1,00204041384768 -1,60782212483642 -1,2321815786898 -0,659209294724376 0,1479444686081 -0,950039317515231 0,712061094917385 1,5670532919178 0,0637397547549288 -1,65280450881636 
1,1022415121427 -0,848523743087204 -1,28904861195947 0,0886292583721826 -0,640143051575936 -0,86716337123288 -0,731185723902278 -0,092067565639069 0,608290985044228 -0,410945323021591 
0,198660441008238 -1,57514666390892 -1,29627681228671 -0,2727011329968 -0,690675646561047 -0,866964792770783 -0,455560468522161 -0,245601188040153 -0,25143381330298 0,037737121995882 
0,0439706381480069 -0,980167993973553 -0,44011109080683 -0,203785761181631 -1,49412005388416 -0,551990199332587 -0,605707039580078 0,452572541694889 -0,663799255929794 0,437982520758166 
