-0,698552753635939 1,37333466473237 0,216321773755048 -0,886541227757251 1,0668139632036 -0,196852452040581 -1,07473974555998 0,917638788892719 1,28265328316654 0,442826802582865 
1,51363464625768 1,08426963885094 0,514617940184948 -1,11352850752162 0,17172411947638 0,823954079563708 -0,262560511888731 0,445855280764799 0,0855654119912375 0,457130049740956 
0,538283682213297 0,240588728623273 -0,664997388452756 -0,241953715329037 -0,528228664258136 -0,239934925567328 1,64698583912942 1,25722200871828 0,25094503565782 -0,217951814279869 
-0,0127710335151161 -2,31417487098657 1,68693829237387 -0,434188339595771 -0,640072364830911 0,77669335303255 0,234770989913387 -0,558494532275244 -0,886986147559707 1,33182691087659 
-0,590795493839679 -0,0279498449656879 0,874775644040562 -0,642837561500649 0,951487161834951 1,15583863087317 2,37124156491516 -2,08918414070792 0,249338378487312 0,751981357928357 
-1,40718796186996 -0,532015997698538 0,826079703493546 -0,85958186623621 0,82137089680013 -0,338516272003537 -0,022369273775895 1,62600031588087 -0,546364467379807 0,342084403481839 
-0,69542562854263 -0,836925298538024 -0,719666327219301 -1,50776433939057 -1,33019205075744 -0,637190482755746 -0,29566865352293 -0,744193720219281 0,526543857309289 -0,29796923355617 
-0,48981691034968 -0,0900659796134879 -1,05315857167549 -0,167261498885351 -0,0310744564193648 0,952233527178985 -1,02018691541729 1,67084017304789 -0,193440877163988 0,00893270486869502 
-0,225176490482491 2,04316997983734 0,00788363023096861 0,498963677729463 -0,503763852409908 2,21224496418342 -0,0612545744801194 1,54652015861008 1,1304407636041 -0,687556092827374 
