-0,927669104793421 0,853198440677113 1,0259511486613 0,749719638260882 -0,432401946481504 0,569694552370205 0,179950005924306 -1,44415140795296 0,170949154785811 -0,0794995394905561 
-0,767932644937156 0,310993065443818 0,237594456988198 -0,115154545980578 -1,60293892769792 -0,542581454637731 -0,694689746511024 -1,28695869616138 0,509033404062052 0,897895167534191 
0,801450632420113 -0,609297032286086 -0,347267524966629 0,59731738716239 -0,042099820642313 0,0202101613489027 -0,723064014559176 -1,4834559791975 -0,26764734148404 0,507920359963514 
0,919187675830996 -0,144888618269883 1,48636324697051 0,484145212678306 -0,819056796757065 -1,35911009168723 -1,61094091738665 0,891887044483743 -0,740172824701375 0,994154247159676 
-0,91975471373636 0,668415425190896 0,153263436236076 0,205333663073524 -0,84424879953463 -0,386836942638195 0,362239523200895 0,564103979414377 -0,0433448883906682 0,322138419697591 
0,309040413847678 -0,221822124836418 -0,539181578689805 0,0337907052756243 0,8409444686081 -0,257039317515231 1,40506109491738 0,874053291917803 0,0637397547549288 -1,65280450881636 
1,1022415121427 -0,848523743087204 -0,596048611959465 0,0886292583721826 -1,33314305157594 -0,86716337123288 -0,731185723902278 -0,092067565639069 -0,084709014955772 -0,410945323021591 
-0,494339558991762 -0,882146663908915 -1,29627681228671 -1,6587011329968 0,00232435343895321 -0,173964792770783 0,237439531477839 -0,245601188040153 0,44156618669702 -0,655262878004118 
-1,34202936185199 -0,287167993973553 -0,44011109080683 -0,203785761181631 -0,108120053884164 0,834009800667413 0,780292960419922 -0,933427458305111 -0,663799255929794 0,437982520758166 
