-0,135546138400466 0,284114023337194 -1,30147464930661 -0,224624598676164 -0,343556724183055 0,384565975868872 0,0473524513874912 -0,0573636978200468 -1,29242858926925 0,18673581248882 
0,418960049184952 -0,887199483759328 0,004559970635716 -0,250720406826455 -1,18479523973344 1,56351705264976 -1,2260573178516 0,0883990552823061 -0,546167266050897 0,649601468360332 
0,245949931091606 -0,105788124308823 -0,798465455788404 1,37948900170181 0,982943656846389 1,34595422899209 -0,0413862052566307 0,546232007871024 -0,92305064290904 0,444616808004499 
-0,1107058176355 0,44453581926205 0,876408138254847 0,893200344063435 -1,56930308134309 -0,117462125834293 0,241337527167675 0,16929022061652 -0,964654897961605 0,662209340852317 
-0,447360857132525 0,714186250099068 0,928931219177289 -0,853024810191255 -1,2451585101039 -0,672921500947756 -0,730053350203695 -0,846765038485995 1,66377753952275 -1,26679701154949 
0,749319826136027 0,403781603451251 -0,257405500806126 -0,843050135226478 0,112885814678336 0,970241985908357 0,0825794791255983 -0,294963651008421 0,485431744477447 -0,689510953175142 
1,4259521811255 -0,805879556483533 -0,827313054911007 -0,0440453972737519 -0,00955836987567993 0,974424229922902 -1,45660762201418 -0,581640373427719 0,932582674516636 0,625666886100856 
-0,370820474517914 0,990652461531876 0,0530539532439103 -1,51537660690321 0,096962325492856 1,22476368099254 1,35128065651389 0,361559354402851 0,931647511805709 -0,0371348422058549 
0,383007579195782 0,498378833229364 -0,117545531651725 1,34374636864045 0,00229698186847238 -0,821487421086751 -0,298058679931824 0,719458273481325 -1,6056854706149 -0,153545067251448 
