-0,234669104793421 0,853198440677113 0,332951148661296 0,749719638260882 -0,432401946481504 0,569694552370205 0,179950005924306 -0,751151407952957 -0,522050845214189 -0,0794995394905561 
-0,767932644937156 -0,382006934556182 0,237594456988198 0,577845454019422 -0,909938927697921 -0,542581454637731 -0,00168974651102427 -0,593958696161378 0,509033404062052 0,897895167534191 
-0,433222290795866 -0,408406736053716 -0,344580057703229 0,900279683945831 -0,654779607269345 0,51279476076029 -0,274917008948939 -0,497098996069794 0,165898696131026 0,938951460616175 
0,275326188316255 0,458964011379966 0,69987455555232 -0,104575821712881 -0,150125086843094 0,725144955201608 0,0507496805166592 -0,618534934529352 -0,327095028630968 0,12809751700987 
-0,890941403755425 0,471443375326434 -0,524559354188181 -0,166246885045547 -0,14582052228312 -0,245096047057349 0,50289098336496 0,590648840922233 0,589627858991561 0,00820164429405779 
-0,0851882785024067 0,752707347158672 -0,759172480441245 0,474725929775613 0,262640989042186 -0,826262368739705 0,197778498380342 0,432671464715466 0,404499245530227 0,0548032927582056 
-0,155388438680856 -0,3229509980059 0,0829498959160178 -0,461002305830364 0,645174272193189 -0,226896656317123 -0,0818814901085019 -0,657829721298921 -0,272029459137483 -0,635083882899528 
0,40666886484561 -0,383154811981672 0,73313633246959 -0,619064112947818 0,788836571289616 0,0953343338777006 -0,883847381865535 0,821666827342318 0,0461002062289511 0,590316439788005 
-0,99009622260467 0,134434150128828 -0,0867268550613555 -0,842302948163032 0,0241397391185816 0,522618841157583 0,218136491821211 -0,774851374223293 0,632783189244933 -0,32386271810339 
