0,133663650198683 -0,635206430049244 0,471370679080193 -0,285360065887384 0,0604056525325429 -0,00682250241647597 0,0540202777152976 0,136304046556495 0,289549618335697 0,58604462425506 
-0,012051989502763 -0,937822476931765 1,39207764703924 0,096234188287162 0,615944585291177 -0,412280476378408 -0,297259619425172 -0,343449636988086 -0,357546885837124 -0,610430360297407 
-0,433222290795866 -0,408406736053716 0,348419942296771 1,59327968394583 -1,34777960726935 1,20579476076029 -0,967917008948939 -1,19009899606979 0,165898696131026 0,938951460616175 
-0,417673811683745 1,15196401137997 0,69987455555232 -0,104575821712881 -0,150125086843094 0,0321449552016081 0,0507496805166592 0,0744650654706479 -1,02009502863097 0,12809751700987 
-0,890941403755425 0,471443375326434 -1,21755935418818 -0,166246885045547 -0,14582052228312 0,447903952942651 1,19589098336496 1,28364884092223 0,589627858991561 0,00820164429405779 
-0,0851882785024067 1,44570734715867 -0,759172480441245 0,474725929775613 0,262640989042186 -1,5192623687397 0,890778498380342 -0,260328535284534 -0,288500754469773 0,0548032927582056 
0,537611561319144 -0,3229509980059 -0,610050104083982 0,231997694169636 -0,0478257278068109 -0,226896656317123 -0,0818814901085019 -0,657829721298921 -0,272029459137483 -0,635083882899528 
0,40666886484561 0,309845188018328 0,73313633246959 -0,619064112947818 0,788836571289616 -0,597665666122299 -1,57684738186554 0,821666827342318 -0,646899793771049 -0,102683560211995 
-1,68309622260467 0,134434150128828 -0,0867268550613555 -0,842302948163032 0,717139739118582 0,522618841157583 0,218136491821211 -0,081851374223293 0,632783189244933 -1,01686271810339 
