-0,238250692020287 -0,313572656974929 0,463439311582334 -0,0640808593915221 1,68210551890224 0,281786525925988 0,200587810576236 -1,23418296110126 -0,659592327503298 
0,0761658119527461 -0,0032166045309121 -0,029570440602754 0,89023412013903 0,866063827293489 0,0383388255901349 0,55503013866303 1,03324169544701 0,193935130985889 
-0,54282079056968 0,501227760455212 0,358007228634324 0,935048153593693 -0,281488570981421 -0,880943605620853 -0,666804451340253 1,24856520519572 -0,41882032751563 
-0,498095667687289 -0,787612722794811 1,42688069390034 0,141932984121578 0,316451650725888 0,143163995418308 -0,607485351608361 0,423250772721717 1,24696053826155 
-0,667669072299576 1,66490111501697 -0,867382039254244 0,10384104172878 0,621628063554702 -0,85885071468486 0,309267359171187 0,976783190843083 0,0157848589060759 
-0,0901647963184701 0,299170104167503 -0,859483977714313 -0,862889237638046 0,434016598124996 -0,673759240212272 1,08152733158904 0,630274153142364 -0,910856282296989 
0,256210601835144 -0,17329884561398 1,66091591400649 -0,348617082796813 0,909723591948731 -0,566459686293481 1,00760685344162 -0,301316521736475 -0,139570238306453 
-0,393473021403641 0,320232827831168 -0,7056682552568 0,134265563978937 0,497719471747391 1,44281305457177 0,484378287328583 0,836699210962606 0,36834058043004 
-0,259514559646842 0,168494294941655 0,679688931293641 1,15862018965633 0,220121974986569 -1,53425134900271 1,44286092362081 -0,320378902690196 0,82941869824632 
