-1,39155275363594 0,680334664732374 0,909321773755048 -0,886541227757251 0,373813963203604 -0,889852452040581 -0,381739745559981 0,917638788892719 0,589653283166538 1,13582680258286 
-0,9606395512636 -0,66634055211504 -1,66723879614763 -1,36612563102372 -1,45113042919996 -0,880361194666643 -0,444586122149874 0,960164724830615 -0,799889651033976 -0,549270448703445 
-0,840275464505086 0,919613972268819 0,604758300634454 -0,306519124626889 -0,812767934605371 1,46729931600313 -0,2370133669423 -0,275426557881491 -0,24130812502108 0,051547416337089 
-0,391683456843106 -1,18298578427824 -0,743916063450238 0,902505148795203 -0,830301382499887 -0,0877129707758839 -0,932832408372235 0,679194392487032 -0,904615255666718 -0,514782679679702 
0,000332947354918733 -1,60829220990617 -1,56483986598246 0,768610598118794 0,855105691229042 -0,699444583477194 -0,280489826532774 0,130138562294253 -0,0235256588331081 0,258110069617215 
0,869630787460893 -0,373007408982612 -0,176637436172756 1,34431822864121 0,664766522899627 -0,618166725904758 -0,924423635902081 0,215840898381938 -0,45977329315188 1,29251464720048 
-0,959839085098281 0,89368681232151 -1,2270530860862 0,152105866829448 -0,858489740574029 0,529346233014644 -0,229424488664802 -0,183743944942832 -0,149824248523835 -0,363417458424073 
0,359471213705592 -0,123780514636906 -0,521220019502668 0,0218930286457264 -1,54960339605836 -1,61798325459891 0,791453838251277 -1,16385229748434 -0,161624815855932 -0,420323351128177 
0,0547891425359011 -0,060151929236553 0,134099100951617 0,500581805361706 0,181916628876196 -0,325676047860494 -1,31334834810549 -1,08823429209144 1,23773862589558 0,787865343404871 
