-0,105309632190182 -0,453632180963006 0,165511332063708 0,632020519875 -0,851668748642629 0,925519768113978 0,841215354316502 -0,296821505435194 -0,093978246890464 
-0,245618720480529 -0,838936092257004 -0,348451456682967 -1,09234055479213 0,283412390986184 -1,58417112471311 -0,472860877156658 -0,629614263307589 -0,297077226125205 
-0,638454442675437 0,348093399474441 -0,693260435803449 0,735616932207074 0,805292979723445 1,64968639706293 -1,13347513298712 -0,883511625176068 -0,689686040249507 
-0,737128041562218 -0,680522334613149 1,16083704937801 0,513878254631943 -0,229728161637079 1,05553994114815 -0,119632522165604 0,0230225903885539 -0,645424700177007 
0,440892290063618 -0,0025112816940579 1,65543733352164 0,193051262382907 0,6684044681808 -0,158880625459776 0,129494957220506 0,64654432872615 -0,793174526557873 
0,879903769703072 -1,40593032342239 0,544983064543914 -1,28332648223933 -0,706473483274446 0,718117411117124 -0,746719798886552 1,58657728599272 -0,124410064776153 
0,324518885787352 1,54507343560274 0,434074839313549 -0,484175064999226 0,0724956528621239 -0,275157123466561 -0,0777941916365149 -0,114656604121279 -0,616299170822044 
-1,56181529626847 0,240503024887528 -0,302207930619925 0,289008602168881 0,720291967373477 0,646389800597629 0,754253575463897 0,0862468327797237 1,06589701838647 
0,0613171702401329 0,35333816770154 0,879599696900509 0,216857943319184 0,318780794422506 -0,258271761824503 0,796271535473071 -0,883639655021783 -0,0506048989717871 
