-0,097249871337903 0,0398429329692587 0,951998336218297 0,353103867137853 0,820644318973946 -0,00268085254481099 -0,627988532650745 0,577678769337329 1,5288636954035 
-1,41730749690361 -0,172530357979019 1,6725583533028 0,973128252650205 0,697953356927705 0,980921655884442 0,847724640671035 -0,150360997077711 -1,24089731909889 
0,253944928117536 0,846838957558777 1,4930999716111 -1,06512918762682 0,658368091871202 -1,68896471618673 0,670144395749152 -0,738391770859431 -0,990831632801253 
-0,648741732187915 0,864300111883925 0,993437909518107 -0,442975585089519 -0,449122778814809 -0,579950995254773 -0,327783907157734 0,543959478635322 0,0447476526795639 
0,223755747649705 -0,08396174221065 -0,504259980984153 1,58165938777507 -0,952433416597747 0,688274551969149 0,315540400014976 -0,0560670186230291 0,234944019110382 
-0,671563675181271 0,0382633968434591 -0,603736828535207 1,21383940595427 -0,06455455833839 -0,767721058399752 -0,0581236197883839 0,073218495153458 0,080530071495813 
0,968411494670162 -0,914471724030781 -0,0816185668625961 0,145179522757036 -0,883697892485046 0,803213378322876 -0,689574492019403 -0,848915453636979 -0,322080293354616 
0,818338232030318 0,854311491294909 -0,0169265703376972 -0,989840047429241 0,0163638680318203 0,450577640650132 -0,0512665449880373 -0,361552938228731 0,832932764586496 
0,759473911374562 1,33074938212603 1,06834937233448 -0,468419051481606 -1,41950694554975 -0,511242721933519 1,43732260903731 -0,476129077130989 -1,22717692125504 
