-0,0572962104609684 0,290994607220401 0,352435258554032 0,301502249516781 -0,672441619934254 -1,28297950031887 0,782152060024977 1,47375815447641 0,420558866774924 
0,362583364063214 -0,767488019432634 -0,206229189679599 1,13542611780876 1,17005878199872 1,54273806228942 -1,61168628278313 -1,67399397121975 -0,580971211638288 
0,562033164110981 -0,254164823276533 -0,833122954333258 -0,919888292109076 -0,983479251784496 0,818948130039008 -0,135629466970744 0,986562172876001 0,245874635816959 
0,110530366068487 0,111268789093601 -0,065094297954856 -0,492615343473673 -0,0558528877123505 0,868177608525463 -0,252920461177789 1,45224536481464 1,02430066158776 
-0,120152422748577 0,384791164372485 0,0597574110421153 -0,201979767159549 1,22049126475653 -0,90387182928383 -0,651932957420094 -1,5706365676325 0,488475217245741 
-0,930677246908507 -0,83792888551854 0,637427389452899 -0,183804298663886 0,201947015338553 1,2074469298024 0,826570693322723 -0,859000435671769 0,942917354085444 
0,522440749929492 -0,137407918351892 1,5814738590049 -0,159512871484977 0,744131716487525 0,0339962071897444 -0,528854136135827 0,28562169395649 0,362489365382814 
0,09965316472978 -0,837801292463113 0,288364868279716 -0,0744067982050619 -0,997653421013455 1,41081341718408 -0,481562599298341 0,201466139965442 -0,365785135592234 
-0,254728622680404 -0,235987068729469 -1,16765608803306 -0,929251125049429 0,118044665311018 -0,412842684151997 0,0234729127932679 -0,897952220062237 0,824491058394542 
