-0,146096937599171 -0,68207385626299 0,492067893437607 -0,910334074535097 -1,75226663588279 -0,13927923259804 1,36516199434929 0,147032283780646 0,004198809914849 
0,191237387802097 -0,70677947704996 0,235082433202808 -0,296511954938766 -1,46435695133887 -0,506695480494618 0,190226698848524 0,83686438445368 0,632943684702713 
-0,589241063962337 0,217113308243972 -0,446292892479009 -1,25839664956061 -0,890142105814136 -1,1844023510606 0,191179449586281 -0,984732875300447 0,291720675613135 
1,66183530354539 -1,85778530668457 0,637286473828036 -0,023925942552707 0,088833401486666 0,71258121686223 1,9721591815884 -0,920416441708997 -1,52089483472141 
0,497104890755892 -1,40324388527043 1,1330841796026 -0,158528415732797 -0,81794918971972 -1,32922832997107 -0,895648175801918 -1,4179813888804 0,675952533454612 
0,672631266081534 0,34861254568613 1,0826482189934 0,349201965774038 0,8371680927636 -1,67412039453402 -1,43307542046722 -0,169726809100121 0,292284506681973 
-0,252119526850115 0,112299711961439 -0,177931750448855 -1,40252975550179 1,28448647587862 1,61846623941765 0,648000091788825 0,7033266908039 -0,381182409534781 
1,48565316472978 -1,53080129246311 0,288364868279716 0,618593201794938 -0,304653421013455 0,02481341718408 -0,481562599298341 0,201466139965442 -0,365785135592234 
-1,6407286226804 -0,928987068729469 0,218343911966935 -0,929251125049429 -1,26795533468898 -0,412842684151997 -0,669527087206732 0,488047779937763 0,824491058394542 
