-0,698552753635939 0,680334664732374 0,216321773755048 -0,193541227757251 1,0668139632036 -0,889852452040581 -0,381739745559981 0,224638788892719 -0,103346716833462 -0,250173197417135 
-1,6536395512636 -1,35934055211504 -0,281238796147629 0,0198743689762769 -1,45113042919996 -0,187361194666643 -0,444586122149874 1,65316472483061 -0,799889651033976 0,143729551296555 
-0,840275464505086 0,919613972268819 1,29775830063445 -0,306519124626889 -0,119767934605371 1,46729931600313 -1,6230133669423 -0,968426557881491 0,45169187497892 0,744547416337089 
-1,34009310496556 2,02050169732538 0,0691503064893889 0,567351569858543 -0,115495527682591 -0,276747091043623 1,06474773157702 0,73104360564707 0,122049850934208 1,92064545101609 
0,608545873770279 0,602352052741848 -1,07175739549229 -0,289050695448206 0,690380092566079 0,070437407912424 1,73003132337333 -0,769168165404894 0,75222542253054 0,315426485294209 
-0,895010818385524 1,59206456287488 0,242336377787095 0,0176261267706874 0,65235649871284 0,502165876097123 0,610034753386879 -0,19383772209512 0,629224372855026 0,00183164252565793 
0,475037433601002 -1,57031492763772 0,648805233193471 -0,995412254118087 -0,128577965837241 -0,701221964182901 0,98642090334856 0,960151819493692 1,55613463089202 1,54455038994343 
-0,336453906589865 0,660663094213541 0,20733798880984 0,0946459139071619 1,62203834671203 -0,894599963568896 1,17919060351382 -0,427963883349655 -0,297506232711722 0,635444278366139 
-1,30424166083114 0,232677906394321 -0,503649613588885 -0,586867036105537 -0,931552543911409 -0,546157667840439 0,0851653195382867 -0,334475820281299 -1,1640049288543 -0,310661403779714 
