0,209072456619736 -0,380366662228651 1,07704660055183 0,618406868362057 -0,283850522085489 -0,741439789413214 -1,27270328981974 0,531278708438519 -0,0327161536704359 -1,03596308427256 
0,820634646257681 1,08426963885094 1,20761794018495 -0,42052850752162 0,17172411947638 0,130954079563708 0,430439488111269 0,445855280764799 -0,607434588008762 1,15013004974096 
-0,154716317786703 0,240588728623273 0,721002611547244 -0,241953715329037 0,164771335741864 -0,932934925567328 1,64698583912942 1,95022200871828 0,25094503565782 -0,217951814279869 
-0,705771033515116 -0,92817487098657 1,68693829237387 -0,434188339595771 0,0529276351690889 0,0836933530325505 0,927770989913387 0,134505467724756 -0,193986147559707 0,638826910876588 
-0,590795493839679 -0,720949844965688 0,874775644040562 -0,642837561500649 0,258487161834951 0,462838630873169 2,37124156491516 -1,39618414070792 0,942338378487312 0,751981357928357 
-2,10018796186996 0,160984002301462 -0,559920296506454 -1,55258186623621 0,82137089680013 0,354483727996463 -0,715369273775895 1,62600031588087 -1,23936446737981 0,342084403481839 
-2,08142562854263 -0,143925298538024 -0,0266663272193011 -0,81476433939057 -0,637192050757442 0,0558095172442541 -0,98866865352293 -0,744193720219281 -0,859456142690711 0,39503076644383 
-0,48981691034968 -0,0900659796134879 -1,05315857167549 -0,860261498885351 -0,0310744564193648 0,259233527178985 -0,327186915417289 1,67084017304789 -0,886440877163988 -0,684067295131305 
0,467823509517509 0,65716997983734 0,700883630230969 0,498963677729463 0,189236147590092 1,51924496418342 0,631745425519881 0,853520158610083 0,437440763604101 0,00544390717262611 
