0,595750128662097 0,732842932969259 0,951998336218297 -1,03289613286215 0,127644318973946 0,690319147455189 0,0650114673492552 -0,115321230662671 1,5288636954035 
-0,724307496903607 1,21346964202098 0,979558353302795 1,6661282526502 -0,688046643072295 0,287921655884442 1,54072464067103 0,542639002922289 -0,547897319098887 
-0,439055071882464 0,846838957558777 0,107099971611099 0,320870812373176 -0,0346319081287979 -0,995964716186731 -0,022855604250848 -1,43139177085943 0,395168367198747 
0,044258267812085 0,171300111883925 0,993437909518107 -0,442975585089519 -0,449122778814809 0,806049004745227 1,05821609284227 1,23695947863532 -0,648252347320436 
-0,469244252350295 0,60903825778935 0,188740019015847 1,58165938777507 -0,952433416597747 -0,00472544803085095 1,00854040001498 -1,44206701862303 0,234944019110382 
-0,671563675181271 0,731263396843459 -0,603736828535207 0,520839405954275 -0,06455455833839 -0,767721058399752 -0,0581236197883839 -0,619781504846542 0,773530071495813 
0,275411494670162 -1,60747172403078 -0,774618566862596 0,145179522757036 -0,883697892485046 0,803213378322876 -0,689574492019403 -0,848915453636979 -0,322080293354616 
0,818338232030318 1,54731149129491 -0,709926570337697 -0,989840047429241 -0,67663613196818 0,450577640650132 -0,0512665449880373 -0,361552938228731 1,5259327645865 
0,759473911374562 -0,0552506178739719 0,375349372334475 0,224580948518394 -1,41950694554975 0,181757278066481 1,43732260903731 -0,476129077130989 -0,534176921255038 
