-0,234669104793421 0,853198440677113 0,332951148661296 0,749719638260882 -0,432401946481504 1,2626945523702 0,179950005924306 -0,751151407952957 -1,21505084521419 -0,0794995394905561 
-0,767932644937156 -1,07500693455618 0,930594456988198 0,577845454019422 -1,60293892769792 -1,23558145463773 -0,694689746511024 0,099041303838622 0,509033404062052 0,204895167534191 
0,108450632420113 -0,609297032286086 -1,04026752496663 1,29031738716239 0,650900179357687 0,713210161348903 -1,41606401455918 -0,790455979197498 -0,26764734148404 0,507920359963514 
0,226187675830996 1,24111138173012 0,100363246970513 -0,208854787321694 -0,126056796757065 -1,35911009168723 -0,224940917386646 0,198887044483743 -0,740172824701375 0,301154247159676 
-0,91975471373636 -0,0245845748091039 -0,539736563763924 1,59133366307352 -1,53724879953463 0,999163057361805 -0,330760476799105 -0,128896020585623 -0,0433448883906682 -0,370861580302409 
0,309040413847678 -0,914822124836418 -0,539181578689805 0,726790705275624 0,1479444686081 -0,950039317515231 0,712061094917385 0,181053291917803 0,756739754754929 -1,65280450881636 
0,4092415121427 -0,155523743087204 -1,28904861195947 0,781629258372183 -1,33314305157594 -0,86716337123288 -0,731185723902278 -1,47806756563907 0,608290985044228 -0,410945323021591 
0,198660441008238 -0,882146663908915 -0,603276812286711 -0,2727011329968 -0,690675646561047 -0,173964792770783 -0,455560468522161 -0,245601188040153 0,44156618669702 -1,34826287800412 
-0,649029361851993 0,405832006026447 0,25288890919317 -0,203785761181631 -0,801120053884164 0,834009800667413 0,0872929604199217 -0,240427458305111 -0,663799255929794 1,13098252075817 
