0,595750128662097 -0,653157067030741 0,951998336218297 -0,339896132862147 0,127644318973946 -0,00268085254481099 -0,627988532650745 0,577678769337329 0,142863695403497 
-0,724307496903607 0,520469642020981 0,979558353302795 1,6661282526502 0,697953356927705 0,980921655884442 0,847724640671035 -0,150360997077711 0,145102680901113 
-0,439055071882464 0,153838957558777 1,4930999716111 -0,372129187626824 0,658368091871202 -0,995964716186731 0,670144395749152 -0,738391770859431 -0,297831632801253 
-0,648741732187915 0,864300111883925 1,68643790951811 -0,442975585089519 -1,14212277881481 0,113049004745227 0,365216092842266 0,543959478635322 -1,34125234732044 
0,223755747649705 0,60903825778935 -0,504259980984153 1,58165938777507 -0,952433416597747 0,688274551969149 -0,377459599985024 -1,44206701862303 0,234944019110382 
0,0214363248187286 0,731263396843459 0,782263171464793 0,520839405954275 0,62844544166161 -0,0747210583997523 -0,751123619788384 0,073218495153458 0,773530071495813 
0,275411494670162 -0,221471724030781 -0,774618566862596 0,145179522757036 -1,57669789248505 0,803213378322876 -0,689574492019403 -0,848915453636979 -0,322080293354616 
1,51133823203032 0,854311491294909 0,676073429662303 -0,989840047429241 0,70936386803182 0,450577640650132 -0,0512665449880373 0,331447061771269 1,5259327645865 
1,45247391137456 0,637749382126028 -0,317650627665525 0,224580948518394 -0,726506945549746 -0,511242721933519 0,744322609037311 -0,476129077130989 -1,22717692125504 
