-0,483927543380264 -0,380366662228651 0,384046600551832 -0,0745931316379429 0,409149477914511 -0,048439789413214 0,113296710180257 0,531278708438519 -0,0327161536704359 -0,342963084272557 
-1,6536395512636 -0,66634055211504 -0,974238796147629 -0,673125631023723 -0,758130429199958 -0,880361194666643 0,248413877850126 1,65316472483061 -0,106889651033976 0,143729551296555 
-0,840275464505086 1,61261397226882 -0,0882416993655459 -0,999519124626889 -0,812767934605371 0,774299316003127 -0,9300133669423 0,417573442118509 -0,24130812502108 0,744547416337089 
0,301316543156894 0,203014215721755 -0,743916063450238 0,209505148795203 -0,137301382499887 -0,0877129707758839 -0,239832408372235 0,679194392487032 -0,211615255666718 -0,514782679679702 
0,693332947354919 -1,60829220990617 -0,871839865982458 0,0756105981187944 0,162105691229042 -0,699444583477194 -0,280489826532774 0,130138562294253 -0,716525658833108 1,64411006961722 
0,869630787460893 -1,06600740898261 -1,56263743617276 1,34431822864121 -0,0282334771003729 0,074833274095242 -1,61742363590208 0,908840898381938 -0,45977329315188 1,29251464720048 
-0,959839085098281 0,20068681232151 -1,2270530860862 0,152105866829448 -0,858489740574029 0,529346233014644 -0,922424488664802 -0,183743944942832 -0,842824248523835 -0,363417458424073 
1,05247121370559 -0,816780514636906 0,171779980497332 -0,671106971354274 -0,856603396058364 -0,924983254598912 0,0984538382512771 -1,16385229748434 0,531375184144068 -0,420323351128177 
0,0547891425359011 0,632848070763447 -0,558900899048383 0,500581805361706 0,181916628876196 -0,325676047860494 -0,620348348105489 -0,395234292091445 1,23773862589558 0,0948653434048711 
