-0,105309632190182 0,239367819036994 0,165511332063708 -0,060979480125 -0,851668748642629 1,61851976811398 0,841215354316502 -0,989821505435194 0,599021753109536 
-0,938618720480529 -1,531936092257 -1,04145145668297 -1,09234055479213 0,283412390986184 -0,891171124713109 -1,16586087715666 0,0633857366924109 -0,990077226125205 
0,0545455573245629 1,04109339947444 -0,693260435803449 0,0426169322070744 0,805292979723445 1,64968639706293 -1,13347513298712 -0,883511625176068 -0,689686040249507 
-0,0441280415622181 0,0124776653868509 1,16083704937801 0,513878254631943 1,15627183836292 0,362539941148152 -0,119632522165604 0,0230225903885539 -1,33842470017701 
-0,252107709936382 -0,0025112816940579 1,65543733352164 0,886051262382907 1,3614044681808 -0,158880625459776 0,129494957220506 0,64654432872615 -0,793174526557873 
0,186903769703072 -0,0199303234223881 1,23798306454391 -0,590326482239331 -0,0134734832744456 0,0251174111171241 -1,43971979888655 1,58657728599272 -0,817410064776153 
0,324518885787352 0,852073435602744 0,434074839313549 0,208824935000774 0,765495652862124 0,417842876533439 -0,0777941916365149 0,578343395878721 -0,616299170822044 
-1,56181529626847 0,240503024887528 -0,995207930619925 0,289008602168881 1,41329196737348 -0,73961019940237 0,754253575463897 0,0862468327797237 0,372897018386469 
-1,32468282975987 0,35333816770154 0,186599696900509 0,216857943319184 0,318780794422506 0,434728238175497 1,48927153547307 -1,57663965502178 0,642395101028213 
