0,902072456619736 -0,380366662228651 -0,308953399448168 0,618406868362057 1,10214947791451 -0,741439789413214 -0,579703289819743 0,531278708438519 0,660283846329564 -1,03596308427256 
-0,9606395512636 -0,66634055211504 -1,66723879614763 0,0198743689762769 -0,758130429199958 -0,880361194666643 -1,13758612214987 0,960164724830615 -1,49288965103398 0,143729551296555 
-0,840275464505086 1,61261397226882 -0,0882416993655459 -0,999519124626889 -0,119767934605371 1,46729931600313 -0,9300133669423 -0,275426557881491 0,45169187497892 0,051547416337089 
0,301316543156894 0,203014215721755 -0,743916063450238 -0,483494851204797 -1,52330138249989 1,29828702922412 -0,239832408372235 -0,013805607512968 -0,211615255666718 0,871217320320298 
0,693332947354919 -1,60829220990617 -0,178839865982458 0,0756105981187944 0,162105691229042 -0,00644458347719401 -0,973489826532774 0,130138562294253 -1,40952565883311 0,258110069617215 
0,869630787460893 -0,373007408982612 -0,869637436172756 0,651318228641207 0,664766522899627 -1,31116672590476 -0,924423635902081 0,215840898381938 0,92622670684812 -0,093485352799522 
-1,65283908509828 0,20068681232151 -1,2270530860862 0,845105866829448 -0,165489740574029 0,529346233014644 -1,6154244886648 -0,183743944942832 -0,842824248523835 -0,363417458424073 
0,359471213705592 -0,123780514636906 0,864779980497332 0,0218930286457264 -0,163603396058364 -0,924983254598912 1,48445383825128 -0,47085229748434 0,531375184144068 -1,11332335112818 
1,4407891425359 0,632848070763447 -1,25190089904838 -0,192418194638294 0,874916628876196 -1,01867604786049 -1,31334834810549 -0,395234292091445 0,544738625895576 1,48086534340487 
