-1,39155275363594 -0,0126653352676259 0,909321773755048 -0,886541227757251 0,373813963203604 -1,58285245204058 -1,07473974555998 0,917638788892719 0,589653283166538 1,13582680258286 
-0,2676395512636 -0,66634055211504 -1,66723879614763 -0,673125631023723 -0,065130429199958 -0,880361194666643 -0,444586122149874 0,960164724830615 -0,799889651033976 0,143729551296555 
-0,840275464505086 1,61261397226882 0,604758300634454 -0,999519124626889 -0,119767934605371 0,774299316003127 -0,2370133669423 -0,275426557881491 1,14469187497892 0,051547416337089 
-0,647093104965562 1,32750169732538 -0,623849693510611 -0,818648430141457 -0,115495527682591 -0,969747091043623 0,371747731577022 -0,65495639435293 -0,570950149065792 1,92064545101609 
-0,0844541262297211 0,602352052741848 -0,378757395492288 -0,289050695448206 0,690380092566079 0,070437407912424 0,34403132337333 -0,769168165404894 -0,63377457746946 -0,377573514705791 
-0,202010818385524 0,899064562874876 0,242336377787095 0,0176261267706874 -0,73364350128716 -0,190834123902877 0,610034753386879 -0,19383772209512 1,32222437285503 0,00183164252565793 
-0,910962566398998 -0,877314927637724 0,648805233193471 -0,302412254118087 -1,51457796583724 -0,008221964182901 1,67942090334856 0,960151819493692 2,24913463089202 0,851550389943435 
1,04954609341014 0,660663094213541 -0,48566201119016 -0,598354086092838 1,62203834671203 -0,201599963568896 -0,206809396486175 -0,427963883349655 0,395493767288278 -0,0575557216338607 
-1,99724166083114 0,232677906394321 0,189350386411115 -0,586867036105537 -0,931552543911409 0,839842332159561 0,0851653195382867 0,358524179718701 -0,471004928854297 0,382338596220286 
