-0,0572962104609684 -1,0950053927796 -0,340564741445968 -0,391497750483219 0,713558380065746 0,103020499681132 0,0891520600249767 0,087758154476415 -0,272441133225076 
1,05558336406321 -0,767488019432634 1,1797708103204 0,442426117808757 1,17005878199872 0,156738062289422 -0,225686282783135 -0,980993971219749 0,112028788361712 
0,562033164110981 -1,64016482327653 -0,833122954333258 0,466111707890924 -0,983479251784496 0,818948130039008 0,557370533029256 0,986562172876001 0,938874635816959 
1,49653036606849 0,804268789093601 1,32090570204514 -0,492615343473673 -0,74885288771235 0,868177608525463 -0,252920461177789 0,759245364814645 0,331300661587762 
-0,813152422748577 1,07779116437248 0,752757411042115 -0,201979767159549 0,527491264756532 -0,21087182928383 -0,651932957420094 -1,5706365676325 1,18147521724574 
-0,930677246908507 -0,83792888551854 1,3304273894529 -0,876804298663886 0,201947015338553 0,514446929802395 1,51957069332272 -0,859000435671769 0,942917354085444 
0,522440749929492 -0,137407918351892 0,888473859004897 -0,159512871484977 0,0511317164875249 0,726996207189744 0,164145863864173 0,97862169395649 -0,330510634617186 
-0,247087663913186 1,2151633303548 0,204387121463375 -0,784498783659422 0,810328863472831 -0,850940509629874 0,0141993542267937 0,079121808092632 -0,145891730275886 
-0,19314049489989 0,56928735177046 1,42106249796369 -1,50306456250794 -0,66974847375869 -1,16516071693374 -1,47435488451522 1,29054818350475 0,359654579013425 
