1,36756173043445 -0,0349283074191438 -1,56855384909527 0,661609355202694 1,0002998539113 -0,364448263945267 0,195342814175106 0,84921981852931 0,811776141548425 
-1,28166409379461 0,533950650847494 0,123208957315986 -0,618420039125914 0,687537119285454 -0,392518892308473 -0,444797190579026 1,13497102237585 -0,744786069609591 
1,2194087699011 -0,270084044263272 -0,0871444995124571 1,28203345446523 0,432690259443452 -0,0207333718523073 1,23830724768774 0,504086475588422 -0,674873771925864 
-0,794640430153646 0,944815891476262 1,58419807346314 -0,109095874758948 1,55269432529979 -0,620433240952172 0,316305700371184 0,368450727019669 0,261210653586877 
-0,326076898410021 0,102759987629373 0,870596060469093 -1,34156962657001 0,367856657769464 0,503379930510828 -0,588391695911247 0,166187433137646 -0,192391949329708 
-0,443406937384702 1,59577248337063 0,223714505599213 -0,771754453490839 -0,83270945921713 -1,27017732786069 -1,45853915057589 0,168128349430919 0,332214307660337 
-1,31933060180877 0,660879316288922 0,381474841098057 0,947963052405027 -0,0100405286112989 0,559036089833377 -0,011849219743558 0,552651897502901 0,632862877861067 
0,944665621940356 -0,30821162214466 0,660775316721189 -0,093008405745033 -0,343177447720979 -0,056497370091964 0,412711002297565 0,173801539081056 -0,560120984707084 
0,27450662043202 -0,0974854453124501 0,171982299789312 -1,39627995889973 -0,783737491715577 -1,20081934126644 0,196427233142977 0,113551333133854 -0,641164254230058 
