-0,559336349801317 -1,32820643004924 0,471370679080193 -0,978360065887384 0,0604056525325429 0,686177497583524 0,0540202777152976 -0,556695953443505 -1,0964503816643 -0,10695537574494 
0,680948010497237 -0,937822476931765 0,00607764703923708 1,48223418828716 -0,0770554147088227 -0,412280476378408 -0,990259619425172 -1,03644963698809 0,335453114162876 0,0825696397025928 
-1,12622229079587 -1,10140673605372 -0,344580057703229 0,900279683945831 -1,34777960726935 1,20579476076029 -0,274917008948939 0,195901003930206 0,165898696131026 0,938951460616175 
-0,417673811683745 1,15196401137997 1,39287455555232 -0,104575821712881 -0,150125086843094 0,0321449552016081 0,743749680516659 -1,31153493452935 -1,02009502863097 -0,56490248299013 
-0,197941403755425 0,471443375326434 -1,21755935418818 -0,166246885045547 0,54717947771688 0,447903952942651 1,19589098336496 1,28364884092223 0,589627858991561 -0,684798355705942 
-0,0851882785024067 0,752707347158672 -0,759172480441245 0,474725929775613 0,262640989042186 -0,826262368739705 0,197778498380342 0,432671464715466 0,404499245530227 -0,638196707241794 
0,537611561319144 -0,3229509980059 0,0829498959160178 -0,461002305830364 0,645174272193189 0,466103343682877 -0,0818814901085019 -0,657829721298921 -0,272029459137483 0,057916117100472 
-0,28633113515439 -1,07615481198167 0,73313633246959 -0,619064112947818 1,48183657128962 0,0953343338777006 -0,190847381865535 0,821666827342318 0,0461002062289511 1,283316439788 
-0,99009622260467 0,134434150128828 -0,779726855061355 -0,842302948163032 -0,668860260881418 1,21561884115758 0,218136491821211 -0,774851374223293 0,632783189244933 -0,32386271810339 
