0,235863056609343 0,52341886185781 1,23585467022231 0,0681589679178591 -0,0778519653011359 1,17065872603173 1,03251893324941 -0,910195401827896 1,1514312026661 -0,87363378045784 
-1,61442377510733 1,1857361502744 -1,00047335930703 1,27123387979448 0,896482037039233 0,0103548453237652 1,19020216798466 -1,29637850991794 -1,44112941055192 0,0112763722479698 
-1,67110047118836 1,33168553081466 -0,427894049057688 -0,0100016201096591 0,0923461770137521 0,182402468837054 -0,25753088697257 -0,601819300838662 -0,256169453848232 0,119035221518965 
0,736624155070923 1,09385691371972 1,28543118464594 1,03039029957791 0,767562451371254 -1,67933431549479 0,135065036423069 -0,249820735887541 -0,760836543403955 0,50541470363057 
0,363641019321345 -0,0734407301402841 0,992146437984028 -0,870632764530197 0,252870836878601 -0,6598033856879 0,0669472706815915 -1,63348449766845 -1,52113266470476 -0,171773896805371 
-0,223709113534404 -0,90786421201558 0,492452019589232 0,512594550621041 0,136923549933323 0,597177525794682 -0,741687089084502 -0,447143709668025 0,975812790904107 0,125745565861811 
-0,957810386995697 0,634338234088075 0,345974052020336 1,33939598114714 -0,610257935528764 -0,322280688827057 0,900304965628453 -0,337863658884942 0,196671428423222 -0,503183647465978 
0,182289808900696 -0,252977096127801 -0,842541966513983 -0,946544114182491 -0,659364647073375 0,788340258951923 1,33953909283063 0,749738715472509 0,0441275430117396 0,445149562701653 
1,07600757919578 -0,194621166770636 -0,810545531651725 0,65074636864045 0,695296981868472 -1,51448742108675 -0,991058679931824 0,719458273481325 -0,912685470614901 -0,153545067251448 
