-1,52154613840047 0,284114023337194 0,084525350693392 1,16137540132384 0,349443275816945 0,384565975868872 0,0473524513874912 0,635636302179953 -1,29242858926925 0,18673581248882 
-0,274039950815048 -1,58019948375933 -0,688440029364284 -0,943720406826455 -0,491795239733437 0,870517052649761 -0,533057317851604 0,0883990552823061 0,146832733949103 -0,0433985316396684 
-0,447050068908394 -0,798788124308823 -1,4914654557884 -0,00651099829818591 0,289943656846389 0,652954228992087 -0,0413862052566307 -0,839767992128976 -1,61605064290904 -0,941383191995501 
-0,1107058176355 0,44453581926205 0,876408138254847 0,200200344063435 -1,56930308134309 0,575537874165707 0,934337527167675 -1,21670977938348 -0,964654897961605 0,662209340852317 
0,245639142867475 1,40718625009907 0,235931219177289 -0,853024810191255 -0,552158510103895 -0,672921500947756 -1,42305335020369 -1,53976503848599 0,970777539522749 -0,57379701154949 
0,056319826136027 0,403781603451251 -1,64340550080613 -0,843050135226478 -0,580114185321664 -0,415758014091643 0,0825794791255983 0,398036348991579 0,485431744477447 -0,689510953175142 
0,039952181125503 -0,805879556483533 -0,134313054911007 1,34195460272625 -0,00955836987567993 0,974424229922902 -0,763607622014176 0,111359626572281 1,62558267451664 -0,067333113899144 
-0,370820474517914 0,297652461531876 -0,63994604675609 -0,129376606903214 -0,596037674507144 0,531763680992538 0,658280656513889 1,05455935440285 0,238647511805709 1,34886515779414 
-0,191544801844538 1,06895361069588 -0,773686636133905 0,222604442957139 -0,65725566494663 0,644488367086504 1,60140489413049 -0,920163365975098 -0,10653325035541 -0,215615074423428 
