-1,39155275363594 -0,0126653352676259 0,909321773755048 -1,57954122775725 0,373813963203604 0,496147547959419 -0,381739745559981 -0,468361211107281 0,589653283166538 -0,250173197417135 
0,4253604487364 0,02665944788496 -1,66723879614763 -0,673125631023723 -0,065130429199958 -0,880361194666643 -1,13758612214987 2,34616472483061 -0,799889651033976 0,143729551296555 
0,093752089172952 -0,278566791978463 -1,10301457879786 0,69987385985436 -0,294118313721436 1,42578966254219 0,463509740989427 0,555575808941655 2,11455944918867 -0,826563362296933 
-0,391683456843106 -1,18298578427824 -0,743916063450238 0,902505148795203 -0,830301382499887 -0,0877129707758839 0,453167591627765 1,37219439248703 0,481384744333282 0,178217320320298 
0,000332947354918733 -0,915292209906174 -0,871839865982458 0,0756105981187944 0,855105691229042 -0,00644458347719401 -0,973489826532774 0,130138562294253 -0,0235256588331081 0,951110069617215 
0,176630787460893 -0,373007408982612 -0,869637436172756 0,651318228641207 -0,0282334771003729 -1,31116672590476 -1,61742363590208 1,60184089838194 0,23322670684812 0,599514647200478 
-0,959839085098281 0,89368681232151 -0,534053086086201 0,152105866829448 -0,858489740574029 1,22234623301464 -0,922424488664802 -0,183743944942832 -0,149824248523835 -0,363417458424073 
0,359471213705592 -0,123780514636906 0,171779980497332 -0,671106971354274 -0,856603396058364 -0,231983254598912 0,791453838251277 -0,47085229748434 0,531375184144068 -0,420323351128177 
0,0547891425359011 0,632848070763447 -1,25190089904838 0,500581805361706 0,874916628876196 -0,325676047860494 -1,31334834810549 0,297765707908555 0,544738625895576 0,787865343404871 
