0,635703789539032 -0,402005392779599 -1,03356474144597 0,301502249516781 0,0205583800657458 -0,589979500318868 0,782152060024977 0,780758154476415 -0,272441133225076 
1,05558336406321 -0,767488019432634 0,486770810320401 0,442426117808757 0,477058781998725 1,54273806228942 -0,225686282783135 -1,67399397121975 0,805028788361712 
0,562033164110981 -0,947164823276533 -0,140122954333258 -0,919888292109076 -0,290479251784496 0,818948130039008 -0,135629466970744 0,293562172876001 1,63187463581696 
0,110530366068487 -0,581731210906399 1,32090570204514 0,893384656526327 0,637147112287649 0,868177608525463 0,440079538822211 0,066245364814645 0,331300661587762 
-0,120152422748577 0,384791164372485 0,752757411042115 0,491020232840451 0,527491264756532 -0,21087182928383 -0,651932957420094 -0,184636567632499 0,488475217245741 
1,14832275309149 -0,14492888551854 1,3304273894529 -0,87680429866389 0,201947015338553 0,514446929802395 1,51957069332272 -0,859000435671769 0,942917354085444 
0,522440749929492 -0,137407918351892 0,888473859004897 -0,159512871484977 0,744131716487525 0,726996207189744 -0,528854136135827 0,97862169395649 -0,330510634617186 
1,06614966478066 0,856671156002055 0,780192625606522 -1,09919324492579 -2,09928326487601 1,26426698809269 0,24227823374899 -0,0693401742914409 -0,873991382249627 
0,564534712725568 -0,714529062195462 0,634028721430352 -1,03527968971863 -0,196304118524913 -0,850547597381076 -0,51437225728965 0,862210347252996 0,439108587885792 
