0,595750128662097 0,0398429329692587 0,951998336218297 -0,339896132862147 0,820644318973946 -0,00268085254481099 0,0650114673492552 -0,115321230662671 0,835863695403497 
-0,724307496903607 0,520469642020981 0,979558353302795 0,973128252650205 0,00495335692770471 0,980921655884442 0,847724640671035 0,542639002922289 -0,547897319098887 
-0,439055071882464 0,846838957558777 0,800099971611099 -0,372129187626824 0,658368091871202 -0,995964716186731 0,670144395749152 -0,738391770859431 -0,297831632801253 
-0,794640430153646 0,251815891476262 0,891198073463141 -0,109095874758948 0,859694325299791 -0,620433240952172 0,316305700371184 0,368450727019669 0,261210653586877 
-0,326076898410021 0,102759987629373 0,870596060469093 -0,648569626570013 0,367856657769464 0,503379930510828 -0,588391695911247 0,166187433137646 -0,192391949329708 
-0,443406937384702 0,902772483370627 -0,469285494400787 -0,0787544534908395 -0,13970945921713 -0,577177327860695 -0,765539150575893 0,168128349430919 0,332214307660337 
-0,626330601808769 -0,0321206837110783 0,381474841098057 0,947963052405027 -0,0100405286112989 0,559036089833377 -0,704849219743558 -0,140348102497099 0,632862877861067 
0,944665621940356 0,38478837785534 0,660775316721189 0,599991594254967 -0,343177447720979 0,636502629908036 -0,280288997702435 0,173801539081056 -0,560120984707084 
-0,41849337956798 -0,79048544531245 -0,521017700210688 -0,703279958899729 -0,783737491715577 -0,507819341266444 0,196427233142977 0,113551333133854 -0,641164254230058 
