-1,39155275363594 0,680334664732374 1,60232177375505 -0,88654122775725 0,373813963203604 -0,196852452040581 -0,381739745559981 -0,468361211107281 1,28265328316654 -0,250173197417135 
-0,9606395512636 0,02665944788496 -0,281238796147629 -1,36612563102372 -0,758130429199958 -0,187361194666643 0,248413877850126 1,65316472483061 -1,49288965103398 0,143729551296555 
0,093752089172952 0,414433208021537 -1,10301457879786 0,69987385985436 -0,294118313721436 1,42578966254219 -0,229490259010573 0,555575808941655 0,72855944918867 -0,133563362296933 
0,994316543156894 -0,489985784278245 -1,43691606345024 0,209505148795203 -0,830301382499887 0,605287029224116 -0,239832408372235 -0,013805607512968 -0,211615255666718 0,871217320320298 
0,000332947354918733 -0,222292209906174 -0,871839865982458 0,0756105981187944 -0,530894308770958 -1,39244458347719 -1,66648982653277 -0,562861437705747 -0,716525658833108 0,258110069617215 
0,869630787460893 -1,06600740898261 -0,176637436172756 1,34431822864121 0,664766522899627 -0,618166725904758 -1,61742363590208 0,908840898381938 0,92622670684812 0,599514647200478 
-1,65283908509828 0,89368681232151 -0,534053086086201 0,845105866829448 -0,858489740574029 1,22234623301464 -0,922424488664802 -0,183743944942832 -0,149824248523835 -1,05641745842407 
1,05247121370559 -0,123780514636906 -0,521220019502668 0,714893028645726 -1,54960339605836 -0,924983254598912 0,791453838251277 -0,47085229748434 -0,854624815855932 -0,420323351128177 
1,4407891425359 -0,060151929236553 0,134099100951617 0,500581805361706 0,874916628876196 -0,325676047860494 0,0726516518945109 -0,395234292091445 0,544738625895576 0,0948653434048711 
