0,546903062400829 -0,68207385626299 0,492067893437607 -0,910334074535097 -1,75226663588279 1,24672076740196 0,672161994349287 -0,545967716219354 0,697198809914849 
0,191237387802097 -0,0137794770499601 0,928082433202808 0,396488045061234 -0,771356951338871 -0,506695480494618 0,190226698848524 1,52986438445368 -0,0600563152972869 
-0,589241063962337 -0,475886691756028 -0,446292892479009 -0,56539664956061 -0,197142105814136 -0,491402351060604 1,57717944958628 -0,291732875300447 0,291720675613135 
1,66183530354539 -0,47178530668457 1,33028647382804 -0,716925942552707 -0,604166598513334 0,01958121686223 1,2791591815884 -0,227416441708997 -0,134894834721412 
-0,195895109244108 -0,71024388527043 0,440084179602602 0,534471584267203 -0,12494918971972 -0,636228329971073 -1,58864817580192 -0,7249813888804 -0,710047466545388 
-0,0203687339184661 1,04161254568613 -0,303351781006601 -0,343798034225962 1,5301680927636 -2,36712039453402 -0,740075420467218 -0,862726809100121 0,292284506681973 
-0,945119526850115 0,805299711961439 -0,177931750448855 -1,40252975550179 -0,101513524121378 0,925466239417654 -0,0449999082111753 0,7033266908039 -0,381182409534781 
0,445912336086814 1,2151633303548 0,897387121463375 0,601501216340578 0,117328863472831 -0,850940509629874 0,0141993542267937 0,772121808092632 0,547108269724114 
0,49985950510011 0,56928735177046 0,728062497963692 -0,117064562507935 -1,36274847375869 -1,16516071693374 -1,47435488451522 0,597548183504747 0,359654579013425 
