0,230730137136639 0,0368733466774567 0,00144547055123589 -0,187550862872764 -1,36859712737594 -0,787250353855663 0,0590663808672998 0,411712780959305 -0,856001744618175 
0,311216110042863 -0,262200146569964 -0,144708039133674 -0,103365624837282 -0,170784993642375 -0,273305843884268 -0,794584534673758 -0,172191125886604 -0,398992711105381 
0,018814891412768 0,068628368172622 0,173395392738467 1,37390235333932 0,102423835127812 0,15883569287082 -0,42657237100721 0,138554111014844 -0,293540901813908 
0,626233178948161 0,391288280203607 -0,1962501160783 -0,779849703959585 -1,60178299898877 0,192359886687417 -0,914246307646039 -0,369213740047633 -0,155450052188453 
0,0447804588101712 -0,708416098592997 0,42096563774206 1,58641900772109 -1,32541834642013 -0,50920062954966 -0,629639138295147 -0,493436056884674 0,0491348739807189 
0,0312198663140739 -0,408243512459213 0,476159670146256 0,561776740272425 0,283425645861973 0,886363856441511 -0,570152225411102 0,616015616332654 0,668530520828688 
0,0984023327331069 -0,143172216202678 0,934449511549645 0,149609777680416 -1,45397849186555 -0,507151238390781 0,506290547958245 1,12583320191914 0,327424500755698 
-0,966751628539875 -1,29493418599755 -0,353417147581194 0,66293207417891 0,503880682808757 -0,108571253594743 0,268144208304186 0,16063500651607 -1,15677502729361 
0,873041651152559 0,125395883691682 -1,68495328540725 0,296596022288127 -0,382458508365535 -1,09714010798751 -0,197299181109899 -0,764792237321284 0,239797623474057 
