-0,698552753635939 0,680334664732374 1,60232177375505 -0,193541227757251 0,373813963203604 -1,58285245204058 -0,381739745559981 0,224638788892719 0,589653283166538 0,442826802582865 
-0,2676395512636 -0,66634055211504 -0,281238796147629 0,0198743689762769 -0,758130429199958 -0,187361194666643 -0,444586122149874 0,960164724830615 -0,799889651033976 0,143729551296555 
-0,147275464505086 1,61261397226882 0,604758300634454 -0,999519124626889 -0,119767934605371 0,774299316003127 -1,6230133669423 -0,275426557881491 -0,24130812502108 0,744547416337089 
-0,647093104965562 0,63450169732538 -0,623849693510611 -0,818648430141457 -0,115495527682591 -0,276747091043623 0,371747731577022 0,0380436056470701 0,122049850934208 1,22764545101609 
-0,0844541262297211 0,602352052741848 -1,07175739549229 -0,982050695448206 -0,00261990743392093 1,45643740791242 1,03703132337333 -0,076168165404894 -0,63377457746946 -0,377573514705791 
-0,202010818385524 1,59206456287488 0,242336377787095 0,0176261267706874 -0,04064350128716 1,19516587609712 -0,775965246613121 0,49916227790488 0,629224372855026 -0,691168357474342 
0,475037433601002 -0,877314927637724 -0,0441947668065289 -0,302412254118087 -0,821577965837241 -0,701221964182901 1,67942090334856 0,960151819493692 1,55613463089202 1,54455038994343 
0,356546093410135 0,660663094213541 -0,48566201119016 -0,598354086092838 1,62203834671203 0,491400036431104 0,486190603513825 -0,427963883349655 -0,297506232711722 0,635444278366139 
-1,30424166083114 0,925677906394321 -0,503649613588885 -0,586867036105537 -0,931552543911409 0,146842332159561 0,0851653195382867 -1,0274758202813 -0,471004928854297 -0,310661403779714 
