-1,39155275363594 1,37333466473237 0,216321773755048 -0,886541227757251 1,0668139632036 -0,889852452040581 -0,381739745559981 0,224638788892719 0,589653283166538 1,13582680258286 
-1,6536395512636 -1,35934055211504 -0,281238796147629 -1,36612563102372 -0,065130429199958 -0,880361194666643 -0,444586122149874 0,960164724830615 -0,799889651033976 0,836729551296555 
-1,53327546450509 0,919613972268819 -0,0882416993655459 -0,999519124626889 -0,119767934605371 0,774299316003127 -1,6230133669423 -0,275426557881491 0,45169187497892 0,051547416337089 
-0,647093104965562 2,02050169732538 0,0691503064893889 -0,125648430141457 -0,115495527682591 -0,276747091043623 1,06474773157702 0,73104360564707 -0,570950149065792 0,53464545101609 
0,608545873770279 1,29535205274185 -0,378757395492288 -0,982050695448206 -0,00261990743392093 0,070437407912424 0,34403132337333 -1,46216816540489 -0,63377457746946 -0,377573514705791 
-0,895010818385524 0,899064562874876 0,935336377787095 -0,675373873229313 -0,04064350128716 -0,190834123902877 -0,082965246613121 1,19216227790488 0,629224372855026 -0,691168357474342 
0,475037433601002 -0,877314927637724 0,648805233193471 -0,995412254118087 -0,821577965837241 -0,701221964182901 0,98642090334856 1,65315181949369 2,24913463089202 0,851550389943435 
-0,336453906589865 0,660663094213541 -1,17866201119016 0,0946459139071619 1,62203834671203 -0,894599963568896 0,486190603513825 -0,427963883349655 0,395493767288278 -0,750555721633861 
-1,30424166083114 0,232677906394321 -1,19664961358888 -0,586867036105537 -0,931552543911409 -0,546157667840439 -0,607834680461713 -0,334475820281299 -0,471004928854297 1,07533859622029 
