0,209072456619736 -0,380366662228651 0,384046600551832 0,618406868362057 0,409149477914511 -0,741439789413214 -0,579703289819743 0,531278708438519 0,660283846329564 -0,342963084272557 
-1,6536395512636 -0,66634055211504 -0,974238796147629 0,0198743689762769 -1,45113042919996 -0,187361194666643 -0,444586122149874 0,960164724830615 -1,49288965103398 0,143729551296555 
-0,840275464505086 0,226613972268819 1,29775830063445 -0,306519124626889 -0,812767934605371 0,774299316003127 -0,2370133669423 -0,275426557881491 -0,24130812502108 0,051547416337089 
0,994316543156894 0,203014215721755 -0,743916063450238 0,209505148795203 -1,52330138249989 -0,0877129707758839 0,453167591627765 1,37219439248703 -0,211615255666718 0,178217320320298 
0,693332947354919 -1,60829220990617 -1,56483986598246 0,0756105981187944 0,162105691229042 -0,699444583477194 -0,973489826532774 0,130138562294253 -0,716525658833108 0,951110069617215 
0,869630787460893 -1,06600740898261 -0,176637436172756 0,651318228641207 1,35776652289963 0,074833274095242 -1,61742363590208 0,215840898381938 0,92622670684812 0,599514647200478 
-0,266839085098281 1,58668681232151 -1,2270530860862 0,845105866829448 -0,858489740574029 0,529346233014644 -0,922424488664802 -0,183743944942832 -0,842824248523835 -0,363417458424073 
0,359471213705592 0,569219485363094 -0,521220019502668 0,714893028645726 -0,856603396058364 -0,924983254598912 0,791453838251277 -0,47085229748434 -0,161624815855932 0,272676648871823 
0,0547891425359011 0,632848070763447 -0,558900899048383 0,500581805361706 0,181916628876196 -1,01867604786049 0,0726516518945109 -0,395234292091445 0,544738625895576 1,48086534340487 
