-0,750296210460968 -0,402005392779599 -0,340564741445968 -0,391497750483219 0,713558380065746 -0,589979500318868 -0,603847939975023 0,780758154476415 1,11355886677492 
0,362583364063214 -0,76748801943263 -0,206229189679599 -0,250573882191243 -0,215941218001275 1,54273806228942 -0,918686282783135 -1,67399397121975 0,112028788361712 
1,94803316411098 -0,254164823276533 1,24587704566674 0,466111707890924 0,402520748215504 1,51194813003901 0,557370533029256 0,986562172876001 1,63187463581696 
0,803530366068487 0,111268789093601 1,32090570204514 0,200384656526327 0,637147112287649 1,56117760852546 0,440079538822211 0,759245364814645 0,331300661587762 
-0,120152422748577 0,384791164372485 0,0597574110421153 -0,894979767159549 -0,165508735243468 -0,21087182928383 -0,651932957420094 -0,877636567632499 1,18147521724574 
-0,930677246908507 -0,83792888551854 0,637427389452899 -0,876804298663886 -0,491052984661447 0,514446929802395 0,826570693322723 -0,859000435671769 0,249917354085444 
0,522440749929492 -0,830407918351892 0,195473859004897 -0,159512871484977 0,744131716487525 -0,659003792810256 -0,528854136135827 0,28562169395649 -0,330510634617186 
0,79265316472978 -0,837801292463113 0,981364868279716 0,618593201794938 -0,304653421013455 1,41081341718408 -0,481562599298341 0,201466139965442 -1,05878513559223 
-1,6407286226804 -0,235987068729469 -0,474656088033065 -0,929251125049429 -0,574955334688982 -0,412842684151997 0,0234729127932679 0,488047779937763 0,824491058394542 
