-0,750296210460968 0,290994607220401 -0,340564741445968 0,301502249516781 0,0205583800657458 0,103020499681132 -0,603847939975023 0,780758154476415 0,420558866774924 
-0,330416635936786 -0,767488019432634 0,486770810320401 0,442426117808757 0,477058781998725 0,849738062289422 -1,61168628278313 -0,980993971219749 0,112028788361712 
0,562033164110981 -0,947164823276533 -0,140122954333258 -0,226888292109076 -0,983479251784496 0,818948130039008 0,557370533029256 0,986562172876001 1,63187463581696 
0,110530366068487 0,804268789093601 0,627905702045144 0,200384656526327 -0,74885288771235 0,868177608525463 0,440079538822211 1,45224536481464 0,331300661587762 
-0,120152422748577 -0,308208835627515 0,752757411042115 0,491020232840451 1,22049126475653 -0,21087182928383 -1,34493295742009 -0,877636567632499 1,18147521724574 
-0,930677246908507 -0,14492888551854 0,637427389452899 -0,876804298663886 -0,491052984661447 1,2074469298024 0,133570693322723 -0,859000435671769 0,249917354085444 
0,522440749929492 -0,137407918351892 0,888473859004897 -0,159512871484977 0,0511317164875249 0,726996207189744 0,164145863864173 0,97862169395649 -0,330510634617186 
0,445912336086814 0,522163330354804 0,204387121463375 -0,0914987836594221 0,810328863472831 -0,157940509629874 -0,678800645773206 0,079121808092632 -0,145891730275886 
-0,19314049489989 -0,12371264822954 1,42106249796369 -0,810064562507935 -1,36274847375869 -0,472160716933739 -2,16735488451522 0,597548183504747 -0,333345420986575 
