0,458330895206579 0,853198440677113 0,332951148661296 0,749719638260882 -0,432401946481504 0,569694552370205 0,179950005924306 -0,751151407952957 -0,522050845214189 -0,772499539490556 
-0,074932644937156 -0,382006934556182 0,237594456988198 -0,115154545980578 -1,60293892769792 0,150418545362269 -0,694689746511024 -0,593958696161378 0,509033404062052 0,897895167534191 
0,108450632420113 0,0837029677139139 -0,347267524966629 1,29031738716239 1,34390017935769 0,0202101613489027 -0,723064014559176 -0,790455979197498 -0,26764734148404 0,507920359963514 
0,919187675830996 -0,144888618269883 0,793363246970513 0,484145212678306 -0,819056796757065 0,0268899083127689 -0,224940917386646 0,891887044483743 -0,740172824701375 0,301154247159676 
-1,61275471373636 -0,0245845748091039 0,846263436236076 0,205333663073524 -0,84424879953463 0,306163057361805 -1,0237604767991 1,25710397941438 -0,736344888390668 0,322138419697591 
1,00204041384768 -0,221822124836418 -1,2321815786898 -0,659209294724376 0,1479444686081 -0,257039317515231 1,40506109491738 0,874053291917803 0,0637397547549288 -0,95980450881636 
-0,2837584878573 -0,155523743087204 -0,596048611959465 0,0886292583721826 -0,640143051575936 -0,86716337123288 -0,038185723902278 -1,47806756563907 1,30129098504423 -0,410945323021591 
-0,494339558991762 -1,57514666390892 -0,603276812286711 -0,2727011329968 0,00232435343895321 -0,866964792770783 0,237439531477839 0,447398811959847 0,44156618669702 -1,34826287800412 
-0,649029361851993 -0,287167993973553 -0,44011109080683 -0,203785761181631 -0,801120053884164 0,834009800667413 0,0872929604199217 -0,240427458305111 -1,35679925592979 0,437982520758166 
