0,902072456619736 -1,07336666222865 -0,308953399448168 0,618406868362057 1,10214947791451 -0,741439789413214 -1,27270328981974 0,531278708438519 0,660283846329564 -0,342963084272557 
0,127634646257681 0,391269638850945 0,514617940184948 -1,11352850752162 0,17172411947638 0,823954079563708 0,430439488111269 -0,247144719235201 0,0855654119912375 0,457130049740956 
0,538283682213297 0,240588728623273 0,0280026115472439 -0,241953715329037 -1,22122866425814 0,453065074432672 1,64698583912942 1,25722200871828 0,25094503565782 0,475048185720131 
-1,39877103351512 -2,31417487098657 2,37993829237387 0,258811660404229 -0,640072364830911 -0,609306646967449 0,234770989913387 -0,558494532275244 -0,193986147559707 0,638826910876588 
0,102204506160321 -0,0279498449656879 0,181775644040562 -0,642837561500649 0,951487161834951 0,462838630873169 0,98524156491516 -1,39618414070792 0,249338378487312 0,751981357928357 
-1,40718796186996 -1,22501599769854 0,133079703493546 -1,55258186623621 1,51437089680013 0,354483727996463 -0,022369273775895 2,31900031588087 0,146635532620193 0,342084403481839 
-1,38842562854263 -0,143925298538024 -0,0266663272193011 -0,81476433939057 0,0558079492425579 0,748809517244254 -0,29566865352293 0,641806279780719 0,526543857309289 -0,29796923355617 
-1,18281691034968 -0,0900659796134879 -0,360158571675494 -0,860261498885351 -0,724074456419365 0,259233527178985 0,365813084582711 2,36384017304789 -0,193440877163988 0,00893270486869502 
0,467823509517509 0,65716997983734 0,00788363023096861 -0,887036322270537 0,189236147590092 1,51924496418342 -0,754254574480119 0,853520158610083 1,1304407636041 0,698443907172626 
