-0,750296210460968 -0,402005392779599 -1,03356474144597 0,301502249516781 -0,672441619934254 -0,589979500318868 -0,603847939975023 0,087758154476415 1,11355886677492 
-0,330416635936786 -2,15348801943263 -0,206229189679599 -0,250573882191243 0,477058781998725 0,156738062289422 -0,225686282783135 -2,36699397121975 0,112028788361712 
1,94803316411098 -0,947164823276533 1,24587704566674 0,466111707890924 1,0955207482155 0,818948130039008 0,557370533029256 0,986562172876001 2,32487463581696 
0,803530366068487 0,111268789093601 -0,065094297954856 0,200384656526327 0,637147112287649 0,868177608525463 1,13307953882221 0,066245364814645 0,331300661587762 
-0,813152422748577 0,384791164372485 0,752757411042115 -0,894979767159549 1,22049126475653 -0,21087182928383 -1,34493295742009 -0,877636567632499 1,18147521724574 
-0,237677246908507 -0,14492888551854 1,3304273894529 -1,56980429866389 0,201947015338553 1,2074469298024 0,826570693322723 -0,166000435671769 0,249917354085444 
0,522440749929492 -0,137407918351892 0,888473859004897 -0,159512871484977 -0,641868283512475 0,0339962071897444 -0,528854136135827 0,97862169395649 -0,330510634617186 
1,48565316472978 -1,53080129246311 0,288364868279716 -0,0744067982050619 -0,997653421013455 1,41081341718408 -0,481562599298341 0,894466139965442 -0,365785135592234 
-0,947728622680404 0,457012931270531 -1,16765608803306 -1,62225112504943 -0,574955334688982 -0,412842684151997 -1,36252708720673 -0,204952220062237 0,824491058394542 
