0,635703789539032 -0,402005392779599 -0,340564741445968 -0,391497750483219 0,713558380065746 -0,589979500318868 0,0891520600249767 0,780758154476415 -0,272441133225076 
1,05558336406321 -0,0744880194326341 -0,206229189679599 0,442426117808757 1,17005878199872 0,156738062289422 -0,918686282783135 -0,287993971219749 0,805028788361712 
0,562033164110981 -0,254164823276533 -0,140122954333258 -0,226888292109076 -0,290479251784496 0,818948130039008 -0,135629466970744 1,679562172876 0,245874635816959 
0,803530366068487 -0,581731210906399 0,627905702045144 0,200384656526327 -0,0558528877123505 0,868177608525463 -0,252920461177789 0,066245364814645 1,02430066158776 
-0,813152422748577 1,07779116437248 0,0597574110421153 -0,201979767159549 0,527491264756532 0,48212817071617 0,0410670425799059 -0,184636567632499 0,488475217245741 
0,455322753091493 -0,14492888551854 0,637427389452899 -0,876804298663886 0,201947015338553 0,514446929802395 1,51957069332272 -0,166000435671769 0,249917354085444 
0,522440749929492 -0,830407918351892 0,888473859004897 0,533487128515023 -0,641868283512475 -0,659003792810256 0,164145863864173 -0,40737830604351 -0,330510634617186 
0,445912336086814 0,522163330354804 0,897387121463375 -0,784498783659422 0,810328863472831 0,535059490370126 -0,678800645773206 0,079121808092632 -0,145891730275886 
-0,88614049489989 1,26228735177046 0,728062497963692 -0,117064562507935 -1,36274847375869 -0,472160716933739 -1,47435488451522 -0,0954518164952529 0,359654579013425 
