-0,120951599325031 0,185750401838101 1,45297312448918 0,733593714006522 -0,110277004125657 0,440556748509666 -1,12193828023222 -1,63901849650313 0,457515374504735 
0,386829372209883 1,79875123758835 1,01910470182127 0,361132826997029 0,150593171139058 0,785535475777711 -1,27131660917882 0,279404290616235 -0,137470501711811 
0,236987456324039 -0,62402787787096 -0,741356208507137 -0,105354267394335 -0,413216601491075 -0,651474049790983 -0,608854320649455 0,379719043793026 -1,41018008523676 
-0,240162195576896 -0,104226398503048 -0,443603348659167 -0,655697782070701 0,573317646781596 1,61349580156826 0,632773994935571 1,67971201243378 0,617826768019156 
1,09421380275684 -1,24149653949425 1,52099489136226 1,31232647210514 0,386092327249279 0,0384352894813921 0,549922916242817 0,038692745225361 0,42512147660606 
-0,208345571457104 0,0976489840395049 0,61363268253097 -0,525356297798621 1,20123401264298 -0,169018958308277 0,685207943923868 0,836068158600046 0,19829066089694 
1,08347604118962 -1,0945973319307 0,212967003329176 -0,974552825719841 -1,04355196534402 1,20300395208132 0,157736833746422 0,197223915344674 0,158207901999917 
-0,0988812768360978 -0,650472845719416 -0,546566409193243 0,405608900253013 2,11435883206146 0,16388115870528 -0,218291292241445 0,713469588064342 0,520900830110489 
0,727534606925927 -0,0753390157811059 -0,703120205120239 -0,472791497988529 0,423722816362848 0,548090653283564 0,61640447360296 -0,707508749192352 -0,0249299402464787 
