0,595750128662097 -0,653157067030741 0,258998336218297 -0,339896132862147 0,820644318973946 -0,695680852544811 0,0650114673492552 -0,115321230662671 0,835863695403497 
-0,724307496903607 1,21346964202098 0,979558353302795 0,973128252650205 -0,688046643072295 0,980921655884442 0,847724640671035 0,542639002922289 -0,547897319098887 
0,253944928117536 0,846838957558777 0,800099971611099 -0,372129187626824 -0,0346319081287979 -0,995964716186731 0,670144395749152 -0,738391770859431 -0,990831632801253 
0,044258267812085 0,864300111883925 0,993437909518107 0,250024414910481 0,243877221185191 0,113049004745227 1,05821609284227 -0,149040521364678 -1,34125234732044 
-0,469244252350295 -0,08396174221065 -0,504259980984153 0,888659387775073 -0,952433416597747 1,38127455196915 1,00854040001498 -0,749067018623029 0,234944019110382 
-0,671563675181271 0,0382633968434591 0,782263171464793 0,520839405954275 -0,06455455833839 -0,0747210583997523 -0,751123619788384 0,073218495153458 0,773530071495813 
0,968411494670162 -0,914471724030781 -0,0816185668625961 0,145179522757036 -1,57669789248505 1,49621337832288 -0,689574492019403 0,537084546363021 -0,322080293354616 
0,818338232030318 0,854311491294909 0,676073429662303 -0,989840047429241 0,0163638680318203 1,14357764065013 -0,0512665449880373 0,331447061771269 0,139932764586496 
0,066473911374562 0,637749382126028 0,375349372334475 -0,468419051481606 -0,0335069455497461 -0,511242721933519 1,43732260903731 -0,476129077130989 0,158823078744962 
